{"models": [{"sequence": "{\"class_name\": \"Sequential\", \"config\": {\"name\": \"sequential\", \"layers\": [{\"class_name\": \"Dense\", \"config\": {\"name\": \"dense\", \"trainable\": true, \"batch_input_shape\": [null, 100], \"dtype\": \"float32\", \"units\": 5, \"activation\": \"tanh\", \"use_bias\": true, \"kernel_initializer\": {\"class_name\": \"GlorotUniform\", \"config\": {\"seed\": null}}, \"bias_initializer\": {\"class_name\": \"Zeros\", \"config\": {}}, \"kernel_regularizer\": null, \"bias_regularizer\": null, \"activity_regularizer\": null, \"kernel_constraint\": null, \"bias_constraint\": null}}, {\"class_name\": \"Dense\", \"config\": {\"name\": \"dense_1\", \"trainable\": true, \"dtype\": \"float32\", \"units\": 1, \"activation\": \"linear\", \"use_bias\": true, \"kernel_initializer\": {\"class_name\": \"GlorotUniform\", \"config\": {\"seed\": null}}, \"bias_initializer\": {\"class_name\": \"Zeros\", \"config\": {}}, \"kernel_regularizer\": null, \"bias_regularizer\": null, \"activity_regularizer\": null, \"kernel_constraint\": null, \"bias_constraint\": null}}, {\"class_name\": \"Activation\", \"config\": {\"name\": \"activation\", \"trainable\": true, \"dtype\": \"float32\", \"activation\": \"tanh\"}}]}, \"keras_version\": \"2.2.4-tf\", \"backend\": \"tensorflow\"}", "weights": [[[3.3673596382141113, -2.0622398853302, 2.1819846630096436, -2.147552490234375, -2.0456159114837646], [0.9538314938545227, -0.47971126437187195, 0.6837678551673889, -0.6583167314529419, -0.6278152465820312], [0.12469179928302765, 0.05248516798019409, -0.11844699829816818, 0.01303065288811922, 0.23125514388084412], [0.14793643355369568, 0.5396581888198853, 0.11501149833202362, 0.5524669885635376, 0.024553675204515457], [0.12292370945215225, 0.11854470521211624, 0.10053221136331558, 0.06811608374118805, 0.1432483047246933], [0.14244332909584045, -0.03221516311168671, 0.10499868541955948, -0.07579807192087173, -0.18588314950466156], [0.05363531783223152, -0.17516742646694183, 0.09244313091039658, -0.17176733911037445, -0.15102198719978333], [0.2727659046649933, 0.07521197944879532, 0.0955471470952034, -0.10420197993516922, 0.03273387253284454], [0.20127421617507935, -1.1585129499435425, 1.1564537286758423, -1.009429931640625, -1.2207673788070679], [5.471673488616943, -2.037691116333008, 1.933864712715149, -1.8512049913406372, -2.109090566635132], [-2.2917232513427734, 0.15316523611545563, 0.10591151565313339, -0.08785201609134674, -0.24524728953838348], [-56.35588836669922, 2.930943250656128, -1.899510145187378, 1.987621784210205, 1.9536356925964355], [-7.483811855316162, 4.300116062164307, -4.402230739593506, 4.3664469718933105, 4.376587867736816], [238.3892364501953, 6.325833797454834, -6.009922027587891, 6.418051719665527, 6.384340286254883], [23.928579330444336, 3.688586711883545, -3.5053625106811523, 3.560272216796875, 3.6282994747161865], [-0.6855018138885498, 3.7707881927490234, -3.7243921756744385, 3.686209201812744, 3.685394763946533], [-0.6985949873924255, 1.9932185411453247, -2.1733078956604004, 2.0355031490325928, 2.0502471923828125], [-0.7719336152076721, 2.1685900688171387, -2.4498023986816406, 2.2862768173217773, 2.4934184551239014], [-0.9904337525367737, 2.4550859928131104, -2.705738067626953, 2.5611984729766846, 2.5604565143585205], [-0.7493525147438049, 2.3979403972625732, -2.582272529602051, 2.3746848106384277, 3.4589407444000244], [-0.5686030387878418, 1.65420663356781, -1.610629916191101, 1.81546151638031, 1.7075806856155396], [-0.3108186721801758, 1.431644082069397, -1.3316141366958618, 1.4301809072494507, 1.4917783737182617], [-0.3364672362804413, 1.121984601020813, -1.1391551494598389, 1.157996654510498, 1.1893131732940674], [-0.5717927813529968, 1.3598629236221313, -1.4406028985977173, 1.3695895671844482, 1.3703690767288208], [-0.4712197780609131, 1.3334085941314697, -1.411054253578186, 1.5349611043930054, 1.5095096826553345], [-0.5751597285270691, 1.4652296304702759, -1.4956468343734741, 1.4142025709152222, 1.4892301559448242], [0.02359110116958618, 0.41984719038009644, -0.6153815984725952, 0.4753105938434601, 2.300849199295044], [-0.14523304998874664, 0.6867101788520813, -0.7629891633987427, 0.7501814961433411, 0.6193945407867432], [-0.4195497930049896, 0.9859870672225952, -1.0301345586776733, 0.943249523639679, 1.090956211090088], [-0.2937079966068268, 0.8796342611312866, -0.7873314023017883, 0.871303379535675, 0.7602118253707886], [-0.3265480399131775, 1.1492809057235718, -1.2381641864776611, 1.143628716468811, 1.2824450731277466], [-0.11184488981962204, 0.9294144511222839, -1.1041938066482544, 1.036559820175171, 1.0779026746749878], [-0.05166345834732056, 0.6806155443191528, -0.6400653123855591, 0.5004879832267761, 0.6622447371482849], [-0.36686262488365173, 0.9390397667884827, -0.8345872759819031, 0.8888629674911499, 0.9970871806144714], [-0.035324838012456894, 0.6808654069900513, -0.5066656470298767, 0.5656195282936096, 0.6264367699623108], [-0.07183662056922913, 0.2863014042377472, -0.6872684955596924, 0.5616952180862427, 0.6854411959648132], [0.023579295724630356, 0.49021103978157043, -0.5841124653816223, 0.6064168810844421, 0.6597336530685425], [-0.2239261269569397, 0.6875697374343872, -0.8501527309417725, 0.8109273910522461, 0.9048330783843994], [1.9652268886566162, 0.43727371096611023, -0.2372208535671234, 0.24027834832668304, 0.37142258882522583], [0.3540093004703522, 0.6431524753570557, -0.4529244303703308, 0.4154175817966461, 0.4627552628517151], [0.10157498717308044, 0.4541271924972534, -0.46652692556381226, 0.5288015007972717, 0.4762515425682068], [-0.0472295768558979, 0.3779536783695221, -0.4378315806388855, 0.4328177571296692, 0.4325876533985138], [-0.10854905098676682, 0.32298752665519714, -0.5341199040412903, 0.33573034405708313, 0.5053542852401733], [-6.528909206390381, 0.1940022110939026, -0.32230648398399353, 0.3299432098865509, 0.30256161093711853], [0.4770190119743347, -0.3520684540271759, 0.5129676461219788, -0.4288945496082306, -0.47468701004981995], [-5.920959949493408, 0.4393394887447357, -0.21320122480392456, 0.31871163845062256, 0.2963486909866333], [-0.02509407512843609, 0.23620043694972992, -0.059549931436777115, 0.05238587036728859, 0.2587302625179291], [0.22881318628787994, 0.15122626721858978, 0.08367621153593063, 0.11161775141954422, 0.09204568713903427], [0.006710990332067013, 0.36370429396629333, -0.27304521203041077, 0.3658129870891571, 0.10675150901079178], [0.0423034206032753, 0.2137497365474701, -0.01009787991642952, 0.13098779320716858, 0.23103202879428864], [0.14291903376579285, 0.032892245799303055, -0.23602382838726044, 0.20487791299819946, 0.14975279569625854], [0.0028798754792660475, 0.43780162930488586, -0.341096967458725, 0.31112128496170044, 0.2691170573234558], [-0.06435569375753403, 0.358362078666687, -0.3086916208267212, 0.27915164828300476, 0.4239700436592102], [-0.09297280013561249, 0.3809700608253479, -0.3472224175930023, 0.353778213262558, 0.25140300393104553], [-0.01750238984823227, 0.25069960951805115, -0.3764722943305969, 0.3688020706176758, 0.23678719997406006], [0.16881519556045532, 0.18334415555000305, -0.22513264417648315, 0.07108382135629654, 0.13798175752162933], [0.013577342964708805, 0.11974256485700607, -0.10309196263551712, 0.27720776200294495, 0.2639019191265106], [0.3107413947582245, -0.1486794501543045, 0.0815345048904419, -0.21031315624713898, 0.09032312035560608], [0.5289624929428101, -0.789038360118866, 0.6847986578941345, -0.6032363772392273, -0.6554651856422424], [0.05295141041278839, 0.17166413366794586, -0.2124079018831253, 0.0506373792886734, 0.15702813863754272], [0.002214140724390745, 0.04614442586898804, -0.007125559262931347, 0.21133626997470856, 0.1864757388830185], [0.7793008685112, -0.13616326451301575, 0.2023378312587738, -0.19123466312885284, -0.12346725910902023], [0.18886373937129974, 0.15864013135433197, -0.12009096145629883, 0.13970975577831268, 0.044918108731508255], [0.1399174928665161, 0.13319332897663116, -0.30767735838890076, 0.12329836189746857, 0.24728088080883026], [0.6809924244880676, -0.9418767690658569, 1.0986933708190918, -1.0521756410598755, -1.1188005208969116], [0.42242231965065, -0.4598008692264557, 0.41850510239601135, -0.35878661274909973, -0.38047513365745544], [0.23942527174949646, 0.17115722596645355, -0.09262259304523468, 0.16087280213832855, 0.036939334124326706], [0.17712023854255676, 0.04908979684114456, -0.19774480164051056, 0.05987543240189552, 0.24591459333896637], [0.19137126207351685, -0.3070511221885681, 0.3572198152542114, -0.31787461042404175, -0.2568366229534149], [0.30833229422569275, -0.46989622712135315, 0.5051928758621216, -0.4419977366924286, -0.43444153666496277], [0.5223438739776611, -0.2992255389690399, 0.33715784549713135, -0.2635335624217987, -0.2768213152885437], [0.2528019845485687, 0.0446004793047905, -0.02062220871448517, 0.10338404029607773, 0.12258082628250122], [0.03141295164823532, -0.3222765326499939, 0.31153354048728943, -0.2344905287027359, -0.23953522741794586], [-0.2613995373249054, 0.027071138843894005, 0.053906094282865524, -0.15982739627361298, -0.1821790635585785], [0.002613998018205166, 0.5913528203964233, -0.4416230022907257, 0.55088210105896, 0.5271991491317749], [-0.12414177507162094, 0.5946903824806213, -0.6985936760902405, 0.6106911301612854, 0.8022661209106445], [-0.1906363070011139, 0.8207100629806519, -0.7678687572479248, 0.7485193610191345, 1.0044928789138794], [0.15977433323860168, 0.5013989806175232, -0.4290647804737091, 0.5122960805892944, 0.4672382175922394], [-0.010347102768719196, 0.24765194952487946, -0.3711625337600708, 0.45970186591148376, 0.41317373514175415], [0.1317352056503296, 0.07745945453643799, -0.15430736541748047, 0.2425527274608612, 0.10818641632795334], [-2.0228161811828613, 4.8783698081970215, -4.864480495452881, 4.819601535797119, 4.848023891448975], [-0.733443558216095, 1.909494161605835, -1.9816323518753052, 2.057878017425537, 1.9197083711624146], [-0.5982164740562439, 1.50694739818573, -1.3885812759399414, 1.310017704963684, 1.2731341123580933], [0.9739988446235657, 0.8237159252166748, -1.0061266422271729, 0.9128594994544983, 0.8431903719902039], [-0.08812043070793152, 0.681323766708374, -0.4656505584716797, 0.5672999620437622, 0.5690756440162659], [-0.0462716706097126, 0.6196965575218201, -0.6132838129997253, 0.7760669589042664, 0.8230016827583313], [0.14372354745864868, 0.6132150292396545, -0.5853897333145142, 0.5864931344985962, 0.5954012274742126], [0.2767515778541565, -0.29694995284080505, 0.27578455209732056, -0.24902451038360596, -0.27462753653526306], [-0.5808297991752625, 1.573716402053833, -1.6483615636825562, 1.663435697555542, 1.6079009771347046], [1.0944346189498901, 1.286145567893982, -1.1072192192077637, 1.207999348640442, 1.28499174118042], [0.5372741222381592, 0.42683544754981995, -0.23469579219818115, 0.3486822843551636, 0.4452112317085266], [0.26997098326683044, -0.18397630751132965, 0.13465337455272675, -0.16429470479488373, -0.2728967070579529], [33.65594482421875, 1.587890386581421, -1.596671462059021, 1.6904305219650269, 1.7170624732971191], [-0.10441919416189194, 0.8797012567520142, -0.9030832052230835, 1.0178347826004028, 1.031516432762146], [0.10954698920249939, 0.24249505996704102, -0.21226856112480164, 0.24724605679512024, 0.27498331665992737], [0.39139625430107117, -0.3894813060760498, 0.28404566645622253, -0.39276033639907837, -0.19250011444091797], [-0.5889819264411926, 1.8243526220321655, -1.6349564790725708, 1.8282784223556519, 1.8049074411392212], [-0.13627903163433075, 0.7878984808921814, -0.6653254628181458, 0.7873908877372742, 0.6921998858451843], [0.031897131353616714, 0.34737083315849304, -0.3474262058734894, 0.34983429312705994, 0.4936983585357666], [0.402034729719162, -0.28171148896217346, 0.2672330141067505, -0.28356850147247314, -0.2593942880630493]], [-0.2670447528362274, -0.05183012783527374, -0.04433061555027962, -0.01940568909049034, 0.12205582112073898], [[0.26210880279541016], [-1.2625597715377808], [1.5303987264633179], [-1.5684280395507812], [-1.0793853998184204]], [-0.06483051925897598]], "etBin": [0.0, 20.0], "etaBin": [0.0, 0.8]}, {"sequence": "{\"class_name\": \"Sequential\", \"config\": {\"name\": \"sequential_1\", \"layers\": [{\"class_name\": \"Dense\", \"config\": {\"name\": \"dense_2\", \"trainable\": true, \"batch_input_shape\": [null, 100], \"dtype\": \"float32\", \"units\": 5, \"activation\": \"tanh\", \"use_bias\": true, \"kernel_initializer\": {\"class_name\": \"GlorotUniform\", \"config\": {\"seed\": null}}, \"bias_initializer\": {\"class_name\": \"Zeros\", \"config\": {}}, \"kernel_regularizer\": null, \"bias_regularizer\": null, \"activity_regularizer\": null, \"kernel_constraint\": null, \"bias_constraint\": null}}, {\"class_name\": \"Dense\", \"config\": {\"name\": \"dense_3\", \"trainable\": true, \"dtype\": \"float32\", \"units\": 1, \"activation\": \"linear\", \"use_bias\": true, \"kernel_initializer\": {\"class_name\": \"GlorotUniform\", \"config\": {\"seed\": null}}, \"bias_initializer\": {\"class_name\": \"Zeros\", \"config\": {}}, \"kernel_regularizer\": null, \"bias_regularizer\": null, \"activity_regularizer\": null, \"kernel_constraint\": null, \"bias_constraint\": null}}, {\"class_name\": \"Activation\", \"config\": {\"name\": \"activation_1\", \"trainable\": true, \"dtype\": \"float32\", \"activation\": \"tanh\"}}]}, \"keras_version\": \"2.2.4-tf\", \"backend\": \"tensorflow\"}", "weights": [[[1.2840709686279297, -1.3969467878341675, 1.4198896884918213, -3.4317924976348877, -1.2459572553634644], [1.0852738618850708, -1.0588984489440918, 1.1724351644515991, -2.387251138687134, -56.96366882324219], [-1.369315505027771, 1.201957106590271, -1.2676851749420166, -1.1785171031951904, -0.7495980262756348], [-1.0972867012023926, 1.0305925607681274, -1.0225167274475098, 0.16945688426494598, 0.011348708532750607], [-1.0591846704483032, 0.5654529929161072, -1.1697516441345215, 0.023112919181585312, 0.11209464818239212], [-0.5868259072303772, 0.7016580104827881, -0.652888298034668, 0.125418558716774, 9.955830574035645], [-0.5033472180366516, 0.5683532357215881, -0.4285288155078888, -0.058877550065517426, -0.06092618405818939], [0.45805636048316956, -0.4255702793598175, 0.46871963143348694, -0.1212882325053215, -13.085612297058105], [3.0219221115112305, -0.6322590708732605, 6.038356304168701, -0.5480054020881653, -0.2878324091434479], [6.521931171417236, -6.661533355712891, 7.608031272888184, -1.3482944965362549, -0.2512703537940979], [0.7696393132209778, -0.8094892501831055, 0.7189407348632812, -0.5728951096534729, -0.49577951431274414], [-1.1207029819488525, 1.136033058166504, -0.7749762535095215, 4.2049431800842285, 1.1158549785614014], [-9.013591766357422, 8.776829719543457, -8.64765739440918, 4.665281772613525, 7.858916759490967], [-8.786622047424316, 8.133058547973633, -8.643425941467285, 7.559491157531738, 7.4706292152404785], [-16.484954833984375, 15.86755084991455, -16.62508201599121, -1.0751097202301025, 1.018741250038147], [-8.003006935119629, 11.914630889892578, -7.422845363616943, 4.99504280090332, -7.3854756355285645], [-11.550616264343262, 11.58179759979248, -7.396313190460205, 3.9325902462005615, -2.5500779151916504], [-7.426932334899902, 7.319742679595947, -7.358218669891357, 5.595550060272217, 0.9552017450332642], [-14.481563568115234, 7.704929828643799, -20.10141372680664, 5.287074089050293, 0.4499334692955017], [-9.667226791381836, 4.131524562835693, -9.51939582824707, 0.6213304996490479, -0.04558247700333595], [-6.513081073760986, 6.025197505950928, -6.677906036376953, 1.1315468549728394, 0.29995816946029663], [-14.283663749694824, 8.556721687316895, -8.46608829498291, 0.9817242622375488, 0.3665873110294342], [-7.581745624542236, 6.642760276794434, -6.1652679443359375, 0.4577907621860504, 0.10671399533748627], [-3.855841875076294, 4.042305946350098, -4.059062480926514, -3.5285890102386475, -1.1987484693527222], [-6.146892547607422, 8.797414779663086, -4.127655982971191, 0.7720510959625244, -0.5400920510292053], [-4.966252326965332, 4.97426700592041, -4.611688613891602, -0.01893536001443863, -0.6814135909080505], [-3.899606227874756, 3.0041821002960205, -4.166707992553711, 0.10369762778282166, 0.13564755022525787], [-8.743027687072754, 4.278590679168701, -8.83194637298584, 0.7110373973846436, 0.1608869880437851], [-9.825140953063965, 3.5625953674316406, -5.011529445648193, 0.6112645268440247, -104.66850280761719], [-4.15073299407959, 4.250214099884033, -4.232881546020508, 0.5180173516273499, -169.39642333984375], [-3.7676351070404053, 3.4392945766448975, -3.480527639389038, 0.6054081916809082, 0.07884839177131653], [-8.134994506835938, 3.757570505142212, -8.003325462341309, 0.5625311136245728, -102.97691345214844], [-1.7930970191955566, 1.6601496934890747, -1.9020739793777466, 0.1062650978565216, 0.02893991209566593], [-2.957526445388794, 2.351585865020752, -5.648332118988037, 0.3081289827823639, 0.05247867479920387], [-7.309337139129639, 6.8001484870910645, -7.834463119506836, 0.3381759226322174, 0.07826483249664307], [-2.869568347930908, 2.0337579250335693, -3.0236034393310547, 0.030843429267406464, 0.022828275337815285], [-1.2411209344863892, 0.347318559885025, -1.3015278577804565, -1.1930210590362549, -0.11322685331106186], [-0.4964625835418701, 0.35584232211112976, -0.5348185300827026, -0.6945692300796509, -0.13274729251861572], [-0.6609916090965271, 0.5493640899658203, -0.575002133846283, 0.14775222539901733, 0.01461065374314785], [-8.12388801574707, 3.4181058406829834, -8.022153854370117, 0.17419017851352692, 0.1906159669160843], [0.07207289338111877, -1.800899624824524, 0.053185638040304184, -1.1252453327178955, -0.2515842914581299], [-0.7860850691795349, 0.8725427985191345, -1.0732767581939697, -0.16901077330112457, 0.07994776964187622], [-0.11284670233726501, -0.6859787106513977, -1.2053927183151245, -0.7228468060493469, -0.07447956502437592], [-1.487958312034607, 0.375021368265152, -14.197378158569336, -0.6231184005737305, -0.002124455524608493], [-0.020855560898780823, -0.017898498103022575, 0.12662771344184875, -0.2387773096561432, -0.06016562134027481], [-0.8731772303581238, -0.76921546459198, -0.7601639628410339, 0.02976912632584572, 0.022761227563023567], [-0.8096827268600464, 1.0174942016601562, -0.9760968089103699, 0.2557046711444855, 0.1023334488272667], [0.0732320249080658, -0.204852893948555, 0.1690288484096527, -0.11299484223127365, 0.03907359391450882], [-0.3150261640548706, -0.18405576050281525, -0.44749560952186584, -1.6002718210220337, -0.32530465722084045], [0.02905810996890068, -0.04502330720424652, -0.09660908579826355, 0.08276022225618362, -0.023200180381536484], [-0.995207667350769, 1.0492870807647705, -0.8458526134490967, 0.10218506306409836, 0.17184220254421234], [-1.0919345617294312, 1.1943683624267578, -1.0971641540527344, 0.35337337851524353, -0.8465481400489807], [-0.15127159655094147, 0.16519154608249664, -0.15835420787334442, -0.09017346054315567, -0.026417547836899757], [-1.3341938257217407, 1.198194146156311, -1.3222320079803467, 0.3069175183773041, 0.05951248109340668], [-0.8651060461997986, 0.9113389253616333, -0.7642360329627991, 0.125926673412323, 0.0580524280667305], [-0.3385183811187744, 0.2884261906147003, -0.14284765720367432, 0.1369849443435669, 0.16763614118099213], [-1.0255811214447021, 0.8527284860610962, -1.093598484992981, -0.06943865865468979, -0.5651357173919678], [-1.0689022541046143, 0.9921883940696716, -1.0231292247772217, 0.30263787508010864, 0.18924766778945923], [-1.055164098739624, 1.1452449560165405, -1.1242387294769287, 0.1388980746269226, -0.04362701624631882], [-1.282610297203064, 1.091947317123413, -1.3498948812484741, 0.3707877993583679, 56.32249069213867], [-1.202532172203064, 1.2275621891021729, -1.354475498199463, 0.18670988082885742, 0.03974832594394684], [-1.0187021493911743, 1.0474659204483032, -0.9810306429862976, 0.29261356592178345, 0.09963121265172958], [-0.0031027160584926605, -0.02204449288547039, 0.04331092908978462, 0.009834211319684982, -0.0235025342553854], [0.4577540159225464, -0.3030826449394226, 0.1815822720527649, -0.10565973073244095, 0.0804140567779541], [1.0728589296340942, -1.834603190422058, 1.2831919193267822, -0.3551506996154785, 60.060550689697266], [-1.665403127670288, 2.953547477722168, -2.0378880500793457, 0.23803870379924774, 0.12103980034589767], [0.27040785551071167, -0.25386515259742737, 0.20876015722751617, -0.1629188060760498, 0.1095990240573883], [1.377341628074646, -3.2523655891418457, 1.4835833311080933, -0.8372681736946106, 0.0033664556685835123], [-1.037282943725586, 0.9597296714782715, -0.8552014231681824, 0.26768946647644043, -41.487667083740234], [-1.1434032917022705, 1.0528501272201538, -1.1035544872283936, 0.1463763266801834, 0.022729652002453804], [-1.0827538967132568, 1.0732698440551758, -1.0856980085372925, 0.19380158185958862, 0.1605251133441925], [-0.23808342218399048, 0.29469817876815796, -0.313055157661438, -0.025454001501202583, -27.0974178314209], [0.2897590100765228, -0.2843596339225769, 0.472921222448349, -0.16451886296272278, 0.06675954163074493], [0.23347310721874237, 0.08665354549884796, 0.016651004552841187, 0.10199533402919769, 0.3092840015888214], [-1.439068078994751, 1.3373972177505493, -1.32878577709198, -0.19431482255458832, 3.8759312629699707], [-2.127610206604004, 2.6264841556549072, -1.4505106210708618, 0.2841373085975647, -0.061421528458595276], [-2.681788444519043, 2.9760782718658447, -2.7862777709960938, -1.5142260789871216, -0.3207261264324188], [-1.8412806987762451, 1.5219119787216187, -1.927201271057129, -0.15219049155712128, 0.06679592281579971], [-0.6987819075584412, 0.28468286991119385, -1.9413669109344482, 0.0282551571726799, 0.15752357244491577], [-0.674576461315155, 0.65105801820755, -0.671669065952301, -0.29358410835266113, -0.27046674489974976], [-18.550996780395508, 29.478986740112305, -19.203067779541016, -15.149063110351562, 0.6729123592376709], [-35.748653411865234, 19.256484985351562, -43.51567459106445, -51.47811508178711, 15.326720237731934], [-5.584532737731934, 3.654445171356201, -5.260374546051025, -2.3692684173583984, -0.3765791356563568], [-4.5014142990112305, 3.2975962162017822, -3.8644309043884277, -2.042296886444092, -0.45191535353660583], [-1.9423075914382935, 1.9612878561019897, -1.9614670276641846, 0.25086161494255066, 0.03407667577266693], [-1.8683924674987793, 1.9934256076812744, -2.033909559249878, 0.07330512255430222, 0.11166712641716003], [-2.301374912261963, 2.1262357234954834, -2.29429030418396, 0.3385659158229828, 0.04790399968624115], [-2.0529160499572754, 2.747645616531372, -1.7797765731811523, 0.4951131045818329, 7.216158866882324], [-3.8626766204833984, 2.1848957538604736, -5.82073974609375, -1.3850706815719604, -6.869367599487305], [-1.3899667263031006, 0.9484288692474365, -3.339376926422119, -0.48017585277557373, -0.8730899691581726], [-0.4271785020828247, 0.42111948132514954, -0.2603709101676941, 0.2557167112827301, 0.1303199678659439], [0.06509584188461304, 0.011531686410307884, -0.09782269597053528, -0.26179957389831543, 0.4529549777507782], [-5.1670026779174805, 1.7289865016937256, -7.246058464050293, -4.3300371170043945, -7.460299015045166], [-7.045017242431641, 4.474213600158691, -7.146083831787109, -6.841148376464844, -4.544906139373779], [-0.6467087864875793, 0.5794274806976318, -0.7044716477394104, -0.3751208782196045, -0.011660169810056686], [-0.08863567560911179, 0.14325931668281555, -0.05370618402957916, -0.09754855930805206, -0.3016832172870636], [0.6757574081420898, -0.6980209946632385, -0.5264856219291687, -0.39967072010040283, -3.282896041870117], [-4.818759441375732, 1.689314842224121, -9.590896606445312, -4.620398044586182, -3.0215036869049072], [-1.6520500183105469, 1.680753231048584, -1.8590527772903442, 0.3564530909061432, 0.21493300795555115], [-0.1650698035955429, 0.43043363094329834, -0.3807181715965271, 0.20330394804477692, -0.25750163197517395]], [0.07912710309028625, -0.16592642664909363, 0.055430684238672256, -0.014784482307732105, -0.11522287130355835], [[1.067456841468811], [-0.8189592361450195], [0.5232970118522644], [-1.397671103477478], [-0.22574138641357422]], [-0.12357601523399353]], "etBin": [0.0, 20.0], "etaBin": [0.8, 1.37]}, {"sequence": "{\"class_name\": \"Sequential\", \"config\": {\"name\": \"sequential_2\", \"layers\": [{\"class_name\": \"Dense\", \"config\": {\"name\": \"dense_4\", \"trainable\": true, \"batch_input_shape\": [null, 100], \"dtype\": \"float32\", \"units\": 7, \"activation\": \"tanh\", \"use_bias\": true, \"kernel_initializer\": {\"class_name\": \"GlorotUniform\", \"config\": {\"seed\": null}}, \"bias_initializer\": {\"class_name\": \"Zeros\", \"config\": {}}, \"kernel_regularizer\": null, \"bias_regularizer\": null, \"activity_regularizer\": null, \"kernel_constraint\": null, \"bias_constraint\": null}}, {\"class_name\": \"Dense\", \"config\": {\"name\": \"dense_5\", \"trainable\": true, \"dtype\": \"float32\", \"units\": 1, \"activation\": \"linear\", \"use_bias\": true, \"kernel_initializer\": {\"class_name\": \"GlorotUniform\", \"config\": {\"seed\": null}}, \"bias_initializer\": {\"class_name\": \"Zeros\", \"config\": {}}, \"kernel_regularizer\": null, \"bias_regularizer\": null, \"activity_regularizer\": null, \"kernel_constraint\": null, \"bias_constraint\": null}}, {\"class_name\": \"Activation\", \"config\": {\"name\": \"activation_2\", \"trainable\": true, \"dtype\": \"float32\", \"activation\": \"tanh\"}}]}, \"keras_version\": \"2.2.4-tf\", \"backend\": \"tensorflow\"}", "weights": [[[0.6082155108451843, 1.4541912078857422, -1.376448154449463, 0.20723062753677368, -1.401808500289917, -1.5787725448608398, 1.393775224685669], [0.17843025922775269, 0.42770442366600037, -0.84256911277771, 0.13060979545116425, -0.34839674830436707, -0.5754311680793762, 0.40133580565452576], [-0.3195284903049469, -1.190398931503296, 1.2216160297393799, -0.3307965397834778, 1.725487232208252, 1.3298282623291016, -1.289665937423706], [0.07830947637557983, -0.4321627914905548, 0.37077900767326355, 0.005943688564002514, 0.42610791325569153, 0.4691806137561798, -0.33737942576408386], [-0.10298940539360046, -0.6701197028160095, 0.6291908025741577, -0.07701921463012695, 0.8032945990562439, 0.7240164875984192, -0.6293980479240417], [-0.02618473768234253, -0.5708443522453308, 0.6314243674278259, -0.1646670699119568, 0.5802188515663147, 0.5873546004295349, -0.5930308699607849], [0.4433056116104126, 0.3440453112125397, -0.3209051191806793, 0.023533403873443604, -0.4732583165168762, -0.5357930064201355, 0.5006795525550842], [0.2398785650730133, 0.4273812174797058, -0.4708152413368225, 0.00949318241328001, -0.2455330193042755, -0.3020627200603485, 0.41253501176834106], [0.6462109088897705, 1.5996659994125366, -1.4574888944625854, 0.29298606514930725, -1.543483853340149, -1.5312119722366333, 1.6107817888259888], [0.8262788653373718, 2.1400399208068848, -2.2701950073242188, 0.4373524487018585, -2.2145028114318848, -2.214555501937866, 2.1423304080963135], [1.1979061365127563, 3.2249841690063477, -3.0601234436035156, 0.6246978044509888, -3.1212158203125, -3.2186059951782227, 3.1526830196380615], [0.7139109969139099, 0.4971989095211029, -0.6241142749786377, 0.16834281384944916, -0.2986125946044922, -0.2967897951602936, 0.30462637543678284], [-0.27942323684692383, 0.036832645535469055, 0.023812023922801018, 0.23981405794620514, 0.03427885100245476, 0.06499958783388138, 0.021282603964209557], [1.2990344762802124, 3.025660276412964, -2.944216012954712, 0.5151264071464539, -1.2613805532455444, -1.1905158758163452, 1.2505186796188354], [0.09183527529239655, 0.06748699396848679, -0.1426306515932083, 0.8311004042625427, -0.012070699594914913, -0.1532062292098999, 0.06793147325515747], [-0.802402913570404, -0.24733838438987732, 0.1457746922969818, -0.1507294774055481, 0.2756211459636688, 0.2867893576622009, -0.30367693305015564], [-1.1076008081436157, -0.31657347083091736, 0.38303932547569275, -1.7565923929214478, 0.4277261197566986, 0.4273736774921417, -0.33096614480018616], [-1.5140658617019653, -3.59490704536438, 3.5907833576202393, -0.7562346458435059, 3.670729875564575, 3.7311761379241943, -3.5288140773773193], [-1.5180435180664062, -4.778449058532715, 3.608314037322998, -0.8329572081565857, 4.647197723388672, 4.75593376159668, -4.6220502853393555], [-1.354502558708191, -3.224289655685425, 3.0780112743377686, -0.6251770853996277, 3.1668708324432373, 3.1178205013275146, -3.1251184940338135], [-1.605154037475586, -3.8114447593688965, 3.6524386405944824, -0.811134934425354, 3.739192485809326, 3.77095365524292, -3.711552143096924], [-0.7844825387001038, -2.391815185546875, 2.3631937503814697, -0.5067384243011475, 2.2916157245635986, 2.269650936126709, -2.234269142150879], [-2.9650983810424805, -7.019505500793457, 6.8998823165893555, -1.4500247240066528, 6.935439109802246, 7.02985954284668, -6.99775505065918], [-2.628059148788452, -5.8792243003845215, 5.90760612487793, -1.189987301826477, 5.958611965179443, 5.989804744720459, -5.924623012542725], [-1.8882232904434204, -4.567257404327393, 4.6099772453308105, -0.9676710367202759, 4.648622512817383, 4.673294544219971, -4.531557559967041], [-1.3506386280059814, -3.028676986694336, 3.0846009254455566, -0.749968409538269, 3.051645278930664, 3.02964448928833, -3.1729044914245605], [-0.7676552534103394, -1.9657220840454102, 1.9282031059265137, -0.38654759526252747, 2.037191152572632, 2.0785577297210693, -2.1206459999084473], [-0.7528494596481323, -2.2749814987182617, 2.0494322776794434, -0.5726672410964966, 2.322566509246826, 2.262686252593994, -2.267914295196533], [-1.7482634782791138, -4.020899772644043, 3.9385886192321777, -0.9050499200820923, 4.0714111328125, 3.977837085723877, -3.932173728942871], [-0.4779084324836731, -1.7698034048080444, 1.553611397743225, -0.3839188516139984, 1.7514649629592896, 1.5650893449783325, -1.7359448671340942], [-0.588436484336853, -1.6078064441680908, 1.6688551902770996, -0.3207551836967468, 1.616678237915039, 1.7134850025177002, -1.623079776763916], [-0.748145580291748, -1.8770465850830078, 1.820741891860962, -0.4616815745830536, 1.7245471477508545, 1.7031044960021973, -1.7905054092407227], [-0.7978420853614807, -2.050018072128296, 1.9241001605987549, -0.3826758861541748, 1.8891494274139404, 1.9378184080123901, -1.8259880542755127], [-0.2339266836643219, -0.6397398710250854, 0.7313339114189148, -0.05906018987298012, 0.741029679775238, 0.644476056098938, -0.7577072978019714], [-0.7161579728126526, -1.7021700143814087, 1.5873929262161255, -0.46358925104141235, 1.7990082502365112, 1.5715445280075073, -1.7709428071975708], [-0.2543729245662689, -0.586462140083313, 0.6595460176467896, -0.1513640433549881, 0.5498887300491333, 0.5344549417495728, -0.571804404258728], [-1.1823596954345703, -3.0760860443115234, 3.2371129989624023, -0.7426140308380127, 3.1778712272644043, 3.103631019592285, -3.212656021118164], [-0.5065888166427612, -1.160880446434021, 1.13019859790802, -0.30371540784835815, 1.1777671575546265, 1.1380014419555664, -1.0754153728485107], [-0.45095130801200867, -1.1986069679260254, 1.2245787382125854, -0.20845502614974976, 1.2056488990783691, 1.3827791213989258, -1.3195383548736572], [-0.22421123087406158, -0.9620072245597839, 1.1200551986694336, -0.20551370084285736, 1.227299690246582, 1.1501541137695312, -1.1894915103912354], [0.35502487421035767, 0.3454264998435974, -0.567314863204956, 0.13597431778907776, -0.4522644877433777, -0.5084953904151917, 0.43557876348495483], [-0.5659424662590027, -1.5656163692474365, 1.5136137008666992, -0.4231657385826111, 1.540346622467041, 1.3987922668457031, -1.3915925025939941], [-0.704033374786377, -1.7513700723648071, 1.9275399446487427, -0.44917917251586914, 1.865681767463684, 1.8347198963165283, -1.856456995010376], [-0.6113553047180176, -1.8260762691497803, 1.9084351062774658, -0.41175201535224915, 1.7814712524414062, 1.7711386680603027, -1.7478907108306885], [-0.4954768419265747, -1.6314122676849365, 1.6637649536132812, -0.4585806727409363, 1.6006181240081787, 1.7512223720550537, -1.6939020156860352], [-0.33632969856262207, -0.6881445050239563, 0.792081892490387, -0.10971098393201828, 0.7332621812820435, 0.8246635794639587, -0.6734519004821777], [-0.11597847938537598, -0.6791915893554688, 0.6967334151268005, -0.1000029444694519, 0.671748161315918, 0.6574063301086426, -0.6609280109405518], [0.812326192855835, 1.297281265258789, -1.4443185329437256, 0.3228999078273773, -1.2102973461151123, -1.3091392517089844, 1.2190687656402588], [-0.4145667552947998, -1.1957062482833862, 1.292608618736267, -0.31338003277778625, 1.0756794214248657, 1.228279709815979, -1.1329294443130493], [-0.18536879122257233, -1.3272981643676758, 1.2576680183410645, -0.2153724581003189, 1.1797237396240234, 1.2892956733703613, -1.1490514278411865], [-0.31369221210479736, -1.2492940425872803, 1.2018342018127441, -0.2959315776824951, 1.2719156742095947, 1.3734859228134155, -1.2270556688308716], [0.6299241185188293, 0.9971201419830322, -1.056312918663025, 0.211595356464386, -0.9340070486068726, -0.9987392425537109, 0.9096924066543579], [-0.25873109698295593, -1.1313871145248413, 1.0360468626022339, -0.31052687764167786, 1.1390057802200317, 0.9775190353393555, -1.035544991493225], [0.14355851709842682, 0.06591273844242096, 0.056188538670539856, 0.07159316539764404, -0.13591796159744263, 0.07488124817609787, 0.11353547126054764], [-0.17016950249671936, -0.929908812046051, 0.898325502872467, -0.24416296184062958, 0.8170205354690552, 1.0347133874893188, -1.0663193464279175], [-0.295777291059494, -0.9145772457122803, 0.8648684024810791, -0.2044002264738083, 0.9946828484535217, 0.8730454444885254, -1.033132791519165], [-1.2244040966033936, -3.117928981781006, 3.006770610809326, -0.5639364719390869, 3.079771041870117, 3.0194759368896484, -3.2181167602539062], [-0.17311634123325348, -0.7326276302337646, 0.6606142520904541, -0.09799487888813019, 0.7000843286514282, 0.7100498676300049, -0.77386474609375], [0.6202036738395691, 1.2677202224731445, -1.2249925136566162, 0.23942892253398895, -1.1489086151123047, -1.0813322067260742, 1.159816026687622], [0.7425138354301453, 0.9631000757217407, -0.9676150679588318, 0.3118206560611725, -0.9418691992759705, -1.1109144687652588, 1.00986909866333], [1.0324679613113403, 1.953431487083435, -1.9980342388153076, 0.35467055439949036, -2.0131924152374268, -1.9405081272125244, 1.9496359825134277], [0.6964510679244995, 0.6898360252380371, -0.5889706611633301, 0.049125559628009796, -0.5532739162445068, -0.6379845142364502, 0.5630748271942139], [-0.19208842515945435, -0.6151981353759766, 0.5572925209999084, -0.2214128077030182, 0.47505348920822144, 0.5336569547653198, -0.47830730676651], [0.7901965975761414, 1.2997758388519287, -1.2266972064971924, 0.3560704290866852, -1.2650129795074463, -1.392756700515747, 1.2699165344238281], [0.7050331234931946, 1.0819119215011597, -1.1330547332763672, 0.34974682331085205, -1.4687498807907104, -1.2655389308929443, 1.4565781354904175], [-0.2269964963197708, -0.642461895942688, 0.7133787870407104, -0.24338498711585999, 0.5902739763259888, 0.6705100536346436, -0.5707573890686035], [-0.044751863926649094, -0.5947243571281433, 0.4972846210002899, -0.14789210259914398, 0.6017927527427673, 0.4434378743171692, -0.6135095953941345], [1.4271377325057983, 2.9187188148498535, -2.8059229850769043, 0.48891982436180115, -2.8433523178100586, -2.834585666656494, 2.79110050201416], [-0.0017252007964998484, -0.2658482491970062, 0.2450316697359085, -0.08296819031238556, 0.18128527700901031, 0.20534320175647736, -0.10628215223550797], [-0.1475556194782257, -0.3489200472831726, 0.28113001585006714, -0.2551254332065582, 0.5012630820274353, 0.2709447741508484, -0.36789363622665405], [0.18434955179691315, 0.189202219247818, -0.019716177135705948, 0.06281325966119766, -0.20238199830055237, -0.25558343529701233, 0.182643324136734], [-0.09566570818424225, -0.6686703562736511, 0.669567883014679, -0.24814319610595703, 0.7970823049545288, 0.7497320175170898, -0.7334696054458618], [0.19506533443927765, 0.600813627243042, -0.6046996116638184, 0.03882713243365288, -0.4548192620277405, -0.6053979396820068, 0.5057666897773743], [-0.09306216239929199, 0.08233436942100525, 0.019719218835234642, 0.374172568321228, 0.027676409110426903, -0.071684330701828, -0.03287505730986595], [-0.35245925188064575, 0.040341559797525406, 0.04582596197724342, 0.1058463305234909, -0.029833916574716568, -0.07233937084674835, -0.13194875419139862], [-0.884550929069519, -2.599616289138794, 2.512176513671875, -0.6370549201965332, 2.7236952781677246, 2.708543539047241, -2.5070557594299316], [-0.7653393149375916, -2.1940364837646484, 2.1564252376556396, -0.4210508167743683, 2.1081981658935547, 2.1009910106658936, -2.312588691711426], [-0.6120868921279907, -1.3910415172576904, 1.4580042362213135, -0.4159407317638397, 1.375418782234192, 1.5774734020233154, -1.5414848327636719], [-0.3730180561542511, -0.9497936964035034, 0.9611722826957703, -0.14621834456920624, 1.1542314291000366, 1.0554152727127075, -1.1877964735031128], [0.10048387944698334, -0.9377353191375732, -0.056810807436704636, 0.0860806331038475, 0.7407488822937012, 0.870964765548706, -0.7433872222900391], [-6.725855827331543, -15.273974418640137, 15.274218559265137, -3.5192599296569824, 17.260522842407227, 15.428702354431152, -15.496268272399902], [-3.006067991256714, -15.59285831451416, 15.553866386413574, -3.291860580444336, 15.56484317779541, 15.582406044006348, -15.55847454071045], [-1.0551154613494873, -2.975553512573242, 2.975651741027832, -0.6300546526908875, 3.0970726013183594, 3.147378444671631, -3.118730068206787], [-0.35484591126441956, -1.2096097469329834, 1.3581154346466064, -0.19500784575939178, 1.3102964162826538, 1.2167118787765503, -1.3324209451675415], [-0.32514721155166626, -1.3112804889678955, 1.3458969593048096, -0.3654899001121521, 1.2221660614013672, 1.2014343738555908, -1.2328851222991943], [-0.744559645652771, -1.7654502391815186, 1.732791543006897, -0.2855912148952484, 1.7830532789230347, 1.8036956787109375, -1.7950364351272583], [-0.752479612827301, -1.7821592092514038, 1.8780449628829956, -0.43150851130485535, 1.7076157331466675, 1.7414876222610474, -1.7734850645065308], [-0.2733876705169678, -0.9304003119468689, 1.0715402364730835, -0.10560839623212814, 1.2143902778625488, 1.1181857585906982, -1.1044795513153076], [-0.7872738242149353, -2.020982503890991, 2.158174991607666, -0.3575775623321533, 1.9970670938491821, 2.0411148071289062, -2.088125705718994], [-0.47989869117736816, -1.2671371698379517, 1.4028395414352417, -0.21835942566394806, 1.4038289785385132, 1.4065548181533813, -1.3699508905410767], [-0.08511091768741608, -0.4492283761501312, 0.6146849393844604, -0.03198970854282379, 0.5896731615066528, 0.5735170841217041, -0.41705816984176636], [0.32920700311660767, 0.025888638570904732, -0.1769009232521057, -0.06596631556749344, -0.10058222711086273, -0.23304778337478638, 0.20494385063648224], [-2.1020092964172363, -5.263383865356445, 5.256349086761475, -0.9736749529838562, 5.197700500488281, 5.214438438415527, -5.242861747741699], [-0.3709881007671356, -1.3422365188598633, 1.2061824798583984, -0.16430126130580902, 1.3514130115509033, 1.1447691917419434, -1.1767563819885254], [-0.013917429372668266, -0.4382733702659607, 0.36325088143348694, -0.20759759843349457, 0.38936081528663635, 0.37834835052490234, -0.5390713810920715], [-0.23793156445026398, -0.9386247992515564, 0.8833584189414978, -0.08719173818826675, 0.8465222716331482, 0.9462670683860779, -0.9091504216194153], [0.10972655564546585, 0.06619216501712799, 0.11227308213710785, -0.11060499399900436, -0.11808233708143234, 0.004603673238307238, 0.053279537707567215], [-0.011448316276073456, 0.06277318298816681, 0.00836706068366766, -0.02691713720560074, -0.11349616944789886, -0.03376973792910576, -0.05322650447487831], [-0.3583095073699951, -0.9409638047218323, 0.7548879384994507, -0.2841387987136841, 0.9331062436103821, 0.7925240993499756, -0.7890102863311768], [-1.4635839462280273, -4.094734191894531, 4.008780479431152, -0.8584222793579102, 3.967161178588867, 3.864811420440674, -3.9516658782958984]], [-0.3380487561225891, -0.035644881427288055, 0.03608405962586403, 0.1289922595024109, -0.11812728643417358, -0.019625594839453697, 0.0794789046049118], [[0.07358218729496002], [1.043637752532959], [-1.2932231426239014], [0.004760639276355505], [-0.7714772820472717], [-1.8233020305633545], [0.4615829885005951]], [-0.191848024725914]], "etBin": [0.0, 20.0], "etaBin": [1.37, 1.54]}, {"sequence": "{\"class_name\": \"Sequential\", \"config\": {\"name\": \"sequential_3\", \"layers\": [{\"class_name\": \"Dense\", \"config\": {\"name\": \"dense_6\", \"trainable\": true, \"batch_input_shape\": [null, 100], \"dtype\": \"float32\", \"units\": 5, \"activation\": \"tanh\", \"use_bias\": true, \"kernel_initializer\": {\"class_name\": \"GlorotUniform\", \"config\": {\"seed\": null}}, \"bias_initializer\": {\"class_name\": \"Zeros\", \"config\": {}}, \"kernel_regularizer\": null, \"bias_regularizer\": null, \"activity_regularizer\": null, \"kernel_constraint\": null, \"bias_constraint\": null}}, {\"class_name\": \"Dense\", \"config\": {\"name\": \"dense_7\", \"trainable\": true, \"dtype\": \"float32\", \"units\": 1, \"activation\": \"linear\", \"use_bias\": true, \"kernel_initializer\": {\"class_name\": \"GlorotUniform\", \"config\": {\"seed\": null}}, \"bias_initializer\": {\"class_name\": \"Zeros\", \"config\": {}}, \"kernel_regularizer\": null, \"bias_regularizer\": null, \"activity_regularizer\": null, \"kernel_constraint\": null, \"bias_constraint\": null}}, {\"class_name\": \"Activation\", \"config\": {\"name\": \"activation_3\", \"trainable\": true, \"dtype\": \"float32\", \"activation\": \"tanh\"}}]}, \"keras_version\": \"2.2.4-tf\", \"backend\": \"tensorflow\"}", "weights": [[[1.1976479291915894, -1.0493351221084595, 2.481264591217041, 1.0461007356643677, 1.0509060621261597], [1.1918416023254395, -1.1243500709533691, 2.2801291942596436, 1.2559155225753784, 1.1357561349868774], [-0.1382010132074356, 0.09304428100585938, 0.03779413551092148, -0.2712388336658478, -0.23168998956680298], [-0.6023399829864502, 0.5045327544212341, -0.15724125504493713, -0.7925508618354797, -0.7986505031585693], [-0.7240791320800781, 0.9096773266792297, -0.3424062430858612, -0.7904696464538574, -0.911983072757721], [-0.6505488157272339, 0.8408878445625305, -0.07547106593847275, -0.773720920085907, -0.6026881337165833], [-0.6093899607658386, 0.5277706980705261, -0.19199736416339874, -0.6248278617858887, -0.3487003445625305], [-0.34861627221107483, 0.37105610966682434, -0.13443736732006073, -0.33554568886756897, -0.2430620640516281], [1.8854871988296509, -1.742631435394287, 2.9475345611572266, 1.926790714263916, 3.532968759536743], [2.6244194507598877, -2.5432610511779785, 4.062973976135254, 2.6211698055267334, 2.7017366886138916], [2.654365301132202, -2.5564956665039062, 2.8576979637145996, 2.6149191856384277, 3.2690911293029785], [-0.14100617170333862, 0.22631721198558807, -6.101906776428223, -0.2234211564064026, -0.049583256244659424], [-0.5267295241355896, 0.32676345109939575, -4.60906982421875, -0.4709564745426178, -5.7912702560424805], [-0.28703752160072327, 0.10996110737323761, -3.58305287361145, -0.3294180631637573, -0.15426784753799438], [-7.191267967224121, 7.247534275054932, -13.704071998596191, -7.170814514160156, -7.08832311630249], [-4.465005397796631, 4.458943843841553, -8.596972465515137, -4.5053019523620605, -4.573992729187012], [-3.7317757606506348, 3.710369110107422, -1.4450905323028564, -3.768587350845337, -3.6989920139312744], [-8.905920028686523, 8.79906177520752, 0.3064310550689697, -8.872048377990723, -8.832311630249023], [-4.735798358917236, 4.917060852050781, 5.7766618728637695, -4.84211540222168, -3.2778313159942627], [-7.743622779846191, 7.606398582458496, -2.8282039165496826, -7.6050190925598145, -7.796597957611084], [-3.4018361568450928, 3.7535743713378906, 10.69840145111084, -3.7526473999023438, -3.9504647254943848], [-0.05608991160988808, -0.07122580707073212, 4.800511837005615, -0.1937699317932129, -0.061321038752794266], [-6.728381633758545, 4.889994144439697, -1.0980195999145508, -6.744506359100342, -4.086387634277344], [-8.23458194732666, 4.466143608093262, -0.7566824555397034, -8.201873779296875, -4.368222236633301], [-3.9403929710388184, 4.046082973480225, -1.2969902753829956, -3.965329170227051, -8.766107559204102], [-3.006030321121216, 2.8723483085632324, 13.995598793029785, -2.9055325984954834, -2.0128304958343506], [-2.711745500564575, 2.6209402084350586, 5.0080156326293945, -2.9496583938598633, -2.9654664993286133], [-3.346447467803955, 3.3939313888549805, -1.2548549175262451, -3.3750367164611816, -3.388563632965088], [-2.326688051223755, 2.310600519180298, 6.736884593963623, -2.481515884399414, -2.374119281768799], [-2.109919548034668, 2.2353200912475586, -0.7117260694503784, -2.2055130004882812, -2.233457565307617], [-0.5147548913955688, 0.5538920760154724, 0.3949907422065735, -0.5830821394920349, -3.259967803955078], [-1.968123197555542, 2.1038951873779297, 1.6167668104171753, -2.023529291152954, -1.9256590604782104], [-3.480151891708374, 3.440603494644165, 2.5928537845611572, -3.169849157333374, -3.1171300411224365], [-6.054640769958496, 6.052570343017578, -0.7386620044708252, -6.016546249389648, -2.5134668350219727], [-1.142769694328308, 1.1919294595718384, 3.2658324241638184, -1.138245701789856, -1.2914636135101318], [-1.98679780960083, 2.1146488189697266, -0.6925867199897766, -2.0847153663635254, -2.106252431869507], [0.1615237295627594, -0.22042077779769897, 2.491560935974121, 0.05548820644617081, 0.15445803105831146], [0.3403989374637604, -0.36891189217567444, -0.6414268612861633, 0.3221282958984375, 0.3821030557155609], [0.2695309817790985, -0.2156139463186264, 0.7591795325279236, 0.2844690680503845, 0.10667312890291214], [-1.0647729635238647, 1.1432558298110962, -0.2912251949310303, -1.108593225479126, -1.3149912357330322], [0.0740254819393158, -0.14311255514621735, 0.34800097346305847, 0.05557818338274956, 0.5084645748138428], [1.0841532945632935, -1.227011799812317, 0.6302226185798645, 1.0521198511123657, 1.0869834423065186], [-2.926279306411743, 3.0968141555786133, 0.1096944659948349, -3.0607361793518066, -3.0970544815063477], [-1.5454617738723755, 1.6369976997375488, -0.7213243842124939, -1.759029746055603, -1.7119749784469604], [-0.5176843404769897, 0.444904088973999, -0.1988636702299118, -0.5845960378646851, -0.08680596202611923], [0.11136742681264877, -0.1313966065645218, 0.08903734385967255, -0.009794293902814388, 0.06258155405521393], [-6.313849449157715, 6.40336799621582, -0.7325190305709839, -6.410668849945068, -6.444218635559082], [1.3565044403076172, -1.095916986465454, -0.09340585023164749, 1.5034576654434204, 0.3502236008644104], [-0.2605409324169159, 0.39591464400291443, -0.25363677740097046, -0.34046921133995056, -0.21242330968379974], [-0.990673840045929, 1.0142964124679565, -0.6349132061004639, -1.107670545578003, -1.0951319932937622], [-0.3235543668270111, 0.34312161803245544, -0.01584606058895588, -0.2885671555995941, -0.2546929717063904], [-1.599892020225525, 1.5967074632644653, -0.7670139670372009, -1.5469094514846802, -1.606440544128418], [0.3980337381362915, -0.49618256092071533, -0.4896441102027893, 0.48042571544647217, 0.6145179271697998], [0.9674480557441711, -0.9082210063934326, -0.5210203528404236, 1.0087361335754395, 1.2103277444839478], [0.5569025278091431, -0.6603153944015503, 0.2845474183559418, 0.5187746286392212, 0.632448673248291], [-1.3428746461868286, 1.3480644226074219, -0.7244967222213745, -1.278538465499878, -1.3314791917800903], [-0.2748319208621979, 0.4634259045124054, -0.5089740753173828, -0.39988186955451965, -0.0811661034822464], [-0.9134907722473145, 0.9664291143417358, -0.5387217998504639, -0.8841748237609863, -1.034975528717041], [0.4903411567211151, -0.4353172481060028, 0.028853239491581917, 0.518634557723999, 0.45937249064445496], [-0.6930826902389526, 0.6172215938568115, -0.4429834187030792, -0.7211765050888062, -0.6499652862548828], [0.2818569540977478, -0.35067519545555115, 0.07197647541761398, 0.2082178145647049, 0.35213348269462585], [-0.5017110109329224, 0.3126639425754547, -0.4443061649799347, -0.2982442080974579, -0.09756776690483093], [1.5692251920700073, -1.5804325342178345, 0.8580699563026428, 1.4779547452926636, 1.6599781513214111], [-1.2303651571273804, 1.1032880544662476, -0.6266505718231201, -1.077598214149475, -0.6064563989639282], [0.6028472185134888, -0.5260769724845886, 0.46683478355407715, 0.5938440561294556, 0.6383776068687439], [-0.2740112841129303, 0.14027687907218933, 0.15394212305545807, -0.11019671708345413, -0.09063489735126495], [0.6013957262039185, -0.6014657020568848, 0.4302699863910675, 0.6488816142082214, 0.5485105514526367], [-0.6984028220176697, 0.48444801568984985, -0.058980174362659454, -0.5492929220199585, -0.6656373739242554], [1.0342010259628296, -0.9492918848991394, 0.4415808618068695, 1.1870932579040527, 1.0177799463272095], [-0.5773690938949585, 0.6320152878761292, -0.23434093594551086, -0.765427827835083, -0.7947140336036682], [1.8782917261123657, -2.009819984436035, 1.8533775806427002, 1.9755843877792358, 1.8756357431411743], [1.2547498941421509, -1.370741367340088, 0.4833405315876007, 1.381844401359558, 1.259620189666748], [0.509377121925354, -0.5803539752960205, 0.9036070108413696, 0.539974570274353, 0.5371514558792114], [0.47140994668006897, -0.4363330006599426, -0.021586187183856964, 0.4430347979068756, 0.5279979705810547], [-1.8850581645965576, 1.8976479768753052, -0.6983773112297058, -1.7137421369552612, -1.2278653383255005], [-2.933959484100342, 3.0311591625213623, 3.4084079265594482, -2.9629628658294678, -3.1675608158111572], [-2.1245598793029785, 2.1435470581054688, -1.4845311641693115, -2.2744812965393066, -2.074094772338867], [-1.9417221546173096, 2.006779432296753, 0.4992196559906006, -2.0315017700195312, -2.1427104473114014], [-1.2160096168518066, 0.9773839712142944, 1.0107059478759766, -1.3616678714752197, -1.2348092794418335], [-0.347282737493515, 0.25403234362602234, -0.39281514286994934, -0.33355197310447693, -0.25406548380851746], [-15.758408546447754, 15.85167121887207, 2.7710535526275635, -15.714582443237305, -15.822690963745117], [-10.45015811920166, 10.469559669494629, 13.816033363342285, -10.561205863952637, -10.370782852172852], [-4.259603500366211, 4.446294784545898, -1.2146410942077637, -4.430583477020264, -7.007852554321289], [-0.8548963069915771, 0.9400776624679565, 0.7918723225593567, -1.5568273067474365, -1.590886116027832], [-2.0923585891723633, 1.938518762588501, -0.9272428750991821, -1.9205622673034668, -2.1699070930480957], [-2.778348445892334, 2.1135571002960205, -0.8534931540489197, -2.749734878540039, -2.151991605758667], [0.9994131922721863, -1.0013408660888672, 0.8947334289550781, 0.9319148659706116, 1.3791866302490234], [-1.1098016500473022, 1.1384257078170776, 0.23085364699363708, -1.3123542070388794, -1.2901591062545776], [-0.5933070182800293, 0.6940092444419861, 0.054398681968450546, -0.7859432101249695, -0.7935076951980591], [-1.4944028854370117, 1.5435560941696167, 0.6441670656204224, -1.5262622833251953, -2.3366434574127197], [-0.4275020956993103, 0.41838473081588745, 0.05373748391866684, -0.4076409339904785, -0.09357325732707977], [-0.1313917636871338, 0.16723643243312836, 0.13250936567783356, -0.14709152281284332, -0.04536448419094086], [-5.532641887664795, 5.6759467124938965, 16.56742286682129, -5.614198684692383, -5.623207092285156], [-2.516216993331909, 2.291001796722412, 9.95398235321045, -4.337588310241699, -4.124639987945557], [-0.07028330117464066, -0.024860527366399765, 0.104967400431633, -0.18380026519298553, -0.20916515588760376], [-0.04767567291855812, 0.035911526530981064, 0.9624089002609253, -0.14298123121261597, -0.07281368225812912], [-0.4112379252910614, 0.29944905638694763, -0.24892404675483704, -0.31882938742637634, -0.2750243842601776], [-0.07741036266088486, 0.23417073488235474, 0.17906038463115692, -0.13607220351696014, -0.27089807391166687], [0.13981930911540985, 0.019712600857019424, 0.29125577211380005, 0.06291235238313675, 0.14563024044036865], [-2.760042428970337, 2.7292098999023438, -0.6022586226463318, -2.765294313430786, -2.7404072284698486]], [-0.06872621923685074, 0.03307996317744255, -0.23921453952789307, -0.06494033336639404, -0.18441444635391235], [[0.4495205879211426], [-0.24960488080978394], [0.8472018837928772], [0.7588435411453247], [1.0934642553329468]], [0.31420576572418213]], "etBin": [0.0, 20.0], "etaBin": [1.54, 2.5]}, {"sequence": "{\"class_name\": \"Sequential\", \"config\": {\"name\": \"sequential_4\", \"layers\": [{\"class_name\": \"Dense\", \"config\": {\"name\": \"dense_8\", \"trainable\": true, \"batch_input_shape\": [null, 100], \"dtype\": \"float32\", \"units\": 5, \"activation\": \"tanh\", \"use_bias\": true, \"kernel_initializer\": {\"class_name\": \"GlorotUniform\", \"config\": {\"seed\": null}}, \"bias_initializer\": {\"class_name\": \"Zeros\", \"config\": {}}, \"kernel_regularizer\": null, \"bias_regularizer\": null, \"activity_regularizer\": null, \"kernel_constraint\": null, \"bias_constraint\": null}}, {\"class_name\": \"Dense\", \"config\": {\"name\": \"dense_9\", \"trainable\": true, \"dtype\": \"float32\", \"units\": 1, \"activation\": \"linear\", \"use_bias\": true, \"kernel_initializer\": {\"class_name\": \"GlorotUniform\", \"config\": {\"seed\": null}}, \"bias_initializer\": {\"class_name\": \"Zeros\", \"config\": {}}, \"kernel_regularizer\": null, \"bias_regularizer\": null, \"activity_regularizer\": null, \"kernel_constraint\": null, \"bias_constraint\": null}}, {\"class_name\": \"Activation\", \"config\": {\"name\": \"activation_4\", \"trainable\": true, \"dtype\": \"float32\", \"activation\": \"tanh\"}}]}, \"keras_version\": \"2.2.4-tf\", \"backend\": \"tensorflow\"}", "weights": [[[95.19129943847656, -2.737989902496338, 2.7562854290008545, -2.6791460514068604, 2.569387435913086], [11.741856575012207, -1.0389459133148193, 1.1481013298034668, -1.0740805864334106, 1.3086349964141846], [16.02507781982422, 0.4913625419139862, 2.4806113243103027, 0.6742224097251892, 0.45039135217666626], [0.10011348128318787, 0.10595270246267319, -0.13878732919692993, 0.2183074653148651, -0.13960394263267517], [-0.02626211754977703, 0.13811925053596497, -0.13191728293895721, 0.24098700284957886, -0.22413140535354614], [-0.26236891746520996, -0.19078178703784943, 0.29225191473960876, -0.2630571126937866, -0.08052155375480652], [0.1921187937259674, -0.21392704546451569, 0.09628856927156448, -0.14663521945476532, 0.09547892957925797], [0.4249992370605469, -0.6970409154891968, 0.47339704632759094, -0.6423366069793701, -0.1618652641773224], [0.7690505385398865, -2.3928592205047607, 2.2541606426239014, -2.112431764602661, 0.48517608642578125], [7.012474060058594, -2.9218931198120117, 2.7372288703918457, -4.136777877807617, 1.152969479560852], [0.19285306334495544, 2.389368772506714, -2.2985401153564453, 2.4870362281799316, -1.8770301342010498], [-52.06716537475586, 1.0842325687408447, -1.172971487045288, 1.4848414659500122, -5.145897388458252], [-3.558515787124634, 8.03018856048584, -8.135680198669434, 8.121408462524414, -6.518013000488281], [-1.7555186748504639, 4.644124984741211, -4.71184778213501, 4.807705402374268, -4.695010662078857], [-2.833900213241577, 6.77893590927124, -6.749009132385254, 6.898557662963867, 0.7889900803565979], [0.13553743064403534, 5.495616912841797, -5.21626615524292, 5.348454475402832, -0.9573135375976562], [-1.0423412322998047, 4.594947338104248, -4.5369486808776855, 4.5023345947265625, -0.5719367861747742], [-1.1745504140853882, 3.778296709060669, -3.824171304702759, 3.8281822204589844, -0.6067541837692261], [-1.8256951570510864, 4.166909694671631, -4.156552314758301, 4.318142890930176, -0.874249279499054], [-0.9797239899635315, 3.835531711578369, -3.7673161029815674, 3.7068848609924316, -0.5320576429367065], [-10.708517074584961, 3.7985637187957764, -3.903435230255127, 3.9023501873016357, -0.6982170939445496], [-1.3077757358551025, 2.952554225921631, -2.910134792327881, 3.069344997406006, -0.662816047668457], [-0.8748009204864502, 2.3199124336242676, -2.4492738246917725, 2.3145384788513184, -0.587698221206665], [-0.7803052663803101, 3.3626532554626465, -3.3961477279663086, 2.688652753829956, -0.463765412569046], [-1.2832530736923218, 3.175717830657959, -3.1751935482025146, 3.284595012664795, -0.648121178150177], [-1.6770447492599487, 2.214024305343628, -2.3678030967712402, 2.31209659576416, -0.8131048679351807], [-1.9737194776535034, 2.5483808517456055, -2.574861526489258, 2.4553372859954834, -0.5987052321434021], [-0.8626661896705627, 2.8874990940093994, -2.817983865737915, 2.807197093963623, -1.097834825515747], [-0.8816892504692078, 1.8591904640197754, -2.059072494506836, 1.8894648551940918, -0.39535051584243774], [-0.7034444212913513, 1.4633781909942627, -1.6089917421340942, 1.5708591938018799, -0.4116835594177246], [-0.6762866973876953, 2.016352415084839, -1.9422978162765503, 2.62680983543396, -0.33606502413749695], [-0.635657012462616, 1.6907203197479248, -1.6940301656723022, 1.7795666456222534, -0.5002649426460266], [-0.6396099925041199, 1.1530073881149292, -1.7977452278137207, 1.8132777214050293, -0.43801525235176086], [-0.3468100130558014, 1.0271637439727783, -1.5840034484863281, 1.741929531097412, -0.3365999162197113], [-0.5341374278068542, 1.25846266746521, -1.2880768775939941, 1.3996309041976929, -0.3694484531879425], [-0.11195473372936249, 0.5229665637016296, -1.0989676713943481, 0.6534087061882019, -0.13577018678188324], [-0.40212300419807434, 1.8052173852920532, -1.7105618715286255, 1.8329761028289795, -0.42855143547058105], [-0.2480846792459488, 0.6280537247657776, -0.5255144238471985, 0.5905709266662598, -0.23667606711387634], [-0.325020432472229, 1.2053626775741577, -1.1470330953598022, 1.1026984453201294, -0.17177703976631165], [-3.855881452560425, 1.6536502838134766, -2.075187921524048, 1.4855315685272217, -0.7949079275131226], [0.07648580521345139, 1.254310965538025, -1.1716173887252808, 1.2832627296447754, -0.18176163733005524], [2.0059103965759277, 0.31223177909851074, -0.411764919757843, 0.33725202083587646, 0.8906658887863159], [0.38595050573349, 1.107873558998108, -1.7554481029510498, 2.0967719554901123, -0.25346076488494873], [-0.28606802225112915, 0.6442340016365051, -0.672191321849823, 0.7504424452781677, -0.22299210727214813], [-0.1911175400018692, 0.6684360504150391, -0.8301509022712708, 0.8471408486366272, -0.01927288807928562], [0.0496709980070591, 0.021251684054732323, -0.0434354729950428, 0.022409165278077126, 0.02859361842274666], [-0.20416133105754852, 0.701140820980072, -0.7817392945289612, 0.7526841759681702, -0.08741401880979538], [-0.13591425120830536, 0.699420154094696, -0.8091703057289124, 0.7959187626838684, -0.20356565713882446], [-0.21782056987285614, 0.7883498072624207, -0.8585111498832703, 0.8463996052742004, -0.2601315975189209], [-0.14982694387435913, 0.674681544303894, -0.7360691428184509, 0.632745087146759, -0.20806293189525604], [-0.3458673357963562, 0.9158751964569092, -0.9522177577018738, 0.8736437559127808, -0.13253656029701233], [2.685936212539673, -0.0821174755692482, 0.13340355455875397, -0.14266042411327362, -0.09619174152612686], [0.0830884650349617, 0.285078227519989, -0.3006344735622406, 0.34806883335113525, -0.036301594227552414], [-0.2343558520078659, 0.40715131163597107, -0.5779744982719421, 0.6010323166847229, -0.13379035890102386], [-0.02893759496510029, 0.3526609241962433, -0.6740109920501709, 0.5680012702941895, -0.11062785983085632], [-0.23814614117145538, 0.5237181782722473, -0.5372864603996277, 0.4543585777282715, -0.238739475607872], [-0.15646962821483612, 0.4306817352771759, -0.5184283256530762, 0.4858270287513733, -0.26680827140808105], [-0.36947208642959595, -0.8004676699638367, -0.7861366868019104, -0.8253456950187683, -0.1274007260799408], [-0.644164502620697, 1.0787967443466187, -0.9753947257995605, 1.1311039924621582, -0.20274396240711212], [-0.2825821340084076, -0.9037007093429565, 0.6817193627357483, -0.8435128927230835, 0.5608354806900024], [2.2481906414031982, 0.10453902184963226, -0.2591269016265869, 0.2741364538669586, 0.272896945476532], [-0.44918546080589294, 0.5124558210372925, -0.8696759939193726, 0.909307599067688, -0.23260410130023956], [-0.40254706144332886, -0.8510817289352417, 0.6915005445480347, -0.9468972682952881, -0.17474469542503357], [-0.24485482275485992, 0.5017541646957397, -0.5585052371025085, 0.584182858467102, -0.27110347151756287], [-0.3470233678817749, -0.6077107787132263, 0.5093518495559692, -0.5513917207717896, 0.06125000864267349], [-0.6762277483940125, 2.1264536380767822, -2.310509204864502, 1.9260207414627075, -0.3960183560848236], [-0.3632008135318756, -0.9079309701919556, 0.850063681602478, -0.9443435072898865, 0.14882424473762512], [-0.2105434387922287, 0.3165406882762909, -0.32538288831710815, 0.46451103687286377, -0.08174638450145721], [-0.2939314544200897, -0.9242562055587769, 0.9049855470657349, -0.9175392389297485, -0.19581131637096405], [-0.46783432364463806, 2.0951483249664307, -1.4595438241958618, 1.5605148077011108, -0.2543712854385376], [0.10626179724931717, -0.3876737058162689, 0.497938334941864, -0.27525851130485535, -0.015106226317584515], [-0.16687007248401642, -0.18814775347709656, 0.026875782757997513, -0.16740450263023376, -0.11259234696626663], [-0.4400171637535095, -0.579097330570221, 0.47351351380348206, -0.45197272300720215, 0.2796128988265991], [-0.8531773686408997, -0.4602149426937103, 0.3532848060131073, -0.3012372553348541, 0.30497807264328003], [-0.17114804685115814, 0.5520136952400208, -0.5181555151939392, 0.6997389793395996, -0.46281594038009644], [-0.43476438522338867, 1.4085649251937866, -1.4200944900512695, 1.4629709720611572, -0.3996846079826355], [8.49741268157959, 1.6525052785873413, -1.74879789352417, 1.7846672534942627, -0.2621391713619232], [-0.1664600819349289, 0.8659822344779968, -0.9060390591621399, 0.8147075772285461, -0.2377009093761444], [9.129036903381348, 0.7131392955780029, -0.5860204696655273, 0.6206318736076355, -0.0989050567150116], [-0.08669326454401016, 0.17101585865020752, -0.31095582246780396, 0.09512259066104889, -0.03724947199225426], [-3.7099428176879883, 9.001567840576172, -9.100980758666992, 8.920882225036621, -1.7369047403335571], [-1.9276771545410156, 3.801792860031128, -3.7149252891540527, 3.9832763671875, -1.0734820365905762], [-1.057891607284546, 2.7835278511047363, -3.2036616802215576, 2.9573493003845215, -0.4958740174770355], [-0.5976185202598572, 1.6930255889892578, -1.8167163133621216, 1.4843014478683472, -0.062190599739551544], [-0.26905229687690735, 1.703271746635437, -1.7820651531219482, 1.7643756866455078, -0.2812640368938446], [-0.1107390746474266, 0.7098519206047058, -1.1369755268096924, 1.1718899011611938, -0.19974268972873688], [-0.38286274671554565, 1.3761498928070068, -1.2624938488006592, 1.2684293985366821, -0.28775131702423096], [-0.5918667912483215, 1.8842169046401978, -1.7861624956130981, 1.5955935716629028, -0.26564815640449524], [11.096704483032227, 3.7300264835357666, -3.9490883350372314, 3.8892362117767334, 0.3730814754962921], [1.0739575624465942, 2.490417242050171, -2.5219972133636475, 2.9177746772766113, -0.16685444116592407], [-0.24779626727104187, 1.1095693111419678, 0.013021562248468399, 1.0332192182540894, 0.07420745491981506], [-2.242649555206299, -0.08724035322666168, 0.09003457427024841, -0.059792354702949524, 0.3034503161907196], [5.053264141082764, 3.7904562950134277, -3.8627545833587646, 3.819514274597168, 1.0472584962844849], [-0.8903695940971375, 2.062978982925415, -2.1616156101226807, 2.138584613800049, -0.38392573595046997], [0.8266764879226685, 0.7154816389083862, -0.7725381851196289, 0.7816184163093567, 0.39567098021507263], [-1.0125495195388794, -0.371543288230896, 0.1400979608297348, -0.27615463733673096, 0.21045194566249847], [-1.3823695182800293, 4.978955268859863, -4.973443508148193, 3.9615116119384766, -0.6231736540794373], [-27.63068962097168, 2.01200532913208, -1.877490520477295, 2.031785488128662, -0.3825681507587433], [-2.53593111038208, 0.10207057744264603, -0.38001173734664917, 0.10081794857978821, -0.00195758743211627], [-8.042662620544434, -0.2757415771484375, 0.22719255089759827, -0.10329484939575195, 0.38315948843955994]], [-0.14838357269763947, 0.25144878029823303, -0.11652927845716476, 0.13229498267173767, -0.07578805834054947], [[0.3620164096355438], [-1.560401201248169], [0.8041791319847107], [-1.574544906616211], [1.7111692428588867]], [0.13491149246692657]], "etBin": [20.0, 30.0], "etaBin": [0.0, 0.8]}, {"sequence": "{\"class_name\": \"Sequential\", \"config\": {\"name\": \"sequential_5\", \"layers\": [{\"class_name\": \"Dense\", \"config\": {\"name\": \"dense_10\", \"trainable\": true, \"batch_input_shape\": [null, 100], \"dtype\": \"float32\", \"units\": 5, \"activation\": \"tanh\", \"use_bias\": true, \"kernel_initializer\": {\"class_name\": \"GlorotUniform\", \"config\": {\"seed\": null}}, \"bias_initializer\": {\"class_name\": \"Zeros\", \"config\": {}}, \"kernel_regularizer\": null, \"bias_regularizer\": null, \"activity_regularizer\": null, \"kernel_constraint\": null, \"bias_constraint\": null}}, {\"class_name\": \"Dense\", \"config\": {\"name\": \"dense_11\", \"trainable\": true, \"dtype\": \"float32\", \"units\": 1, \"activation\": \"linear\", \"use_bias\": true, \"kernel_initializer\": {\"class_name\": \"GlorotUniform\", \"config\": {\"seed\": null}}, \"bias_initializer\": {\"class_name\": \"Zeros\", \"config\": {}}, \"kernel_regularizer\": null, \"bias_regularizer\": null, \"activity_regularizer\": null, \"kernel_constraint\": null, \"bias_constraint\": null}}, {\"class_name\": \"Activation\", \"config\": {\"name\": \"activation_5\", \"trainable\": true, \"dtype\": \"float32\", \"activation\": \"tanh\"}}]}, \"keras_version\": \"2.2.4-tf\", \"backend\": \"tensorflow\"}", "weights": [[[1.5659047365188599, 1.6140717267990112, -1.8960459232330322, -1.9574146270751953, -32.8738899230957], [0.9648809432983398, 0.9083461761474609, -1.0027258396148682, -1.4521090984344482, -37.81534194946289], [-0.7304093241691589, -0.7463324069976807, 0.5067305564880371, 0.5122400522232056, -12.075221061706543], [-0.8659931421279907, -0.8311288952827454, 0.9527478218078613, 1.244722604751587, -11.468256950378418], [-0.5332820415496826, -0.6001104712486267, 0.5965510010719299, 0.46037474274635315, 0.1232815831899643], [-0.6363723874092102, -0.7199063301086426, 0.6773747801780701, 0.6663198471069336, 0.1510644257068634], [-0.6183121204376221, -0.5407007932662964, 0.6360541582107544, -0.4412102699279785, 0.1675015687942505], [0.5051336884498596, 0.4181956350803375, -0.37760090827941895, -0.40150901675224304, -0.1855236440896988], [1.8755152225494385, 1.8925896883010864, -1.856453776359558, -2.0123469829559326, -0.2837938964366913], [4.341065883636475, 4.2272419929504395, -4.162657737731934, -4.304135322570801, -0.9961743354797363], [1.1710530519485474, 1.1489477157592773, -1.2584235668182373, -1.124223232269287, -0.08889590948820114], [-6.505293846130371, -6.5041584968566895, 4.1336212158203125, 1.647291660308838, 129.31890869140625], [-17.135475158691406, -17.399843215942383, 17.259607315063477, 0.6924226880073547, 36.529449462890625], [-13.428292274475098, -13.281804084777832, 13.476606369018555, 2.7552714347839355, -51.88301467895508], [-6.281867980957031, -6.325334548950195, 4.914238929748535, 4.283718109130859, -0.763431191444397], [-5.9451751708984375, -6.1422038078308105, 6.1066155433654785, 5.832663536071777, 14.546732902526855], [-7.6033735275268555, -7.677373886108398, 4.895866394042969, 4.807033061981201, 0.9965766668319702], [-4.792149066925049, -4.601325511932373, 4.815507888793945, 4.5992112159729, 0.9104911088943481], [-10.520689964294434, -10.71367073059082, 6.058750152587891, 5.247172832489014, 1.0545297861099243], [-6.9343976974487305, -6.997285842895508, 6.964010715484619, 7.131104946136475, 1.5091228485107422], [-6.146981239318848, -5.289201736450195, 5.503296852111816, 8.728988647460938, 1.1056817770004272], [-5.211281776428223, -5.228020668029785, 5.141127586364746, 5.158673286437988, 1.0016740560531616], [-4.789704322814941, -4.903777599334717, 4.798845291137695, 4.692447662353516, 0.9258796572685242], [-5.944562911987305, -5.832911491394043, 5.95290994644165, 2.9892163276672363, 0.6225981712341309], [-4.862949371337891, -4.8241472244262695, 4.833743572235107, 4.940555572509766, 0.44181889295578003], [-3.8030171394348145, -3.728384017944336, 3.675502061843872, 3.655928611755371, 0.5954463481903076], [-2.786053419113159, -2.610104560852051, 2.635925531387329, 2.8859896659851074, 0.43079787492752075], [-2.33024001121521, -2.2858636379241943, 2.3094918727874756, 2.2362890243530273, 0.5151424407958984], [-2.247626543045044, -2.1417181491851807, 2.1458842754364014, 2.1317646503448486, 0.5330643057823181], [-4.0970234870910645, -4.03259801864624, 4.1145734786987305, 4.200026988983154, 0.8831751346588135], [-4.164268493652344, -4.108504295349121, 4.103004455566406, 4.107665061950684, 0.5037179589271545], [-2.3015685081481934, -2.1530563831329346, 2.2598516941070557, 2.2438814640045166, 0.4067386984825134], [-1.5032230615615845, -1.5008083581924438, 1.585964322090149, 1.4463459253311157, 0.28257647156715393], [-2.2909789085388184, -2.2566938400268555, 2.247837543487549, 2.302215099334717, 0.37684744596481323], [-1.96016263961792, -2.0193371772766113, 2.005201578140259, 1.9755080938339233, 0.4513453245162964], [-1.5655924081802368, -1.3875036239624023, 1.464837670326233, 1.4332865476608276, 0.3809264004230499], [-1.4894702434539795, -1.532289981842041, 1.4872993230819702, 1.5041675567626953, 0.2865481674671173], [-1.505671739578247, -1.4816795587539673, 1.401034951210022, 1.2268800735473633, 0.20386245846748352], [-2.519827365875244, -2.671248197555542, 2.5492796897888184, 2.7608890533447266, 0.4507436156272888], [-1.4610744714736938, -1.4923733472824097, 1.5010583400726318, 1.5800702571868896, 0.21807721257209778], [-1.9143593311309814, -1.7616122961044312, 1.9074424505233765, 1.8395700454711914, 0.29659008979797363], [-2.332859992980957, -2.263819456100464, 2.2760417461395264, 2.3027749061584473, 0.24266064167022705], [-0.9403269290924072, -1.3079100847244263, 0.9120607972145081, 0.9759875535964966, 0.20065656304359436], [-0.46448612213134766, -0.4640495777130127, 0.3335728943347931, 0.28785842657089233, 0.08314323425292969], [-0.41769787669181824, -0.444748193025589, 0.4092237949371338, 0.4544990360736847, 0.17437247931957245], [-1.0052388906478882, -0.8307403326034546, 0.8501002788543701, 0.9149465560913086, 0.2457980513572693], [-1.2059849500656128, -1.1547013521194458, 0.988400399684906, 1.1415576934814453, 0.32229387760162354], [-0.8606165051460266, -0.9561236500740051, 0.9440240263938904, 0.7402114868164062, 0.12069272994995117], [-0.9873995184898376, -0.8646517992019653, 0.8589757680892944, 0.9559215307235718, 0.30228695273399353], [-1.755239725112915, -1.9384024143218994, 1.9261723756790161, 4.758305072784424, 0.39774054288864136], [-0.9632722735404968, -0.8790929913520813, 0.8281877636909485, 1.0376139879226685, 0.29997503757476807], [-1.0134726762771606, -0.8918765783309937, 0.8581674695014954, 0.820446252822876, -0.38129720091819763], [-0.6971625685691833, -0.6544865369796753, 0.5785379409790039, 0.7723636627197266, 0.22167706489562988], [0.7132185697555542, 0.6777697801589966, -0.6083903908729553, 0.11163204908370972, -4.299506664276123], [-0.92207270860672, -0.9317110180854797, 0.7873806953430176, 0.9046827554702759, 0.15059468150138855], [0.5220871567726135, 0.36096832156181335, -0.4215870499610901, -0.36732906103134155, 0.01656518317759037], [-1.1433005332946777, -1.1082967519760132, 1.148308277130127, 0.9617301821708679, 0.32797038555145264], [-0.9014135599136353, -0.9093438982963562, 1.0334372520446777, 0.9629319310188293, 0.22446657717227936], [-1.107071042060852, -0.9813116788864136, 0.8644837141036987, 0.8458541035652161, 0.23864319920539856], [0.7974112629890442, 0.9327680468559265, -0.8941318392753601, -0.8507170081138611, 16.24289321899414], [-1.0199843645095825, -0.9579432010650635, 0.9214351773262024, 0.3376142680644989, 0.11468687653541565], [-0.7142215967178345, -0.5382611751556396, 0.7328749895095825, 0.6558126211166382, 0.05124553665518761], [-0.13026972115039825, -0.08897580206394196, 0.23996219038963318, 0.265159547328949, -0.009889920242130756], [0.556758463382721, 0.6081376671791077, -0.5538854598999023, -0.6776720881462097, -0.0911027267575264], [-0.4890362024307251, -0.5213435888290405, 0.4644482731819153, 0.6683129072189331, 0.058842312544584274], [-0.26106613874435425, -0.2733864188194275, 0.16767346858978271, 0.5833651423454285, 0.1794758290052414], [-0.5221725702285767, -0.5167144536972046, 0.4057011008262634, 0.494357705116272, 51.05099868774414], [1.1105656623840332, 1.2780096530914307, -1.1372860670089722, -1.1640784740447998, -0.15405355393886566], [0.45916321873664856, 0.6490981578826904, -0.4897937476634979, -0.4030939042568207, -0.14565473794937134], [0.863219141960144, 0.9599391222000122, -0.9502201676368713, -0.8857857584953308, 65.0590591430664], [1.188941478729248, 1.0825730562210083, -1.1757266521453857, -1.1221160888671875, -0.10797565430402756], [1.289387822151184, 3.2302823066711426, -2.9842140674591064, -1.3282568454742432, -0.3192015290260315], [0.41741055250167847, 0.3404315114021301, -0.31299638748168945, -0.42802050709724426, 0.034379709511995316], [0.2294377237558365, 0.340251088142395, -0.22618018090724945, -0.38321736454963684, 0.10224781185388565], [-0.863728404045105, -0.7044371366500854, 0.6952820420265198, 0.8942076563835144, 0.31473875045776367], [-1.2451235055923462, -1.343554139137268, 1.340942144393921, 1.3892022371292114, 0.21954958140850067], [-1.4489322900772095, -1.4054852724075317, 1.2970201969146729, 1.4553353786468506, 0.21234479546546936], [-1.1300575733184814, -1.162047028541565, 0.9921518564224243, 1.089930534362793, 0.26896044611930847], [-0.676684558391571, -0.6280338168144226, 0.6076508164405823, 0.6936759352684021, -2.2880539894104004], [0.04219311475753784, -0.03413762152194977, -0.07443709671497345, 0.21910341084003448, -0.40903541445732117], [-11.073896408081055, -11.0466947555542, 10.887611389160156, 9.287567138671875, 2.2169198989868164], [-5.958713054656982, -6.0684685707092285, 6.003010272979736, 6.0840277671813965, -10.6796293258667], [-3.7205474376678467, -3.680893659591675, 3.7811877727508545, 3.7529306411743164, 0.8226518630981445], [-2.2830512523651123, -2.2185206413269043, 2.2261946201324463, 2.204075336456299, 0.36855462193489075], [-2.058666706085205, -1.9613081216812134, 1.977461814880371, 2.13480806350708, 0.3180898427963257], [-1.5542536973953247, -1.766802430152893, 1.7278523445129395, 1.546316385269165, 0.2192901372909546], [-1.684546709060669, -1.538538932800293, 1.7282135486602783, 1.7612775564193726, 0.23922139406204224], [-1.4801374673843384, -1.5903377532958984, 1.4463237524032593, 1.529960036277771, 0.434328556060791], [-1.6644035577774048, -1.6422985792160034, 1.7224303483963013, 1.7187312841415405, 0.22227689623832703], [-1.1295888423919678, -1.1004009246826172, 1.0049279928207397, 1.0184004306793213, 0.29848235845565796], [-0.1065991148352623, -0.3240223526954651, 0.18181076645851135, 0.343377947807312, 0.09666231274604797], [-0.06916838884353638, 0.019039610400795937, 0.030149556696414948, -0.47148779034614563, -0.0003206164692528546], [-2.6380465030670166, -2.675464630126953, 2.480088710784912, 2.7142953872680664, 0.6237031817436218], [-2.2330574989318848, -2.0370731353759766, 2.040257692337036, 2.209083318710327, 0.3524901866912842], [-0.6323823928833008, -0.715338945388794, 0.5761620998382568, 0.70292729139328, 0.08637594431638718], [-0.09574839472770691, 0.07707063108682632, -0.03482672944664955, 0.10405966639518738, -0.07169216871261597], [-3.526456117630005, -3.4667811393737793, 3.369814157485962, 3.4039182662963867, 0.588862419128418], [-1.6932258605957031, -1.5985088348388672, 1.586854100227356, 1.7822790145874023, 0.26130980253219604], [-0.7307733297348022, -0.6330763101577759, 0.8215991854667664, 0.6875117421150208, -0.273329496383667], [-0.07618052512407303, -0.2528696060180664, 0.1370849609375, 0.23780299723148346, -0.024277890101075172]], [0.07878746837377548, 0.08677341043949127, -0.09062515199184418, 0.10544684529304504, -0.1438593566417694], [[0.9060134887695312], [0.4790574610233307], [-1.419803261756897], [-2.179589033126831], [-0.4510728120803833]], [-0.21356718242168427]], "etBin": [20.0, 30.0], "etaBin": [0.8, 1.37]}, {"sequence": "{\"class_name\": \"Sequential\", \"config\": {\"name\": \"sequential_6\", \"layers\": [{\"class_name\": \"Dense\", \"config\": {\"name\": \"dense_12\", \"trainable\": true, \"batch_input_shape\": [null, 100], \"dtype\": \"float32\", \"units\": 19, \"activation\": \"tanh\", \"use_bias\": true, \"kernel_initializer\": {\"class_name\": \"GlorotUniform\", \"config\": {\"seed\": null}}, \"bias_initializer\": {\"class_name\": \"Zeros\", \"config\": {}}, \"kernel_regularizer\": null, \"bias_regularizer\": null, \"activity_regularizer\": null, \"kernel_constraint\": null, \"bias_constraint\": null}}, {\"class_name\": \"Dense\", \"config\": {\"name\": \"dense_13\", \"trainable\": true, \"dtype\": \"float32\", \"units\": 1, \"activation\": \"linear\", \"use_bias\": true, \"kernel_initializer\": {\"class_name\": \"GlorotUniform\", \"config\": {\"seed\": null}}, \"bias_initializer\": {\"class_name\": \"Zeros\", \"config\": {}}, \"kernel_regularizer\": null, \"bias_regularizer\": null, \"activity_regularizer\": null, \"kernel_constraint\": null, \"bias_constraint\": null}}, {\"class_name\": \"Activation\", \"config\": {\"name\": \"activation_6\", \"trainable\": true, \"dtype\": \"float32\", \"activation\": \"tanh\"}}]}, \"keras_version\": \"2.2.4-tf\", \"backend\": \"tensorflow\"}", "weights": [[[0.8792535662651062, 1.0564407110214233, 1.063397765159607, 1.055097222328186, -0.1356685757637024, -0.9349883198738098, -0.06298081576824188, 0.2895987033843994, 0.5378893613815308, -0.9324628114700317, 0.9098355770111084, 0.14310148358345032, -0.8678856492042542, -10.615392684936523, -0.8068066239356995, -0.21292515099048615, 1.0012775659561157, 0.9043931365013123, -0.1019655391573906], [0.301167368888855, 0.34489011764526367, 0.2624354362487793, 0.24194826185703278, -0.8429418206214905, -0.1610276848077774, -0.21870504319667816, 1.2660876512527466, 0.47541287541389465, -0.5080199241638184, 0.35305526852607727, 1.010587215423584, -0.36259546875953674, -22.448938369750977, -0.344533234834671, -0.7920023798942566, 0.37431976199150085, 0.20182456076145172, -0.4184597432613373], [-1.2534286975860596, -1.2460538148880005, -1.2442269325256348, -1.0818837881088257, 0.7129355072975159, 1.163779616355896, 0.2862112522125244, -0.15835857391357422, 7.51754903793335, 1.1918166875839233, -1.0299839973449707, -0.7715408205986023, 1.1168509721755981, -6.827476501464844, 1.076280117034912, 0.6696492433547974, -1.0342519283294678, -1.2815415859222412, -15.331831932067871], [-1.0212615728378296, -0.9823653697967529, -0.9049234390258789, -1.053617238998413, 0.3741804361343384, 0.9585346579551697, 0.12113045901060104, -0.17252621054649353, 0.32295626401901245, 0.9698130488395691, -1.050965428352356, -0.24482403695583344, 0.8658320903778076, 0.18558302521705627, 0.9403713345527649, 0.5268064737319946, -1.0334330797195435, -0.855238139629364, 0.051497649401426315], [-0.04846176132559776, -0.22354207932949066, -0.10174494981765747, 0.0042174323461949825, -0.14477966725826263, 0.11315813660621643, 0.1180097684264183, -0.15090873837471008, -0.20898759365081787, 0.10226228088140488, -0.10807716846466064, 0.012627430260181427, 0.14846563339233398, 0.03130199387669563, 0.09840165823698044, 0.00118359737098217, -0.13123975694179535, -0.18973609805107117, -0.1778293251991272], [-0.30055907368659973, -0.2709859311580658, -0.2968349754810333, -0.21034997701644897, 0.06168966740369797, 0.2561101019382477, -0.026188500225543976, -0.049412913620471954, 0.06490889936685562, 0.2044333815574646, -0.3855070173740387, -0.011146104894578457, 0.3586086928844452, 0.2594137191772461, 0.3065456748008728, 0.16868804395198822, -0.28743526339530945, -0.28349384665489197, 2.9710114002227783], [-0.17883305251598358, -0.16315701603889465, -0.008679399266839027, -0.22656011581420898, 0.032273054122924805, 0.058290641754865646, -0.00010028330871136859, 0.03031880408525467, 1.6283340454101562, 0.07368176430463791, -0.13692156970500946, 0.09188121557235718, 0.01673426665365696, 0.20955273509025574, 0.0326681062579155, -0.11891436576843262, -0.15113526582717896, -0.1875094473361969, -0.17042915523052216], [0.06839725375175476, -0.040454644709825516, -0.07275644689798355, -0.003855697810649872, -0.2318125218153, 0.07386008650064468, 0.010517105460166931, 0.052697133272886276, -0.11694731563329697, -0.28252407908439636, 0.14477811753749847, -2.515679359436035, 0.05130576714873314, 0.05977431312203407, -0.22077561914920807, -0.18644917011260986, -0.09422223269939423, 0.06504525244235992, -9.246811866760254], [1.0270320177078247, 1.0141568183898926, 1.089045524597168, 0.984586775302887, -0.3511091470718384, -1.0243518352508545, -0.09032229334115982, 0.21750742197036743, -0.3311806917190552, -0.45573145151138306, 1.1152392625808716, -1.521865725517273, -1.036220908164978, 3.5107505321502686, -0.6234760880470276, -0.24115706980228424, 1.175204873085022, 0.9922041893005371, -11.316999435424805], [1.7758060693740845, 1.9086133241653442, 1.8897016048431396, 1.8448854684829712, -0.7233953475952148, -1.6995394229888916, -0.4437618553638458, 0.8145585656166077, 1.4628794193267822, -1.7826706171035767, 1.7588053941726685, 0.01462797075510025, -1.769412875175476, -0.4516780972480774, -1.9234846830368042, -1.2158077955245972, 1.9343889951705933, 1.691220998764038, -17.171667098999023], [0.4272497594356537, 0.44718071818351746, 0.8352372646331787, 0.870880663394928, -0.4958140254020691, -0.8292880058288574, 0.41356953978538513, -0.5100430846214294, -0.335199773311615, -0.9197841286659241, 0.8162856698036194, 0.031074121594429016, -0.4810788333415985, -0.23324918746948242, -0.9631267189979553, -0.3954719305038452, 0.9464487433433533, 0.5657846927642822, -0.17591731250286102], [0.17339865863323212, 0.10940240323543549, 0.28654569387435913, 0.2530370056629181, -1.5007905960083008, 3.9549834728240967, 0.3637281358242035, 0.07444536685943604, -25.561302185058594, -0.24822354316711426, 0.03145917132496834, 7.44580602645874, -0.16706541180610657, 0.24237412214279175, -0.04233190789818764, -1.7780405282974243, 0.08173234760761261, -4.052202224731445, 35.24886703491211], [0.18053682148456573, 0.1801157295703888, 0.07199107110500336, 0.2117917686700821, -1.1797428131103516, -0.25808456540107727, -0.3716834783554077, 1.8459315299987793, -15.273479461669922, 29.383081436157227, 0.24293987452983856, 9.498486518859863, -0.22739733755588531, 2.6733827590942383, 23.50722312927246, -1.140023946762085, 0.26750293374061584, 0.12974348664283752, 0.9712339043617249], [2.0335617065429688, 0.5973798036575317, 0.41169238090515137, 0.5310307145118713, -1.140937089920044, -1.929050087928772, -0.6185816526412964, 1.2942018508911133, -3.3034846782684326, -2.1347482204437256, 2.0349655151367188, -3.9243104457855225, -2.122274398803711, -0.43793556094169617, -1.9814249277114868, 1.668342113494873, 2.0441298484802246, 1.9664851427078247, 10.561936378479004], [0.11957935988903046, 0.017338978126645088, 0.06352981179952621, 0.0021643780637532473, -0.21193575859069824, -0.04346434772014618, -0.022281385958194733, -0.22039812803268433, -0.31049513816833496, 0.021381983533501625, -0.0078006950207054615, -3.4242472648620605, 0.029583124443888664, 0.6244473457336426, -0.07315559685230255, -0.3962511718273163, 0.0884568840265274, 0.11098209768533707, 26.151958465576172], [-0.5369532704353333, -0.466871052980423, -0.53801429271698, -0.3841036558151245, -0.0767391249537468, 0.5566720962524414, 0.5523808002471924, -4.791545867919922, 7.517897129058838, 0.3974539041519165, -0.5326026082038879, -6.460595607757568, 0.4350714385509491, -0.11651866137981415, 0.6121616959571838, -12.778475761413574, -0.4607308804988861, -0.5291818976402283, 25.679903030395508], [-0.33135244250297546, -0.27503156661987305, -0.358505517244339, -0.2541073262691498, 0.5543718338012695, 0.3581813871860504, 0.27486589550971985, -1.87814462184906, 4.542969703674316, 0.4727550148963928, -0.2721271216869354, 9.519684791564941, 0.38830500841140747, 1.4345132112503052, 0.3239161968231201, 3.581512928009033, -0.2553335130214691, -0.24580542743206024, 124.22428131103516], [-1.8330005407333374, -1.8473501205444336, -1.9221916198730469, -1.8959211111068726, 3.7265589237213135, 1.8629590272903442, 1.7280446290969849, -9.093741416931152, 30.19197654724121, 1.874632716178894, -1.8831980228424072, 12.772971153259277, 1.8005949258804321, -11.132745742797852, 1.7088783979415894, 3.624006509780884, -1.8786481618881226, -1.730054259300232, 0.2539997100830078], [-4.085355281829834, -3.9571967124938965, -4.050570011138916, -3.928351402282715, 1.5641398429870605, 3.9802653789520264, 0.7562987208366394, -0.8657082915306091, 2.542973518371582, 3.290212869644165, -4.082230567932129, 6.152701377868652, 3.904731035232544, 1.0384925603866577, 3.9177005290985107, 2.390583038330078, -3.992260694503784, -3.96223521232605, 0.1105240061879158], [-2.93890643119812, -3.0505423545837402, -2.9259862899780273, -3.0324230194091797, 1.2053852081298828, 3.011399030685425, 1.6838020086288452, -1.8239871263504028, -25.78106117248535, 2.898714542388916, -3.0110251903533936, 20.568321228027344, 3.0176920890808105, 0.7070124745368958, 2.7835726737976074, 1.1848583221435547, -2.941610097885132, -3.000251531600952, 57.608489990234375], [-3.149641752243042, -3.228449821472168, -3.206561803817749, -3.2078287601470947, 1.277864933013916, 3.150426149368286, 0.7347489595413208, -0.44438305497169495, 1.3110371828079224, 2.5374763011932373, -3.255577802658081, 14.726644515991211, 3.1299245357513428, -4.518993854522705, 3.0808441638946533, 1.2831757068634033, -3.2666738033294678, -3.0693085193634033, 50.973140716552734], [-4.877067565917969, -4.988997936248779, -4.8748908042907715, -5.020540714263916, 4.4475016593933105, 4.864404678344727, 1.2497804164886475, -1.1838451623916626, -18.81450843811035, 4.42006778717041, -4.970226287841797, -0.3942928612232208, 5.021827220916748, 0.9483328461647034, 4.859084606170654, 4.270628929138184, -5.017079830169678, -4.9107160568237305, 0.03239431977272034], [-4.392212390899658, -4.319638252258301, -4.225890636444092, -4.324850082397461, 1.8449972867965698, 4.428335666656494, 2.1032309532165527, -1.0000735521316528, 1.8484100103378296, 4.347153663635254, -4.345810890197754, -0.1548229604959488, 4.288042068481445, 64.52914428710938, 4.358828067779541, 1.7292711734771729, -4.279062747955322, -4.432202339172363, 2.1562137603759766], [-6.81213903427124, -6.996129512786865, -6.92571496963501, -6.817671775817871, 4.4420342445373535, 6.9798808097839355, 2.6488442420959473, -2.5769026279449463, -172.8622283935547, 6.794672012329102, -6.756424903869629, 4.698677062988281, 6.9692888259887695, 2.2600274085998535, 6.852161407470703, 1.6180129051208496, -6.834305763244629, -6.9770307540893555, 0.8299975991249084], [-3.1686038970947266, -3.2053158283233643, -3.1737864017486572, -3.3020780086517334, 1.5674326419830322, 3.1709635257720947, 0.41426748037338257, -0.6283421516418457, 1.579171895980835, 3.1199867725372314, -3.3538219928741455, 15.288084983825684, 3.2235641479492188, -3.4873931407928467, 3.244462490081787, 1.2460920810699463, -3.2694082260131836, -3.2308847904205322, -0.13803456723690033], [-1.1524931192398071, -1.168293833732605, -1.161164402961731, -1.0930595397949219, 0.24614876508712769, 1.1538296937942505, 0.39216363430023193, -0.2791551351547241, 0.23209108412265778, 7.734230995178223, -1.1473041772842407, 0.03289040923118591, 1.1458882093429565, 0.2977144122123718, 5.603647708892822, 0.2914753258228302, -1.097474455833435, -1.072342038154602, 0.16906186938285828], [-2.061681032180786, -2.240102767944336, -3.4566619396209717, -2.2209670543670654, 1.2808512449264526, 2.2015023231506348, 0.8934207558631897, -0.4882238805294037, 26.509183883666992, 2.264779806137085, -2.1332638263702393, 5.294094085693359, 2.2936384677886963, 0.6490902304649353, 2.0768303871154785, 1.4260354042053223, -2.0648326873779297, -2.0931684970855713, 0.09043227136135101], [-3.190868377685547, -3.1842055320739746, -2.9941108226776123, -3.185560703277588, 1.2581722736358643, 3.083892583847046, 0.516865611076355, -0.6884285807609558, 1.294600486755371, 3.1987407207489014, -3.0739495754241943, 0.8210340738296509, 3.061429500579834, 0.6407325267791748, 3.0302112102508545, 1.2410764694213867, -3.1488664150238037, -3.0639538764953613, 0.03671595826745033], [-1.9498530626296997, -1.9724241495132446, -1.9733918905258179, -1.989902377128601, 7.081753730773926, 2.1447322368621826, 0.8117430210113525, -0.5511125922203064, -67.94132995605469, 2.213226318359375, -2.1805226802825928, -10.311595916748047, 1.9932425022125244, 33.77486801147461, 2.2666516304016113, 4.229241371154785, -1.9567056894302368, -2.1951851844787598, 31.365619659423828], [-1.9105488061904907, -1.7318191528320312, -1.8804430961608887, -1.9098610877990723, 0.6906543374061584, 1.8274577856063843, 0.3103676438331604, -0.4450032711029053, 8.793878555297852, 1.7191280126571655, -1.786855936050415, 0.06683441996574402, 1.841832160949707, 0.33341360092163086, 1.7892943620681763, 0.5702134370803833, -1.7047169208526611, -1.894104242324829, 0.05356961861252785], [-1.5623496770858765, -1.4143648147583008, -1.3626223802566528, -1.3309613466262817, 0.6217464804649353, 1.405920386314392, 0.4037940204143524, -0.32386189699172974, 0.5903005003929138, 1.4745688438415527, -1.4767659902572632, 0.28800809383392334, 1.491925835609436, 0.5581371784210205, 1.5462390184402466, 0.42852500081062317, -1.5692152976989746, -1.3351991176605225, 0.12218470871448517], [-2.081923007965088, -2.1011593341827393, -2.096921443939209, -2.1286563873291016, 0.30273470282554626, 2.089761972427368, 0.475901335477829, -0.4534018635749817, -2.80306339263916, 1.980080485343933, -2.02490234375, 1.4690510034561157, 2.131119966506958, 0.5212326049804688, 2.094735860824585, -3.728959798812866, -1.964813470840454, -1.9159417152404785, 0.008276311680674553], [-2.5996181964874268, -2.6212568283081055, -2.6107289791107178, -2.65370512008667, 1.0987099409103394, 2.6651289463043213, 0.43937206268310547, -0.43835821747779846, 1.148123860359192, 2.6459884643554688, -2.6805951595306396, -0.15062153339385986, 2.7224433422088623, -17.866525650024414, 2.6336302757263184, 1.0250842571258545, -2.5687363147735596, -2.6845452785491943, 0.18255144357681274], [-2.6604011058807373, -2.5098459720611572, -2.454533815383911, -2.5113677978515625, 0.918424665927887, 2.7080702781677246, 0.5031272768974304, -0.5936044454574585, 1.1249629259109497, 2.509401321411133, -2.6079623699188232, -0.37150731682777405, 2.458435297012329, 0.665077269077301, 2.512356996536255, 1.0739613771438599, -2.4500534534454346, -2.5002400875091553, -0.05586830899119377], [-2.1109564304351807, -2.097303628921509, -2.0138723850250244, -2.187373161315918, 0.5476976633071899, 2.1827118396759033, 1.0700628757476807, -0.8441866040229797, 0.598626971244812, 2.2317795753479004, -2.202653169631958, -10.20670223236084, 2.135291576385498, 0.5112043619155884, 2.069768190383911, 0.6046550869941711, -2.0079736709594727, -2.0603089332580566, 0.058575212955474854], [-1.6338163614273071, -1.5844918489456177, -1.5580079555511475, -1.6364582777023315, 0.6348320245742798, 1.5144342184066772, 0.42609256505966187, -0.19676397740840912, 19.95782470703125, 1.7333487272262573, -1.5178166627883911, 13.925384521484375, 1.611609935760498, 0.3932983875274658, 1.7153071165084839, 0.43694111704826355, -1.6837481260299683, -1.6034067869186401, -0.08998424559831619], [-1.6052722930908203, -1.6703912019729614, -1.6426764726638794, -1.619970679283142, 20.615680694580078, 1.296502709388733, 0.28720173239707947, -0.24916711449623108, 0.3186635971069336, 1.7322508096694946, -1.6312521696090698, 2.2941553592681885, 1.7063730955123901, 0.36891186237335205, 1.399175763130188, -235.0894012451172, -1.629897952079773, -1.6393505334854126, 36.14015197753906], [-1.3317158222198486, -1.3070112466812134, -1.3112661838531494, -1.4518134593963623, 0.41448283195495605, 1.4073656797409058, 0.2630815804004669, -0.24569390714168549, 0.4015052318572998, 1.3217436075210571, -1.5125486850738525, 0.0605066679418087, 1.3134560585021973, 0.47486206889152527, 1.3653239011764526, 0.5799631476402283, -1.4355871677398682, -1.5210286378860474, 0.05963940545916557], [-0.45840027928352356, -0.5133348703384399, -0.41334572434425354, -0.281472384929657, -0.07702068239450455, 0.48079392313957214, 0.08125284314155579, -0.034349873661994934, 0.01592513918876648, 0.352133572101593, -0.530210018157959, 0.11635828018188477, 0.3108568489551544, 0.24400749802589417, 0.3981008529663086, 0.04257004335522652, -0.42284122109413147, -0.43788084387779236, 2.6965906620025635], [-0.9163113832473755, -0.954350471496582, -0.8507747054100037, -0.9248229265213013, 0.6435239315032959, 1.0358141660690308, 0.4421142041683197, -1.4729399681091309, 3.022449493408203, 0.9581519365310669, -1.0199601650238037, 0.10663805156946182, 0.9225541949272156, 1.6057147979736328, 1.0952467918395996, 0.2807020843029022, -1.0409191846847534, -0.8877063989639282, 23.556543350219727], [-0.5294162631034851, -0.2633350193500519, -0.28825461864471436, -0.22273430228233337, 0.09596002846956253, 0.43376025557518005, -0.23006591200828552, 0.29832157492637634, 0.3971787989139557, 0.7014682292938232, -0.6228888630867004, 0.15350566804409027, 0.5125262141227722, -19.42858123779297, 0.5976088643074036, 0.13023889064788818, -0.47277432680130005, -0.5388088822364807, -6.528359413146973], [-1.921692132949829, -1.071763277053833, -0.9078338146209717, -0.8431124687194824, 1.4027470350265503, 1.9099478721618652, 1.074699878692627, -1.292760968208313, 13.11595630645752, 1.9887369871139526, -1.964705228805542, 0.12496821582317352, 2.0060534477233887, 0.44418156147003174, 2.5996384620666504, 1.3772659301757812, -1.9410805702209473, -1.7965223789215088, 0.45537814497947693], [-1.7087554931640625, -1.643734335899353, -1.62257719039917, -1.7196654081344604, 0.7194122076034546, 1.6857455968856812, 0.3777233958244324, -0.2504960000514984, 1.0605485439300537, 1.8107434511184692, -1.8226300477981567, -0.010483242571353912, 1.7631564140319824, 0.46741554141044617, 1.858864426612854, 0.7457303404808044, -1.6769213676452637, -1.6277798414230347, 22.67572593688965], [0.44187062978744507, 0.25264686346054077, 0.43031391501426697, 0.38477545976638794, -0.2622533142566681, -0.26256901025772095, -0.030126960948109627, 0.12579309940338135, -0.3753466010093689, -0.10457342863082886, 0.10886182636022568, 0.0610056109726429, -0.26059895753860474, 0.1218835860490799, 0.6134860515594482, -0.3255493938922882, 0.233618825674057, 0.2833389937877655, 0.047383736819028854], [-2.0146098136901855, -1.9070879220962524, -1.686698079109192, -1.9015084505081177, 0.5805280804634094, 2.124845266342163, 0.487752765417099, -0.37139448523521423, 0.5600095391273499, 2.9284703731536865, -2.742086887359619, -0.04565074294805527, 2.649810791015625, 0.5763556957244873, 2.835153818130493, 0.49760666489601135, -2.0253899097442627, -2.078383445739746, 32.54644775390625], [-1.6476976871490479, -1.00994873046875, -0.8664972186088562, -0.774086058139801, 0.2430487722158432, 0.9865549206733704, 0.15065579116344452, -0.28122204542160034, 0.2465258240699768, 6.120077610015869, -1.940012812614441, 9.636168479919434, 1.9137436151504517, 0.14296065270900726, 6.074402809143066, 12.122962951660156, -1.8870025873184204, -1.1214762926101685, -4.669203281402588], [-0.844631552696228, -0.716880738735199, -0.8669357895851135, -0.7510833144187927, 0.24309144914150238, 0.7945435047149658, 0.17032884061336517, -0.1957153081893921, 10.519166946411133, 0.8799596428871155, -0.7191417217254639, 0.025350822135806084, 0.6790124177932739, 0.285740464925766, 0.8251951336860657, 0.15645790100097656, -0.7285487651824951, -0.7394465208053589, 0.37466758489608765], [0.06294488161802292, 0.19120196998119354, 0.08499028533697128, -0.03141843527555466, -0.07419957220554352, 0.015946848317980766, -0.09173165261745453, 0.01782907545566559, -0.0088045634329319, 0.02770889922976494, 0.09925153106451035, 0.22145245969295502, -0.051032654941082, -4.251845836639404, 0.03139083459973335, -0.27593058347702026, 0.13013264536857605, 0.135879784822464, -0.9151927828788757], [0.11992800235748291, 0.3085058331489563, 0.30150702595710754, 0.4266074597835541, -0.3877597451210022, -0.1047142967581749, -0.18706268072128296, 0.06677303463220596, -0.2243792861700058, -0.15045742690563202, 0.1588679701089859, 1.6286572217941284, -0.016706258058547974, -0.018626084551215172, -0.1158093586564064, -0.3754611313343048, 0.08281701803207397, 0.1005365327000618, -23.423782348632812], [-0.7202661037445068, -0.7112377285957336, -0.7125002145767212, -0.7252307534217834, 0.2206975668668747, 0.5663570761680603, 0.21251170337200165, -0.08543364703655243, 0.11762478947639465, 0.670783519744873, -0.586661696434021, 4.350593090057373, 0.6190371513366699, -1.0963122844696045, 0.7816684246063232, 0.23838044703006744, -0.7592025995254517, -0.7479208707809448, 1.3791067600250244], [0.39349228143692017, 0.3868444263935089, 0.4034516513347626, 0.46355047821998596, -0.39526745676994324, -0.491059273481369, -0.15861159563064575, 0.19973815977573395, -0.4892427325248718, -0.40855875611305237, 0.5756081938743591, 9.051206588745117, -0.5478644371032715, -0.040216412395238876, -0.5248739719390869, -0.3002190887928009, 0.4599277377128601, 0.3991735875606537, -6.477602005004883], [-0.8811797499656677, -0.7224456071853638, -0.706362783908844, -0.8328562378883362, 0.22316612303256989, 0.6474663615226746, 0.2544787526130676, -0.168114572763443, 1.2309613227844238, 0.8697338104248047, -0.6909607648849487, -12.226661682128906, 0.7196692228317261, 0.16589176654815674, 0.8128523826599121, 6.85796594619751, -0.7865861654281616, -0.8255174160003662, 0.04020537808537483], [-0.3200932741165161, -0.17783240973949432, -0.30715152621269226, -0.21466921269893646, -0.0842711329460144, 0.1524399369955063, 0.06379274278879166, -0.11520025879144669, -0.055270928889513016, 0.13349002599716187, -0.2861711382865906, 0.1126616820693016, 0.35857778787612915, 0.1736844927072525, 0.36208030581474304, -0.12929537892341614, -0.2509257197380066, -0.12543725967407227, -0.12921147048473358], [-0.8756377100944519, -0.8312435746192932, -0.9505686163902283, -0.7385793328285217, 0.9157089591026306, 0.815290629863739, 0.27529484033584595, -0.26624804735183716, 0.9780672192573547, 0.8689869046211243, -0.9359255433082581, 0.03175075352191925, 0.8621174693107605, -30.919239044189453, 0.766143262386322, 0.9602327346801758, -0.9441583752632141, -0.904033362865448, -1.3646636009216309], [-2.22640323638916, -2.2564847469329834, -2.412172555923462, -2.1797871589660645, 0.7946056723594666, 2.4101619720458984, 0.4747290313243866, -0.5578832626342773, 0.7913515567779541, 2.3194234371185303, -2.2370569705963135, 0.008082923479378223, 2.2040483951568604, 0.5309317708015442, 2.3218777179718018, 0.814145565032959, -2.4020822048187256, -2.3066985607147217, 0.4056631624698639], [-0.9961808919906616, -0.8857033848762512, -0.9852373600006104, -1.028006911277771, 0.18888163566589355, 0.8297145962715149, 0.20397114753723145, -0.20897802710533142, 10.599185943603516, 0.8088666200637817, -0.9398719072341919, -13.039802551269531, 0.8446011543273926, 0.19829262793064117, 0.9153891801834106, 3.220850706100464, -0.779643714427948, -0.8696562051773071, -0.05644861236214638], [-0.23165850341320038, -0.24111437797546387, -0.3552822470664978, 