{"models": [{"sequence": "{\"class_name\": \"Sequential\", \"config\": {\"name\": \"sequential_20\", \"layers\": [{\"class_name\": \"Dense\", \"config\": {\"name\": \"dense_40\", \"trainable\": true, \"batch_input_shape\": [null, 100], \"dtype\": \"float32\", \"units\": 6, \"activation\": \"tanh\", \"use_bias\": true, \"kernel_initializer\": {\"class_name\": \"GlorotUniform\", \"config\": {\"seed\": null}}, \"bias_initializer\": {\"class_name\": \"Zeros\", \"config\": {}}, \"kernel_regularizer\": null, \"bias_regularizer\": null, \"activity_regularizer\": null, \"kernel_constraint\": null, \"bias_constraint\": null}}, {\"class_name\": \"Dense\", \"config\": {\"name\": \"dense_41\", \"trainable\": true, \"dtype\": \"float32\", \"units\": 1, \"activation\": \"linear\", \"use_bias\": true, \"kernel_initializer\": {\"class_name\": \"GlorotUniform\", \"config\": {\"seed\": null}}, \"bias_initializer\": {\"class_name\": \"Zeros\", \"config\": {}}, \"kernel_regularizer\": null, \"bias_regularizer\": null, \"activity_regularizer\": null, \"kernel_constraint\": null, \"bias_constraint\": null}}, {\"class_name\": \"Activation\", \"config\": {\"name\": \"activation_20\", \"trainable\": true, \"dtype\": \"float32\", \"activation\": \"tanh\"}}]}, \"keras_version\": \"2.2.4-tf\", \"backend\": \"tensorflow\"}", "weights": [[[9.01987075805664, 3.681973457336426, -2.2983672618865967, -4.135383605957031, -3.9683053493499756, 3.0633015632629395], [-0.03518577292561531, 0.8046421408653259, -0.40858766436576843, -0.1069088950753212, -0.14426389336585999, 0.8150948882102966], [-0.46884268522262573, -0.49003419280052185, -0.1691615879535675, 0.362106591463089, 0.4341489374637604, -0.41906359791755676], [0.15588437020778656, -0.20977216958999634, -0.05508086457848549, 0.17960122227668762, 0.1832311898469925, -0.20512688159942627], [0.31432536244392395, -0.10569418221712112, -0.18790024518966675, 0.14129745960235596, 0.20478136837482452, -0.5525700449943542], [1.1719588041305542, 0.5196964144706726, -0.23666058480739594, -0.48702356219291687, -0.3127519190311432, 0.36142969131469727], [0.621452808380127, -0.038742005825042725, -0.16220496594905853, 0.1761319786310196, 0.0590548999607563, 0.03444362059235573], [-0.12481377273797989, -0.019086414948105812, -0.15269269049167633, 0.05973678082227707, -0.00019025674555450678, -0.12303842604160309], [2.6661553382873535, 3.136380910873413, -0.23917309939861298, -3.193812131881714, -3.245378255844116, 2.5672919750213623], [3.120647430419922, 4.6013383865356445, -2.0612709522247314, -2.102048635482788, -2.1758551597595215, 5.61810302734375], [20.042564392089844, 0.24897688627243042, -0.3885083794593811, -0.27130937576293945, -0.456599622964859, -0.05225738510489464], [4.001049518585205, -3.8071939945220947, -0.25118622183799744, 6.771458148956299, 6.952091217041016, -3.5295486450195312], [-0.4691924750804901, -9.356066703796387, 2.0046181678771973, 8.337845802307129, 8.26875114440918, -9.482361793518066], [-4.405073642730713, -5.3722004890441895, 6.578591346740723, 4.801966667175293, 4.635740280151367, -5.27308464050293], [-12.167277336120605, -9.773921012878418, -2.2192814350128174, 9.312788963317871, 9.365004539489746, -10.127195358276367], [-4.039999961853027, -7.942467212677002, -0.31168967485427856, 7.583322525024414, 7.7002458572387695, -8.47729778289795], [-2.834879159927368, -9.558570861816406, -2.1611480712890625, 6.088551998138428, 6.121082782745361, -9.685062408447266], [-4.690690040588379, -8.850022315979004, -1.8496649265289307, 6.638938903808594, 7.563103199005127, -8.817888259887695], [-6.594064235687256, -7.337759494781494, -1.2020740509033203, 10.206466674804688, 10.276198387145996, -7.538350582122803], [-3.0145294666290283, -7.268890380859375, -1.6346501111984253, 6.823215961456299, 6.908629417419434, -10.319197654724121], [-4.962020397186279, -3.1062941551208496, -0.21165145933628082, 3.1751976013183594, 3.0921669006347656, -3.1412336826324463], [-2.6768598556518555, -3.7530319690704346, -0.1735413521528244, 2.9218509197235107, 2.9263715744018555, -3.7200396060943604], [-0.4535619616508484, -2.819653272628784, -0.28899896144866943, 3.3843002319335938, 3.385561466217041, -2.7665517330169678], [-2.684878349304199, -3.0603721141815186, -0.029980747029185295, 2.9952006340026855, 2.936856269836426, -2.7302675247192383], [-2.111410140991211, -10.741296768188477, 0.0648520290851593, 3.364917755126953, 3.1792619228363037, -5.089662551879883], [-1.890016794204712, -2.474848747253418, 0.10884208977222443, 2.5241050720214844, 2.511370897293091, -2.6372063159942627], [-2.464111328125, -2.4643959999084473, -0.17157121002674103, 2.353303909301758, 2.35496187210083, -2.277743101119995], [-2.4439945220947266, -2.3311655521392822, -1.1487562656402588, 2.5631401538848877, 2.3895580768585205, -2.2320876121520996], [-2.3755640983581543, -2.493574857711792, -0.8360415101051331, 2.436708450317383, 2.4292025566101074, -2.3880703449249268], [-2.397362470626831, -3.0792882442474365, -0.04847188666462898, 2.7848753929138184, 2.909292221069336, -3.054008960723877], [-3.345147132873535, -5.52104377746582, 0.9123522043228149, 3.227890968322754, 3.2825124263763428, -6.318255424499512], [-1.345889687538147, -2.0570449829101562, -0.633462131023407, 1.6638038158416748, 1.4810638427734375, -1.9425923824310303], [-0.9984797239303589, -1.7622098922729492, -0.26276636123657227, 1.670957326889038, 1.6027350425720215, -1.7222853899002075], [-0.29491767287254333, -3.4724388122558594, -0.07286661118268967, 3.5906875133514404, 3.62443470954895, -3.4248640537261963], [-1.250179648399353, -0.6378179788589478, -0.22363461554050446, 0.7348370552062988, 0.7888603210449219, -0.7689271569252014], [-21.641355514526367, -1.331749439239502, -0.4531567394733429, 1.4496045112609863, 1.4236286878585815, -1.4545224905014038], [-1.229132056236267, -1.3443167209625244, -1.063921332359314, 1.2641363143920898, 1.2817354202270508, -1.285597324371338], [-1.5000431537628174, -1.5802240371704102, -0.07878665626049042, 1.5086523294448853, 1.4375942945480347, -1.3321398496627808], [-1.8025377988815308, -1.4302741289138794, -0.023129576817154884, 1.499687910079956, 1.6879193782806396, -1.5888707637786865], [-1.0384272336959839, -0.6937366724014282, -0.14414668083190918, 1.119602084159851, 1.0937803983688354, -1.2224270105361938], [-16.716285705566406, -1.29665207862854, 0.05295134708285332, 1.1404856443405151, 1.2003239393234253, -3.181523323059082], [-0.8255010843276978, -0.5291470885276794, -0.40469470620155334, 1.035091519355774, 1.0144010782241821, -0.8500968813896179], [-1.0276564359664917, -1.0695449113845825, -0.3811474144458771, 1.160691738128662, 1.0534071922302246, -1.0883302688598633], [-0.537658154964447, -0.8558090329170227, 0.015043376013636589, 0.9853762984275818, 0.9542540907859802, -0.8908826112747192], [0.2807220220565796, -0.0695672556757927, -1.1566005945205688, 0.023800093680620193, 0.07949057221412659, 0.05608029291033745], [0.57619309425354, -1.08797287940979, -0.05888320878148079, 0.909044623374939, 0.806453287601471, -1.0544918775558472], [-0.5989243388175964, -0.4912714660167694, -0.12097274512052536, 0.6199456453323364, 0.46324774622917175, -0.6303791999816895], [-0.6295759081840515, -0.7099616527557373, -0.01265923772007227, 0.6726546287536621, 0.5182538032531738, -0.5882346630096436], [-0.745419442653656, -0.6885566115379333, -0.10554582625627518, 0.824012279510498, 0.8175613880157471, -0.8089964389801025], [-0.8610708117485046, -0.7720600366592407, -0.12560421228408813, 0.9742962718009949, 0.8954757452011108, -0.87647545337677], [0.3153530955314636, 0.19422847032546997, -0.38562315702438354, -0.3959726095199585, -0.22423702478408813, 0.2349333018064499], [21.523473739624023, -2.0356953144073486, -0.11268538981676102, 1.8761155605316162, 1.7782195806503296, -2.088914394378662], [1.5775901079177856, -1.2078481912612915, -0.001007283921353519, 1.0572471618652344, 1.2254350185394287, -1.0309410095214844], [-0.7692492008209229, -0.7959491014480591, 0.07936564832925797, 0.8336468935012817, 0.7767571210861206, -0.9465101361274719], [-0.6981480121612549, -0.733663022518158, -0.06253787130117416, 0.7681624889373779, 0.7505975961685181, -0.7140549421310425], [-0.42572879791259766, -0.1765640825033188, -0.13419751822948456, 0.3390689194202423, 0.31346067786216736, -0.36977818608283997], [-0.384321928024292, -0.5480073094367981, -0.07085855305194855, 0.54653000831604, 0.48678913712501526, -0.5340608954429626], [0.09645713865756989, 0.1288779377937317, -0.0798681303858757, -0.22937266528606415, -0.23716974258422852, 0.3402877151966095], [-0.46849438548088074, 1.3124580383300781, -0.15192435681819916, -1.015300989151001, -0.9710901379585266, 1.2501572370529175], [-0.6688112020492554, -0.5015966892242432, -0.06100115925073624, 0.5612056851387024, 0.48548635840415955, -0.6743406653404236], [-0.37966063618659973, -0.22093239426612854, -0.017935331910848618, 0.19758827984333038, 0.19500727951526642, -0.22704602777957916], [1.7942391633987427, 0.49837827682495117, -0.8524407148361206, -1.6588265895843506, -1.652909278869629, 1.7960454225540161], [-0.5020682215690613, -0.21850049495697021, -0.028408104553818703, 0.3724830448627472, 0.3563382625579834, -0.026403190568089485], [0.17839659750461578, -0.1739213913679123, -0.005268263630568981, 0.15912692248821259, 0.0732271820306778, -0.1975802779197693], [0.7165035605430603, 1.0254299640655518, -0.1929444819688797, -0.8954120874404907, -0.863884687423706, 0.9950613379478455], [0.3030983507633209, 0.1101001426577568, -0.019991155713796616, -0.15293125808238983, -0.10678214579820633, 0.1580113172531128], [0.39278408885002136, 0.4242246150970459, -0.22417044639587402, -0.619022011756897, -0.4851662814617157, 0.587617039680481], [-0.41801556944847107, -0.3589154779911041, -0.009491882286965847, 0.6916226148605347, 0.7486752271652222, -0.3259707987308502], [-0.7241864204406738, -0.339095801115036, -0.21192045509815216, 0.5226624608039856, 0.4894939363002777, -0.3312339186668396], [0.4044226408004761, 1.0370818376541138, -0.10742053389549255, -1.0737968683242798, -1.0258220434188843, 0.980118989944458], [-0.18019112944602966, -0.0009136381559073925, 0.024758635088801384, -0.0770862028002739, -0.05377648025751114, 0.06564810872077942], [-3.6531472206115723, -0.06344874203205109, -0.0636126771569252, -0.13126160204410553, -0.09645101428031921, 0.058355655521154404], [1.939813256263733, 0.3598265051841736, -0.35273227095603943, -0.5001769065856934, -0.48305970430374146, 0.8956661224365234], [7.395075798034668, -0.15946713089942932, -0.2769015431404114, -0.045417748391628265, -0.12129934132099152, -0.10214731842279434], [-0.4404732584953308, -0.7707175016403198, 0.8114498853683472, 0.5876344442367554, 0.5895178318023682, -0.694542407989502], [-1.0175961256027222, -2.1223952770233154, -0.7977434992790222, 2.2558538913726807, 2.109104871749878, -2.2803661823272705], [-1.206782579421997, -1.8511649370193481, -0.18997128307819366, 2.401465892791748, 2.2148983478546143, -1.758186936378479], [-6.643551826477051, -1.8694562911987305, -1.1608176231384277, 1.823835015296936, 1.6714695692062378, -2.7518928050994873], [-3.6062512397766113, -1.2677456140518188, -0.360253244638443, 1.0194467306137085, 0.9397296905517578, -1.3518487215042114], [-4.67418098449707, -0.7573164701461792, -0.4729072153568268, 0.6076213121414185, 0.6571053862571716, -0.61531662940979], [-1.7125831842422485, -16.54351806640625, 3.8734652996063232, 3.994291067123413, 4.008462905883789, -15.511337280273438], [-0.06102985143661499, -6.4279866218566895, -5.678352355957031, 6.166980743408203, 8.20163631439209, -8.048812866210938], [-2.4709413051605225, -3.00040864944458, -0.2599145174026489, 3.8464877605438232, 4.04057502746582, -3.084141492843628], [-1.6413654088974, -1.7074041366577148, -0.5669599175453186, 1.332905650138855, 1.668599009513855, -1.6935824155807495], [-1.4180688858032227, -1.2595458030700684, -0.23816123604774475, 1.229944109916687, 1.2664713859558105, -1.217545509338379], [-1.5595781803131104, -1.4322413206100464, -0.010319755412638187, 1.4130218029022217, 1.3478388786315918, -1.4837414026260376], [-1.1826645135879517, -1.1505391597747803, -0.08687549829483032, 1.0766500234603882, 1.2298848628997803, -1.0506166219711304], [-0.5493459701538086, -0.33996301889419556, -0.05709803104400635, 0.41440293192863464, 0.3989931046962738, -0.36436375975608826], [-2.8270368576049805, -7.54207706451416, -2.598600387573242, 3.074331760406494, 3.008673667907715, -8.56169605255127], [-1.0286604166030884, -3.8208913803100586, -3.256776809692383, 5.47773551940918, 5.428922176361084, -5.784923076629639], [-5.24298620223999, -1.3557288646697998, -0.4089433252811432, 0.7946798801422119, 0.9467208981513977, -0.8517770171165466], [-2.8239104747772217, 0.39237499237060547, -0.028902392834424973, -0.2935554087162018, -0.36967578530311584, 0.25702813267707825], [-0.7543736696243286, -6.8621625900268555, -5.788078308105469, 12.233807563781738, 14.033687591552734, -5.408534526824951], [-1.9295884370803833, -4.759374141693115, -2.420192003250122, 3.601130247116089, 3.659334182739258, -4.901888370513916], [-2.497220277786255, -0.7991504669189453, -0.19718678295612335, 0.7054237723350525, 0.7833492755889893, -0.86708003282547], [0.4698377847671509, 0.5344062447547913, -0.35650065541267395, -0.47403693199157715, -0.474465936422348, 0.47227075695991516], [-2.427469491958618, -2.4636857509613037, 0.050737980753183365, 2.435894012451172, 2.366950511932373, -2.4072721004486084], [-1.1779704093933105, -0.8247212171554565, -1.4753522872924805, 0.7125208377838135, 0.9190989136695862, -0.7340108156204224], [-1.1535083055496216, -0.8689799904823303, -0.060320205986499786, 1.0286706686019897, 1.070186972618103, -0.8928924202919006], [0.4579063355922699, 0.40556246042251587, -0.16610264778137207, -0.28793734312057495, -0.3821124732494354, 0.4653438925743103]], [-0.01136678084731102, -0.1782160997390747, 0.054464004933834076, 0.04060710594058037, 0.07186396420001984, -0.1458592414855957], [[-0.37404778599739075], [0.8757453560829163], [-1.8297946453094482], [-0.6319535970687866], [-0.358705073595047], [0.7328855991363525]], [0.30292394757270813]], "etBin": [0.0, 20.0], "etaBin": [0.0, 0.8]}, {"sequence": "{\"class_name\": \"Sequential\", \"config\": {\"name\": \"sequential_21\", \"layers\": [{\"class_name\": \"Dense\", \"config\": {\"name\": \"dense_42\", \"trainable\": true, \"batch_input_shape\": [null, 100], \"dtype\": \"float32\", \"units\": 5, \"activation\": \"tanh\", \"use_bias\": true, \"kernel_initializer\": {\"class_name\": \"GlorotUniform\", \"config\": {\"seed\": null}}, \"bias_initializer\": {\"class_name\": \"Zeros\", \"config\": {}}, \"kernel_regularizer\": null, \"bias_regularizer\": null, \"activity_regularizer\": null, \"kernel_constraint\": null, \"bias_constraint\": null}}, {\"class_name\": \"Dense\", \"config\": {\"name\": \"dense_43\", \"trainable\": true, \"dtype\": \"float32\", \"units\": 1, \"activation\": \"linear\", \"use_bias\": true, \"kernel_initializer\": {\"class_name\": \"GlorotUniform\", \"config\": {\"seed\": null}}, \"bias_initializer\": {\"class_name\": \"Zeros\", \"config\": {}}, \"kernel_regularizer\": null, \"bias_regularizer\": null, \"activity_regularizer\": null, \"kernel_constraint\": null, \"bias_constraint\": null}}, {\"class_name\": \"Activation\", \"config\": {\"name\": \"activation_21\", \"trainable\": true, \"dtype\": \"float32\", \"activation\": \"tanh\"}}]}, \"keras_version\": \"2.2.4-tf\", \"backend\": \"tensorflow\"}", "weights": [[[-1.8925094604492188, 1.952457308769226, -1.8780862092971802, -19.431434631347656, -0.9631259441375732], [-1.2238150835037231, 1.2462477684020996, -1.2834389209747314, -0.7079209685325623, -1.3539581298828125], [0.6562626361846924, -1.0876314640045166, 0.7041327953338623, 2.009190797805786, -0.07848529517650604], [0.9511800408363342, -0.9175639152526855, 1.0591145753860474, 6.4891791343688965, -0.04655064269900322], [0.36389872431755066, -0.32505589723587036, 0.4457995593547821, 7.062210559844971, -0.16150283813476562], [0.6864233613014221, -0.7088087797164917, 0.5730429887771606, 0.6609626412391663, -0.20293954014778137], [0.18824709951877594, -0.1336529403924942, 2.018894672393799, -1.3742560148239136, -0.19901928305625916], [-0.2274571657180786, 0.3321419060230255, -0.039033442735672, -0.17222720384597778, -0.2585231065750122], [-1.6624797582626343, 2.536004066467285, -2.2105350494384766, -27.03448486328125, -0.6610293388366699], [-5.2217116355896, 5.79353141784668, -5.289902210235596, -61.39654541015625, -2.7294886112213135], [-1.4616903066635132, 1.459064245223999, -1.3138792514801025, -5.1306376457214355, -0.8143680691719055], [-0.5122133493423462, 0.33216339349746704, -0.5064011216163635, -6.9397125244140625, -0.2913510501384735], [5.8331427574157715, -14.200791358947754, 8.338859558105469, 8.774383544921875, 2.6277952194213867], [1.8483517169952393, -1.8836852312088013, 6.455643653869629, -1.95246422290802, 12.974698066711426], [20.57921028137207, -7.968325138092041, 20.42310905456543, 60.87514877319336, -2.7927517890930176], [7.102513790130615, -6.980250358581543, 7.121894359588623, 20.223072052001953, 2.4714112281799316], [7.527975082397461, -5.158376216888428, 6.050099849700928, 9.3819580078125, 1.9590502977371216], [5.936316013336182, -5.871337413787842, 7.905551433563232, 38.12455368041992, 1.6951347589492798], [14.643430709838867, -9.588560104370117, 14.820043563842773, 18.46353530883789, -0.5213738679885864], [6.8599138259887695, -6.664106369018555, 7.19402551651001, 7.2530412673950195, -3.7651565074920654], [9.316164016723633, -5.1132612228393555, 9.163422584533691, -2.2757513523101807, -1.9073591232299805], [7.187514781951904, -7.1706647872924805, 7.031611442565918, -29.10565185546875, -0.2620479166507721], [4.620754241943359, -4.576247215270996, 4.7066168785095215, 19.837278366088867, -0.5145399570465088], [3.413209915161133, -2.6326558589935303, 3.2067506313323975, 13.1071195602417, -0.7107497453689575], [6.658180236816406, -4.7970709800720215, 6.8134307861328125, 5.815578937530518, 0.07638556510210037], [4.85620641708374, -3.771188259124756, 4.760343551635742, 0.5362417697906494, -0.22756987810134888], [4.100029945373535, -3.8895199298858643, 4.175156593322754, 7.16448974609375, -0.10972726345062256], [5.566649436950684, -5.623331546783447, 5.316094398498535, 53.5877799987793, 0.2400413453578949], [3.731907844543457, -3.0061848163604736, 2.9997072219848633, 3.04994535446167, 0.2121530920267105], [3.060131072998047, -2.9450266361236572, 2.9315690994262695, 0.8775137066841125, -0.0002191988460253924], [4.659031867980957, -4.479562282562256, 5.05702018737793, 3.0282115936279297, -0.8328074216842651], [5.583804607391357, -5.576552391052246, 5.6292829513549805, 18.61113739013672, -0.07249060273170471], [2.7307114601135254, -2.870198965072632, 2.824653387069702, 13.23752498626709, -0.9831439256668091], [2.994131088256836, -3.0367915630340576, 3.010867118835449, 5.090209007263184, -0.0514051727950573], [8.642337799072266, -3.4783716201782227, 9.389309883117676, 67.30415344238281, -0.25581061840057373], [2.289883613586426, -2.390235185623169, 2.191251516342163, 33.3084831237793, 0.07119639962911606], [0.6494693160057068, -0.5095173120498657, 0.5466648936271667, 6.271228313446045, -0.6884536147117615], [2.0231640338897705, -1.5458441972732544, 2.022000312805176, 3.4189741611480713, -0.09830063581466675], [1.0012233257293701, -1.0594172477722168, 1.1206458806991577, 1.6367242336273193, -0.024550490081310272], [1.081325888633728, -3.532752752304077, 2.507119655609131, 38.8242301940918, -0.16045953333377838], [-0.5261492133140564, 0.49488940834999084, -0.04510550945997238, 0.3753618001937866, -0.43433311581611633], [0.3800708055496216, -0.3730463981628418, 0.32944920659065247, 0.8644266128540039, -0.24456320703029633], [0.34528055787086487, -0.4775383770465851, 0.4817630648612976, 1.065105676651001, -0.41793352365493774], [6.915417194366455, -1.6226712465286255, 1.4827300310134888, 1.6667332649230957, -0.3608315587043762], [-1.0193991661071777, 1.2465732097625732, -1.1729286909103394, -0.2638069689273834, -0.36864084005355835], [-0.14056496322155, 0.1816977709531784, -0.14405271410942078, 58.8161735534668, -0.4849030673503876], [-0.09725432842969894, 0.052189912647008896, -0.1474020630121231, 4.232236385345459, -0.1755562126636505], [-0.173580139875412, 0.2135578989982605, -0.11235252767801285, 75.44316101074219, -0.40205124020576477], [-2.483555555343628, 2.517794609069824, -2.3419976234436035, -3.066237211227417, -0.299599826335907], [0.9920685291290283, -0.9796221256256104, 1.054763674736023, 0.5389311909675598, -0.16571997106075287], [-0.26640722155570984, 0.19435077905654907, -0.2517300546169281, -0.266434907913208, -0.3376643657684326], [0.3975827693939209, -0.3447989225387573, 0.45212826132774353, 0.47315940260887146, -0.20545193552970886], [-0.25772494077682495, 0.26036354899406433, -0.3218640983104706, 0.9555960893630981, -0.26081135869026184], [1.210814356803894, -1.0289835929870605, 1.0747690200805664, 1.1678986549377441, -0.015347293578088284], [0.9771003723144531, -0.6525987386703491, 1.0433205366134644, 0.7565997242927551, -0.13775987923145294], [-0.8578104376792908, 0.8082085847854614, -0.9130086302757263, -0.7215517163276672, -0.5051273703575134], [0.3760906159877777, -0.24394521117210388, 0.40176406502723694, 0.18236379325389862, -0.09726136177778244], [0.8532245755195618, -0.29113930463790894, 0.9110763669013977, 0.5382163524627686, -0.06344534456729889], [0.27929580211639404, -0.3918320834636688, 0.2630470395088196, 0.31355616450309753, -0.20437148213386536], [1.2646905183792114, -1.1734482049942017, 1.3611962795257568, 1.0017755031585693, 0.03775722160935402], [0.3316922187805176, -0.38091614842414856, 0.5164622068405151, 1.3976796865463257, -0.007660008035600185], [0.9337028861045837, -0.8932517766952515, 0.7935552000999451, 1.2884217500686646, 0.0008244303753599524], [0.1462925225496292, -0.3040578365325928, 0.2779427170753479, 0.2909504175186157, -0.23009449243545532], [-0.3613526225090027, 0.42996177077293396, -0.3644547760486603, -0.22075514495372772, -0.25706928968429565], [0.5072650909423828, -0.5035845041275024, 0.37541812658309937, 0.546885073184967, -0.18932904303073883], [1.0561286211013794, -0.901124119758606, 0.8469223380088806, 0.880285918712616, -0.15042315423488617], [0.22868841886520386, -0.24702927470207214, 0.11413981765508652, 0.242771178483963, -0.03665834292769432], [0.1604975163936615, -0.03485172614455223, 0.4625149071216583, 0.36143794655799866, -0.12307917326688766], [0.17903226613998413, -0.039679765701293945, 0.19138678908348083, 0.13656610250473022, -0.14365243911743164], [0.7918182015419006, -0.8138376474380493, 0.9879692196846008, 1.0381686687469482, -0.0026790336705744267], [-0.3503126800060272, 0.787928581237793, -0.8283549547195435, -0.6763685345649719, -0.20218591392040253], [0.45072266459465027, -0.34799909591674805, 0.3583611845970154, 0.30215805768966675, -0.1664867103099823], [-0.20369163155555725, 0.2127179205417633, -1.2395589351654053, -12.381731033325195, -0.2635151743888855], [-0.2662750482559204, 0.08500823378562927, -0.20304115116596222, -8.0579195022583, -0.23800744116306305], [0.49260711669921875, -0.49812158942222595, 1.4783496856689453, 6.540484428405762, 0.4642724096775055], [2.1276614665985107, -2.0146515369415283, 2.1369123458862305, 2.4167001247406006, -0.8392537832260132], [4.565790176391602, -2.5852603912353516, 3.2162489891052246, 4.042524337768555, -2.3402488231658936], [2.230461359024048, -2.0965754985809326, 2.189713716506958, 15.822314262390137, -1.4726476669311523], [1.02570378780365, -0.6987488269805908, 1.1040245294570923, 2.4656457901000977, -0.2590694725513458], [0.07946263998746872, -0.157260924577713, 0.06041760370135307, 10.052105903625488, -0.32754141092300415], [11.287789344787598, -11.415349960327148, 17.903512954711914, 8.63068675994873, -0.541354238986969], [11.458906173706055, -8.285144805908203, 11.216879844665527, 36.50438690185547, -0.5725244879722595], [7.035044193267822, -6.790378093719482, 5.829072952270508, 3.510387420654297, -5.093498229980469], [3.392335891723633, -4.310431957244873, 2.9720444679260254, 5.914213180541992, -1.117193579673767], [1.8007370233535767, -1.3116488456726074, 1.7591387033462524, 14.6420316696167, -0.7368503212928772], [1.7647638320922852, -1.6353237628936768, 1.8255236148834229, 43.4828987121582, -0.34520789980888367], [2.2105367183685303, -1.6259948015213013, 2.283552408218384, 2.3191707134246826, 0.061895254999399185], [2.268641948699951, -3.199120283126831, 3.0886728763580322, 0.3620098829269409, -0.038676101714372635], [2.29552960395813, -5.152630805969238, 3.9979867935180664, 6.536006450653076, -2.568580389022827], [1.3446894884109497, -2.2409863471984863, 5.058059215545654, 1.9789578914642334, -2.366105556488037], [0.20554538071155548, -0.2359311282634735, 0.2873322069644928, 0.37560588121414185, 0.035846397280693054], [-0.26203346252441406, 0.18523359298706055, -0.2054530382156372, -3.4471843242645264, -0.07814716547727585], [4.533621788024902, -9.14281177520752, 2.1999025344848633, 1.8010627031326294, -6.107456207275391], [5.401577949523926, -4.135699272155762, 4.702675819396973, 2.6052134037017822, -4.432236671447754], [0.4493290185928345, -0.3192756175994873, 0.6885371208190918, 20.492565155029297, -0.25411027669906616], [-0.024416958913207054, -0.08470670878887177, 0.03910418227314949, -0.0290924571454525, -0.9613468647003174], [-2.289726734161377, 0.24450591206550598, -2.3075804710388184, 0.09737208485603333, -0.6015036106109619], [1.5831325054168701, -5.539525985717773, 1.5203689336776733, 8.648964881896973, -1.5356148481369019], [1.9929925203323364, -1.854263424873352, 1.6801518201828003, 1.8274562358856201, 0.030305882915854454], [0.2930375337600708, -0.1801915019750595, 0.2807612717151642, 0.14330635964870453, -0.3353346884250641]], [0.13810545206069946, -0.18201099336147308, 0.021036244928836823, -0.009202640503644943, 0.07187016308307648], [[-1.0183240175247192], [1.2881017923355103], [-0.5610806941986084], [0.3517586290836334], [-1.7679719924926758]], [0.46104055643081665]], "etBin": [0.0, 20.0], "etaBin": [0.8, 1.37]}, {"sequence": "{\"class_name\": \"Sequential\", \"config\": {\"name\": \"sequential_22\", \"layers\": [{\"class_name\": \"Dense\", \"config\": {\"name\": \"dense_44\", \"trainable\": true, \"batch_input_shape\": [null, 100], \"dtype\": \"float32\", \"units\": 16, \"activation\": \"tanh\", \"use_bias\": true, \"kernel_initializer\": {\"class_name\": \"GlorotUniform\", \"config\": {\"seed\": null}}, \"bias_initializer\": {\"class_name\": \"Zeros\", \"config\": {}}, \"kernel_regularizer\": null, \"bias_regularizer\": null, \"activity_regularizer\": null, \"kernel_constraint\": null, \"bias_constraint\": null}}, {\"class_name\": \"Dense\", \"config\": {\"name\": \"dense_45\", \"trainable\": true, \"dtype\": \"float32\", \"units\": 1, \"activation\": \"linear\", \"use_bias\": true, \"kernel_initializer\": {\"class_name\": \"GlorotUniform\", \"config\": {\"seed\": null}}, \"bias_initializer\": {\"class_name\": \"Zeros\", \"config\": {}}, \"kernel_regularizer\": null, \"bias_regularizer\": null, \"activity_regularizer\": null, \"kernel_constraint\": null, \"bias_constraint\": null}}, {\"class_name\": \"Activation\", \"config\": {\"name\": \"activation_22\", \"trainable\": true, \"dtype\": \"float32\", \"activation\": \"tanh\"}}]}, \"keras_version\": \"2.2.4-tf\", \"backend\": \"tensorflow\"}", "weights": [[[-0.9612700343132019, 0.7853509783744812, 0.8144621849060059, 0.8421189188957214, 0.9045149683952332, 0.9563224911689758, -0.9081189036369324, -0.8085415363311768, -0.0033720768988132477, -0.9395617246627808, 0.8114883899688721, 0.8637859225273132, 0.09710466861724854, 0.18899008631706238, 0.28614291548728943, 0.7804879546165466], [-0.3211861252784729, 0.2092098891735077, 0.2742805778980255, 0.24618779122829437, 0.27839311957359314, 0.2577976882457733, -0.31651052832603455, -0.19566962122917175, -0.20960715413093567, -0.15986774861812592, 0.24971596896648407, 0.0871959701180458, 0.15455855429172516, 0.11723727732896805, 0.22583481669425964, 0.17242327332496643], [0.998801589012146, -1.0014525651931763, -0.8705878853797913, -0.9875887036323547, -0.9602753520011902, -1.00887930393219, 0.9196018576622009, 0.9680144190788269, 0.11070963740348816, 0.853559136390686, -0.8950847387313843, -1.0156687498092651, -0.27985861897468567, -0.19990332424640656, -0.4231548011302948, -1.033140778541565], [0.6793547868728638, -0.5535035133361816, -0.6349949836730957, -0.4498136341571808, -0.4532524645328522, -0.4339781105518341, 0.4494002163410187, 0.6655981540679932, -0.02120891958475113, 0.5078052282333374, -0.5090193748474121, -0.5253753662109375, 0.024709679186344147, -0.2705133855342865, -0.12732960283756256, -0.4645947515964508], [-0.05392525717616081, 0.016171682626008987, -0.08053947240114212, 0.13392113149166107, 0.13103662431240082, -0.09008849412202835, -0.05197058618068695, -0.07854124158620834, -0.0353960245847702, -0.12334330379962921, 0.1307356208562851, 0.17948220670223236, -0.011460578069090843, -0.15854975581169128, 0.07954923808574677, 0.08019395917654037], [0.41825202107429504, -0.5664902329444885, -0.5005186200141907, -0.4820546805858612, -0.33787956833839417, -0.494859904050827, 0.5711808800697327, 0.3287195861339569, 0.11524149775505066, 0.5406338572502136, -0.44919249415397644, -0.5716821551322937, -0.1586146056652069, -0.1263180822134018, -0.12177083641290665, -0.39113202691078186], [-0.1929922103881836, 0.1022559255361557, 0.1092635989189148, 0.10066109895706177, 0.2251516580581665, 0.20642884075641632, -0.22345006465911865, -0.21016333997249603, -0.05832095816731453, -0.13694360852241516, 0.21589142084121704, 0.20657199621200562, -0.06770382821559906, -0.12446916103363037, 0.24411700665950775, 0.17969298362731934], [-0.0959777757525444, 0.1920170933008194, 0.08248542994260788, 0.1945669800043106, 0.23329713940620422, 0.06709834188222885, -0.2481384128332138, -0.12914873659610748, -0.14906169474124908, -0.0634591206908226, 0.14685572683811188, 0.2185455709695816, 0.014159902930259705, -0.034976527094841, 0.32423830032348633, 0.28916943073272705], [-0.9728952050209045, 0.9225131273269653, 0.983590841293335, 1.0590221881866455, 0.9927366375923157, 1.1223984956741333, -1.041714072227478, -1.1193273067474365, -0.016500206664204597, -1.0633896589279175, 0.9983261227607727, 1.0390959978103638, 0.20498234033584595, 0.16794157028198242, 0.34276077151298523, 0.9410001039505005], [-1.7533290386199951, 1.8438725471496582, 1.7650834321975708, 1.7602781057357788, 1.9372378587722778, 1.691983699798584, -1.828062891960144, -1.8565564155578613, -0.2628873884677887, -1.7703560590744019, 1.831628680229187, 1.7422865629196167, 0.26361721754074097, 0.48457181453704834, 0.6478745937347412, 1.8629231452941895], [-1.2541002035140991, 1.2531262636184692, 1.1691147089004517, 1.2308343648910522, 1.142619013786316, 1.1476112604141235, -1.2093809843063354, -1.1980174779891968, -0.10265491902828217, -1.2040327787399292, 1.1803768873214722, 1.2139216661453247, 0.329522043466568, 0.24986128509044647, 0.8971875309944153, 1.1146923303604126], [-0.09698299318552017, 0.08408339321613312, 0.096720851957798, 0.11375894397497177, 0.09998611360788345, 0.08505208045244217, -0.22234812378883362, -0.2888604998588562, -0.13256630301475525, -0.08715923875570297, 0.11614028364419937, 0.080393947660923, 0.053506653755903244, 0.12496521323919296, 0.1370048075914383, 0.09153047949075699], [-0.09507683664560318, 0.13954214751720428, 0.13443556427955627, 0.1352049708366394, 0.07746284455060959, 0.09514714032411575, -0.1639452576637268, -0.08403942734003067, -0.15130119025707245, 0.005073401145637035, -0.007884582504630089, -0.0007437991444021463, 0.03954670950770378, -0.2093290537595749, -0.08257897943258286, -0.018485620617866516], [-0.8750694990158081, 0.8904377222061157, 0.8509801626205444, 0.8758123517036438, 0.7130852937698364, 0.864719033241272, -0.8286340236663818, -0.8059974908828735, -0.8388494849205017, -0.8060392737388611, 0.7482995986938477, 0.8528223037719727, 0.599572479724884, 0.7019011974334717, 2.5073354244232178, 0.943078339099884], [-0.03412893787026405, 0.0940723866224289, 0.03491044417023659, 0.1862080693244934, -0.027593426406383514, 0.12403138726949692, -0.19960856437683105, -0.08729971945285797, -0.13161718845367432, -0.09096582233905792, 0.20070311427116394, -0.03696976602077484, -0.05992245301604271, 0.09872536361217499, -0.13978274166584015, 0.17371422052383423], [0.14356262981891632, -0.0025814760010689497, -0.7304620742797852, -0.9116675853729248, -0.7202115058898926, -0.1611301302909851, 0.8323285579681396, 0.14445261657238007, 0.6554569005966187, 0.6748056411743164, -0.8542706966400146, -0.72632896900177, -0.881540834903717, -0.9235550165176392, -0.5267652869224548, -0.010021232068538666], [0.04032612591981888, -0.5786342024803162, -0.09521616250276566, -0.01626700349152088, -0.04103689640760422, -0.17022693157196045, 0.16559524834156036, 0.5612381100654602, 0.6033477187156677, 0.16557300090789795, 0.016928527504205704, -0.0436742827296257, -0.47523272037506104, -0.5547146797180176, -0.5010664463043213, 0.02035362645983696], [2.168367862701416, -2.206393241882324, -2.141995429992676, -2.1816632747650146, -2.3617007732391357, -2.2297115325927734, 2.237387180328369, 2.213801860809326, 0.4142296612262726, 2.175774574279785, -2.236201524734497, -2.251810312271118, -0.4888456463813782, -0.6219722032546997, -0.9232094883918762, -2.2747843265533447], [2.50239634513855, -2.389289140701294, -2.5440380573272705, -2.5393245220184326, -2.6161983013153076, -2.509838819503784, 2.5045697689056396, 2.414034128189087, 0.5410837531089783, 2.558095693588257, -2.6036999225616455, -2.4240634441375732, -0.5094760656356812, -0.5212250351905823, -0.9958049654960632, -2.5684778690338135], [2.0973455905914307, -2.1037158966064453, -2.1499578952789307, -2.055072069168091, -2.0730912685394287, -2.259697437286377, 2.1828715801239014, 2.128384590148926, 0.465318888425827, 2.1255815029144287, -2.078847885131836, -2.1087725162506104, -0.3579961657524109, -0.47395288944244385, -0.9369690418243408, -2.188401460647583], [2.644124984741211, -2.623354434967041, -2.572197437286377, -2.7753634452819824, -2.6230902671813965, -2.7283058166503906, 2.6243128776550293, 2.800203800201416, 0.3816435933113098, 2.5824508666992188, -2.7718868255615234, -2.6001548767089844, -0.475603312253952, -0.7187581658363342, -1.1685364246368408, -2.629624843597412], [1.54172945022583, -1.6175525188446045, -1.6351675987243652, -1.6679153442382812, -1.5818989276885986, -1.5123350620269775, 1.4980621337890625, 1.5837628841400146, 0.20053713023662567, 1.4497511386871338, -1.588231086730957, -1.4808261394500732, -0.33829206228256226, -0.47534504532814026, -0.6848879456520081, -1.6487970352172852], [3.558748483657837, -3.4640614986419678, -3.6399810314178467, -3.426691770553589, -3.4856936931610107, -3.642266035079956, 3.5243217945098877, 3.6006948947906494, 0.70712810754776, 3.4539120197296143, -3.5173914432525635, -3.4702584743499756, -0.7915112376213074, -0.8266639113426208, -1.4826658964157104, -3.5214922428131104], [4.120452880859375, -3.9314968585968018, -4.13361120223999, -4.099372863769531, -3.9714391231536865, -3.9859094619750977, 3.9562695026397705, 3.9335081577301025, 0.7043583393096924, 3.998945713043213, -3.9328508377075195, -4.076576232910156, -0.796816885471344, -0.9653646945953369, -1.6529510021209717, -3.9137017726898193], [2.7410783767700195, -2.9623937606811523, -2.877469539642334, -2.969511032104492, -2.858738422393799, -2.970186233520508, 2.811641216278076, 2.959591865539551, 0.4317496418952942, 2.983790874481201, -2.8995261192321777, -2.7915472984313965, -0.5427737236022949, -0.7539936900138855, -1.2482577562332153, -2.7573680877685547], [2.2541818618774414, -2.3058218955993652, -2.3384270668029785, -2.336181640625, -2.3084969520568848, -2.189763069152832, 2.3483400344848633, 2.2666196823120117, 0.502232015132904, 2.1723480224609375, -2.3086938858032227, -2.3041634559631348, -0.42337608337402344, -0.6763030886650085, -0.9284723997116089, -2.3714866638183594], [1.4192849397659302, -1.5592042207717896, -1.483460783958435, -1.4996122121810913, -1.4753867387771606, -1.5661760568618774, 1.6200050115585327, 1.5994235277175903, 0.16713017225265503, 1.5111223459243774, -1.5769325494766235, -1.3773823976516724, -0.3097280263900757, -0.48791369795799255, -0.47979098558425903, -1.4386204481124878], [1.5956799983978271, -1.5638515949249268, -1.4710686206817627, -1.5336694717407227, -1.407038688659668, -1.445803165435791, 1.3807106018066406, 1.4737343788146973, 0.2505713403224945, 1.439201831817627, -1.502929449081421, -1.4860131740570068, -0.18266528844833374, -0.33176910877227783, -0.42959263920783997, -1.3798818588256836], [2.6132490634918213, -2.6830365657806396, -2.825946092605591, -2.763392210006714, -2.7981374263763428, -2.6325490474700928, 2.712733030319214, 2.6900622844696045, 0.42480456829071045, 2.8391993045806885, -2.8199245929718018, -2.7251908779144287, -0.598229706287384, -0.6346191763877869, -1.0541489124298096, -2.8502891063690186], [1.4768335819244385, -1.5304611921310425, -1.6373140811920166, -1.4359811544418335, -1.578312873840332, -1.4975247383117676, 1.6133179664611816, 1.4682750701904297, 0.179689422249794, 1.561855673789978, -1.5933698415756226, -1.4987677335739136, -0.26993563771247864, -0.43152162432670593, -0.5097554326057434, -1.5442628860473633], [1.2484171390533447, -1.1972830295562744, -1.2781953811645508, -1.222469687461853, -1.3495588302612305, -1.4203407764434814, 1.2488505840301514, 1.174778938293457, 0.15927210450172424, 1.2114280462265015, -1.2135816812515259, -1.3950015306472778, -0.2132474184036255, -0.4108565151691437, -0.3627637028694153, -1.3191397190093994], [1.2294341325759888, -1.2230488061904907, -1.3380168676376343, -1.2508469820022583, -1.217079997062683, -1.2574487924575806, 1.3794833421707153, 1.2016383409500122, 0.11383508145809174, 1.2283729314804077, -1.3329969644546509, -1.181639552116394, -0.24760395288467407, -0.28966012597084045, -0.506255030632019, -1.3879340887069702], [1.2483144998550415, -1.412939429283142, -1.2047785520553589, -1.2764915227890015, -1.3926783800125122, -1.3361588716506958, 1.4162267446517944, 1.3695412874221802, 0.08295899629592896, 1.2459908723831177, -1.4353653192520142, -1.2466577291488647, -0.2397889345884323, -0.25920525193214417, -0.5023521780967712, -1.2051843404769897], [1.4141021966934204, -1.363802433013916, -1.3126853704452515, -1.3709206581115723, -1.2227224111557007, -1.3384302854537964, 1.3327518701553345, 1.3131065368652344, 0.2608127295970917, 1.2266879081726074, -1.274544358253479, -1.3203381299972534, -0.15764781832695007, -0.45479288697242737, -0.36146867275238037, -1.2598410844802856], [1.2251733541488647, -1.3450285196304321, -1.2923802137374878, -1.264926552772522, -1.240714430809021, -1.2654331922531128, 1.3965877294540405, 1.1801892518997192, 0.17175191640853882, 1.3012312650680542, -1.4112955331802368, -1.2805687189102173, -0.24794387817382812, -0.2297414392232895, -0.39256781339645386, -1.428235650062561], [1.0424480438232422, -0.9737462401390076, -0.26709145307540894, -0.38822901248931885, -0.25932711362838745, -0.9976450204849243, 0.9528098702430725, 0.8817204833030701, 0.05667272210121155, 0.36914414167404175, -0.3034176230430603, -0.3221730589866638, -0.20628337562084198, -0.27523621916770935, -0.03680267184972763, -0.970280110836029], [2.6567225456237793, -2.7564802169799805, -2.642017364501953, -2.6848316192626953, -2.638967990875244, -2.6538920402526855, 2.7308878898620605, 2.7235374450683594, 0.5257123112678528, 2.598339557647705, -2.802461624145508, -2.7145352363586426, -0.6527426838874817, -0.5621002912521362, -1.1949039697647095, -2.7346644401550293], [1.5724459886550903, -1.530942440032959, -1.4724568128585815, -1.4566460847854614, -1.5559192895889282, -1.603084683418274, 1.4620827436447144, 1.513724684715271, 0.1516391932964325, 1.4558812379837036, -1.4827741384506226, -1.617627501487732, -0.26392948627471924, -0.48197659850120544, -0.6153330206871033, -1.5294851064682007], [-1.3689968585968018, 1.5651004314422607, 1.283563256263733, 1.2706571817398071, 1.4321733713150024, 1.3886864185333252, -1.3512904644012451, -1.589006781578064, -0.4685293734073639, -1.4013296365737915, 1.3027440309524536, 1.351354718208313, 0.33250510692596436, 0.23429948091506958, 0.8609846234321594, 1.3668484687805176], [-0.12007682770490646, 0.21376626193523407, 0.14992853999137878, 0.18558117747306824, 0.15758010745048523, 0.2603744864463806, -0.11731559783220291, -0.1879989355802536, -0.08854784816503525, -0.2755998373031616, 0.2541236877441406, 0.1266098916530609, 0.09561484307050705, 0.05166424438357353, 0.3007700741291046, 0.2695615291595459], [0.6528642773628235, -0.7729119062423706, -0.7920447587966919, -0.7779992818832397, -0.7064281105995178, -0.7410810589790344, 0.7190888524055481, 0.7482531666755676, 0.13433587551116943, 0.7679942846298218, -0.7377919554710388, -0.7057753205299377, -0.05877690389752388, -0.15342164039611816, -0.12512272596359253, -0.7596312761306763], [1.0481619834899902, -0.884395956993103, -0.967659592628479, -0.9149960279464722, -0.8355792760848999, -0.8772894144058228, 0.8592684268951416, 0.910347580909729, 0.20836132764816284, 1.053820013999939, -0.9283535480499268, -0.841871976852417, -0.2660064399242401, -0.2058178186416626, -0.4096715450286865, -0.9303964376449585], [2.143747329711914, -2.064779043197632, -2.1171445846557617, -2.0674943923950195, -2.103152275085449, -2.0116140842437744, 2.023732900619507, 2.1412973403930664, 0.3808788061141968, 2.003237247467041, -1.991557240486145, -2.15049147605896, -0.46399086713790894, -0.514930248260498, -0.7893966436386108, -1.994301676750183], [0.9773088693618774, -1.0510772466659546, -0.826224684715271, -0.8144500255584717, -1.0485944747924805, -0.8077828884124756, 0.9726883172988892, 0.8263976573944092, 0.21119414269924164, 0.9438855648040771, -0.9123169183731079, -0.8688201904296875, -0.1933136135339737, -0.18134300410747528, -0.25035157799720764, -0.9383161067962646], [0.7851660251617432, -0.8581255674362183, -0.9796745777130127, -0.8990927934646606, -0.9885643720626831, -0.882318377494812, 0.8940272331237793, 0.9737629890441895, 0.12485559284687042, 0.8649948835372925, -0.9858010411262512, -0.8583433628082275, -0.15585367381572723, -0.3488728106021881, -0.17401112616062164, -0.8586702346801758], [0.6305016875267029, -0.7436813712120056, -0.6060988306999207, -0.6500486731529236, -0.6515349745750427, -0.6661381125450134, 0.5963245034217834, 0.5714491009712219, 0.0008011292666196823, 0.6818718314170837, -0.5645664930343628, -0.7049640417098999, -0.00952895637601614, -0.2573118209838867, -0.28553053736686707, -0.6007929444313049], [-0.1438782513141632, 0.20930510759353638, 0.1473812460899353, -0.01900915428996086, 0.1862756609916687, 0.038164179772138596, -0.14738696813583374, -0.036562006920576096, -0.18728601932525635, -0.08757910132408142, 0.187391459941864, 0.10262033343315125, 0.06914512813091278, -0.1405281275510788, 0.1113080158829689, 0.057090092450380325], [-2.4096319675445557, 2.487365245819092, 2.411158323287964, 2.0781068801879883, 2.459520101547241, 2.440253496170044, -2.4268240928649902, -2.394369602203369, -0.5276665091514587, -2.4532787799835205, 2.271467685699463, 2.116750478744507, 0.49090680480003357, 0.26271775364875793, 1.1473016738891602, 2.3913934230804443], [0.2825963795185089, -0.38920384645462036, -0.22883927822113037, -0.5169162750244141, -0.24296724796295166, -0.5908379554748535, 0.3148544132709503, 0.2724044620990753, 0.1057392880320549, 0.33618929982185364, -0.2835492193698883, -0.18333734571933746, -0.13500691950321198, -0.16042537987232208, -0.01917751505970955, -0.3647203743457794], [0.9560699462890625, -0.7757242321968079, -0.9912224411964417, -0.9080017805099487, -0.773475170135498, -0.8115562796592712, 0.9521485567092896, 0.9784557819366455, -0.009890801273286343, 0.81934654712677, -0.7609635591506958, -0.9223076105117798, -0.263761430978775, -0.3876315951347351, -0.2001398354768753, -0.8496173620223999], [1.0690423250198364, -0.9958657622337341, -1.1171473264694214, -1.0945881605148315, -0.9949914813041687, -0.9430996775627136, 0.8860592246055603, 1.118775486946106, 0.09640298783779144, 1.0055763721466064, -0.8871472477912903, -0.8502171635627747, -0.26620200276374817, -0.20161652565002441, -0.3717881441116333, -0.9190143942832947], [-0.905259370803833, 0.9614605903625488, 1.033931016921997, 0.995082437992096, 0.9658353328704834, 0.9107342958450317, -0.8954033851623535, -0.9494351148605347, -0.16560734808444977, -0.9185305833816528, 1.0294432640075684, 1.0451682806015015, 0.1103595569729805, 0.18337741494178772, 0.5693261623382568, 1.0969569683074951], [-0.0717315748333931, -0.23623411357402802, -0.05984526500105858, -0.01241274643689394, -0.03984302654862404, -0.012030919082462788, 0.13199932873249054, -0.010746636427938938, -0.1195196658372879, -0.05171112343668938, -0.032558467239141464, -0.090823233127594, 0.03923165798187256, -0.1432437002658844, 0.21216072142124176, 0.07653320580720901], [0.11677958816289902, -0.2717868387699127, -0.24910110235214233, -0.2581503689289093, -0.2236713320016861, -0.070587657392025, 0.1506897658109665, 0.20502735674381256, -0.1495729386806488, 0.24006904661655426, -0.1892945021390915, -0.10955693572759628, -0.014685150235891342, -0.16474366188049316, 0.12644179165363312, -0.18881778419017792], [0.9844828844070435, -0.9241409301757812, -0.8719619512557983, -0.8796037435531616, -0.774803876876831, -0.773421049118042, 0.8327436447143555, 0.9434232711791992, 0.04303453862667084, 0.8548994064331055, -0.9256051778793335, -0.7973909378051758, -0.11471827328205109, -0.375839501619339, -0.37581580877304077, -0.8453539609909058], [0.8148730993270874, -0.9316743612289429, -0.8319191932678223, -0.879568338394165, -0.7901102304458618, -0.8700703382492065, 0.8378473520278931, 0.8370472192764282, 0.09686116874217987, 0.8288859128952026, -0.8247182369232178, -0.7706786394119263, -0.2340865433216095, -0.2723015248775482, -0.1473962664604187, -0.8317775726318359], [2.345616340637207, -2.2293925285339355, -2.311260938644409, -2.321105718612671, -2.2528257369995117, -2.2387726306915283, 2.222365379333496, 2.188964605331421, 0.2740039527416229, 2.381885528564453, -2.2197484970092773, -2.131155014038086, -0.5465253591537476, -0.5940200090408325, -1.0118029117584229, -2.275636911392212], [0.14809297025203705, -0.22948430478572845, -0.3506700396537781, -0.37142258882522583, -0.24851320683956146, -0.3415951132774353, 0.19966016709804535, 0.2837403416633606, -0.035678569227457047, 0.35906678438186646, -0.24787400662899017, -0.17631910741329193, -0.12452679872512817, -0.2083425372838974, 0.10007724910974503, -0.2876219153404236], [-1.154949426651001, 1.0681735277175903, 1.0115928649902344, 1.146240472793579, 1.114356279373169, 0.9919571280479431, -1.0956251621246338, -0.997394859790802, -0.4102823734283447, -1.0486950874328613, 0.9849606156349182, 1.0515902042388916, 0.1538364738225937, 0.06408055871725082, 0.7075271606445312, 1.0945206880569458], [-0.46168944239616394, 0.5099372863769531, 0.534267783164978, 0.583938479423523, 0.6235870122909546, 0.5454660058021545, -0.48804256319999695, -0.5380961298942566, -0.2534126043319702, -0.44818970561027527, 0.6337742209434509, 0.560894250869751, 0.13858547806739807, 0.13314911723136902, 0.444038063287735, 0.5539509654045105], [-0.5124031901359558, 0.3792600929737091, 0.40032288432121277, 0.33595010638237, 0.5645538568496704, 0.5559398531913757, -0.3269907534122467, -0.38194242119789124, -0.12988612055778503, -0.4651269018650055, 0.5489780902862549, 0.45892783999443054, 0.2105453908443451, 0.04359137639403343, 0.3406198024749756, 0.5648201107978821], [-0.450353741645813, 0.425193727016449, 0.5281407833099365, 0.47361326217651367, 0.5626159906387329, 0.3731096386909485, -0.3931843042373657, -0.3716707229614258, -0.1956002563238144, -0.38627105951309204, 0.5680912733078003, 0.45762723684310913, 0.21629489958286285, 0.007379744667559862, 0.3741300702095032, 0.5785245299339294], [0.008645397610962391, -0.2060920149087906, -0.0480569563806057, -0.15611593425273895, -0.08881435543298721, -0.21055589616298676, 0.13535307347774506, 0.16177569329738617, -0.07601232081651688, 0.026272276416420937, -0.19344455003738403, -0.11929509788751602, -0.11841563880443573, -0.06844352185726166, 0.21283739805221558, -0.06946707516908646], [-0.3740200698375702, 0.3282865583896637, 0.3084011375904083, 0.41721054911613464, 0.28166013956069946, 0.32588812708854675, -0.2719622850418091, -0.3796099126338959, -0.10798848420381546, -0.3341951370239258, 0.47638049721717834, 0.31882569193840027, 0.08650179207324982, -0.002316188532859087, 0.38860011100769043, 0.46409791707992554], [-0.16494761407375336, 0.17960670590400696, 0.09323326498270035, 0.22536587715148926, 0.21459223330020905, 0.1671421378850937, -0.18654373288154602, -0.18202374875545502, -0.18900403380393982, -0.03955712914466858, 0.16935202479362488, 0.26930373907089233, 0.12574198842048645, -0.024829424917697906, 0.1850949227809906, 0.18805722892284393], [0.05028187483549118, -0.11549690365791321, -0.15508276224136353, 0.009209579788148403, -0.1472497582435608, -0.034830622375011444, 0.09825047105550766, 0.16185979545116425, 0.019173230975866318, 0.14042121171951294, -0.16947132349014282, -0.22085590660572052, 0.041234735399484634, -0.06998501718044281, 0.13695751130580902, -0.0564352422952652], [-0.2260802686214447, 0.2472379505634308, 0.08852732926607132, 0.07984625548124313, 0.06647441536188126, 0.22651979327201843, -0.20288893580436707, -0.13506194949150085, -0.13440105319023132, -0.2586086094379425, 0.2188141942024231, 0.039614178240299225, 0.052628517150878906, -0.026694750413298607, 0.1505633294582367, 0.12082207947969437], [-0.2963542938232422, 0.46334683895111084, 0.4917267858982086, 0.3361479640007019, 0.36366212368011475, 0.2976125478744507, -0.49510130286216736, -0.5039539337158203, -0.07183387875556946, -0.4795300364494324, 0.40937477350234985, 0.3410429358482361, 0.21235628426074982, -0.027063820511102676, 0.30325666069984436, 0.5008476972579956], [-0.3118586838245392, 0.2899535000324249, 0.31162241101264954, 0.2605098783969879, 0.48700663447380066, 0.29290440678596497, -0.378431111574173, -0.5163317918777466, -0.01304597407579422, -0.11080603301525116, 0.050688132643699646, 0.120659738779068, 0.015239305794239044, 0.04146342724561691, 0.44674503803253174, 0.3448413908481598], [-0.7294313311576843, 0.6650474667549133, 0.7573629021644592, 0.7390214800834656, 0.8938859105110168, 0.7457936406135559, -0.6911197304725647, -0.8323106169700623, -0.2563565969467163, -0.80576092004776, 0.6632059216499329, 0.7873902916908264, 0.034071654081344604, 0.012658867985010147, 0.5350281000137329, 0.8813431859016418], [-0.532871663570404, 0.541447103023529, 0.5071684718132019, 0.6321399211883545, 0.637771487236023, 0.6781944632530212, -0.4775351285934448, -0.5510434508323669, -0.20546387135982513, -0.6228452324867249, 0.5270387530326843, 0.5874049663543701, 0.1659364402294159, -0.0198819637298584, 0.32028812170028687, 0.6275216937065125], [0.3676903247833252, -0.5402542948722839, -0.5100907683372498, -0.5577993988990784, -0.5001033544540405, -0.4710947573184967, 0.36992883682250977, 0.5447378754615784, 0.0574592724442482, 0.454803466796875, -0.4805416166782379, -0.3742300271987915, -0.1668263077735901, -0.13769471645355225, -0.027225010097026825, -0.43605828285217285], [-0.15757153928279877, 0.25514036417007446, 0.2630220949649811, 0.29430392384529114, 0.2806119918823242, 0.08713417500257492, -0.056834254413843155, -0.14092828333377838, -0.31600743532180786, -0.22305704653263092, 0.21014390885829926, 0.16460032761096954, -0.04999842867255211, -0.014713838696479797, 0.48663049936294556, 0.16792719066143036], [-0.08931098133325577, 0.21410858631134033, 0.08722694963216782, 0.016950981691479683, -0.019191252067685127, 0.14816206693649292, -0.15140312910079956, -0.15243181586265564, -0.20386967062950134, -0.07107535004615784, -0.01722635328769684, 0.14041297137737274, -0.19388923048973083, 0.012843567878007889, -0.12274324148893356, 0.07408462464809418], [0.06947744637727737, -0.034920766949653625, -0.0581979863345623, 0.14076562225818634, -0.01956682652235031, -0.007122752256691456, 0.06489719450473785, 0.07024846971035004, 0.0725405365228653, -0.11516456305980682, 0.12517015635967255, 0.018768906593322754, -0.07410316169261932, -0.212491974234581, -0.33156517148017883, 0.16008172929286957], [1.7945470809936523, -1.7681242227554321, -1.6326830387115479, -1.7657172679901123, -1.6209075450897217, -1.7044618129730225, 1.7528257369995117, 1.7424473762512207, 0.37496745586395264, 1.8037042617797852, -1.6897149085998535, -1.8640103340148926, -0.25628575682640076, -0.5115722417831421, -0.6535355448722839, -1.863109827041626], [1.5292303562164307, -1.5548219680786133, -1.5038862228393555, -1.373258113861084, -1.4047269821166992, -1.5488498210906982, 1.430333137512207, 1.4495558738708496, 0.17590391635894775, 1.3500747680664062, -1.568843126296997, -1.5559711456298828, -0.1632685512304306, -0.4718098044395447, -0.4537428617477417, -1.5201644897460938], [0.8194459080696106, -0.9715543389320374, -0.8072559833526611, -1.0095840692520142, -0.9807475805282593, -0.8590384721755981, 0.8135553002357483, 0.9241014122962952, 0.1492181122303009, 0.9294350743293762, -0.8237886428833008, -1.019286870956421, -0.2148454785346985, -0.20741650462150574, -0.283638596534729, -0.9356091618537903], [0.7695363759994507, -0.9174697399139404, -0.857070803642273, -0.820574164390564, -0.8000061511993408, -0.9065020084381104, 0.9619454145431519, 0.7292673587799072, 0.05055044963955879, 0.7402355670928955, -0.7980844974517822, -0.9055250883102417, -0.21755658090114594, -0.2923012375831604, -0.20521727204322815, -0.8509211540222168], [0.2933293879032135, -0.0817934200167656, -0.21725548803806305, -0.41205886006355286, -0.3832379877567291, -0.40992382168769836, 0.22932006418704987, 0.46080055832862854, -0.04879577457904816, 0.41653040051460266, -0.33494988083839417, -0.4457542598247528, -0.10779711604118347, -0.08626577258110046, -0.057679660618305206, -0.36097100377082825], [10.96371078491211, -11.187564849853516, -10.989664077758789, -11.111808776855469, -11.196418762207031, -11.116460800170898, 11.205219268798828, 11.087322235107422, 2.258524179458618, 11.185699462890625, -11.025848388671875, -11.126482009887695, -2.2666842937469482, -2.304677724838257, -4.998096942901611, -10.968006134033203], [7.00617790222168, -6.8288421630859375, -6.894784450531006, -6.838769435882568, -6.966578006744385, -6.759528160095215, 6.768173694610596, 6.758304595947266, 1.3832361698150635, 6.954986095428467, -6.898581027984619, -6.97341775894165, -1.3889217376708984, -1.5785722732543945, -2.8765289783477783, -6.946840763092041], [2.0054404735565186, -2.0606133937835693, -2.051616668701172, -2.0403671264648438, -2.034681558609009, -2.045518159866333, 1.9538726806640625, 2.0580291748046875, 0.2443780153989792, 2.120556592941284, -2.175771713256836, -2.0469295978546143, -0.4273599088191986, -0.49840447306632996, -0.7799201607704163, -2.1407063007354736], [0.25045284628868103, -0.36978062987327576, -0.40499821305274963, -0.23481254279613495, -0.3407367169857025, -0.22929243743419647, 0.4443720877170563, 0.4384819567203522, 0.10803275555372238, 0.24374152719974518, -0.4158715307712555, -0.3185592591762543, -0.14240509271621704, -0.2653217613697052, 0.09694664180278778, -0.2553621232509613], [0.8090494275093079, -0.9610846042633057, -0.8290720582008362, -0.7851464152336121, -0.8723599314689636, -0.7738803029060364, 0.8523855805397034, 0.9067614674568176, 0.14858749508857727, 0.8824438452720642, -0.7710891366004944, -0.7618619799613953, -0.26445531845092773, -0.24867317080497742, -0.22047509253025055, -0.812444269657135], [0.7603819966316223, -0.7570266127586365, -0.9449627995491028, -0.9383147358894348, -0.8339449763298035, -0.8470701575279236, 0.8083990216255188, 0.76847904920578, 0.04697165638208389, 0.7511040568351746, -0.8728498816490173, -0.8720008730888367, -0.24756115674972534, -0.22423338890075684, -0.21193602681159973, -0.7511021494865417], [1.289790391921997, -1.2738168239593506, -1.2104597091674805, -1.3328206539154053, -1.355402946472168, -1.3275938034057617, 1.255363941192627, 1.242645025253296, 0.17776252329349518, 1.2919056415557861, -1.2121591567993164, -1.3170170783996582, -0.2594471573829651, -0.3421202003955841, -0.37370914220809937, -1.3170206546783447], [0.5096868276596069, -0.5542594194412231, -0.4983380138874054, -0.7091546058654785, -0.48011547327041626, -0.6253441572189331, 0.6810890436172485, 0.7080820798873901, 0.09626065194606781, 0.6245366334915161, -0.5987534523010254, -0.505258321762085, -0.1535303145647049, -0.10679517686367035, -0.09960421174764633, -0.7024221420288086], [1.3699675798416138, -1.4461897611618042, -1.506203532218933, -1.5233484506607056, -1.5440424680709839, -1.39248526096344, 1.4669655561447144, 1.5171436071395874, 0.2743425965309143, 1.5664774179458618, -1.5812054872512817, -1.5088121891021729, -0.3040180206298828, -0.2860583961009979, -0.5428634881973267, -1.5056332349777222], [0.8344897627830505, -0.9034853577613831, -0.8955318331718445, -0.8802048563957214, -0.9407870769500732, -0.777613639831543, 0.8568016886711121, 0.9483315944671631, 0.0748187005519867, 0.9376735687255859, -0.9258370399475098, -0.7078511118888855, -0.08679702132940292, -0.18077832460403442, -0.20596195757389069, -0.927565336227417], [0.27697065472602844, -0.2727358937263489, -0.4439676105976105, -0.36021578311920166, -0.33949872851371765, -0.3050868809223175, 0.42461061477661133, 0.3931562602519989, 0.1103849783539772, 0.41050851345062256, -0.44684961438179016, -0.43056002259254456, 0.04863998666405678, -0.08955232053995132, -0.09556089341640472, -0.37203240394592285], [-0.09926046431064606, 0.14192956686019897, 0.08454662561416626, -1.1450218153186142e-05, -0.04007250443100929, 0.11645764112472534, -0.05085548758506775, -0.07890357822179794, -0.12666404247283936, -0.08687448501586914, 0.1601780354976654, 0.14252914488315582, 0.38262197375297546, -0.06447137147188187, 0.2784237861633301, 0.010539444163441658], [2.6449220180511475, -2.7495524883270264, -2.879098892211914, -2.6734015941619873, -2.6388652324676514, -2.66152286529541, 2.726994276046753, 2.8426806926727295, 0.5715690851211548, 2.8173742294311523, -2.871428966522217, -2.7682371139526367, -0.5038130283355713, -0.7091570496559143, -1.2001378536224365, -2.8691487312316895], [1.173099160194397, -1.195393443107605, -1.3760937452316284, -1.1555057764053345, -1.3154600858688354, -0.9739663004875183, 1.1956995725631714, 1.015968680381775, 0.10871350020170212, 1.3190733194351196, -1.2744492292404175, -1.1796866655349731, -0.33133015036582947, -0.35734179615974426, -0.43050238490104675, -1.1629098653793335], [0.3614887297153473, -0.36273643374443054, -0.17363204061985016, -0.3942757248878479, -0.3219173848628998, -0.39618515968322754, 0.24337074160575867, 0.3796823024749756, 0.10502643138170242, 0.3912460207939148, -0.17993272840976715, -0.35946205258369446, 0.06788019090890884, -0.25187093019485474, 0.06626980006694794, -0.3655454218387604], [0.6733569502830505, -0.7615155577659607, -0.728330135345459, -0.7154119610786438, -0.6177472472190857, -0.691530168056488, 0.731248140335083, 0.5967021584510803, 0.1770959049463272, 0.722480058670044, -0.7225777506828308, -0.7756460309028625, -0.11852587759494781, -0.13548408448696136, -0.1481039971113205, -0.6151518225669861], [-0.01801345869898796, 0.011104329489171505, -0.03726826608181, 0.10271449387073517, 0.03427386283874512, 0.05734364315867424, 0.04837753251194954, 0.11135745793581009, -0.09350273013114929, -0.03221150115132332, 0.05196051299571991, 0.09966432303190231, 0.09321732074022293, -0.10007403045892715, 0.09307166934013367, 0.11147646605968475], [-0.1209527924656868, -0.1112358346581459, -0.07966916263103485, -0.06470049917697906, 0.0010060592321678996, 0.09046005457639694, 0.03544003143906593, -0.015169927850365639, -0.029903991147875786, -0.1179298534989357, 0.04174014553427696, -0.062215644866228104, 0.005918745417147875, 0.05033533275127411, 0.11825530976057053, 0.017050525173544884], [0.5828713774681091, -0.5058565735816956, -0.6933966279029846, -0.5111454129219055, -0.7139511704444885, -0.5960195660591125, 0.6933351159095764, 0.5559548735618591, 0.1267498880624771, 0.6975410580635071, -0.6919571757316589, -0.5571455359458923, -0.11477425694465637, -0.25706878304481506, -0.008012493140995502, -0.5794979929924011], [2.7138609886169434, -2.7444891929626465, -2.77236270904541, -2.69413423538208, -2.7764499187469482, -2.689718246459961, 2.7162656784057617, 2.635324001312256, 0.3796936571598053, 2.6716458797454834, -2.7078397274017334, -2.8463737964630127, -0.6369028687477112, -0.5364790558815002, -1.0349215269088745, -2.8467373847961426]], [0.0014523155987262726, -0.04593292623758316, 0.0667758658528328, 0.060362715274095535, 0.04296393692493439, -0.019349703565239906, -0.05516280233860016, 0.007787640672177076, -0.028871964663267136, -0.0670403316617012, 0.09600094705820084, 0.1205587163567543, 0.041726067662239075, 0.05517292395234108, -0.16390690207481384, 0.04114074259996414], [[-0.7317348122596741], [0.6586838364601135], [0.5454435348510742], [0.5058508515357971], [1.6569756269454956], [0.8005505800247192], [-0.5710674524307251], [-0.7452080845832825], [-0.049344658851623535], [-0.3258587121963501], [0.6041440367698669], [0.3545924127101898], [0.332167387008667], [2.4279305934906006], [0.33457261323928833], [0.4999687671661377]], [-0.05528326332569122]], "etBin": [0.0, 20.0], "etaBin": [1.37, 1.54]}, {"sequence": "{\"class_name\": \"Sequential\", \"config\": {\"name\": \"sequential_23\", \"layers\": [{\"class_name\": \"Dense\", \"config\": {\"name\": \"dense_46\", \"trainable\": true, \"batch_input_shape\": [null, 100], \"dtype\": \"float32\", \"units\": 7, \"activation\": \"tanh\", \"use_bias\": true, \"kernel_initializer\": {\"class_name\": \"GlorotUniform\", \"config\": {\"seed\": null}}, \"bias_initializer\": {\"class_name\": \"Zeros\", \"config\": {}}, \"kernel_regularizer\": null, \"bias_regularizer\": null, \"activity_regularizer\": null, \"kernel_constraint\": null, \"bias_constraint\": null}}, {\"class_name\": \"Dense\", \"config\": {\"name\": \"dense_47\", \"trainable\": true, \"dtype\": \"float32\", \"units\": 1, \"activation\": \"linear\", \"use_bias\": true, \"kernel_initializer\": {\"class_name\": \"GlorotUniform\", \"config\": {\"seed\": null}}, \"bias_initializer\": {\"class_name\": \"Zeros\", \"config\": {}}, \"kernel_regularizer\": null, \"bias_regularizer\": null, \"activity_regularizer\": null, \"kernel_constraint\": null, \"bias_constraint\": null}}, {\"class_name\": \"Activation\", \"config\": {\"name\": \"activation_23\", \"trainable\": true, \"dtype\": \"float32\", \"activation\": \"tanh\"}}]}, \"keras_version\": \"2.2.4-tf\", \"backend\": \"tensorflow\"}", "weights": [[[0.20225106179714203, -1.0530906915664673, 1.1031341552734375, -0.9206339120864868, 1.0277148485183716, -0.9358425736427307, -0.8586660623550415], [-0.9006369709968567, -0.9841030836105347, 0.9078258872032166, -0.9598978757858276, -2.22694993019104, -0.8182768821716309, -1.0525412559509277], [0.03466144949197769, 0.29775214195251465, -0.22757139801979065, 0.002367813605815172, -0.04415075108408928, 0.32609692215919495, 0.07509074360132217], [-0.2889445722103119, 0.5295977592468262, -0.47363269329071045, 0.6184605360031128, -0.12518760561943054, 0.2679734230041504, 0.4819488525390625], [0.07475759088993073, 0.8868358135223389, -0.6869458556175232, 0.7723608613014221, 0.16564080119132996, 0.9349111914634705, 0.7972657084465027], [-0.13977815210819244, 0.3516679108142853, -0.3318561613559723, 0.20745083689689636, -0.05261689051985741, 0.23690611124038696, 0.13409405946731567], [0.04881351813673973, 0.21565701067447662, -0.33094659447669983, 0.23745183646678925, -0.03446321561932564, 0.19807754456996918, 0.10143954306840897], [0.02957393415272236, 0.0794435515999794, -0.29374340176582336, 0.20646026730537415, 0.08158248662948608, 0.25633737444877625, 0.31604617834091187], [-0.24632103741168976, -2.2470850944519043, 2.0499820709228516, -2.1763594150543213, -0.5113720893859863, -2.16581392288208, -2.063786745071411], [-0.4430311918258667, -1.9531877040863037, 2.239422559738159, -2.0287892818450928, -0.3788033127784729, -2.012897253036499, -2.093536138534546], [-3.228940725326538, -2.1994662284851074, 2.078904390335083, -2.282665967941284, -0.5971873998641968, -2.118820905685425, -2.2159135341644287], [0.20872461795806885, 0.20457442104816437, -0.21715745329856873, 0.19380436837673187, 0.13953155279159546, 0.3466905951499939, 0.26373958587646484], [1.6354045867919922, 2.939715623855591, -1.245003581047058, 1.2973726987838745, 4.506430625915527, 2.1918342113494873, 1.229822039604187], [-6.902615547180176, 0.3507762849330902, -0.4031929075717926, 0.42046311497688293, 0.2659728229045868, 0.469011127948761, 0.3812316358089447], [1.333670735359192, 7.303609848022461, -6.946435451507568, 6.772983551025391, 1.3502607345581055, 7.494755744934082, 6.935065746307373], [0.8173291087150574, 4.734809875488281, -4.712887287139893, 4.822548866271973, 0.9779933094978333, 4.930378437042236, 4.815906524658203], [0.44339412450790405, 1.9167451858520508, -1.9018898010253906, 1.8652130365371704, 0.351772278547287, 1.8796205520629883, 1.8225938081741333], [0.9221566319465637, 5.447176933288574, -5.241952896118164, 5.3888702392578125, 0.9250448942184448, 5.377964496612549, 5.333498954772949], [0.30203866958618164, 1.738074541091919, -1.8523764610290527, 1.7751623392105103, 0.41677066683769226, 1.7996736764907837, 1.7477914094924927], [0.8357586860656738, 4.827472686767578, -4.795210361480713, 4.914341926574707, 0.9519994854927063, 4.8660888671875, 4.78044319152832], [-374.33819580078125, 1.8147984743118286, -1.8940085172653198, 1.8140294551849365, 0.2502197027206421, 1.8072516918182373, 1.9142042398452759], [-100.91007232666016, 1.2954773902893066, -1.2504463195800781, 1.39537513256073, -9.120316505432129, 1.36774480342865, 1.3428295850753784], [0.40322041511535645, 2.951904773712158, -7.217137813568115, 1.8427232503890991, 0.3444167375564575, 2.0416035652160645, 1.9110363721847534], [-105.98914337158203, 2.7711808681488037, -2.7899413108825684, 2.7229926586151123, 0.3123454451560974, 2.8872687816619873, 2.8914854526519775], [35.8812255859375, 5.329275608062744, -5.231794357299805, 2.17301607131958, 0.40910106897354126, 2.3359196186065674, 2.352703809738159], [-291.89166259765625, 1.5482845306396484, -1.6275787353515625, 1.5756100416183472, 0.0916995108127594, 1.5760948657989502, 1.6458407640457153], [0.17422837018966675, 1.5833131074905396, -1.6051292419433594, 1.5816236734390259, 0.2373439073562622, 1.7236955165863037, 1.5780705213546753], [-76.4021987915039, 2.7048208713531494, -3.8509366512298584, 2.6944282054901123, 0.43546077609062195, 1.9696800708770752, 2.5145366191864014], [-491.6601257324219, 1.9742443561553955, -3.8491742610931396, 1.9131555557250977, -14.573567390441895, 1.7144217491149902, 1.8319544792175293], [-0.16425257921218872, 1.1318703889846802, -1.1744351387023926, 1.321346402168274, 0.15171678364276886, 1.3210614919662476, 1.3093864917755127], [-0.13429200649261475, 1.0929538011550903, -0.8577916026115417, 0.9164560437202454, -0.055674199014902115, 0.9248697757720947, 0.9795845150947571], [0.20934633910655975, 1.749925136566162, -1.7116165161132812, 1.57354736328125, 0.3707161545753479, 1.7599890232086182, 1.798264503479004], [0.01121070422232151, 0.7001661062240601, -0.36539626121520996, 0.4657553434371948, -0.05302024260163307, 0.8116555213928223, 0.35299715399742126], [0.22853007912635803, 2.305717945098877, -4.793726921081543, 2.363318920135498, 0.358106404542923, 2.4698283672332764, 2.2552196979522705], [0.014218064956367016, 0.05212286114692688, -0.08205004781484604, 0.21329212188720703, -0.07901870459318161, 0.2059156745672226, 0.05755537748336792], [0.10473887622356415, 1.4895020723342896, -1.5022155046463013, 1.4519634246826172, 0.2045583873987198, 1.3981654644012451, 1.3722851276397705], [-0.03651595488190651, 0.3556216359138489, -0.5438974499702454, 0.5176462531089783, 0.0697036162018776, 0.41586068272590637, 0.3443555533885956], [0.07260922342538834, 0.9450576901435852, -0.7923613786697388, 0.8253650665283203, 0.10527680069208145, 0.8404405117034912, 0.8321239948272705], [-0.34782665967941284, -0.6107288002967834, 0.5673443078994751, -0.7699162364006042, -0.2687459886074066, -0.7753180861473083, -0.7481610178947449], [-0.009246349334716797, 0.649321973323822, -0.7924880385398865, 0.6339988708496094, 0.15632261335849762, 0.6789394617080688, 0.8172251582145691], [-0.039252765476703644, -0.023156901821494102, 0.11560714989900589, -0.10295349359512329, -0.11626090854406357, 0.022743070498108864, -0.16909922659397125], [-0.07105270773172379, -0.1220313087105751, 0.02123773843050003, -0.1282825767993927, -0.14377674460411072, 0.010476325638592243, -0.0316196084022522], [-0.06934697180986404, 0.6576177477836609, -0.8034487366676331, 0.6225374937057495, 0.05710787698626518, 0.6788951754570007, 0.6316993236541748], [0.10464552789926529, 0.4568925201892853, -0.5616395473480225, 0.3867333233356476, 0.19631843268871307, 0.37160664796829224, 0.5031779408454895], [0.1353124976158142, 0.5959261655807495, -0.5233768224716187, 0.6584811210632324, 0.18389847874641418, 0.6302220821380615, 0.4719659686088562], [-0.13408182561397552, -0.33617663383483887, -0.2722334861755371, 0.10895311087369919, -0.08253363519906998, -0.3735024034976959, -0.40451106429100037], [0.031428251415491104, 2.443324327468872, -2.5108327865600586, 2.4481003284454346, 0.10760928690433502, 2.5426855087280273, 2.313936471939087], [-0.00043547828681766987, 0.10611805319786072, -0.5720518231391907, 0.1392822414636612, -0.2127053141593933, 0.11551742255687714, 0.1540975123643875], [-0.12158826738595963, 0.24280813336372375, -0.4061076045036316, 0.39405396580696106, 0.07326456159353256, 0.3873821198940277, 0.31803032755851746], [0.16264048218727112, 0.5849461555480957, -0.7818689346313477, 0.6399299502372742, 0.040400728583335876, 0.7570158839225769, 0.722418487071991], [-0.0336020365357399, -0.1503051519393921, 0.019294343888759613, -0.027020787820219994, -0.06481891125440598, -0.11191364377737045, 0.09785754233598709], [56.602081298828125, 0.7810186743736267, -0.7768457531929016, 0.6829317808151245, 0.23098519444465637, 0.6684703826904297, 0.6992901563644409], [-0.14486771821975708, -0.027534402906894684, 0.13501304388046265, -0.1337304562330246, 0.05147608742117882, -0.034952033311128616, -0.11194178462028503], [25.081844329833984, 0.4089702367782593, -0.47803908586502075, 0.3378160893917084, 0.1465410590171814, 0.4980826675891876, 0.2870538532733917], [-0.14430655539035797, 0.014316439628601074, -0.029811006039381027, 0.11674128472805023, 0.0579967275261879, 0.033552736043930054, 0.0576513297855854], [-0.028534093871712685, 0.3819413185119629, -0.42356646060943604, 0.3012418746948242, 0.10700484365224838, 0.451158732175827, 0.25876832008361816], [0.12397117167711258, 0.446049302816391, -0.34774869680404663, 0.38937267661094666, 0.14924295246601105, 0.3124142587184906, 0.4169984757900238], [0.4500467777252197, 0.7746580243110657, -0.7984080910682678, 0.8625653386116028, 0.037807874381542206, 0.6837500333786011, 0.8080670833587646], [-0.18105795979499817, -0.421926349401474, 0.3588971793651581, -0.46745651960372925, -0.12092505395412445, -0.5132716298103333, -0.4458756148815155], [0.0884188562631607, 0.5414602160453796, -0.6726347804069519, 0.6723899245262146, 0.21576111018657684, 0.6350975632667542, 0.6269686818122864], [-0.08558822423219681, -0.21584512293338776, -0.5343213081359863, -0.18008916079998016, -0.09722263365983963, -0.3610364496707916, -0.2547069787979126], [-0.01410595327615738, 0.01064643356949091, -0.4000171422958374, 0.0021010921336710453, 0.0056007616221904755, 0.0016025649383664131, 0.09498245269060135], [-0.2034880816936493, -0.4630609154701233, 0.357125461101532, -0.2173125147819519, -0.03826138749718666, -0.3483062982559204, -0.28197652101516724], [-0.00359709863550961, 0.42981064319610596, -0.46829697489738464, 0.5533600449562073, 0.06926880776882172, 0.6467903256416321, 0.6099480390548706], [-0.023490779101848602, -0.28911176323890686, 0.39098119735717773, -0.25419265031814575, 0.01470389124006033, -0.3843829035758972, -0.2612399458885193], [-0.13555382192134857, 0.13013294339179993, -0.2298913598060608, 0.34476810693740845, 0.09834640473127365, 0.15782345831394196, 0.1162339448928833], [-0.19149203598499298, -0.663794755935669, 0.8594713807106018, -0.8264703750610352, -0.11117671430110931, -0.8129379153251648, -0.8577127456665039], [-0.0329434908926487, 0.5548304915428162, -0.7110618352890015, 0.5261073708534241, 0.04086750000715256, 0.5089651346206665, 0.5897204279899597], [-0.03576066344976425, -0.03197551518678665, -0.061636701226234436, -0.023064417764544487, 0.06830863654613495, 0.14174644649028778, -0.0008873241604305804], [0.1175893172621727, 0.6406247019767761, -0.6693058609962463, 0.5674001574516296, 0.18669994175434113, 0.6021339893341064, 0.5660701394081116], [-2.5838210582733154, -3.3596580028533936, 1.1489728689193726, -3.2025935649871826, -1.8611273765563965, -3.525460720062256, -3.1996941566467285], [-0.3766530454158783, -1.2676362991333008, 0.3318289518356323, -1.2528597116470337, -0.19118912518024445, -1.2975656986236572, -1.2886680364608765], [0.0775269940495491, -0.6108476519584656, 0.7837057113647461, -0.4238010048866272, -0.00022084862575866282, -0.470624715089798, -0.5724131464958191], [-0.18933957815170288, -0.19657936692237854, 0.1749361902475357, -0.0675603374838829, -0.43339014053344727, -0.08992313593626022, -0.04713967815041542], [0.0820411816239357, 1.2165848016738892, -1.3185076713562012, 1.3090697526931763, 0.2761912941932678, 1.3491078615188599, 1.3978859186172485], [0.03480014577507973, 1.669739842414856, -1.516122579574585, 1.6422717571258545, 0.18247313797473907, 1.552371621131897, 1.5510962009429932], [0.2163989096879959, 1.698229193687439, -1.7037216424942017, 1.7788664102554321, -0.3071092367172241, 1.755676031112671, 1.7785773277282715], [0.0517808236181736, 1.3538898229599, -1.2789870500564575, 1.2009772062301636, -0.030098382383584976, 1.3366750478744507, 1.147539496421814], [-0.10070717334747314, 0.702858030796051, -0.4620683789253235, 0.5008041262626648, 0.15324388444423676, 0.6237494349479675, 0.6683967709541321], [12.077496528625488, 0.3418480157852173, -0.26407337188720703, 0.3263235092163086, 0.07706119120121002, 0.29452434182167053, 0.2418586015701294], [4.14965295791626, 6.1677141189575195, -6.04487419128418, 6.060380458831787, 1.089043378829956, 6.071795463562012, 6.097591400146484], [-0.1262219250202179, 4.947031497955322, -4.833531856536865, 4.866382122039795, -0.3839241862297058, 4.917517185211182, 4.914902210235596], [86.37357330322266, 2.064474105834961, -1.9617811441421509, 1.925684928894043, 0.4835626780986786, 2.1172122955322266, 2.101524829864502], [-4.0285162925720215, 1.4611104726791382, -1.4752931594848633, 1.4962143898010254, -4.151394367218018, 1.364637851715088, 1.5633659362792969], [0.25238341093063354, 1.4244046211242676, -1.3945602178573608, 1.5213629007339478, 0.14189095795154572, 1.4950215816497803, 1.52678644657135], [0.173043355345726, 1.2800779342651367, -1.2135614156723022, 1.2689807415008545, 0.32883313298225403, 1.3792357444763184, 1.1417715549468994], [-0.4014592170715332, 0.5524511933326721, -0.3616400957107544, 0.49399247765541077, 0.05562252178788185, 0.5199951529502869, 0.5268220901489258], [0.2288466840982437, 1.1216765642166138, -0.9785630106925964, 0.9131807684898376, 0.3006491959095001, 1.0476226806640625, 0.9385673403739929], [-0.07247157394886017, 0.5202028751373291, -0.7223881483078003, 0.6098441481590271, 0.15693596005439758, 0.5393630862236023, 0.6720860600471497], [0.4948960244655609, 0.9660008549690247, -1.228663444519043, 1.0815221071243286, 0.10109970718622208, 1.0928481817245483, 0.8914452791213989], [-0.04976343736052513, 0.0637206956744194, -0.06690476834774017, 0.2259044200181961, 0.07931047677993774, 0.08544348925352097, 0.21402402222156525], [-0.3145294189453125, 0.18642033636569977, -0.1908154934644699, 0.06316171586513519, -0.059077147394418716, 0.04950239509344101, 0.04264415055513382], [0.2821393609046936, 2.2422211170196533, -2.6066627502441406, 2.099392890930176, 0.3848729133605957, 2.109650135040283, 2.2466981410980225], [6.633347034454346, 0.9906512498855591, -0.9647290706634521, 1.1164296865463257, 0.1263601928949356, 1.1252402067184448, 1.0317379236221313], [-0.10303610563278198, 0.08027803152799606, -0.10820335149765015, 0.06768371164798737, -0.020419638603925705, -0.09029020369052887, 0.11190563440322876], [-0.18202932178974152, -0.4177014231681824, 0.2571292519569397, -0.2768418788909912, -0.11904185265302658, -0.39486026763916016, -0.38053470849990845], [-0.31121909618377686, -0.23565077781677246, -0.1646440029144287, 0.19758757948875427, -0.20301781594753265, -0.3239646255970001, 0.12831388413906097], [-0.16638228297233582, 0.1196693554520607, 0.03318246826529503, 0.1930726021528244, -0.07345139235258102, 0.07521496713161469, -0.03789529576897621], [-0.3183334171772003, 0.06809215992689133, -0.053327761590480804, -0.09152580052614212, -0.012471398338675499, 0.03412073478102684, 0.11234768480062485], [51.533748626708984, 4.783222198486328, -4.849867343902588, 4.797698497772217, 0.9680086970329285, 4.873011589050293, 4.994553565979004]], [-0.2698359191417694, -0.021040206775069237, -0.10066322982311249, -0.008700813166797161, -0.0809217244386673, -0.09307112544775009, 0.002951504662632942], [[-0.1770661175251007], [-0.5325038433074951], [0.8114240169525146], [-0.9086681604385376], [-0.36800312995910645], [-0.8545414805412292], [-1.0581774711608887]], [-0.055201806128025055]], "etBin": [0.0, 20.0], "etaBin": [1.54, 2.5]}, {"sequence": "{\"class_name\": \"Sequential\", \"config\": {\"name\": \"sequential_24\", \"layers\": [{\"class_name\": \"Dense\", \"config\": {\"name\": \"dense_48\", \"trainable\": true, \"batch_input_shape\": [null, 100], \"dtype\": \"float32\", \"units\": 5, \"activation\": \"tanh\", \"use_bias\": true, \"kernel_initializer\": {\"class_name\": \"GlorotUniform\", \"config\": {\"seed\": null}}, \"bias_initializer\": {\"class_name\": \"Zeros\", \"config\": {}}, \"kernel_regularizer\": null, \"bias_regularizer\": null, \"activity_regularizer\": null, \"kernel_constraint\": null, \"bias_constraint\": null}}, {\"class_name\": \"Dense\", \"config\": {\"name\": \"dense_49\", \"trainable\": true, \"dtype\": \"float32\", \"units\": 1, \"activation\": \"linear\", \"use_bias\": true, \"kernel_initializer\": {\"class_name\": \"GlorotUniform\", \"config\": {\"seed\": null}}, \"bias_initializer\": {\"class_name\": \"Zeros\", \"config\": {}}, \"kernel_regularizer\": null, \"bias_regularizer\": null, \"activity_regularizer\": null, \"kernel_constraint\": null, \"bias_constraint\": null}}, {\"class_name\": \"Activation\", \"config\": {\"name\": \"activation_24\", \"trainable\": true, \"dtype\": \"float32\", \"activation\": \"tanh\"}}]}, \"keras_version\": \"2.2.4-tf\", \"backend\": \"tensorflow\"}", "weights": [[[6.899774074554443, 3.1365036964416504, -4.2039713859558105, -3.2046031951904297, 3.142569065093994], [16.352725982666016, 1.4264229536056519, -2.2228593826293945, -1.878570556640625, 1.885544776916504], [0.5933220386505127, 0.46255072951316833, -0.36036258935928345, -0.4966791272163391, 0.42330726981163025], [2.4192605018615723, -0.06407009065151215, 0.006430026143789291, -0.041915521025657654, -0.02307279221713543], [0.11743052303791046, -0.08005370944738388, 0.00564979761838913, 0.0010237264214083552, 0.03883444890379906], [4.809587001800537, 0.21678487956523895, -0.2846749424934387, -0.35946255922317505, 0.22803469002246857], [-0.343030720949173, 0.3651900887489319, -0.1690729856491089, -0.16862881183624268, 0.15954458713531494], [-0.24318425357341766, 0.5949395298957825, -0.713566780090332, -0.6730135679244995, 0.6746170520782471], [0.03658125922083855, 2.2012155055999756, -2.1880154609680176, -2.2084267139434814, 2.1230428218841553], [-3.1363468170166016, 2.7517831325531006, -2.8614342212677, -2.830782175064087, 2.7047719955444336], [-0.11848730593919754, -4.617430210113525, 1.3553072214126587, 1.444815993309021, -1.42130708694458], [-133.99517822265625, -7.510282516479492, -0.09500797837972641, 7.311896800994873, -7.3318586349487305], [5.193421363830566, -6.630491733551025, 6.485579967498779, 6.746527671813965, -6.713561534881592], [5.081463813781738, -4.501444339752197, 4.338515758514404, 4.426757335662842, -4.5120673179626465], [34.88224792480469, -5.261494159698486, 4.054488182067871, 5.439311981201172, -5.326016426086426], [2.887279987335205, -3.223292350769043, 2.1393210887908936, 3.1424455642700195, -3.2210566997528076], [4.678894996643066, -4.61243200302124, 4.3361616134643555, 4.659900188446045, -4.770684242248535], [2.649254560470581, -2.772080659866333, 2.6636030673980713, 2.7016937732696533, -2.7039825916290283], [5.661073684692383, -2.796226978302002, 2.965369462966919, 2.9734232425689697, -2.9834811687469482], [12.021714210510254, -3.223543405532837, 3.042334794998169, 3.1668307781219482, -3.2463696002960205], [2.9697964191436768, -3.2556803226470947, 3.0481913089752197, 3.2199769020080566, -3.198507308959961], [2.6748416423797607, -2.647357702255249, 2.8283920288085938, 2.7241642475128174, -2.676010847091675], [1.496754765510559, -2.1666717529296875, 2.3292248249053955, 2.252969264984131, -2.2476842403411865], [2.3502867221832275, -2.266063690185547, 2.269939661026001, 2.3151626586914062, -2.3895657062530518], [2.18495512008667, -2.1483471393585205, 2.2794978618621826, 2.0955772399902344, -2.085507392883301], [2.2296648025512695, -2.18593692779541, 2.1206231117248535, 2.339506149291992, -2.3317718505859375], [4.823065280914307, -1.7709323167800903, 1.8981077671051025, 1.7223293781280518, -1.8416802883148193], [1.9415361881256104, -1.8062844276428223, 1.9247421026229858, 1.7967665195465088, -1.9407689571380615], [1.8471628427505493, -1.743281364440918, 1.8147590160369873, 1.7298623323440552, -1.777759313583374], [1.553573727607727, -1.4827731847763062, 1.5951828956604004, 1.7324773073196411, -1.641348123550415], [1.784615159034729, -1.8574687242507935, 1.841043472290039, 1.7900738716125488, -1.8573496341705322], [1.7211287021636963, -1.648593783378601, 1.699897050857544, 1.5840544700622559, -1.6751770973205566], [0.866039514541626, -0.9516342878341675, 1.0185341835021973, 0.933102011680603, -0.8691015243530273], [0.6766988635063171, -0.7328382134437561, 0.8176997900009155, 0.8880665898323059, -0.7737262845039368], [1.4916530847549438, -1.3366445302963257, 1.804958701133728, 1.4224761724472046, -1.3237534761428833], [1.1342616081237793, -0.9306458830833435, 0.9224161505699158, 1.1536072492599487, -1.0309513807296753], [0.9869433045387268, -0.9237238764762878, 0.9395413994789124, 0.9202759265899658, -0.956010103225708], [-2.0301432609558105, -0.926608681678772, 0.9981505870819092, 0.9527393579483032, -0.8817286491394043], [0.6865469813346863, -0.7026310563087463, 0.5674375891685486, 0.5907071232795715, -0.7214582562446594], [1.4280389547348022, -1.3953449726104736, 1.4063092470169067, 1.382846713066101, -1.485176920890808], [0.7327931523323059, -0.8315156102180481, 0.8281000852584839, 0.7373377680778503, -0.8006212115287781], [0.2371402084827423, 0.021193236112594604, 0.13445372879505157, 0.11727926880121231, 0.03045649640262127], [1.8007099628448486, -1.6468673944473267, 1.7218259572982788, 1.6933280229568481, -1.7968178987503052], [1.1863741874694824, -0.3374200165271759, 1.3947255611419678, 0.37634551525115967, -0.15167224407196045], [-0.014120065607130527, 0.08506361395120621, 0.12177100032567978, -0.05939439311623573, 0.10287018120288849], [-0.2791396677494049, 0.29782259464263916, -0.2041916400194168, -0.32975059747695923, 0.32076430320739746], [0.7089519500732422, -0.7337348461151123, 0.669011116027832, 0.6748769879341125, -0.7837929129600525], [0.4246557950973511, -0.44007250666618347, 0.5964751243591309, 0.5615000128746033, -0.6078547835350037], [1.2188538312911987, -1.2420686483383179, 1.2814091444015503, 1.1567221879959106, -1.1492019891738892], [0.5817012786865234, -0.6445106863975525, 0.5093510746955872, 0.506033182144165, -0.6437928676605225], [0.499347060918808, -0.31814923882484436, 0.11234066635370255, 0.08262698352336884, -0.2273150086402893], [0.15267817676067352, -0.5961984395980835, 0.6185265779495239, 0.458146333694458, -0.4479551315307617], [0.14925161004066467, -0.16995586454868317, 0.21782174706459045, 0.12529253959655762, -0.19615353643894196], [-23.053922653198242, -1.443328619003296, 1.4358878135681152, 1.3546130657196045, -1.475245475769043], [-7.309223175048828, -0.191337451338768, 0.2166738212108612, 0.35908567905426025, -0.16832801699638367], [0.5530054569244385, -0.580639660358429, 0.7268922924995422, 0.7352120280265808, -0.7806887030601501], [0.7288325428962708, -0.25931718945503235, 0.7358065843582153, 0.30408918857574463, -0.43588489294052124], [-0.48038211464881897, 0.3832920491695404, -0.2957155704498291, -0.2514974772930145, 0.3417947590351105], [0.6218819618225098, -0.5014948844909668, 0.5267340540885925, 0.6668548583984375, -0.5984894633293152], [-0.20887674391269684, 0.15482033789157867, 0.018530720844864845, -0.22145557403564453, 0.18171395361423492], [-0.8501588106155396, 0.794733464717865, -0.8329143524169922, -1.1797659397125244, 1.3271015882492065], [1.2204691171646118, -1.4419859647750854, 1.4509282112121582, 1.2833958864212036, -1.3004610538482666], [-0.4112662374973297, 0.5691285133361816, -0.4544578790664673, -0.6023738980293274, 0.567756712436676], [1.3383499383926392, -1.1889307498931885, 1.213326096534729, 1.2626928091049194, -1.3063372373580933], [-7.248931884765625, -0.4611969292163849, 0.5540860295295715, 0.44070497155189514, -0.595904529094696], [0.6939977407455444, -0.6314657330513, 0.6212376952171326, 0.7011858224868774, -0.6181480288505554], [-0.5631090998649597, 0.6613544821739197, -0.6449874639511108, -0.6213901042938232, 0.6816067695617676], [0.2956172227859497, -0.21968477964401245, 0.33839884400367737, 0.2127763330936432, -0.3874245882034302], [-0.09469417482614517, 0.07686891406774521, -0.015398956835269928, 0.0018709421856328845, -0.10277097672224045], [0.9803329110145569, -1.1416877508163452, 1.0235668420791626, 0.7595801949501038, -0.8113201856613159], [-0.6680454611778259, 0.5154832601547241, -0.635717511177063, -0.5178589820861816, 0.4958667755126953], [-0.5637686252593994, 0.459480345249176, -0.4007470905780792, -0.4579158425331116, 0.5487250089645386], [-0.40396279096603394, 0.5681905746459961, -0.5329344272613525, -0.5081691741943359, 0.5853757262229919], [-0.23399324715137482, 0.4546891748905182, -0.037641871720552444, -0.4273574948310852, 0.28303003311157227], [0.7935812473297119, -0.5072559118270874, 0.5998761057853699, 0.530954122543335, -0.47044941782951355], [5.329383373260498, -1.0298582315444946, 0.9821504950523376, 1.1548372507095337, -1.012993574142456], [1.2227143049240112, -1.1796760559082031, 1.2193130254745483, 1.1909937858581543, -1.0892679691314697], [0.8110776543617249, -0.716462254524231, 0.5014228224754333, 0.6980268955230713, -0.7276430130004883], [1.0557469129562378, -0.13588790595531464, 1.4592225551605225, -0.21412287652492523, -0.0545482262969017], [-0.09967409074306488, 0.055263034999370575, 0.0007539120269939303, -0.14805613458156586, 0.0023131719790399075], [7.470627307891846, -8.00947093963623, 7.4821882247924805, 8.138078689575195, -8.050432205200195], [2.7973663806915283, -2.617304563522339, 2.9073970317840576, 2.6744754314422607, -2.7260515689849854], [12.985594749450684, -2.155120611190796, 2.234830617904663, 2.1828529834747314, -2.2996180057525635], [10.80945110321045, -0.8165661096572876, 1.2812618017196655, 0.854567289352417, -0.8566168546676636], [5.312950134277344, -1.546573519706726, 1.4794807434082031, 0.9787827730178833, -0.8960089683532715], [1.4698386192321777, -0.6795950531959534, 1.4617334604263306, 0.8920714855194092, -0.7992809414863586], [1.2358468770980835, -1.1418935060501099, 1.226047158241272, 1.081211805343628, -1.1440401077270508], [1.7002789974212646, -1.5697532892227173, 1.664346694946289, 1.5808980464935303, -1.6487165689468384], [2.332430124282837, -2.318981885910034, 2.2560362815856934, 3.3566043376922607, -2.2422666549682617], [1.9757977724075317, -2.0122148990631104, 1.880759835243225, 1.8604305982589722, -1.8732126951217651], [1.008349061012268, -0.2781384587287903, 1.8559043407440186, 0.3846227824687958, -0.3583516776561737], [-0.3452204167842865, 0.1994207799434662, 0.30874988436698914, -0.25873804092407227, 0.31507444381713867], [2.5461506843566895, -2.535902738571167, 2.4118285179138184, 2.4828872680664062, -2.49290132522583], [1.5805330276489258, -1.5865310430526733, 1.7293230295181274, 1.646903157234192, -1.6364563703536987], [-2.5452659130096436, -0.20114310085773468, 0.37950506806373596, 0.1991197019815445, -0.20403233170509338], [-0.2858031392097473, 0.29925528168678284, -0.32922399044036865, -0.35633036494255066, 0.4427047073841095], [4.327240467071533, -4.517794132232666, 4.410937309265137, 4.391186714172363, -4.316447734832764], [1.6949045658111572, -1.6401015520095825, 2.077910900115967, 1.694061517715454, -1.6208338737487793], [-0.5474514365196228, -0.16101348400115967, -0.5310007929801941, -0.010804381221532822, -0.05867146700620651], [-1.0070194005966187, 0.34219953417778015, -0.8569069504737854, -0.13379591703414917, 0.1259959191083908]], [0.13026855885982513, -0.26550668478012085, 0.10098384320735931, 0.2817646265029907, -0.24148190021514893], [[-0.49012619256973267], [1.3664380311965942], [-0.9122105836868286], [-1.5342460870742798], [1.4196211099624634]], [0.28516680002212524]], "etBin": [20.0, 30.0], "etaBin": [0.0, 0.8]}, {"sequence": "{\"class_name\": \"Sequential\", \"config\": {\"name\": \"sequential_25\", \"layers\": [{\"class_name\": \"Dense\", \"config\": {\"name\": \"dense_50\", \"trainable\": true, \"batch_input_shape\": [null, 100], \"dtype\": \"float32\", \"units\": 6, \"activation\": \"tanh\", \"use_bias\": true, \"kernel_initializer\": {\"class_name\": \"GlorotUniform\", \"config\": {\"seed\": null}}, \"bias_initializer\": {\"class_name\": \"Zeros\", \"config\": {}}, \"kernel_regularizer\": null, \"bias_regularizer\": null, \"activity_regularizer\": null, \"kernel_constraint\": null, \"bias_constraint\": null}}, {\"class_name\": \"Dense\", \"config\": {\"name\": \"dense_51\", \"trainable\": true, \"dtype\": \"float32\", \"units\": 1, \"activation\": \"linear\", \"use_bias\": true, \"kernel_initializer\": {\"class_name\": \"GlorotUniform\", \"config\": {\"seed\": null}}, \"bias_initializer\": {\"class_name\": \"Zeros\", \"config\": {}}, \"kernel_regularizer\": null, \"bias_regularizer\": null, \"activity_regularizer\": null, \"kernel_constraint\": null, \"bias_constraint\": null}}, {\"class_name\": \"Activation\", \"config\": {\"name\": \"activation_25\", \"trainable\": true, \"dtype\": \"float32\", \"activation\": \"tanh\"}}]}, \"keras_version\": \"2.2.4-tf\", \"backend\": \"tensorflow\"}", "weights": [[[-24.875232696533203, 2.0245139598846436, 2.0914957523345947, -0.4650673270225525, -1.9006359577178955, 2.037968635559082], [-35.52052307128906, 0.8271703720092773, 0.8605437874794006, -2.025869369506836, -0.930885374546051, 0.7316104769706726], [-1.6133642196655273, -0.22186963260173798, -0.21348552405834198, -0.08367107063531876, 0.2417631298303604, -0.07307479530572891], [-0.008624027483165264, -0.5199185609817505, -0.42250150442123413, 0.06120254099369049, 0.4728584885597229, -0.37979012727737427], [-0.05626048892736435, -0.5545067191123962, -0.4221906065940857, 0.1299218237400055, 0.35391226410865784, -0.5682746767997742], [-0.3086847960948944, -0.7945814728736877, -0.7759079337120056, 0.304646372795105, 0.5776044726371765, -0.5587223172187805], [-0.020699650049209595, -0.09759623557329178, -0.09413494169712067, 0.024342473596334457, 0.05797308683395386, -0.1056552603840828], [-0.36371681094169617, 0.5519661903381348, 0.7776044607162476, -0.47125324606895447, -0.6158409118652344, 0.6538429260253906], [-0.7491006851196289, 2.107658863067627, 2.0629820823669434, -0.655540943145752, -2.571823835372925, 2.6420161724090576], [9.88141918182373, 5.196192264556885, 5.058802127838135, -2.0782227516174316, -5.077270984649658, 4.95098352432251], [3.7016844749450684, 0.636294960975647, 0.6398661732673645, -0.9083961248397827, -0.6109508275985718, 0.6947001814842224], [47.948612213134766, -5.638603210449219, -5.7220234870910645, 3.9407615661621094, 5.852639675140381, -5.681090354919434], [29.423078536987305, -3.7636923789978027, -3.8140790462493896, 16.185447692871094, 3.8164560794830322, -3.669278621673584], [3.0021779537200928, -7.1080121994018555, -7.059181213378906, 2.990055799484253, 7.093533039093018, -7.030954837799072], [2.617471218109131, -5.876524925231934, -6.043213844299316, 2.026270627975464, 5.847262859344482, -6.037749290466309], [1.5538839101791382, -4.993096351623535, -4.332267761230469, 1.4965132474899292, 4.422942638397217, -5.058415412902832], [1.6353963613510132, -7.033196926116943, -7.06245756149292, 2.0964038372039795, 7.051522731781006, -7.002641677856445], [1.3132680654525757, -4.254160404205322, -4.410898208618164, 1.7466181516647339, 4.403559684753418, -4.334777355194092], [8.18600845336914, -3.846722364425659, -3.8616888523101807, 14.329285621643066, 3.741119146347046, -3.892927646636963], [3.481529474258423, -9.72186279296875, -8.815730094909668, 3.412203788757324, 8.884323120117188, -8.844118118286133], [2.213709831237793, -6.007926940917969, -6.082442283630371, 2.1346399784088135, 6.005716800689697, -6.0192766189575195], [2.721906900405884, -5.542205333709717, -5.471698760986328, 2.927086353302002, 5.438824653625488, -5.647950649261475], [1.4094911813735962, -3.613792657852173, -3.761535882949829, 1.5311397314071655, 3.7669293880462646, -3.7604215145111084], [1.842166781425476, -4.872674465179443, -4.784187316894531, 2.0526013374328613, 4.6668925285339355, -4.970141410827637], [2.055157423019409, -4.930007457733154, -5.023107528686523, 2.0255112648010254, 4.958282470703125, -4.995177745819092], [1.02581787109375, -3.872875690460205, -4.105536460876465, 1.7447408437728882, 4.039247512817383, -4.099310874938965], [-32.34109115600586, -3.002730369567871, -3.0269956588745117, 1.3085241317749023, 3.050180673599243, -3.0438473224639893], [0.5193427205085754, -1.7604550123214722, -1.7105648517608643, 0.6297897100448608, 1.744162917137146, -1.7268157005310059], [1.0854448080062866, -2.6564693450927734, -2.7417643070220947, 1.064219355583191, 2.618724822998047, -2.638028144836426], [0.7986941337585449, -4.5585126876831055, -4.617550373077393, 0.968110978603363, 4.599602699279785, -4.484391212463379], [0.7937002778053284, -3.900041341781616, -4.103362083435059, 1.0392800569534302, 3.1491522789001465, -2.984726905822754], [-39.9202995300293, -1.9911246299743652, -2.0788066387176514, 0.6658504605293274, 1.8947088718414307, -2.0249733924865723], [0.6154786944389343, -2.1886584758758545, -2.2058041095733643, 0.634518563747406, 2.128077507019043, -2.1979408264160156], [1.2842981815338135, -2.9386982917785645, -2.8836936950683594, 0.7891107201576233, 2.850562572479248, -2.7437589168548584], [0.8223607540130615, -2.142312526702881, -2.062774181365967, 0.9030886292457581, 2.1813929080963135, -1.9702707529067993], [0.35938817262649536, -1.4066506624221802, -1.3000037670135498, 0.5654179453849792, 1.4062283039093018, -1.4418545961380005], [0.27384892106056213, -0.9322798848152161, -1.1085129976272583, 0.22177866101264954, 0.968116819858551, -1.0907553434371948], [0.3549516201019287, -1.4100180864334106, -1.3346741199493408, 0.46843838691711426, 1.4218378067016602, -1.4923373460769653], [1.0272786617279053, -2.4112284183502197, -2.3267407417297363, 0.8789970874786377, 2.3448917865753174, -2.3664932250976562], [0.556393027305603, -1.2949612140655518, -1.2659637928009033, 0.29611310362815857, 1.3854869604110718, -1.4237343072891235], [0.9667421579360962, -2.606065511703491, -2.6595935821533203, 1.1163743734359741, 2.4763386249542236, -2.596942186355591], [-27.509204864501953, -2.0816357135772705, -1.9944506883621216, 0.8881351351737976, 1.6235952377319336, -1.5654140710830688], [0.6893214583396912, -1.8875538110733032, -1.933461308479309, 0.7998219728469849, 1.926133632659912, -1.8069599866867065], [-0.22417894005775452, 0.3693794310092926, 0.2566291391849518, -0.3377310633659363, -0.18555384874343872, 0.22664067149162292], [0.18357644975185394, -0.11105670034885406, -0.22493742406368256, 0.03779512643814087, 0.3139816224575043, -0.1594325304031372], [-0.03378888964653015, -0.11997859179973602, -0.10066007077693939, -0.003236232791095972, 0.1395268440246582, 0.24011728167533875], [0.2211812287569046, -0.9382053017616272, -0.9923979640007019, 0.2820183336734772, 0.9016680121421814, -0.8582908511161804], [0.0843660831451416, 0.05954858288168907, 0.16629832983016968, -0.1648709625005722, -0.47601744532585144, 0.4311347007751465], [0.870056688785553, -1.991539716720581, -2.091920852661133, 0.15052199363708496, 0.47541648149490356, -0.41843128204345703], [0.9310393929481506, -2.060246467590332, -2.1379387378692627, 1.0259461402893066, 2.1785831451416016, -4.925808429718018], [-41.212486267089844, -0.9869577288627625, -1.9406322240829468, 0.41772717237472534, 0.6198124289512634, -0.6386445164680481], [-7.586906909942627, -1.0988168716430664, -1.2982583045959473, 0.19212758541107178, 1.2655575275421143, -1.207939624786377], [0.02240859530866146, -0.13669247925281525, -0.1721581220626831, 0.01985853537917137, 0.15374556183815002, -0.20867477357387543], [-0.34544894099235535, -0.1764475703239441, -0.1789523810148239, 0.08016595244407654, -0.022515274584293365, 0.025181923061609268], [-0.013609317131340504, 0.3320315182209015, 0.22955913841724396, 0.10540862381458282, -0.2487664520740509, 0.37170419096946716], [0.05311030149459839, -0.4457632899284363, -0.3632001280784607, 0.18772593140602112, 0.3061142563819885, -0.33662962913513184], [0.39030352234840393, -0.972248911857605, -0.95749831199646, 0.445149302482605, 1.0221470594406128, -1.0937501192092896], [-2.412696123123169, -2.120349884033203, -1.9993577003479004, 0.9478403329849243, 1.9954326152801514, -2.111860990524292], [0.323057621717453, -0.877682626247406, -0.7545385360717773, 0.14493513107299805, 0.7287238836288452, -0.7560731172561646], [-0.0783422514796257, -0.0973014310002327, 0.05745566636323929, -0.04540832340717316, 0.11155026406049728, 0.04591921344399452], [0.420240581035614, -0.44584837555885315, -1.3660675287246704, 0.07517718523740768, 0.31069719791412354, -0.2978529632091522], [0.30666735768318176, -0.8447644114494324, -0.6751365065574646, 0.26397761702537537, 0.8503714799880981, -0.6991146206855774], [-0.010727977380156517, 0.1244892030954361, 0.28486204147338867, -0.12919968366622925, -0.2865869104862213, 0.29959744215011597], [-0.2036086767911911, 0.3315380811691284, 0.33897238969802856, -0.09367705136537552, -0.21749991178512573, 0.1464262157678604], [-0.939023494720459, -0.1593199521303177, -0.18478795886039734, -0.06310030817985535, 0.07167358696460724, -0.06530778855085373], [-14.801352500915527, -1.2802783250808716, -1.2895563840866089, 0.5289011001586914, 1.154962182044983, -1.1791579723358154], [0.0008461455581709743, -0.8253623247146606, -1.054251790046692, 0.07312864065170288, 0.6785088777542114, -0.7995136380195618], [-0.320068895816803, 0.5115103125572205, 0.5599813461303711, -0.18277166783809662, -0.5581897497177124, 0.6936266422271729], [0.18558304011821747, -0.33466649055480957, -0.5184959769248962, 0.13392755389213562, 