{"models": [{"sequence": "{\"class_name\": \"Sequential\", \"config\": {\"name\": \"sequential_60\", \"layers\": [{\"class_name\": \"Dense\", \"config\": {\"name\": \"dense_120\", \"trainable\": true, \"batch_input_shape\": [null, 100], \"dtype\": \"float32\", \"units\": 12, \"activation\": \"tanh\", \"use_bias\": true, \"kernel_initializer\": {\"class_name\": \"GlorotUniform\", \"config\": {\"seed\": null}}, \"bias_initializer\": {\"class_name\": \"Zeros\", \"config\": {}}, \"kernel_regularizer\": null, \"bias_regularizer\": null, \"activity_regularizer\": null, \"kernel_constraint\": null, \"bias_constraint\": null}}, {\"class_name\": \"Dense\", \"config\": {\"name\": \"dense_121\", \"trainable\": true, \"dtype\": \"float32\", \"units\": 1, \"activation\": \"linear\", \"use_bias\": true, \"kernel_initializer\": {\"class_name\": \"GlorotUniform\", \"config\": {\"seed\": null}}, \"bias_initializer\": {\"class_name\": \"Zeros\", \"config\": {}}, \"kernel_regularizer\": null, \"bias_regularizer\": null, \"activity_regularizer\": null, \"kernel_constraint\": null, \"bias_constraint\": null}}, {\"class_name\": \"Activation\", \"config\": {\"name\": \"activation_60\", \"trainable\": true, \"dtype\": \"float32\", \"activation\": \"tanh\"}}]}, \"keras_version\": \"2.2.4-tf\", \"backend\": \"tensorflow\"}", "weights": [[[1.476061463356018, -0.6960152387619019, 0.6587658524513245, -0.7800435423851013, 0.723616361618042, -0.7774041891098022, -0.579647958278656, -0.7806790471076965, -0.7464067339897156, -15.491171836853027, -0.880332887172699, -0.8227311968803406], [0.057953573763370514, -0.2775358557701111, 0.3341616690158844, -0.26391303539276123, 0.25893381237983704, -0.1178220883011818, -0.38935571908950806, -0.23438364267349243, -0.1393120437860489, -4.285859107971191, -0.2813597023487091, -0.20698490738868713], [-0.061145782470703125, 0.1363564282655716, -0.31965118646621704, 0.2687060832977295, -0.30390241742134094, 0.22547976672649384, 0.12167588621377945, 0.14554771780967712, 0.30386295914649963, 0.0818476751446724, 0.11267052590847015, 0.11102037131786346], [0.14903037250041962, 0.18876704573631287, -0.1291426420211792, 0.14706704020500183, -0.18394224345684052, 0.1690535545349121, 0.15145407617092133, 0.09212977439165115, 0.06628911942243576, 0.06650038808584213, 0.09328419715166092, 0.22080208361148834], [0.05627449229359627, 0.16436830163002014, -0.1039436012506485, 0.10998667776584625, -0.0011842958629131317, 0.15536841750144958, 0.0600559338927269, 0.027323439717292786, 0.016536641865968704, 0.03016006015241146, 0.08167222887277603, 0.1153373271226883], [0.12229415774345398, -0.14093901216983795, 0.09522631764411926, -0.10566559433937073, 0.19550587236881256, -0.29932695627212524, 0.04652192071080208, -0.1795697957277298, -0.254507839679718, -0.081988625228405, -0.2526177763938904, -0.2897360324859619], [0.0437023751437664, 0.09610968083143234, -0.09256931394338608, -0.00527771795168519, 0.008074487559497356, -0.03597563877701759, -0.006256299093365669, -0.030876850709319115, -0.03825397044420242, 0.08372359722852707, -0.003816338023170829, 0.12594637274742126], [0.23709996044635773, -0.1800735890865326, 0.17307069897651672, -0.31274887919425964, 0.22621819376945496, -0.10570986568927765, 0.1282905489206314, -0.1481524109840393, -0.22446735203266144, 0.06274610012769699, -0.18739047646522522, -0.23577368259429932], [0.21900202333927155, -0.7320963740348816, 0.878302276134491, -0.8602349162101746, 0.8383589386940002, -0.8147822022438049, -0.16438427567481995, -0.760424792766571, -0.774318277835846, -0.13087241351604462, -0.863169252872467, -0.8286423087120056], [0.3448837399482727, -1.1285581588745117, 1.1097573041915894, -1.0804035663604736, 0.9687522053718567, -1.076404094696045, -0.113800048828125, -1.1755577325820923, -1.1725398302078247, -0.19910715520381927, -1.0840320587158203, -1.0136382579803467], [0.0644509568810463, -0.11085426807403564, 0.11843667924404144, -0.12237152457237244, -0.014054263941943645, 0.02478604018688202, 0.08819019794464111, -0.10541558265686035, -0.05262186378240585, 3.3757717609405518, -0.06257447600364685, -0.08974894881248474], [-1.284635066986084, 0.6199904084205627, -0.780601441860199, 0.7297987937927246, -0.8114946484565735, 0.6669730544090271, 2.362645387649536, 0.6398243308067322, 0.7752832770347595, 39.55893325805664, 0.6662363409996033, 0.7163418531417847], [-5.035192489624023, 2.050849199295044, -2.0414466857910156, 2.231590747833252, -2.2685179710388184, 2.1209115982055664, 2.040235996246338, 2.0786359310150146, 2.062148332595825, 2.093914270401001, 2.093428611755371, 2.1168737411499023], [-0.043930720537900925, 3.8321921825408936, -3.766209602355957, 3.8236396312713623, -3.687333345413208, 3.795520782470703, 0.6736499071121216, 3.635143518447876, 3.6173818111419678, -176.65133666992188, 3.6898958683013916, 3.793184995651245], [-0.490546315908432, 2.064218282699585, -1.871741771697998, 1.8765668869018555, -1.8694920539855957, 1.8743782043457031, 0.2812625467777252, 2.067805528640747, 1.9630950689315796, -4.331258773803711, 2.071664571762085, 2.0460703372955322], [-0.7604197859764099, 2.286722421646118, -2.2838282585144043, 2.218198537826538, -2.25789475440979, 2.13991379737854, 0.4025460183620453, 2.346752166748047, 2.2362475395202637, 0.39432811737060547, 2.1934731006622314, 2.3263978958129883], [0.054398056119680405, 1.4917384386062622, -1.6353451013565063, 1.5936576128005981, -1.4992057085037231, 1.6914101839065552, 0.00039687901153229177, 1.6585654020309448, 1.569177269935608, -0.10075069963932037, 1.6108354330062866, 1.6736890077590942], [-0.20822304487228394, 1.842494249343872, -1.8062189817428589, 1.9169617891311646, -1.9338481426239014, 1.7487924098968506, 0.22943401336669922, 1.880583643913269, 1.8511412143707275, -3.6958420276641846, 1.8452820777893066, 1.8304005861282349], [-0.8825193047523499, 2.0157387256622314, -1.9007903337478638, 2.1039249897003174, -1.8828308582305908, 2.0167899131774902, 0.4316480755805969, 1.9749646186828613, 1.9206682443618774, 0.37659895420074463, 2.0900933742523193, 1.9066585302352905], [-0.41976767778396606, 1.0776647329330444, -1.1669193506240845, 0.9597241282463074, -1.1564518213272095, 1.0183645486831665, 0.10370149463415146, 1.0171561241149902, 0.954825222492218, 0.2783397138118744, 1.1813876628875732, 0.9959879517555237], [-0.32447633147239685, 1.0539902448654175, -1.0442146062850952, 1.1086180210113525, -0.999512255191803, 1.0455210208892822, 0.09645375609397888, 1.133100986480713, 1.081829309463501, 0.1598002016544342, 1.0497792959213257, 1.1238120794296265], [-0.22125662863254547, 0.9616613388061523, -1.0744746923446655, 1.004084587097168, -0.9706010818481445, 1.11996328830719, 0.29061609506607056, 0.9676198959350586, 0.8732966184616089, 0.21591122448444366, 1.1331278085708618, 0.9346550703048706], [-0.15850138664245605, 0.9284083247184753, -0.70192950963974, 0.7974360585212708, -0.9313433170318604, 0.7865516543388367, 0.16679520905017853, 0.7912762761116028, 0.7028389573097229, -0.3677313029766083, 0.6984289288520813, 0.8507928252220154], [-0.24071381986141205, 1.0583244562149048, -0.9318003058433533, 0.9986209273338318, -0.9694126844406128, 0.8750813603401184, 0.20591211318969727, 0.897345244884491, 0.9882843494415283, 0.24481381475925446, 0.914137601852417, 0.8582316040992737], [-0.3704829812049866, 0.9447614550590515, -0.7778177261352539, 0.8849788308143616, -0.8566136956214905, 0.8187900185585022, 0.056572336703538895, 0.9583345055580139, 0.8494143486022949, 0.2627587616443634, 0.9053791165351868, 0.9514577984809875], [-0.362745076417923, 1.046964406967163, -0.9121586680412292, 0.8981264233589172, -1.0584187507629395, 0.936396062374115, 0.1707373559474945, 0.9731187224388123, 0.9445117115974426, 0.12696927785873413, 1.0205188989639282, 0.8473272919654846], [-0.2589312791824341, 0.7982513904571533, -0.9268052577972412, 0.9357025027275085, -0.784536600112915, 0.8437780141830444, 0.2876901626586914, 0.7820274829864502, 0.9234167337417603, 0.13358008861541748, 0.940129816532135, 0.7740100622177124], [-0.11356930434703827, 0.7098509669303894, -0.8662547469139099, 0.9319033622741699, -0.8348600268363953, 0.8014704585075378, -0.007451578509062529, 0.8727594017982483, 0.7813320755958557, -0.01974961906671524, 0.9280211329460144, 0.7148613333702087], [-0.16233879327774048, 0.863567590713501, -0.9678456783294678, 0.9834273457527161, -0.9686130285263062, 0.9436918497085571, 0.22167544066905975, 0.9315875768661499, 0.8666919469833374, 0.19124282896518707, 0.9807019829750061, 0.965130090713501], [-0.24333973228931427, 0.8808420300483704, -0.930668294429779, 0.7466726899147034, -0.7070528864860535, 0.885571300983429, 0.19639211893081665, 0.8790619969367981, 0.8231660723686218, 0.25373348593711853, 0.9307714104652405, 0.8125954270362854], [-0.23491203784942627, 0.8805064558982849, -0.8388561606407166, 0.9445087313652039, -0.9538553357124329, 0.9232723116874695, 0.24014900624752045, 1.0047755241394043, 0.8291475176811218, 0.13908451795578003, 0.9677285552024841, 1.0081979036331177], [0.016969546675682068, 0.25724586844444275, -0.39635470509529114, 0.2888241708278656, -0.3339445888996124, 0.25422343611717224, 0.03732027858495712, 0.4724777042865753, 0.44714823365211487, 0.0008843100513331592, 0.4357527196407318, 0.46507373452186584], [-0.1014983132481575, 0.36333155632019043, -0.35807496309280396, 0.4901118576526642, -0.45528101921081543, 0.5256718397140503, 0.13819825649261475, 0.41589975357055664, 0.4455345571041107, 0.07936114817857742, 0.4068205952644348, 0.37572628259658813], [-0.22767505049705505, 0.9393158555030823, -0.8350146412849426, 0.887897789478302, -0.9326247572898865, 0.8227117657661438, 0.2038734257221222, 0.837573230266571, 0.8096457123756409, 0.09220340847969055, 1.0050190687179565, 0.8053709864616394], [-0.13504700362682343, 0.6228321194648743, -0.7014111876487732, 0.6136507391929626, -0.6954519152641296, 0.6017442345619202, 0.07922736555337906, 0.5062357783317566, 0.6892251372337341, 0.1904328465461731, 0.7080274224281311, 0.6264010071754456], [0.12819024920463562, 0.37539443373680115, -0.3082309067249298, 0.19943992793560028, -0.30490538477897644, 0.2802416980266571, 0.016163617372512817, 0.27869340777397156, 0.30815285444259644, 0.13175538182258606, 0.3384552299976349, 0.32764407992362976], [-0.09571896493434906, 0.6231546401977539, -0.5654641389846802, 0.6060624718666077, -0.5611538290977478, 0.5966557264328003, 0.11822336912155151, 0.7179790139198303, 0.6257227659225464, 0.11042188107967377, 0.5750148892402649, 0.5767160058021545], [0.05516155809164047, 0.247482031583786, -0.32241711020469666, 0.38367411494255066, -0.46350178122520447, 0.3428051173686981, 0.12362080067396164, 0.2380809485912323, 0.4243081510066986, 0.07629276812076569, 0.2305757701396942, 0.2904122769832611], [-0.12372250854969025, 0.39974692463874817, -0.340485543012619, 0.3388911187648773, -0.5306990146636963, 0.3773047626018524, 0.21042616665363312, 0.3466125428676605, 0.5339103937149048, 0.16529527306556702, 0.35322532057762146, 0.5325918197631836], [-0.14374038577079773, 0.38513579964637756, -0.4271754026412964, 0.48767632246017456, -0.46445584297180176, 0.5244446992874146, 0.2035510241985321, 0.4632721543312073, 0.3445960581302643, -0.0060999030247330666, 0.45492783188819885, 0.47844672203063965], [-0.17545878887176514, 0.506837785243988, -0.5996658802032471, 0.4434056878089905, -0.6350771188735962, 0.6559674739837646, 0.15610383450984955, 0.438789427280426, 0.6384410858154297, 0.02589152194559574, 0.53663170337677, 0.6541452407836914], [0.031179307028651237, 0.44895729422569275, -0.38121673464775085, 0.3775225579738617, -0.4572320878505707, 0.563808023929596, 0.15003079175949097, 0.38961848616600037, 0.39555492997169495, 0.18454609811306, 0.4528823792934418, 0.3666097819805145], [-0.2246602326631546, 0.6238045692443848, -0.5805191993713379, 0.5883793830871582, -0.6470425128936768, 0.5616024732589722, 0.04464350640773773, 0.710131824016571, 0.7375269532203674, 0.2563488185405731, 0.7420092821121216, 0.5771685242652893], [-0.006212448701262474, 0.4085644483566284, -0.49109143018722534, 0.498860239982605, -0.5068849921226501, 0.3792630136013031, 0.1710120290517807, 0.3566570580005646, 0.30566170811653137, 0.20759092271327972, 0.483097106218338, 0.38559582829475403], [0.4229028522968292, -0.5285047888755798, 0.4162992238998413, -0.6094395518302917, 0.41750097274780273, -0.45197808742523193, -0.14172954857349396, -0.5497071146965027, -0.550922691822052, -0.01230043824762106, -0.41787874698638916, -0.41357266902923584], [-0.10946831107139587, 0.34321993589401245, -0.35344594717025757, 0.36791694164276123, -0.41931775212287903, 0.33967095613479614, 0.023574458435177803, 0.4447776675224304, 0.35684967041015625, 0.19658254086971283, 0.4667041599750519, 0.5147339105606079], [-0.019336272031068802, 0.3186812996864319, -0.3992149829864502, 0.3394908308982849, -0.38742950558662415, 0.39106473326683044, -0.012666396796703339, 0.33844923973083496, 0.4111183285713196, 0.021490851417183876, 0.29779791831970215, 0.34592801332473755], [0.006436899304389954, 0.4267951548099518, -0.436668336391449, 0.4487156271934509, -0.29768016934394836, 0.45449888706207275, 0.18968015909194946, 0.33722302317619324, 0.4807831645011902, 0.20630313456058502, 0.407510906457901, 0.4873802661895752], [-0.025292545557022095, 0.4548929035663605, -0.4587709903717041, 0.5549932718276978, -0.3747560679912567, 0.3592917323112488, -0.008056697435677052, 0.35933974385261536, 0.5070168375968933, 0.03463979810476303, 0.33215752243995667, 0.37800514698028564], [0.0565677285194397, 0.31742143630981445, -0.2821115255355835, 0.1786375641822815, -0.2540116608142853, 0.14236736297607422, 0.10037846118211746, 0.28477299213409424, 0.31376034021377563, 0.07174990326166153, 0.3730563521385193, 0.2250511646270752], [0.5393238067626953, -0.19146175682544708, 0.09143092483282089, -0.03970607742667198, -0.005796564277261496, 0.025437576696276665, 0.08987661451101303, -0.1063450425863266, -0.014503933489322662, 0.03506484255194664, -0.109189972281456, 0.023746708407998085], [0.010842016898095608, -0.01741754822432995, 0.022399021312594414, 0.13637468218803406, -0.0955575704574585, 0.12701091170310974, -0.07269002497196198, 0.20133990049362183, 0.06359174102544785, 0.051517553627491, 0.10464361310005188, -0.013935789465904236], [-0.11572227627038956, 0.5441179871559143, -0.38038790225982666, 0.4542858898639679, -0.49509480595588684, 0.5290206074714661, 0.1226225420832634, 0.5057849287986755, 0.5199306607246399, 0.06359807401895523, 0.5269121527671814, 0.4142044186592102], [-0.010478798300027847, 0.31392115354537964, -0.4334152936935425, 0.3339504599571228, -0.5135501027107239, 0.38731324672698975, 0.09563713520765305, 0.4971030056476593, 0.5111125111579895, 0.15722902119159698, 0.41522321105003357, 0.46205636858940125], [0.02785000391304493, 0.320030152797699, -0.4344814419746399, 0.41318264603614807, -0.34334731101989746, 0.5297143459320068, 0.12487387657165527, 0.3894655108451843, 0.3320494294166565, 0.03541490063071251, 0.5469120740890503, 0.35973113775253296], [-0.12484199553728104, 0.5049025416374207, -0.415460467338562, 0.34875234961509705, -0.362275630235672, 0.36218366026878357, 0.13163724541664124, 0.491787314414978, 0.3863998055458069, 0.014536981470882893, 0.4414403438568115, 0.39222392439842224], [0.29947125911712646, -0.028435463085770607, 0.04464549571275711, -0.1564885377883911, 0.06511737406253815, -0.06395639479160309, 0.07762188464403152, -0.1542949676513672, -0.17949503660202026, 0.09417340159416199, -0.2025863528251648, -0.09047795832157135], [0.012082966044545174, 0.09931579977273941, -0.09638110548257828, 0.08213863521814346, -0.10966382175683975, 0.10603252798318863, 0.06325860321521759, 0.140877366065979, 0.23546284437179565, 0.044150520116090775, 0.21906358003616333, 0.1042354479432106], [0.15753582119941711, -0.05825544148683548, -0.00780858937650919, 0.008575341664254665, 0.07512755692005157, -0.10770198702812195, 0.06127370521426201, -0.14365963637828827, -0.10630717873573303, -0.08035457134246826, -0.15255723893642426, -0.1764659732580185], [0.07837500423192978, 0.11842112243175507, -0.2073897421360016, 0.10929201543331146, -0.1860388219356537, 0.1613713800907135, 0.0795314759016037, 0.2957767844200134, 0.21629539132118225, 0.8098222017288208, 0.31041210889816284, 0.16848084330558777], [0.15220965445041656, 0.1963658332824707, -0.026212023571133614, 0.07375779002904892, -0.03367023542523384, -0.04068173095583916, -0.03956534340977669, 0.028755055740475655, 0.057924315333366394, 5.259992030914873e-05, 0.1170356422662735, 0.15030142664909363], [0.3800061047077179, -0.357530802488327, 0.3322162330150604, -0.22763368487358093, 0.30179962515830994, -0.36586424708366394, -0.03349811211228371, -0.3070200979709625, -0.21113428473472595, -0.01029662974178791, -0.3667773902416229, -0.3375096619129181], [-0.01225293893367052, 0.12685859203338623, -0.10899668186903, 0.15024155378341675, -0.2719210684299469, 0.16843944787979126, -0.08067768812179565, 0.28425130248069763, 0.16882818937301636, 0.13987113535404205, 0.24834677577018738, 0.14844581484794617], [0.05631566792726517, -0.19431133568286896, 0.1515868753194809, 0.029834937304258347, 0.01747116446495056, -0.02052471414208412, 0.09203643351793289, -0.10196131467819214, -0.03254755213856697, 0.05670633167028427, 0.01885516382753849, -0.019485371187329292], [0.4082483947277069, -0.46653425693511963, 0.5464217066764832, -0.635840117931366, 0.4167458415031433, -0.5898191332817078, -0.19249092042446136, -0.5294090509414673, -0.45083826780319214, -0.04850941523909569, -0.4079081416130066, -0.5909953117370605], [0.08196637034416199, 0.3576080799102783, -0.17238718271255493, 0.3727417588233948, -0.32770150899887085, 0.3797563910484314, 0.011392530985176563, 0.3867524266242981, 0.2201589047908783, 0.051377393305301666, 0.31527531147003174, 0.37221550941467285], [0.1384999006986618, 0.2375250607728958, -0.2121865153312683, 0.2866503596305847, -0.09628990292549133, 0.06766174733638763, 0.1043589785695076, 0.2215283066034317, 0.08624336123466492, 0.10235633701086044, 0.16464368999004364, 0.12829771637916565], [-0.06263206899166107, 0.24967795610427856, -0.3770309388637543, 0.33003586530685425, -0.2367144227027893, 0.3673762381076813, 0.09499963372945786, 0.3122559189796448, 0.2879609763622284, 0.005661094095557928, 0.2769801616668701, 0.3150736689567566], [0.2716931700706482, -0.19622279703617096, 0.09445513039827347, -0.292678564786911, 0.2576958239078522, -0.3272448778152466, -0.12877480685710907, -0.1881251484155655, -0.18969903886318207, 0.09524820744991302, -0.2532947361469269, -0.3749918043613434], [0.5301321148872375, -0.651342511177063, 0.48999956250190735, -0.6640088558197021, 0.6623708009719849, -0.5951536893844604, -0.17455501854419708, -0.485280841588974, -0.6674262881278992, -0.12393156439065933, -0.5217404365539551, -0.6171873807907104], [0.05661932751536369, 0.2566276490688324, -0.4061352014541626, 0.17276149988174438, -0.3237297534942627, 0.24615316092967987, 0.07403942197561264, 0.36670801043510437, 0.2343495935201645, -0.0378715880215168, 0.33690035343170166, 0.40479397773742676], [0.18994684517383575, -0.05432011932134628, 0.07177530229091644, 0.033568210899829865, -0.011700491420924664, -0.03786547854542732, 0.0576593279838562, 0.12092411518096924, 0.11666262149810791, -0.5669868588447571, -0.08377234637737274, -0.0752357691526413], [0.060955509543418884, -0.062122780829668045, -0.030583752319216728, -0.1452905535697937, 0.06413056701421738, -0.13957352936267853, 0.19663161039352417, -0.19059531390666962, -0.13148455321788788, -0.40579789876937866, -0.17760571837425232, -0.12085483968257904], [-0.11557963490486145, -0.01816791109740734, 0.15788069367408752, -0.1365237981081009, 0.17541424930095673, -0.08918934315443039, 0.33649685978889465, -0.05695551633834839, -0.17209984362125397, -0.2606159448623657, -0.06869559735059738, -0.1529383510351181], [-0.02318572625517845, 0.3294052183628082, -0.3935731053352356, 0.2597862780094147, -0.2461612969636917, 0.31821122765541077, 0.21683286130428314, 0.21754713356494904, 0.39633241295814514, -0.04482203722000122, 0.3766525685787201, 0.27498093247413635], [-0.09796342253684998, 0.42870306968688965, -0.634501576423645, 0.5123768448829651, -0.536953330039978, 0.42612648010253906, 0.07682272046804428, 0.5142231583595276, 0.5815616846084595, 0.038945335894823074, 0.42167961597442627, 0.4954458475112915], [-0.26194578409194946, 0.6888091564178467, -0.5583630800247192, 0.5960836410522461, -0.6084061861038208, 0.6158890724182129, 0.22730880975723267, 0.7399312257766724, 0.5470340251922607, -0.15142029523849487, 0.5127557516098022, 0.7150106430053711], [0.05938266962766647, 0.5112172961235046, -0.40997612476348877, 0.4633513391017914, -0.49747201800346375, 0.3239102363586426, 0.1339457482099533, 0.4074784219264984, 0.42488759756088257, 0.034491658210754395, 0.5397555828094482, 0.4734967052936554], [-0.06903216987848282, 0.3980710208415985, -0.36782220005989075, 0.5046104788780212, -0.37795478105545044, 0.4248531758785248, 0.009706462733447552, 0.3823760151863098, 0.3591296970844269, -0.015906868502497673, 0.3739357590675354, 0.2890981435775757], [0.033798396587371826, 0.28258341550827026, -0.4019736349582672, 0.2890225648880005, -0.36963239312171936, 0.3625611960887909, -0.048624444752931595, 0.24980266392230988, 0.43875575065612793, 0.022592587396502495, 0.2328018993139267, 0.24244461953639984], [-0.766826331615448, 2.864884376525879, -2.9742817878723145, 2.9260005950927734, -2.786975383758545, 2.7510218620300293, 0.38573452830314636, 2.9636974334716797, 1.948797583580017, 0.4919695556163788, 2.946880340576172, 2.971099853515625], [-0.19958138465881348, 1.0171176195144653, -1.0826107263565063, 1.0276273488998413, -0.9466710686683655, 1.0123035907745361, 0.04370135813951492, 1.074893832206726, 0.9059339761734009, 0.41574862599372864, 1.0774153470993042, 0.883664608001709], [-0.18872560560703278, 0.8973293900489807, -1.0108041763305664, 1.0584967136383057, -0.8497671484947205, 0.8732120394706726, 0.10157392919063568, 0.8481115698814392, 0.8886678814888, 0.26817673444747925, 0.9717760682106018, 0.8501023650169373], [0.01909077726304531, 0.4066636562347412, -0.34852731227874756, 0.37141573429107666, -0.522612988948822, 0.5261968970298767, -0.025286376476287842, 0.478789359331131, 0.5393306612968445, -0.002132260473445058, 0.46458330750465393, 0.3935048580169678], [0.03044808842241764, 0.4845094680786133, -0.4269449710845947, 0.5158037543296814, -0.3659266531467438, 0.5547390580177307, 0.14711278676986694, 0.4902724027633667, 0.32810941338539124, 0.12034596502780914, 0.39710190892219543, 0.49203982949256897], [-0.06817609816789627, 0.501609206199646, -0.4836242198944092, 0.508152425289154, -0.4781096875667572, 0.43870770931243896, 0.19015805423259735, 0.5101810097694397, 0.5039650797843933, 0.015913166105747223, 0.5541382431983948, 0.48357340693473816], [-0.13110919296741486, 0.27183276414871216, -0.3701973855495453, 0.32820868492126465, -0.4927422106266022, 0.49714115262031555, 0.11559094488620758, 0.3424863815307617, 0.28703731298446655, 0.008873587474226952, 0.264120876789093, 0.38229358196258545], [-0.012401021085679531, 0.4392940402030945, -0.3664204478263855, 0.34160280227661133, -0.2832837700843811, 0.47235339879989624, 0.1336848884820938, 0.3308432102203369, 0.3776465058326721, 0.11072759330272675, 0.4267430901527405, 0.39532411098480225], [-0.1713392734527588, 0.9660190939903259, -0.9441653490066528, 0.956307053565979, -0.9536038041114807, 0.9114752411842346, 0.10356315225362778, 1.004491925239563, 0.8586753606796265, 0.14224855601787567, 0.8890705108642578, 0.942328691482544], [-0.21668341755867004, 0.842970073223114, -0.7609328031539917, 0.7184001207351685, -0.7994208335876465, 0.7698146104812622, 0.15963514149188995, 0.8160499334335327, 0.8085424304008484, 0.008609726093709469, 0.743122935295105, 0.8241564035415649], [0.012201621197164059, 0.29989534616470337, -0.3055655360221863, 0.1844894289970398, -0.2122483104467392, 0.11789002269506454, -0.008706903085112572, 0.12408070266246796, 0.3255603015422821, -0.05536558851599693, 0.23032748699188232, 0.2859242558479309], [0.4037587344646454, -0.10744970291852951, 0.0812799483537674, -0.01977946236729622, 0.03496243804693222, -0.15053117275238037, 0.1580125093460083, -0.029177628457546234, -0.13518378138542175, 0.005231568124145269, -0.014709069393575191, -0.19443035125732422], [-0.14945973455905914, 1.1572062969207764, -1.1000967025756836, 1.168821930885315, -1.1701340675354004, 1.077889323234558, 0.016266142949461937, 1.169668197631836, 0.5526973009109497, -0.018855849280953407, 1.0502794981002808, 1.148388385772705], [-0.1395430713891983, 0.46984249353408813, -0.46806764602661133, 0.6351172924041748, -0.5265145897865295, 0.5874332189559937, 0.09074185788631439, 0.47259026765823364, 0.5480127930641174, 0.20781876146793365, 0.5195984840393066, 0.49751755595207214], [0.06031619384884834, 0.28639930486679077, -0.3543839752674103, 0.3504367172718048, -0.28813809156417847, 0.16860392689704895, 0.08938904851675034, 0.22181475162506104, 0.17460809648036957, 0.1079775020480156, 0.3432987630367279, 0.3637045919895172], [0.38285258412361145, -0.20800787210464478, 0.3440917432308197, -0.12327994406223297, 0.14604005217552185, -0.1621113121509552, 0.01862986758351326, -0.24677099287509918, -0.32457220554351807, 0.025684602558612823, -0.2584777772426605, -0.3307400047779083], [-0.2974977493286133, 0.8500248193740845, -0.6621334552764893, 0.7826497554779053, -0.8775339126586914, 0.7412704825401306, 0.20890820026397705, 0.8702714443206787, 0.7896354794502258, 0.11940726637840271, 0.8596128225326538, 0.8817672729492188], [-0.12648186087608337, 0.4979040026664734, -0.5414609909057617, 0.6101318597793579, -0.605994701385498, 0.4587494730949402, 0.18977190554141998, 0.42897742986679077, 0.48064878582954407, 0.06137339770793915, 0.4797530770301819, 0.4765219986438751], [0.20011746883392334, 0.24565085768699646, -0.21703045070171356, 0.14397403597831726, -0.2954024076461792, 0.14176379144191742, 0.18820568919181824, 0.23883172869682312, 0.14689065515995026, 0.04815657436847687, 0.20566365122795105, 0.1777738481760025], [0.10430724918842316, -0.13411100208759308, 0.1872454583644867, -0.29887765645980835, 0.16882073879241943, -0.12539425492286682, 0.049352794885635376, -0.0941210612654686, -0.15502357482910156, -0.9021568894386292, -0.18376195430755615, -0.2705914378166199]], [-0.3243821859359741, -0.022949250414967537, 0.06397953629493713, -0.002450532279908657, 0.005139805842190981, -0.0042592985555529594, -0.1272035837173462, -0.01745532639324665, -0.057310499250888824, -0.10154696553945541, 0.01067082304507494, -0.02071106806397438], [[0.05752190575003624], [-1.150236964225769], [0.5735300183296204], [-1.1392220258712769], [0.22553712129592896], [-0.6983524560928345], [-2.0947089195251465], [-1.6132698059082031], [-0.5439276099205017], [-0.27180683612823486], [-1.7030823230743408], [-0.43344739079475403]], [-0.026636380702257156]], "etBin": [0.0, 20.0], "etaBin": [0.0, 0.8]}, {"sequence": "{\"class_name\": \"Sequential\", \"config\": {\"name\": \"sequential_61\", \"layers\": [{\"class_name\": \"Dense\", \"config\": {\"name\": \"dense_122\", \"trainable\": true, \"batch_input_shape\": [null, 100], \"dtype\": \"float32\", \"units\": 5, \"activation\": \"tanh\", \"use_bias\": true, \"kernel_initializer\": {\"class_name\": \"GlorotUniform\", \"config\": {\"seed\": null}}, \"bias_initializer\": {\"class_name\": \"Zeros\", \"config\": {}}, \"kernel_regularizer\": null, \"bias_regularizer\": null, \"activity_regularizer\": null, \"kernel_constraint\": null, \"bias_constraint\": null}}, {\"class_name\": \"Dense\", \"config\": {\"name\": \"dense_123\", \"trainable\": true, \"dtype\": \"float32\", \"units\": 1, \"activation\": \"linear\", \"use_bias\": true, \"kernel_initializer\": {\"class_name\": \"GlorotUniform\", \"config\": {\"seed\": null}}, \"bias_initializer\": {\"class_name\": \"Zeros\", \"config\": {}}, \"kernel_regularizer\": null, \"bias_regularizer\": null, \"activity_regularizer\": null, \"kernel_constraint\": null, \"bias_constraint\": null}}, {\"class_name\": \"Activation\", \"config\": {\"name\": \"activation_61\", \"trainable\": true, \"dtype\": \"float32\", \"activation\": \"tanh\"}}]}, \"keras_version\": \"2.2.4-tf\", \"backend\": \"tensorflow\"}", "weights": [[[1.7377108335494995, -1.6402820348739624, 1.6971548795700073, 0.20113703608512878, 1.7071956396102905], [1.6247806549072266, -1.5127460956573486, 1.6421247720718384, 0.46706873178482056, 1.5287998914718628], [-0.6348843574523926, 0.4896644949913025, -0.6125500202178955, 3.3443868160247803, -0.687768280506134], [-0.967391848564148, 0.9996862411499023, -0.8785212635993958, 0.0019720655400305986, -0.8502946496009827], [-0.6266287565231323, 0.6316338777542114, -0.6199382543563843, 0.13751398026943207, -0.5942376255989075], [-0.12843042612075806, -0.05889454483985901, 0.013110571540892124, 0.11463986337184906, -0.0449761301279068], [-0.24559998512268066, 0.31666478514671326, -0.1995123028755188, -0.054993316531181335, -0.2746228277683258], [0.6452810764312744, -0.5924645066261292, 0.6310725808143616, 0.0005939880502410233, 0.6345289349555969], [1.7221064567565918, -1.5233347415924072, 1.6666274070739746, 0.11016981303691864, 1.5856270790100098], [4.701451301574707, -4.635391712188721, 4.549563884735107, 0.6726107597351074, 4.527773857116699], [1.5039163827896118, -1.5924246311187744, 1.6783168315887451, 0.042212970554828644, 1.6942353248596191], [-1.7288532257080078, 1.7247827053070068, -1.602736234664917, -0.03931845352053642, -1.653761625289917], [-3.80412220954895, 4.796441078186035, -3.60491681098938, -0.3522316515445709, -3.6029293537139893], [-4.534799575805664, 4.448203086853027, -4.563404560089111, -4.168498516082764, -4.643495559692383], [-11.179051399230957, 11.463770866394043, -11.225308418273926, -1.773709774017334, -11.113751411437988], [-6.4496870040893555, 6.490278244018555, -6.517359733581543, -0.7661309242248535, -6.479907989501953], [-8.357569694519043, 8.44174861907959, -8.52653980255127, 2.926222324371338, -8.507214546203613], [-6.8953094482421875, 7.014037132263184, -6.908738136291504, 15.713441848754883, -6.84465217590332], [-7.319294452667236, 7.2010955810546875, -7.293144226074219, 0.20957282185554504, -7.141478538513184], [-5.33613920211792, 5.264009952545166, -5.438269138336182, -0.12710338830947876, -5.221799373626709], [-4.331879138946533, 4.238999366760254, -4.447637557983398, -0.15954293310642242, -4.4340386390686035], [-5.6166863441467285, 5.545492649078369, -5.533753395080566, -0.03282167389988899, -3.9746246337890625], [-4.2194905281066895, 4.161722660064697, -4.112213611602783, -0.20720987021923065, -3.389453649520874], [-2.046111583709717, 2.1480047702789307, -2.0517115592956543, 0.11721758544445038, -2.0051987171173096], [-2.654541015625, 2.6515791416168213, -2.710681915283203, 0.041065141558647156, -2.6005899906158447], [-3.0550479888916016, 3.1205153465270996, -2.9905197620391846, -0.032421231269836426, -2.96285343170166], [-2.8370306491851807, 2.6546432971954346, -2.888941526412964, -0.13650856912136078, -2.7049834728240967], [-2.8363215923309326, 2.9718923568725586, -2.897081136703491, -0.127809077501297, -2.9300992488861084], [-1.7923264503479004, 1.9094560146331787, -1.9851126670837402, -0.07367092370986938, -2.0001440048217773], [-1.9503059387207031, 1.9614886045455933, -1.8915457725524902, 0.06390083581209183, -2.0101425647735596], [-2.1109097003936768, 2.300384759902954, -2.130089044570923, 0.058594707399606705, -2.2492759227752686], [-1.5169703960418701, 1.7265303134918213, -1.4963324069976807, -0.10104340314865112, -1.501780390739441], [-3.1434714794158936, 3.0444772243499756, -3.0612261295318604, -0.10050068795681, -3.0788395404815674], [-1.9001425504684448, 1.9394394159317017, -1.890846610069275, 0.012421872466802597, -1.837992548942566], [-1.9343191385269165, 1.9208742380142212, -1.8185125589370728, 0.04457055777311325, -1.7952581644058228], [-1.5400060415267944, 1.4410552978515625, -1.4449262619018555, -0.13037733733654022, -1.4362595081329346], [-0.9514163732528687, 1.0585501194000244, -1.0545589923858643, 0.33397701382637024, -1.0592143535614014], [-1.007479190826416, 1.0687505006790161, -1.0982578992843628, -0.09054571390151978, -1.1495295763015747], [-0.7397158741950989, 0.6892903447151184, -0.6701894402503967, -0.013086449354887009, -0.6406679749488831], [-1.6267057657241821, 1.677449345588684, -1.5313478708267212, 0.09852015972137451, -1.6174167394638062], [-1.0203564167022705, 1.1359859704971313, -1.0022999048233032, 0.15304064750671387, -1.0759459733963013], [1.0543880462646484, -1.1883652210235596, 1.0443370342254639, 0.07057426124811172, 1.0903568267822266], [0.6386894583702087, -1.6451480388641357, 1.6642746925354004, -0.02443324215710163, 1.5277600288391113], [-1.2183719873428345, 1.2536815404891968, -1.2045964002609253, -0.061001006513834, -1.2756751775741577], [-0.6848020553588867, 0.7193902730941772, -0.7295986413955688, 0.13005077838897705, -0.7636460661888123], [-0.7528361082077026, 0.6834232211112976, -0.577769935131073, 0.10313422977924347, -0.6033079624176025], [-0.6116979122161865, 0.7398744821548462, -0.7165750861167908, 0.091720350086689, -0.5029428005218506], [-0.4854795038700104, 0.5992100238800049, -0.44526585936546326, 0.0019253441132605076, -0.46109431982040405], [2.340702533721924, -2.2864277362823486, 2.248359203338623, 0.19575555622577667, 2.2874879837036133], [-0.8718724250793457, 0.9311156868934631, -1.001162052154541, -0.08634136617183685, -0.8831217288970947], [-0.9812522530555725, 0.3724539875984192, -0.14367026090621948, -0.07270817458629608, -0.18936757743358612], [-0.6533620953559875, 0.6097988486289978, -0.6079222559928894, -0.08559800684452057, -0.5557740330696106], [-0.8048100471496582, 0.7879002690315247, -0.845024824142456, -0.10676305741071701, -0.8890725374221802], [-1.6046602725982666, 1.588571310043335, -1.5592997074127197, -0.12269830703735352, -1.5411829948425293], [-1.7465568780899048, 1.5497242212295532, -1.7005757093429565, -0.13107672333717346, -1.6013349294662476], [-0.6194329261779785, 0.603609561920166, -0.7219295501708984, 0.12739445269107819, -0.5776059627532959], [-1.1124358177185059, 1.1750744581222534, -1.256527304649353, 0.03380059450864792, -1.2101696729660034], [-0.20086267590522766, -0.04816123843193054, -0.21293357014656067, 0.1581369936466217, -0.1772131621837616], [-0.4949987530708313, 0.6257660388946533, -0.4042748808860779, -0.03735366091132164, -0.5562077164649963], [-1.9724587202072144, 1.8887654542922974, -2.055356740951538, -0.14027100801467896, -2.024610996246338], [-0.8920513391494751, 1.2753300666809082, -1.0993387699127197, -0.0697922334074974, -1.1759512424468994], [-0.9077373743057251, 0.9734532237052917, -0.8300517797470093, -0.062155693769454956, -0.8539146184921265], [-0.7814194560050964, 0.9355945587158203, -1.1209880113601685, 0.1611591875553131, -1.0952142477035522], [-0.15274149179458618, 0.22402648627758026, -0.023806476965546608, 0.03714694455265999, -0.15724796056747437], [2.1128220558166504, -2.003486394882202, 1.9458227157592773, -0.009726821444928646, 1.9753937721252441], [-2.2169740200042725, 2.329573631286621, -2.1635842323303223, -0.10127469152212143, -2.115135908126831], [-0.8975223898887634, 0.8748180270195007, -0.9274901151657104, 0.05225877836346626, -1.0516853332519531], [0.5442677140235901, -0.5829601883888245, 0.5281060338020325, 0.03888211399316788, 0.5524421334266663], [-0.5187479257583618, 0.43745458126068115, -0.5499939918518066, -0.005761187989264727, -0.5522418022155762], [-0.8365760445594788, 1.018608808517456, -0.8031582832336426, -0.08715536445379257, -0.898411750793457], [-0.6088159084320068, 0.6258258819580078, -0.7835997343063354, -0.01650351844727993, -0.5980734825134277], [-1.0121889114379883, 1.0582246780395508, -1.0382599830627441, -0.12151829898357391, -1.1147339344024658], [0.3801363706588745, -0.5872433185577393, 0.40964436531066895, -0.11404469609260559, 0.3609904646873474], [0.10336347669363022, -0.039680421352386475, 0.15005438029766083, 0.26282382011413574, 0.14524613320827484], [-0.5735204815864563, 0.7071413397789001, -0.6369092464447021, 0.24459707736968994, -0.5372028350830078], [-1.1391230821609497, 1.2217668294906616, -1.1605530977249146, -0.058049142360687256, -1.24443781375885], [-1.2338380813598633, 1.2330670356750488, -1.2648217678070068, 0.04820716381072998, -1.2413482666015625], [-1.2934484481811523, 1.3000836372375488, -1.2078478336334229, 0.07749176770448685, -1.141768455505371], [-0.7137042880058289, 0.6549936532974243, -0.6887795329093933, 0.11551076918840408, -0.7879902124404907], [-0.41635215282440186, 0.46489715576171875, -0.5347774028778076, 0.043929558247327805, -0.47159528732299805], [-7.322882652282715, 7.133599281311035, -7.112590789794922, -0.2830004394054413, -6.6832194328308105], [-5.276535987854004, 5.509708404541016, -5.313528060913086, 3.160240888595581, -5.458854675292969], [-2.771449565887451, 2.7714719772338867, -2.8382933139801025, -0.022538000717759132, -2.722381114959717], [-2.0942189693450928, 2.1431872844696045, -2.17812180519104, -0.06248863413929939, -2.206742525100708], [-1.6656136512756348, 1.6275341510772705, -1.6449476480484009, -0.09175369888544083, -1.5248979330062866], [-1.0785226821899414, 1.1368684768676758, -1.1055173873901367, 0.05565928295254707, -1.1376259326934814], [-1.6305023431777954, 1.6586905717849731, -1.562923789024353, -0.1255132406949997, -1.6945186853408813], [-1.6055757999420166, 1.6267948150634766, -1.7412986755371094, -0.1596456915140152, -1.5754711627960205], [-1.3450241088867188, 1.5344808101654053, -1.3868542909622192, 0.2763366401195526, -1.3838223218917847], [-0.5596164464950562, 0.72353595495224, -0.6552503705024719, 4.071994781494141, -0.6915212273597717], [-0.11945312470197678, 0.05223165079951286, -0.08430500328540802, -0.05163346603512764, -0.13499073684215546], [0.35502442717552185, -0.193617045879364, 0.056784000247716904, 0.07486403733491898, 0.19182723760604858], [-0.8384147882461548, 0.811058521270752, -0.8490777015686035, 0.21910560131072998, -0.9086313247680664], [-1.2007514238357544, 1.2553423643112183, -1.2237876653671265, 0.008399086073040962, -1.2486023902893066], [-0.4678857624530792, 0.3935408890247345, -0.3313363194465637, 0.12011364847421646, -0.3303142189979553], [0.039978619664907455, -0.21197541058063507, 0.1151110976934433, 0.24441072344779968, 0.08454875648021698], [1.0076828002929688, -1.1687506437301636, 1.1172733306884766, 0.465086966753006, 1.1562718152999878], [-0.952568531036377, 0.795699954032898, -0.7849849462509155, 6.567686557769775, -0.9075783491134644], [-1.2570031881332397, 1.3014763593673706, -1.1281226873397827, -0.01316999550908804, -1.134928584098816], [-0.23503649234771729, 0.559053361415863, -0.4740486741065979, 0.28601378202438354, -0.4533402621746063]], [-0.00734415277838707, -0.04007263109087944, 0.01721646450459957, 0.020719019696116447, 0.046631548553705215], [[0.9840611219406128], [-0.7687405347824097], [0.7144935131072998], [0.04092424735426903], [1.0375465154647827]], [-0.18706800043582916]], "etBin": [0.0, 20.0], "etaBin": [0.8, 1.37]}, {"sequence": "{\"class_name\": \"Sequential\", \"config\": {\"name\": \"sequential_62\", \"layers\": [{\"class_name\": \"Dense\", \"config\": {\"name\": \"dense_124\", \"trainable\": true, \"batch_input_shape\": [null, 100], \"dtype\": \"float32\", \"units\": 16, \"activation\": \"tanh\", \"use_bias\": true, \"kernel_initializer\": {\"class_name\": \"GlorotUniform\", \"config\": {\"seed\": null}}, \"bias_initializer\": {\"class_name\": \"Zeros\", \"config\": {}}, \"kernel_regularizer\": null, \"bias_regularizer\": null, \"activity_regularizer\": null, \"kernel_constraint\": null, \"bias_constraint\": null}}, {\"class_name\": \"Dense\", \"config\": {\"name\": \"dense_125\", \"trainable\": true, \"dtype\": \"float32\", \"units\": 1, \"activation\": \"linear\", \"use_bias\": true, \"kernel_initializer\": {\"class_name\": \"GlorotUniform\", \"config\": {\"seed\": null}}, \"bias_initializer\": {\"class_name\": \"Zeros\", \"config\": {}}, \"kernel_regularizer\": null, \"bias_regularizer\": null, \"activity_regularizer\": null, \"kernel_constraint\": null, \"bias_constraint\": null}}, {\"class_name\": \"Activation\", \"config\": {\"name\": \"activation_62\", \"trainable\": true, \"dtype\": \"float32\", \"activation\": \"tanh\"}}]}, \"keras_version\": \"2.2.4-tf\", \"backend\": \"tensorflow\"}", "weights": [[[0.7519829273223877, 0.1319216936826706, 0.8574700355529785, -0.6432123184204102, 0.7747598886489868, -0.8738667368888855, -0.7233134508132935, 0.0006562149501405656, -0.07095427066087723, -0.848617434501648, 0.14908039569854736, 0.10237763822078705, -0.8297567367553711, 0.877029299736023, -0.7625778913497925, 0.6727786064147949], [0.4561561644077301, 0.08507814258337021, 0.6470513343811035, -0.44973430037498474, 0.5198451280593872, -0.4974468946456909, -0.5333752632141113, -0.12306179851293564, 0.04789743199944496, -0.6003180742263794, 0.24176371097564697, 0.06588750332593918, -0.5435231924057007, 0.4355514943599701, -0.5803178548812866, 0.4789649546146393], [-0.5988500714302063, 0.9860715270042419, -0.685262143611908, 0.6734471917152405, -0.47356685996055603, 0.5120366811752319, 0.4768114984035492, 0.9104873538017273, 0.16923820972442627, 0.5586654543876648, -0.20608215034008026, -0.17453207075595856, 0.49627596139907837, -0.4908330738544464, 0.6243917346000671, -0.6715468764305115], [-0.5270067453384399, -0.0736653134226799, -0.3719314932823181, 0.4967801570892334, -0.6431195735931396, 0.4991333484649658, 0.5236493349075317, -0.1497071087360382, 0.1256852000951767, 0.6008321046829224, -0.05977139249444008, -0.0035226806066930294, 0.7032043933868408, -0.4733136296272278, 0.18797245621681213, -0.16243761777877808], [0.04652499035000801, -0.3001401722431183, 0.04991840943694115, -0.08754841983318329, 0.04656587913632393, -0.10237149894237518, -0.2285148799419403, -0.08836059272289276, 0.08089488744735718, -0.20508131384849548, 0.13532106578350067, 0.04156086593866348, -0.1445215940475464, 0.1880272626876831, -0.27129945158958435, 0.22299310564994812], [-0.1409788280725479, 0.01721552386879921, -0.04066857695579529, 0.12678368389606476, -0.1489313393831253, 0.007401213515549898, 0.007464454043656588, 0.11155453324317932, 0.03876858949661255, 0.15370534360408783, -0.06443270295858383, 0.011944801546633244, 0.09372435510158539, -0.23647932708263397, 0.13066686689853668, -0.026430005207657814], [0.3211559057235718, -0.026886485517024994, 0.38175708055496216, -0.17321254312992096, 0.23704859614372253, -0.27776288986206055, -0.16200150549411774, -0.09542880952358246, -0.11146774888038635, -0.22962810099124908, -0.05619282275438309, -0.035986706614494324, -0.2116311639547348, 0.25855153799057007, -0.18353761732578278, 0.1851976066827774], [-0.14989659190177917, -0.3979375958442688, -0.1357070356607437, 0.028085889294743538, 0.038229718804359436, 0.10337310284376144, 0.17542627453804016, -0.24454469978809357, -1.2889682054519653, -0.0038948694709688425, -0.061670225113630295, -0.12192927300930023, 0.1330300122499466, -0.004570388700813055, 0.07471870630979538, -0.012792633846402168], [1.0113247632980347, 0.11397901177406311, 0.8028843998908997, -0.8145322203636169, 0.8311120867729187, -0.9076654314994812, -0.8809725642204285, -0.09184561669826508, 0.08308196812868118, -0.8055574297904968, 0.08827945590019226, 0.15441803634166718, -0.7975178360939026, 0.7916234135627747, -0.9092677235603333, 0.9829198718070984], [1.4443864822387695, -0.06620394438505173, 1.401715874671936, -1.3316290378570557, 1.4220607280731201, -1.253807783126831, -1.39396071434021, -0.0632956400513649, 0.005633519031107426, -1.2550220489501953, 0.23859478533267975, 0.2788448929786682, -1.4125823974609375, 1.323655605316162, -1.464297890663147, 1.4102377891540527], [1.1575034856796265, -0.08078114688396454, 1.514489769935608, -1.5192348957061768, 1.4496524333953857, -1.3603841066360474, -1.4121882915496826, -0.11015567928552628, -0.04755425453186035, -1.432596206665039, 0.42698946595191956, 0.23326431214809418, -1.504992961883545, 1.043055772781372, -1.557286262512207, 1.4077770709991455], [0.5786392688751221, -0.07894381135702133, 0.6968628764152527, -0.6956480145454407, 0.6063026785850525, -0.6500913500785828, -0.68266361951828, -0.1009506955742836, -0.0771997943520546, -0.5182233452796936, 0.1740555316209793, 0.12837161123752594, -0.6087983250617981, 0.4905988276004791, -0.5387396216392517, 0.49819931387901306], [0.18107984960079193, -1.103554368019104, 0.1954236477613449, -0.12698489427566528, 0.3319077491760254, -0.3037410080432892, -0.28817862272262573, -1.0836102962493896, 0.11112197488546371, -0.16792726516723633, 0.15342792868614197, 0.15197333693504333, -0.33831238746643066, -0.05335012078285217, -0.33918797969818115, 0.318309485912323], [1.2132502794265747, 0.016459055244922638, 1.3942939043045044, -1.4034885168075562, 1.3545209169387817, -1.327112078666687, -1.3956860303878784, 0.047282446175813675, 0.037210989743471146, -1.1984943151474, 0.1483669877052307, 0.26879367232322693, -1.3070216178894043, 1.25082528591156, -1.3053038120269775, 1.3077253103256226], [0.40024030208587646, -0.15821389853954315, 0.2911442518234253, -0.2618904113769531, 0.30299848318099976, -0.4317495822906494, -0.3293650150299072, -0.13952800631523132, -0.09470175951719284, -0.4661353826522827, 0.16065654158592224, 0.15830397605895996, -0.4263134002685547, 0.41629064083099365, -0.31640392541885376, 0.4477558135986328], [-0.2631375193595886, 1.747991919517517, -0.26349759101867676, 0.24750593304634094, -0.3464074432849884, 0.23700019717216492, 0.4580351710319519, 1.839601993560791, 0.6392207741737366, 0.43952441215515137, -0.4150141179561615, -0.37034597992897034, 0.26756858825683594, -0.309337854385376, 0.36205437779426575, -0.433511883020401], [-0.2817390561103821, 1.052616834640503, -0.10116313397884369, 0.19790290296077728, -0.15382204949855804, 0.17202237248420715, 0.12918178737163544, 1.0661840438842773, 0.3824716806411743, 0.07365268468856812, -0.3720530867576599, -0.2851584255695343, 0.23332132399082184, -0.27087604999542236, 0.19093257188796997, -0.20533467829227448], [-2.5104496479034424, 1.9788224697113037, -0.19426481425762177, 2.4575235843658447, -2.506143093109131, 2.592923402786255, 2.531876802444458, 1.967142939567566, 2.1110970973968506, 2.4971706867218018, -0.4642847180366516, -0.48094919323921204, 0.6607454419136047, -2.592690944671631, 0.06913229078054428, -2.6560635566711426], [-1.7417658567428589, 7.131851673126221, -1.8376656770706177, 1.8557437658309937, -1.8914076089859009, 1.942033052444458, 1.8515604734420776, 7.051187992095947, 1.4157315492630005, 1.9344171285629272, -0.436105340719223, -0.544346272945404, 1.750172734260559, -1.920547604560852, 1.8021153211593628, -1.738211750984192], [-2.215900182723999, -0.012344970367848873, -2.3201963901519775, 2.1805849075317383, -2.2039828300476074, 2.196333408355713, 2.25681471824646, 0.1626472920179367, 0.09091786295175552, 2.2053704261779785, -0.5732091069221497, -0.47395336627960205, 2.1765387058258057, -2.3318381309509277, 2.1851072311401367, -2.168800115585327], [-2.090153694152832, 0.17408207058906555, -2.1384105682373047, 2.1422030925750732, -2.1079165935516357, 2.259852886199951, 2.143622875213623, -0.048983216285705566, 0.08762229233980179, 2.202284812927246, -0.5278641581535339, -0.4372378885746002, 2.2069973945617676, -2.2165656089782715, 2.0744993686676025, -2.2407941818237305], [-1.8847581148147583, -0.05983615294098854, -0.8213526010513306, 1.9875774383544922, -1.9867254495620728, 1.9750639200210571, 1.9673911333084106, -0.07950609177350998, 0.1029447615146637, 1.7856229543685913, -0.1861782819032669, -0.38288772106170654, 0.8982251882553101, -1.7994319200515747, 0.9844261407852173, -0.8359315395355225], [-3.054823875427246, 0.15987426042556763, -3.073517322540283, 3.1787772178649902, -3.02897047996521, 2.9879467487335205, 3.0386836528778076, 0.053532376885414124, 0.19156429171562195, 3.153262138366699, -0.5980085730552673, -0.6614541411399841, 3.127258777618408, -3.115039825439453, 3.010204792022705, -3.028193473815918], [-3.265498399734497, 0.2224714308977127, -3.3587443828582764, 3.366360902786255, -3.2599503993988037, 3.243609666824341, 3.2233569622039795, 0.05731591582298279, 0.15221931040287018, 3.241467237472534, -0.6053287982940674, -0.8132405281066895, 3.2180984020233154, -3.275636911392212, 3.332075834274292, -3.279179334640503], [-2.2370049953460693, 0.029290882870554924, -2.298253059387207, 2.203071355819702, -2.3911657333374023, 2.378505229949951, 2.3242926597595215, 0.11382682621479034, 0.15807387232780457, 2.1762986183166504, -0.37246009707450867, -0.5653253197669983, 2.3919126987457275, -2.2534542083740234, 2.208451509475708, -2.2226521968841553], [-2.804093599319458, 0.06149733066558838, -2.6495065689086914, 2.720459222793579, -2.7876076698303223, 2.6686201095581055, 2.718982458114624, 0.002407332183793187, 0.061614200472831726, 2.676244020462036, -0.5724107027053833, -0.5070343017578125, 2.712925672531128, -2.660245895385742, 2.615055799484253, -2.7169673442840576], [-1.5558855533599854, 0.12107492983341217, -1.554579257965088, 1.5848143100738525, -1.5296003818511963, 1.3802673816680908, 1.612256646156311, 0.10005530714988708, 0.059306465089321136, 1.609290599822998, -0.1927860677242279, -0.345162957906723, 1.4101800918579102, -1.435313105583191, 1.49185311794281, -1.5440868139266968], [-1.5413262844085693, -0.02742161974310875, -1.384229302406311, 1.40134596824646, -1.4732449054718018, 1.5140693187713623, 1.407576322555542, 0.06215802952647209, 0.019236735999584198, 1.5434489250183105, -0.3472002446651459, -0.3142405152320862, 1.5757290124893188, -1.5262482166290283, 1.5034774541854858, -1.4143540859222412], [-2.3787848949432373, 0.008828508667647839, -2.400805950164795, 2.5121288299560547, -2.4729816913604736, 2.411975145339966, 2.494839668273926, -0.003286745399236679, 0.10599050670862198, 2.508796453475952, -0.5766379833221436, -0.45126742124557495, 2.392082691192627, -2.3642098903656006, 2.404071092605591, -2.4893958568573], [-1.6354150772094727, -0.04621433466672897, -1.6181607246398926, 1.7264254093170166, -1.7535104751586914, 1.5860142707824707, 1.7693061828613281, 0.031928665935993195, 0.07711178809404373, 1.6435832977294922, -0.32524001598358154, -0.24836023151874542, 1.7494416236877441, -1.6622962951660156, 1.6353394985198975, -1.614382266998291], [-1.4084994792938232, 0.1385170817375183, -1.382287859916687, 1.250760555267334, -1.2690879106521606, 1.2188849449157715, 1.3782871961593628, -0.0584389753639698, 0.11000686138868332, 1.409963607788086, -0.19345775246620178, -0.31694310903549194, 1.3301743268966675, -1.3994410037994385, 1.304625153541565, -1.293115496635437], [-0.7941392660140991, -0.06401028484106064, -0.7165590524673462, 0.7937440872192383, -0.8734073638916016, 0.7145791053771973, 0.7019585371017456, 0.040345143526792526, 0.10873128473758698, 0.8472936153411865, -0.1118711307644844, -0.2957054078578949, 0.7323671579360962, -0.6615147590637207, 0.821377158164978, -0.7508221864700317], [-0.6309065222740173, -0.11833599954843521, -0.6566831469535828, 0.7138696312904358, -0.6774675250053406, 0.7773860096931458, 0.6787137389183044, -0.0005937521927990019, -0.05562862008810043, 0.742730438709259, -0.12809643149375916, -0.23620426654815674, 0.6548648476600647, -0.6713983416557312, 0.7472324967384338, -0.8201997876167297], [-0.7408545613288879, -0.003497622674331069, -0.7788506150245667, 0.651091992855072, -0.6957245469093323, 0.7015995383262634, 0.8091875910758972, -0.04453739896416664, -0.025189490988850594, 0.6823615431785583, -0.27812284231185913, -0.11255577951669693, 0.77437824010849, -0.8665022253990173, 0.633680522441864, -0.6767517924308777], [-0.8533058166503906, 0.09836725890636444, -0.7021069526672363, 0.8371531963348389, -0.812798261642456, 0.7550002336502075, 0.7666323184967041, -0.12105835974216461, 0.10892316699028015, 0.732467770576477, -0.2366732358932495, -0.10201595723628998, 0.7369873523712158, -0.6739823818206787, 0.8694123029708862, -0.7658942937850952], [-0.5726486444473267, -0.15338006615638733, -0.36110547184944153, 0.37207603454589844, -0.3832801580429077, 0.42611056566238403, 0.4473302662372589, -0.07159742712974548, -0.09424464404582977, 0.5456910133361816, -0.08685941994190216, -0.02623286098241806, 0.5013115406036377, -0.4786321520805359, 0.47672027349472046, -0.3523387014865875], [-1.7626698017120361, -0.06962128728628159, -1.7043352127075195, 1.6731812953948975, -1.7333378791809082, 1.5989651679992676, 1.7063531875610352, -0.013451188802719116, 0.011261451989412308, 1.736678123474121, -0.36769017577171326, -0.38824379444122314, 1.7497365474700928, -1.7487809658050537, 1.6558005809783936, -1.5891101360321045], [-0.5789818167686462, -0.05776893347501755, -0.6011080145835876, 0.69630366563797, -0.6147362589836121, 0.7612400650978088, 0.6425982117652893, -0.09799768775701523, 0.03479182720184326, 0.797489583492279, -0.19280225038528442, -0.028830083087086678, 0.5694870352745056, -0.6972998976707458, 0.7201866507530212, -0.6224368214607239], [1.0997053384780884, -0.44517087936401367, 1.0926427841186523, -1.1795766353607178, 1.2413115501403809, -1.3029190301895142, -1.2083584070205688, -0.45784106850624084, -0.04238870367407799, -1.3002294301986694, 0.3377108871936798, 0.35262542963027954, -1.1917411088943481, 1.104010820388794, -1.2844629287719727, 1.225115180015564], [1.2915360927581787, -0.5689094066619873, 1.3734527826309204, -1.4267442226409912, 1.376543641090393, -1.3457525968551636, -1.4544082880020142, -0.47096580266952515, -0.146625816822052, -1.359578251838684, 0.2869966924190521, 0.3416904807090759, -1.319502830505371, 1.3240594863891602, -1.2819246053695679, 1.4315989017486572], [-0.020718658342957497, -0.10060083121061325, -0.08594533801078796, 0.008285955525934696, -0.0866442620754242, 0.15638479590415955, 0.14362546801567078, -0.14102497696876526, -0.07559596002101898, 0.18077316880226135, 0.007474225014448166, -0.051924847066402435, 0.045728977769613266, -0.02473052777349949, 0.14907905459403992, -0.1034141480922699], [-0.7283284664154053, -0.020292527973651886, -0.5349769592285156, 0.6916931867599487, -0.6929171085357666, 0.721860408782959, 0.5185811519622803, -0.048549458384513855, -0.11608726531267166, 0.6629847288131714, -0.04033483564853668, -0.243585005402565, 0.6820027828216553, -0.6034334897994995, 0.546806812286377, -0.7482352256774902], [-0.7455739378929138, -0.05388646200299263, -0.779359757900238, 0.7358692288398743, -0.6250573992729187, 0.857076108455658, 0.7155851721763611, 0.01917964406311512, 0.0029765432700514793, 0.7181728482246399, -0.23630249500274658, -0.23640403151512146, 0.6847469210624695, -0.7940972447395325, 0.7825649380683899, -0.6808596253395081], [-0.748371422290802, 0.02313145250082016, -0.5653282999992371, 0.5475217700004578, -0.6713147759437561, 0.7705045342445374, 0.5272720456123352, -0.0002194329717895016, -0.07843443751335144, 0.6737609505653381, -0.15459080040454865, -0.22455327212810516, 0.6188505291938782, -0.7331699728965759, 0.73114413022995, -0.698929488658905], [-0.7007213234901428, -0.11344189941883087, -0.5976564288139343, 0.7163599133491516, -0.5161938071250916, 0.5712636113166809, 0.54544597864151, -0.10800458490848541, 0.09072058647871017, 0.6303587555885315, -0.03740368410944939, -0.11112038791179657, 0.5579233765602112, -0.5312570929527283, 0.7051137089729309, -0.6210612654685974], [0.3339579403400421, -0.20984338223934174, 0.4250021278858185, -0.44782474637031555, 0.3493870794773102, -0.49113574624061584, -0.28420665860176086, -0.3658304810523987, 0.034097399562597275, -0.40747931599617004, -0.04500889033079147, -0.056571848690509796, -0.4181568920612335, 0.2944907248020172, -0.4536936581134796, 0.44109585881233215], [-0.48897266387939453, -0.16076186299324036, -0.5402159094810486, 0.5150036215782166, -0.48734045028686523, 0.47584056854248047, 0.6996787190437317, -0.08963170647621155, 0.10873124748468399, 0.5709744095802307, -0.18101395666599274, -0.2154170721769333, 0.5946270823478699, -0.5129775404930115, 0.5581421256065369, -0.6048131585121155], [0.7845243811607361, -0.3545454740524292, 0.8716432452201843, -0.8671910166740417, 0.8610804677009583, -0.7865279316902161, -0.855449378490448, -0.3384118676185608, -0.16164138913154602, -0.8151556849479675, 0.12575720250606537, 0.12992137670516968, -0.7449960112571716, 0.7298144698143005, -0.9208628535270691, 0.7074539065361023], [-0.7144843935966492, 0.05667634680867195, -0.4922797679901123, 0.562160313129425, -0.702593982219696, 0.6489081978797913, 0.5487551093101501, -0.11386140435934067, -0.0958331823348999, 0.6474588513374329, -0.05035540461540222, -0.06951573491096497, 0.5939245820045471, -0.601155698299408, 0.584901750087738, -0.5198227763175964], [-0.44290927052497864, -0.06862366944551468, -0.5959357023239136, 0.5973873138427734, -0.5987646579742432, 0.6391725540161133, 0.5265023708343506, -0.08102826029062271, -0.030990401282906532, 0.469744473695755, -0.09086239337921143, -0.19874460995197296, 0.5596718788146973, -0.652690052986145, 0.5849484205245972, -0.5602878332138062], [-0.492053747177124, -0.004937363788485527, -0.5033475756645203, 0.6165836453437805, -0.6394686102867126, 0.7076540589332581, 0.6989509463310242, -0.061550773680210114, 0.04281282424926758, 0.6987102627754211, -0.143550843000412, -0.031115060672163963, 0.4895194470882416, -0.6557071805000305, 0.5654852986335754, -0.5169321894645691], [0.02853442169725895, -0.06081530824303627, -0.03144358843564987, 0.11370294541120529, 0.03050745464861393, 0.06646028906106949, 0.09611300379037857, -0.20667921006679535, 0.024461010470986366, -0.0032041154336184263, -0.13650138676166534, -0.07413735240697861, -0.03495216742157936, 0.022445688024163246, 0.06679169088602066, -0.16058148443698883], [-0.46008822321891785, -0.06372802704572678, -0.5586650371551514, 0.47487330436706543, -0.48202216625213623, 0.5094859600067139, 0.3894062638282776, -0.09868098050355911, -0.12674936652183533, 0.40756291151046753, -0.1949528157711029, -0.029861513525247574, 0.3626467287540436, -0.34950533509254456, 0.4643051326274872, -0.5368047952651978], [-0.0941752940416336, -0.15837356448173523, -0.1300455778837204, 0.10014624893665314, -0.22358234226703644, 0.25202634930610657, 0.04802469536662102, -0.07358969002962112, -0.03200550004839897, 0.15145228803157806, -0.1247200220823288, -0.08483576774597168, 0.1667770892381668, -0.08300776779651642, 0.13550810515880585, -0.0975152999162674], [-0.46540266275405884, 0.021993596106767654, -0.3846977949142456, 0.4659881591796875, -0.4657248258590698, 0.5476340651512146, 0.5567707419395447, -0.04134337604045868, -0.060612041503190994, 0.48647427558898926, -0.012337438762187958, -0.1487763524055481, 0.4142836630344391, -0.48862171173095703, 0.3867405652999878, -0.43506208062171936], [-0.655650794506073, 0.06141318753361702, -0.5834616422653198, 0.6509714722633362, -0.5977687835693359, 0.6093781590461731, 0.683032751083374, -0.1367429792881012, 0.08816149085760117, 0.5621940493583679, -0.24215637147426605, -0.008862419985234737, 0.4842850863933563, -0.568511426448822, 0.6507037878036499, -0.49174973368644714], [-0.45779216289520264, 0.03472127392888069, -0.5730016827583313, 0.6226409077644348, -0.5628678202629089, 0.4710421860218048, 0.5634382367134094, 0.057544268667697906, 0.07911089062690735, 0.635037362575531, -0.0832110121846199, -0.24044479429721832, 0.43652498722076416, -0.537814199924469, 0.550650417804718, -0.607140839099884], [0.0411798357963562, -0.21923422813415527, -0.10963039100170135, -0.026132266968488693, 0.07498590648174286, 0.1026068776845932, 0.09659010171890259, -0.05562286451458931, 0.06428006291389465, 0.013524593785405159, 0.07735533267259598, 0.05126282200217247, -0.008364913985133171, -0.09650635719299316, 0.055584244430065155, 0.08951863646507263], [0.6064590215682983, -0.10405322164297104, 0.6066089868545532, -0.5086067914962769, 0.7421796321868896, -0.6891165971755981, -0.723603367805481, 0.03510953113436699, -0.3253212571144104, -0.7175679206848145, 0.09963613748550415, 0.10379774868488312, -0.5174684524536133, 0.7156705856323242, -0.6665652394294739, 0.6661096811294556], [3.0422422885894775, -0.2288893312215805, 0.3725479245185852, -0.4599788188934326, 0.5522751808166504, -2.9866716861724854, -0.5308661460876465, -0.2153107225894928, -0.7709127068519592, -0.45622026920318604, 0.7116833329200745, 0.6914750337600708, -0.5209299921989441, 2.9697985649108887, -0.3849968910217285, 0.4888370633125305], [2.106023073196411, -0.10921023041009903, 1.9655489921569824, -1.985496997833252, 2.013888120651245, -2.002509355545044, -2.070162534713745, -0.1154237687587738, -0.5769664645195007, -2.0233757495880127, 0.41906964778900146, 0.46051934361457825, -2.1888906955718994, 2.176492929458618, -1.9957791566848755, 2.1691958904266357], [0.14201420545578003, -0.08942321687936783, 0.24912837147712708, -0.2670671343803406, 0.25612711906433105, -0.2356589287519455, -0.12733256816864014, 0.09985318034887314, -0.0319557748734951, -0.062384769320487976, -0.026962222531437874, 0.14292128384113312, -0.20891939103603363, 0.01740093156695366, -0.2936736047267914, 0.1587831825017929], [-0.22555939853191376, -0.1586930751800537, -0.05716949328780174, 0.2953164577484131, -0.27605968713760376, 0.21069781482219696, 0.12703914940357208, -0.04362991079688072, -0.08954482525587082, 0.09033757448196411, -0.007803658023476601, 0.04810193553566933, 0.16122286021709442, -0.17237277328968048, 0.1429014801979065, -0.21416155993938446], [0.49334946274757385, -0.021213054656982422, 0.5609525442123413, -0.5323715209960938, 0.5905419588088989, -0.4805269241333008, -0.4008171260356903, 0.0874447375535965, -0.18278931081295013, -0.5466957688331604, -0.008382256142795086, 0.18745417892932892, -0.5494852066040039, 0.5163331031799316, -0.5072705149650574, 0.3621368110179901], [1.2096599340438843, -0.005986004136502743, 1.2143512964248657, -1.351462960243225, 1.3025139570236206, -1.2748883962631226, -1.3050094842910767, -0.1054917573928833, -0.43105897307395935, -1.3777977228164673, 0.21335318684577942, 0.2545994222164154, -1.1780941486358643, 1.1944361925125122, -1.2440568208694458, 1.2268961668014526], [0.5819266438484192, -0.2415534108877182, 0.19390366971492767, -0.5427913069725037, 0.579779326915741, -0.7042216658592224, -0.5302127003669739, -0.0981767475605011, -0.1405526101589203, -0.5901687741279602, 0.11053867638111115, 0.03860688582062721, -0.05815184488892555, 0.5793996453285217, -0.18731258809566498, 0.6858280301094055], [-0.024644672870635986, -0.10697177797555923, 0.02057534083724022, 0.027562201023101807, 0.026027612388134003, 0.12810024619102478, -0.017005737870931625, -0.16427049040794373, 0.05159206688404083, -0.07543398439884186, 0.02579294890165329, 0.023485761135816574, 0.12791594862937927, -0.14268168807029724, 0.13733214139938354, -0.1686825454235077], [2.033515691757202, -0.01652977056801319, 2.1005213260650635, -2.0222952365875244, 2.1635468006134033, -2.025277853012085, -2.1940462589263916, -0.06273627281188965, -0.5113666653633118, -1.9798282384872437, 0.48980653285980225, 0.5196079611778259, -2.019383192062378, 2.039174795150757, -2.1853983402252197, 2.229403257369995], [0.01026636827737093, 0.035197608172893524, 0.06791973114013672, -0.09632128477096558, -0.035480763763189316, 0.05882459878921509, -0.13184376060962677, -0.10938400775194168, -0.09033223241567612, -0.047818563878536224, -0.07942589372396469, 0.00350568862631917, 0.033028990030288696, 0.12445839494466782, 0.06438704580068588, 0.06562083959579468], [-0.345572292804718, -0.10297685116529465, -0.30153173208236694, 0.5111305117607117, -0.3891821503639221, 0.4829850494861603, 0.43217650055885315, 0.07479348033666611, -0.07259771972894669, 0.2927873730659485, -0.07366085797548294, -0.08696994930505753, 0.3541066646575928, -0.4523095190525055, 0.5320916771888733, -0.3591083288192749], [0.13354170322418213, 0.07685192674398422, 0.2883473038673401, -0.27199846506118774, 0.11269237101078033, -0.188648521900177, -0.22003692388534546, -0.11914993822574615, -0.056377217173576355, -0.1676706075668335, -0.026238813996315002, 0.04914756119251251, -0.15007734298706055, 0.1787184476852417, -0.28833335638046265, 0.23635733127593994], [-0.5205149054527283, -0.022373784333467484, -0.5339714884757996, 0.43649667501449585, -0.3962996006011963, 0.48810166120529175, 0.5307090878486633, 0.04034998640418053, 0.07895656675100327, 0.39519989490509033, -0.020451122894883156, 0.012185593135654926, 0.35807693004608154, -0.41732919216156006, 0.482965886592865, -0.5529479384422302], [0.605486273765564, 0.014144704677164555, 0.6081093549728394, -0.49019181728363037, 0.6042903661727905, -0.4828287959098816, -0.4908788502216339, -0.08408108353614807, -0.02481674589216709, -0.4749542474746704, 0.10240578651428223, 0.14833886921405792, -0.4116905927658081, 0.6306381225585938, -0.6121656894683838, 0.5762926340103149], [0.0313093326985836, 0.07182663679122925, -0.08159695565700531, 0.06304121017456055, -0.10491189360618591, 0.015958119183778763, 0.0891142338514328, 0.19663006067276, 0.20162317156791687, -0.11261416971683502, -0.17398065328598022, -0.08958703279495239, -0.11137314140796661, 0.034956928342580795, 0.09145314991474152, -0.03429553657770157], [-0.07887056469917297, 0.07989564538002014, 0.09819033741950989, 0.036514244973659515, -0.11348658800125122, 0.05946209281682968, 0.104872927069664, 0.12213940173387527, 0.13429643213748932, 0.12676231563091278, -0.23335880041122437, -0.2797888517379761, 0.016064269468188286, 0.04651112109422684, 0.00998249277472496, -0.05676960200071335], [-1.4276469945907593, 0.1821775883436203, -1.2895954847335815, 1.3152276277542114, -1.251318097114563, 1.4291340112686157, 1.3950010538101196, 0.0865183025598526, -0.04496675357222557, 1.239155888557434, -0.319862961769104, -0.3567509055137634, 1.2470577955245972, -1.2400251626968384, 1.3996332883834839, -1.3814297914505005], [-0.9266143441200256, 0.13300059735774994, -0.9425932765007019, 0.8926289677619934, -1.0395609140396118, 1.0538748502731323, 1.0879244804382324, 0.09894593805074692, -0.07581241428852081, 1.0196057558059692, -0.22201387584209442, -0.14007426798343658, 0.9930956959724426, -0.9554398655891418, 0.9171208739280701, -1.1182160377502441], [-0.8419017791748047, -0.10480736196041107, -0.7234644889831543, 0.8400452136993408, -0.6389970779418945, 0.8184889554977417, 0.8416086435317993, 0.005695674568414688, 0.13340096175670624, 0.7239773273468018, -0.15355972945690155, -0.22528399527072906, 0.6555030345916748, -0.74751877784729, 0.8562005758285522, -0.702412486076355], [-0.6049689650535583, -0.12919212877750397, -0.5509071946144104, 0.5895774960517883, -0.5251547694206238, 0.5325071215629578, 0.42971569299697876, 0.0390213280916214, -0.057310156524181366, 0.5708467364311218, -0.06340072304010391, -0.08710858970880508, 0.39688992500305176, -0.46506261825561523, 0.6183623671531677, -0.567912757396698], [-0.36575713753700256, -0.009781614877283573, -0.39345720410346985, 0.42195966839790344, -0.45896783471107483, 0.4183134138584137, 0.35247328877449036, 0.033365119248628616, -0.07248867303133011, 0.3719482719898224, -0.1525060534477234, -0.0988355502486229, 0.542422890663147, -0.5162910223007202, 0.4672441780567169, -0.3576078712940216], [-3.5493597984313965, 0.24767829477787018, -6.2232208251953125, 3.4594688415527344, -3.51015567779541, 3.4850387573242188, 3.3958449363708496, 0.34290578961372375, 0.2027728110551834, 3.4780449867248535, -0.8088365793228149, -0.7259483337402344, 3.482518196105957, -3.429719924926758, 6.3383331298828125, -3.5324339866638184], [-7.122147083282471, 0.35635125637054443, -7.139882564544678, 7.043396949768066, -7.016676902770996, 7.090932369232178, 6.971506595611572, 0.22021205723285675, 0.38926103711128235, 7.109681129455566, -1.5596197843551636, -1.480000615119934, 6.970355033874512, -7.152888298034668, 7.023029327392578, -7.169684886932373], [-1.925649881362915, 0.07709435373544693, -2.0192105770111084, 1.8815780878067017, -2.0247323513031006, 2.0823280811309814, 2.045877456665039, -0.02275191992521286, 0.16367807984352112, 1.976946234703064, -0.46033766865730286, -0.3347039818763733, 1.8651539087295532, -2.089265823364258, 1.8819001913070679, -1.8734818696975708], [-0.5994133949279785, -0.1422707885503769, -0.49286413192749023, 0.5098388195037842, -0.5742979049682617, 0.575363039970398, 0.6121249198913574, -0.07912533730268478, -0.038641151040792465, 0.4557991623878479, -0.18944382667541504, -0.2039589285850525, 0.6658746004104614, -0.6042282581329346, 0.5069783926010132, -0.6541129350662231], [-0.841819167137146, -0.06724380701780319, -0.6696960926055908, 0.7917031049728394, -0.629867672920227, 0.731284499168396, 0.6620869636535645, -0.1157282218337059, -0.033844929188489914, 0.6388124227523804, -0.2121308594942093, -0.0835186168551445, 0.7735269069671631, -0.6263560056686401, 0.8047515153884888, -0.6677558422088623], [-0.8375311493873596, -0.0075293611735105515, -0.8562710285186768, 0.808513879776001, -0.7010482549667358, 0.839271068572998, 0.8122202157974243, 0.07702662795782089, -0.08223454654216766, 0.6620814800262451, -0.2482263296842575, -0.26863086223602295, 0.7286174297332764, -0.7893322110176086, 0.7276396751403809, -0.7601145505905151], [-0.7611314058303833, -0.11926520615816116, -0.8144069910049438, 0.9093893766403198, -0.6683766841888428, 0.68168044090271, 0.7904484272003174, -0.006536678411066532, -0.0809042826294899, 0.7718778848648071, -0.2159702628850937, -0.2631204128265381, 0.8850586414337158, -0.6718126535415649, 0.9024007320404053, -0.8831524848937988], [-0.27964159846305847, -0.1792823225259781, -0.45120131969451904, 0.37990525364875793, -0.40865424275398254, 0.41952767968177795, 0.437010258436203, -0.2020728439092636, -0.10760945826768875, 0.5016978979110718, 0.026332486420869827, 0.006819661241024733, 0.42082634568214417, -0.379237562417984, 0.3174590468406677, -0.4826090633869171], [-1.2232578992843628, 0.07064893841743469, -1.1599913835525513, 1.2237595319747925, -1.0608165264129639, 1.1316156387329102, 1.0999186038970947, 0.07084831595420837, 0.14411398768424988, 1.1222896575927734, -0.35616961121559143, -0.1398072987794876, 1.1509698629379272, -1.0777077674865723, 1.2237602472305298, -1.1037037372589111], [-0.5053537487983704, -0.09825044870376587, -0.5525962710380554, 0.7369950413703918, -0.5127668976783752, 0.5804161429405212, 0.6544340252876282, -0.09409843385219574, -0.03396289795637131, 0.6528090834617615, -0.0828988254070282, -0.11294157803058624, 0.7155705094337463, -0.5418606400489807, 0.5739968419075012, -0.5626322627067566], [-0.07504436373710632, -0.06196015700697899, -0.16124723851680756, 0.24546003341674805, -0.17528913915157318, 0.03333032876253128, 0.23152635991573334, -0.07404299080371857, -0.10592199116945267, 0.108724445104599, 0.05408831685781479, 0.002712093759328127, 0.21366463601589203, -0.012047054246068, 0.008419036865234375, -0.07715705037117004], [0.19033168256282806, -0.1358930468559265, 0.11893972009420395, -0.08377458900213242, 0.2684881091117859, -0.18758775293827057, -0.04090733453631401, -0.139038547873497, -0.15533915162086487, -0.22842736542224884, 0.03016766346991062, 0.0248938649892807, -0.1146756038069725, 0.1713142991065979, -0.09203822165727615, 0.13992789387702942], [-2.6655704975128174, 0.06613243371248245, -2.670123338699341, 2.5881879329681396, -2.6252572536468506, 2.7146573066711426, 2.650965929031372, 0.011816183105111122, 0.04704372212290764, 2.703378915786743, -0.44077250361442566, -0.5951298475265503, 2.636679172515869, -2.5987844467163086, 2.5539050102233887, -2.7697131633758545], [-0.6559229493141174, 0.03061339631676674, -0.8076598048210144, 0.8816242814064026, -0.7988203167915344, 0.8365158438682556, 0.7050177454948425, -0.11414802819490433, 0.05176451802253723, 0.8021966814994812, -0.1707870364189148, -0.17532581090927124, 0.7275033593177795, -0.774776041507721, 0.7471981644630432, -0.8797704577445984], [-0.13742530345916748, 0.051486656069755554, -0.14761386811733246, -0.037037402391433716, 0.029561540111899376, 0.16263170540332794, 0.14299093186855316, -0.09073808789253235, 0.01688847690820694, 0.06627009809017181, 0.00889778882265091, -0.06303631514310837, 0.16016323864459991, -0.14096508920192719, -0.018248936161398888, -0.08642347157001495], [-0.687699556350708, -0.09310390055179596, -0.27959468960762024, 0.3089429438114166, -0.388337641954422, 0.2603469491004944, 0.41257020831108093, 0.0008156163967214525, 0.04816477745771408, 0.4031047523021698, -0.21233730018138885, 0.02011040598154068, 0.28188714385032654, -0.6220121383666992, 0.38011714816093445, -0.36743101477622986], [-0.015296085737645626, 0.1123792752623558, -0.08725563436746597, 0.03762289509177208, 0.07554540783166885, 0.08272396773099899, -0.12080065160989761, 0.10812617093324661, 0.0496680922806263, -0.09448791295289993, -0.04015806317329407, -0.12577813863754272, -0.09377633035182953, 0.09836091101169586, 0.04002460837364197, 0.09789051860570908], [0.09421224892139435, -0.022561540827155113, -0.10417023301124573, -0.023757537826895714, 0.07649511098861694, 0.024809693917632103, 0.10609855502843857, 0.025654256343841553, 0.051023781299591064, -0.01814061403274536, -0.04927980899810791, 0.13524900376796722, 0.028583738952875137, -0.01985830068588257, 0.12087824195623398, 0.006780325435101986], [-0.4012695550918579, -0.10888727754354477, -0.5621708035469055, 0.4213496446609497, -0.36611616611480713, 0.3751121163368225, 0.3588300943374634, -0.05830332636833191, -0.07367680221796036, 0.5526737570762634, -0.22711630165576935, -0.05704262852668762, 0.408973753452301, -0.5649604201316833, 0.5844530463218689, -0.5203337073326111], [-0.6516072750091553, 0.03373479098081589, -0.6600302457809448, 0.830390989780426, -0.5986674427986145, 0.779022216796875, 0.6308406591415405, -0.11223868280649185, -0.020689884200692177, 0.752088725566864, -0.1500280499458313, -0.19684773683547974, 0.8165742754936218, -0.6587952375411987, 0.7384928464889526, -0.7162008881568909]], [-0.03337828069925308, -0.04697041213512421, -0.19360335171222687, 0.026879234239459038, -0.1025506928563118, 0.05264219269156456, 0.0833856388926506, -0.06872344017028809, -0.056918125599622726, 0.0764397606253624, -0.2411378026008606, -0.3324103057384491, 0.167409747838974, -0.01914670690894127, 0.1944250911474228, -0.13943815231323242], [[0.6110250949859619], [-0.5923894643783569], [1.5852605104446411], [-0.8107818365097046], [1.2303129434585571], [-0.5068233609199524], [-1.6583200693130493], [-0.35680854320526123], [-0.00705376174300909], [-0.5125368237495422], [0.07292183488607407], [0.06377989798784256], [-1.5978238582611084], [0.5028942227363586], [-0.385408878326416], [0.9824384450912476]], [0.18284223973751068]], "etBin": [0.0, 20.0], "etaBin": [1.37, 1.54]}, {"sequence": "{\"class_name\": \"Sequential\", \"config\": {\"name\": \"sequential_63\", \"layers\": [{\"class_name\": \"Dense\", \"config\": {\"name\": \"dense_126\", \"trainable\": true, \"batch_input_shape\": [null, 100], \"dtype\": \"float32\", \"units\": 12, \"activation\": \"tanh\", \"use_bias\": true, \"kernel_initializer\": {\"class_name\": \"GlorotUniform\", \"config\": {\"seed\": null}}, \"bias_initializer\": {\"class_name\": \"Zeros\", \"config\": {}}, \"kernel_regularizer\": null, \"bias_regularizer\": null, \"activity_regularizer\": null, \"kernel_constraint\": null, \"bias_constraint\": null}}, {\"class_name\": \"Dense\", \"config\": {\"name\": \"dense_127\", \"trainable\": true, \"dtype\": \"float32\", \"units\": 1, \"activation\": \"linear\", \"use_bias\": true, \"kernel_initializer\": {\"class_name\": \"GlorotUniform\", \"config\": {\"seed\": null}}, \"bias_initializer\": {\"class_name\": \"Zeros\", \"config\": {}}, \"kernel_regularizer\": null, \"bias_regularizer\": null, \"activity_regularizer\": null, \"kernel_constraint\": null, \"bias_constraint\": null}}, {\"class_name\": \"Activation\", \"config\": {\"name\": \"activation_63\", \"trainable\": true, \"dtype\": \"float32\", \"activation\": \"tanh\"}}]}, \"keras_version\": \"2.2.4-tf\", \"backend\": \"tensorflow\"}", "weights": [[[0.07347682863473892, 0.855747640132904, 0.00842108391225338, 0.8744163513183594, 0.14168211817741394, 0.9065430164337158, -0.9584665894508362, -0.8576292395591736, -0.9060099124908447, -0.15506508946418762, -0.09759411960840225, -0.9817870259284973], [0.11086798459291458, 0.7074270248413086, 0.0860825926065445, 0.8125483989715576, -0.04534709081053734, 0.5857232809066772, -0.7277305126190186, -0.6034986972808838, -0.8061052560806274, -0.07674091309309006, -0.04952652379870415, -0.6066368818283081], [-0.22192643582820892, -0.016444029286503792, -0.07726234942674637, -0.0053376671858131886, -0.061322566121816635, -0.03530312702059746, 0.16012613475322723, 0.1782567799091339, 0.1346808820962906, 0.20880095660686493, 0.26593542098999023, 0.16600172221660614], [0.09431090205907822, -0.2780096232891083, -0.12025225162506104, -0.2002032846212387, -0.0018186133820563555, -0.3067540228366852, 0.18554215133190155, 0.1853518784046173, 0.2311590611934662, -0.13028904795646667, 0.00643699336796999, 0.16566255688667297], [-0.05672236904501915, -0.3728114366531372, 0.022525157779455185, -0.47455692291259766, -0.008228253573179245, -0.4503781199455261, 0.32520437240600586, 0.48616868257522583, 0.44427114725112915, -0.06834574788808823, 0.16204950213432312, 0.3446674942970276], [0.11650260537862778, -0.3448895812034607, -0.06872686743736267, -0.15588080883026123, 0.002197754569351673, -0.339547336101532, 0.35149189829826355, 0.3124924302101135, 0.1269865334033966, -0.09979509562253952, 0.04702237993478775, 0.30290859937667847], [0.14526772499084473, 0.010952084325253963, -0.16843517124652863, -0.0051125288009643555, 0.14681458473205566, -0.18671448528766632, 0.16333350539207458, 0.14944002032279968, 0.021368691697716713, 0.03406215459108353, 0.06161084026098251, 0.1603359878063202], [0.018506711348891258, 0.17163412272930145, -0.08427511155605316, -0.024333246052265167, 0.06852608174085617, 0.028712963685393333, -0.06821055710315704, -0.13483746349811554, -0.16141526401042938, -0.0370730385184288, -0.03125558793544769, -0.02179131843149662], [0.3028365671634674, 1.401155710220337, -1.0784353017807007, 1.2056201696395874, 0.16117675602436066, 1.4522440433502197, -1.296568751335144, -1.4192923307418823, -1.2312791347503662, -0.1818811446428299, -0.31633904576301575, -1.355717658996582], [0.15159951150417328, 1.4119529724121094, -0.1799338012933731, 1.3944300413131714, 0.18891580402851105, 1.3335511684417725, -1.37785804271698, -1.456716537475586, -1.4421308040618896, -0.15657664835453033, -0.373982697725296, -1.3758225440979004], [0.2367319017648697, 1.1573766469955444, -0.583513081073761, 1.1319537162780762, 0.23935651779174805, 1.0613354444503784, -1.1466500759124756, -1.2490123510360718, -0.9955828189849854, -0.11721772700548172, -2.102773904800415, -1.221917986869812], [0.042840637266635895, 0.15913087129592896, 0.3034774661064148, -0.09528699517250061, -0.11590386182069778, 0.17492231726646423, 0.03394511714577675, -0.06486590951681137, -0.06613966077566147, 0.11424239724874496, -0.13163958489894867, -0.16333216428756714], [-0.35028985142707825, -0.9635791182518005, 1.4859081506729126, -0.9170843958854675, -0.237266406416893, -0.9013590812683105, 1.0219504833221436, 1.0535950660705566, 1.1256804466247559, 0.24962656199932098, 0.07909572869539261, 0.9108412861824036], [-0.31897103786468506, -0.004706947132945061, 0.2909749746322632, -0.014647792093455791, -0.37408459186553955, -0.06811504065990448, 0.10026994347572327, -0.09196782112121582, -0.08193204551935196, 0.35821688175201416, 0.23009540140628815, -0.08025842905044556], [-1.3899519443511963, -2.7353320121765137, 2.9033586978912354, -2.8694591522216797, -1.3021790981292725, -2.72227144241333, 2.81296706199646, 2.8710718154907227, 2.844921827316284, 1.4577369689941406, 3.4120571613311768, 2.6888298988342285], [-1.9221934080123901, -1.8571641445159912, 0.5619007349014282, -1.9158152341842651, -2.021311044692993, -1.8414833545684814, 1.9108121395111084, 1.8114943504333496, 1.9210702180862427, 1.91103196144104, 8.32243824005127, 2.0144193172454834], [-0.8345057964324951, -0.8683490753173828, 0.3196623921394348, -0.8248977661132812, -1.0043226480484009, -0.899369478225708, 0.6823952198028564, 0.6964011788368225, 0.8079874515533447, 0.9968602657318115, 4.10237979888916, 0.7878190279006958], [-1.4002259969711304, -1.224515676498413, 0.34367048740386963, -1.2046726942062378, -1.2683333158493042, -1.2936887741088867, 1.2771985530853271, 1.1661278009414673, 1.3337292671203613, 1.2154844999313354, 5.228827953338623, 1.1553541421890259], [-0.11473327875137329, -0.32254523038864136, -0.02729983814060688, -0.25200286507606506, 0.04500492289662361, -0.34870070219039917, 0.27122944593429565, 0.48658767342567444, 0.3976365923881531, -0.035733118653297424, -2.7055113315582275, 0.4640013873577118], [-0.5336739420890808, -4.198087215423584, 0.21850748360157013, -3.3429982662200928, -0.613460898399353, -4.074159622192383, 4.195213317871094, 4.5252580642700195, 4.219398021697998, 0.5517828464508057, 0.5222992897033691, 4.694734573364258], [0.046892136335372925, -0.6634833812713623, -0.04758019000291824, -0.37323155999183655, 0.028964290395379066, -0.7317330837249756, 0.7168731689453125, 0.8016472458839417, 0.45786532759666443, 0.1226339116692543, 0.2140372395515442, 0.8231510519981384], [0.020185809582471848, 0.08895087242126465, -0.08521731197834015, -0.027821844443678856, 0.05371265113353729, 0.06324698030948639, 0.0016496042953804135, 0.04046686738729477, -0.13562770187854767, -0.017128044739365578, 0.1592486947774887, 0.08003854751586914], [-0.27707216143608093, -1.5653350353240967, -0.060818083584308624, -1.4500927925109863, -0.15793932974338531, -1.571948528289795, 1.3323209285736084, 1.4570856094360352, 1.3916535377502441, 0.2432246059179306, 0.25893259048461914, 1.3627078533172607], [-0.32486623525619507, -1.5306264162063599, 0.11483602970838547, -1.486460566520691, -0.3019441068172455, -1.529797911643982, 1.4375067949295044, 1.538711667060852, 1.4762107133865356, 0.1492808759212494, 0.19383087754249573, 1.5198570489883423], [-0.28225624561309814, -1.265318751335144, -0.0322471521794796, -1.3272377252578735, -0.199056476354599, -1.3649953603744507, 1.4913971424102783, 1.277990698814392, 1.463157057762146, 0.1701391339302063, 0.2061028927564621, 1.4475654363632202], [-0.12812288105487823, -1.2880889177322388, 0.050403304398059845, -1.3038021326065063, -0.2443135529756546, -1.2017725706100464, 1.2384988069534302, 1.1479015350341797, 1.2964633703231812, 0.10536917299032211, 0.21586407721042633, 1.186111569404602], [-0.07255647331476212, -0.9057645201683044, 0.09942431002855301, -0.9106979966163635, -0.11962194740772247, -0.8665840029716492, 1.08400297164917, 1.1226155757904053, 0.9028158783912659, 0.1825931817293167, 0.09745234251022339, 0.8843483328819275], [-0.0880657508969307, -1.3303006887435913, 0.15561765432357788, -1.2255276441574097, -0.1444297730922699, -1.1559250354766846, 1.3802720308303833, 1.395092248916626, 1.2343894243240356, 0.17476706206798553, 0.2664583921432495, 1.2401591539382935], [0.04132342338562012, -0.6194390654563904, -0.06184005364775658, -0.6897165179252625, -0.03305366635322571, -0.5724329352378845, 0.6991890072822571, 0.6385074853897095, 0.7546287775039673, -0.030415143817663193, 0.03401170298457146, 0.6395353674888611], [-0.01982087269425392, -0.2876385748386383, -0.03521320968866348, -0.33680611848831177, 0.00960729829967022, -0.3783361315727234, 0.22822077572345734, 0.3767186999320984, 0.3548973500728607, -0.1356056183576584, 0.13446660339832306, 0.38456523418426514], [-0.06551582366228104, -0.2651457190513611, -0.09842794388532639, -0.09995408356189728, 0.013261242769658566, -0.20255477726459503, 0.11677227914333344, 0.36560413241386414, 0.15370763838291168, 0.017266996204853058, 0.09642453491687775, 0.198313906788826], [-0.21632741391658783, -0.926378607749939, 0.10993342846632004, -0.967322051525116, -0.24069702625274658, -1.071000337600708, 0.8910311460494995, 0.939081072807312, 1.0007694959640503, 0.15089617669582367, -0.04614802449941635, 1.0574777126312256], [0.08068790286779404, -0.689467191696167, -0.04234985262155533, -0.6430069208145142, -0.027906352654099464, -0.6594464778900146, 0.6221300363540649, 0.6355020403862, 0.6673437356948853, 0.027581969276070595, 0.17165958881378174, 0.6501401662826538], [-0.2809408903121948, -1.1560643911361694, 0.01581757329404354, -1.2293671369552612, -0.2840786874294281, -1.3547478914260864, 1.138989806175232, 1.2757031917572021, 1.1535650491714478, 0.21431761980056763, 0.17747050523757935, 1.2411178350448608], [0.07507067173719406, -0.5342223644256592, -0.1170201376080513, -0.39361080527305603, -0.0272306427359581, -0.33298036456108093, 0.28660231828689575, 0.4591260254383087, 0.1998511403799057, 0.05308667942881584, 0.08152814209461212, 0.5506219863891602], [-0.21632595360279083, -1.0350139141082764, -0.09533613175153732, -1.0808135271072388, -0.03390061482787132, -1.0795292854309082, 1.171839952468872, 1.0899118185043335, 1.0750494003295898, 0.20477096736431122, 0.268003910779953, 1.2045819759368896], [0.10672523826360703, -0.4904097616672516, 0.06596697866916656, -0.001004521269351244, 0.007627041079103947, -0.057504959404468536, 0.10849226266145706, 0.3337954878807068, -0.10461225360631943, 0.07292912900447845, 0.09988859295845032, 0.29643648862838745], [0.17428983747959137, 0.03905121982097626, -0.05266482010483742, 0.26315218210220337, 0.050167858600616455, 0.15285950899124146, -0.23197291791439056, -0.19800813496112823, -0.19961868226528168, -0.09120200574398041, -0.0798511952161789, -0.08840465545654297], [0.08878613263368607, -0.012493722140789032, -0.10430748015642166, -0.006637883838266134, 0.07867341488599777, 0.04248875379562378, 0.0009737455984577537, 0.10867235064506531, 0.07331909239292145, -0.12410985678434372, -0.13566634058952332, 0.09486310184001923], [0.0024222845677286386, -0.7521436214447021, -0.09664641320705414, -0.8298298120498657, 0.004167712293565273, -0.8943964242935181, 0.8462570905685425, 0.8212641477584839, 0.7016324996948242, 0.06861978024244308, 0.2791441082954407, 0.8406497240066528], [0.21090568602085114, 0.21592386066913605, -0.16822968423366547, -0.07509388774633408, 0.1452757567167282, 0.25436675548553467, -0.12290724366903305, -0.16458255052566528, -0.15799236297607422, -0.14101625978946686, -0.05417996644973755, -0.22680316865444183], [0.13904181122779846, 0.8197923302650452, -0.09581680595874786, 0.7364076972007751, 0.11340190470218658, 0.7213768362998962, -0.7538785338401794, -0.8197336792945862, -0.7915172576904297, -0.28445982933044434, -0.27447569370269775, -0.799617350101471], [0.056481070816516876, -0.4486432373523712, 0.025377027690410614, -0.4815395176410675, -0.11871328204870224, -0.5781385898590088, 0.4840732514858246, 0.6165056228637695, 0.44717732071876526, -0.05799431353807449, 0.04101395979523659, 0.5306044816970825], [-0.053941935300827026, -0.36533045768737793, 0.08222180604934692, -0.38508111238479614, -0.02474808134138584, -0.26770395040512085, 0.2649516463279724, 0.2516234815120697, 0.3366883099079132, 0.02841321937739849, 0.023564089089632034, 0.29936936497688293], [-0.0006760474061593413, -0.5907633304595947, 0.007014991249889135, -0.43553584814071655, -0.06323155760765076, -0.5101674795150757, 0.5004700422286987, 0.49862009286880493, 0.5416970252990723, 0.12406405806541443, 0.0016796530690044165, 0.5236285328865051], [0.1476811170578003, 0.6238790154457092, -0.01759798638522625, 0.7057363390922546, 0.30139535665512085, 0.7498635649681091, -0.7625958323478699, -0.5641435980796814, -0.7644333243370056, -0.3109760582447052, -0.03237523138523102, -0.5907637476921082], [-0.2004903107881546, -0.8606862425804138, 0.030903633683919907, -0.8194615244865417, -0.07401128858327866, -0.7504525780677795, 0.826468288898468, 0.692038893699646, 0.9053620100021362, 0.16056585311889648, 0.12366566061973572, 0.714980959892273], [-0.060623180121183395, -0.5602596998214722, -0.10274358093738556, -0.6102641820907593, -0.05047077685594559, -0.5074657201766968, 0.5355994701385498, 0.5399461984634399, 0.44135719537734985, 0.11679185181856155, 0.1786729097366333, 0.6494489908218384], [-0.03918984904885292, -0.2714194655418396, 0.056878261268138885, -0.4546935260295868, 0.0033744617830961943, -0.4570271074771881, 0.4371645450592041, 0.26827704906463623, 0.23079749941825867, -0.07927782088518143, 0.1742279976606369, 0.23771736025810242], [-0.14786642789840698, -0.4400058686733246, 0.08013400435447693, -0.579706609249115, -0.10416176915168762, -0.5983095169067383, 0.6062021255493164, 0.4212935268878937, 0.5505024194717407, -0.04777057096362114, 0.08037525415420532, 0.4380604326725006], [0.07511330395936966, 0.06338010728359222, -0.06835773587226868, 0.10725420713424683, -0.0127211669459939, -0.002321421168744564, -0.10328906774520874, 0.046381376683712006, -0.1197170615196228, 0.004410652909427881, -0.12613973021507263, 0.08380818367004395], [-0.12189099192619324, -0.5400457382202148, -0.08981900662183762, -0.785744845867157, -0.11493046581745148, -0.551486611366272, 0.5074070692062378, 0.665159285068512, 0.9046310782432556, -0.05662199482321739, 0.01852203905582428, 0.6636692881584167], [0.11945702880620956, 0.5681506395339966, -0.3249205946922302, 0.4946363568305969, 0.21504515409469604, 0.6265198588371277, -0.5644182562828064, -0.45296868681907654, -0.4715484380722046, -0.08247187733650208, -0.08336832374334335, -0.40345141291618347], [0.0014888636069372296, -0.38450828194618225, 0.08807559311389923, -0.474288672208786, 0.04273524507880211, -0.4537837505340576, 0.3633464276790619, 0.3815387785434723, 0.35268810391426086, 0.03897350654006004, 0.08367909491062164, 0.5661117434501648], [0.055504683405160904, 0.3632930815219879, -0.05523494631052017, 0.2102336436510086, 0.10369852185249329, 0.3557170331478119, -0.23727551102638245, -0.2345687597990036, -0.3597562611103058, -0.18002575635910034, -0.14198455214500427, -0.24809308350086212], [0.06655048578977585, 0.10522530227899551, -0.1798548847436905, -0.03970213234424591, 0.0026657693088054657, 0.06089989095926285, -0.12718234956264496, 0.027097560465335846, -0.05945149064064026, -0.1469271332025528, 0.041289862245321274, 0.004664320964366198], [-0.004591848701238632, -0.22643527388572693, -0.04893767833709717, -0.3224485218524933, 0.16297727823257446, -0.4518108069896698, 0.4074524939060211, 0.338366836309433, 0.4516793191432953, 0.027537068352103233, 0.10388877987861633, 0.3084019124507904], [0.049100060015916824, -0.4927605390548706, 0.06124546378850937, -0.4019050598144531, 0.06843680143356323, -0.4641896188259125, 0.5452460050582886, 0.5328542590141296, 0.5026513934135437, -0.06884099543094635, 0.03752424567937851, 0.5841951370239258], [0.07141102105379105, 0.2428278625011444, -0.20350730419158936, 0.21190160512924194, 0.1936783790588379, 0.1304561197757721, -0.22704115509986877, -0.050201691687107086, -0.04410887509584427, -0.05984370410442352, -0.10942618548870087, -0.22073587775230408], [0.1084647849202156, 0.5828389525413513, -0.17651942372322083, 0.6654230356216431, 0.1834593564271927, 0.6468974351882935, -0.5738474726676941, -0.45964911580085754, -0.4710855782032013, -0.06936267763376236, -0.009894691407680511, -0.48312321305274963], [0.11069134622812271, 0.4789542257785797, -0.32398101687431335, 0.511168360710144, 0.14125841856002808, 0.6592563986778259, -0.4735086262226105, -0.5936470627784729, -0.650486171245575, -0.280610054731369, -0.21749547123908997, -0.5276358127593994], [-0.05304590240120888, -0.6057939529418945, -0.027756955474615097, -0.4810371398925781, -0.032214343547821045, -0.41315239667892456, 0.485590398311615, 0.5169273018836975, 0.4444030523300171, 0.011115786619484425, 0.14783616364002228, 0.5587068200111389], [0.08269322663545609, 0.27690306305885315, -0.16674423217773438, 1.0577058792114258, 0.1515183448791504, 0.1933002471923828, -0.2908652126789093, -0.3848832845687866, -0.33818143606185913, -0.11427098512649536, -0.3288171589374542, -0.28312763571739197], [0.022154495120048523, 0.16087718307971954, -0.18017792701721191, 0.2490135133266449, 0.18664170801639557, 0.3742205798625946, -0.23514603078365326, -0.33402392268180847, -0.36381253600120544, -0.07855330407619476, 0.0449431836605072, -0.2465420961380005], [0.06309032440185547, -0.14181575179100037, -0.01897132210433483, -0.09986763447523117, 0.03668138012290001, -0.1508912742137909, 0.01691947877407074, 0.17707763612270355, -0.012776313349604607, -0.1768922656774521, -0.09457507729530334, -0.0572635792195797], [0.17265938222408295, 0.8329270482063293, -0.23978625237941742, 0.8817153573036194, 0.1209854707121849, 0.821418285369873, -0.7105526924133301, -0.7725269198417664, -0.8477009534835815, -0.30564671754837036, -0.5045395493507385, -0.820408046245575], [0.1972074657678604, 0.9529933333396912, -0.30503523349761963, 1.0048160552978516, 0.30160486698150635, 0.8794024586677551, -0.9028140902519226, -0.826316773891449, -0.8672123551368713, -0.2704107463359833, -0.16149289906024933, -0.865695059299469], [0.11327174305915833, 0.11186084151268005, -0.09166087210178375, -0.36437126994132996, 0.23028595745563507, 0.1548968255519867, -0.2472354620695114, -0.23771458864212036, -0.22888538241386414, -0.042173322290182114, -0.010722105391323566, -0.26787200570106506], [0.21721617877483368, 0.19148360192775726, -0.2619082033634186, 0.20315374433994293, 0.06258966028690338, 0.29681187868118286, -0.27440768480300903, -0.2643836736679077, -0.11814677715301514, -0.0405212864279747, -0.0024131862446665764, -0.22597427666187286], [0.029723765328526497, -0.37853938341140747, -0.123734250664711, -0.330370157957077, -0.11846767365932465, -0.40018463134765625, 0.4295786917209625, 0.3564695119857788, 0.2764802873134613, 0.09127126634120941, 0.10652121156454086, 0.3101177215576172], [0.6813767552375793, 3.115266799926758, -0.6592873334884644, 2.942955493927002, 0.7819381952285767, 3.0190861225128174, -2.904749870300293, -2.928142786026001, -3.0342233180999756, -0.7688004970550537, -0.6093565225601196, -2.945730447769165], [0.28352710604667664, 0.48467060923576355, -0.22616378962993622, 0.42803582549095154, 0.30579298734664917, 0.6254054307937622, -0.46219155192375183, -0.5430784225463867, -0.602359414100647, -0.26651617884635925, 0.00548471650108695, -0.5323840975761414], [0.06496311724185944, 0.27880263328552246, 0.3362840414047241, 0.5143197774887085, -0.09066370129585266, 0.4011673033237457, -0.49081698060035706, -0.37379151582717896, -0.37518393993377686, -0.09464344382286072, -0.023121826350688934, -0.3293997049331665], [-0.04755278304219246, 0.3575509786605835, 0.01528079342097044, 0.39953476190567017, 0.12039241194725037, 0.37429165840148926, -0.36337631940841675, -0.24647824466228485, -0.2685604691505432, -0.03610975667834282, -0.038937196135520935, -0.343095064163208], [-0.35126793384552, -0.1261363923549652, 0.19117462635040283, -0.5323323607444763, -0.31799423694610596, -0.46948426961898804, 0.6392976641654968, 0.1978469341993332, 0.5680629014968872, 0.3480038046836853, 0.7127572894096375, 0.24950294196605682], [-0.07787079364061356, -0.8967247605323792, -0.09905395656824112, -0.7767040133476257, -0.0535348616540432, -0.936190664768219, 0.9233927726745605, 0.7825720310211182, 0.7738755345344543, -0.05798826366662979, -0.14538134634494781, 0.7813385725021362], [-0.13117091357707977, -0.9208580851554871, -0.08071215450763702, -1.044390082359314, -0.052090127021074295, -1.0205520391464233, 1.0280735492706299, 1.0872291326522827, 1.1179381608963013, 0.11375173926353455, 0.2567242980003357, 0.9707733988761902], [-0.1766783446073532, -0.7278516888618469, 0.0898781269788742, -0.7440090179443359, 0.0012685826513916254, -0.8640571236610413, 0.855082094669342, 0.8748255372047424, 0.8658738136291504, 0.12823611497879028, 0.20106500387191772, 0.9425172209739685], [0.031938813626766205, -0.4357077181339264, -0.07270664721727371, -0.355406790971756, 0.08462054282426834, -0.4193330407142639, 0.4253135025501251, 0.545219898223877, 0.4418547749519348, 0.1179373487830162, 0.12912382185459137, 0.4118528366088867], [0.07550125569105148, -0.30160582065582275, 0.08015698194503784, -0.35815170407295227, -0.04484141618013382, -0.34448835253715515, 0.32280850410461426, 0.4693337678909302, 0.4673839509487152, 0.01817651093006134, 0.10088694840669632, 0.31547462940216064], [-0.8615522384643555, -4.074020862579346, 0.1904226541519165, -4.237850189208984, -0.8824142217636108, -4.124610424041748, 4.114168643951416, 4.217126846313477, 4.072352409362793, 0.8470374345779419, 0.9673728942871094, 4.284393787384033], [-0.6679161190986633, -3.13667631149292, 0.0017876464407891035, -3.0227644443511963, -0.4605533182621002, -3.189025640487671, 3.0987489223480225, 3.1120924949645996, 3.0460755825042725, 0.6677495241165161, 0.5949899554252625, 3.0229828357696533], [-0.12950240075588226, -1.4786394834518433, -0.03542063757777214, -1.49408757686615, -0.2246975600719452, -1.5359941720962524, 1.4795920848846436, 1.5275987386703491, 1.4626399278640747, 0.2742365002632141, 0.35058775544166565, 1.379088282585144], [-0.09848945587873459, -0.6965441703796387, 0.054917220026254654, -0.6865396499633789, 0.06346900761127472, -0.6932930946350098, 0.7543225884437561, 0.7005982398986816, 0.8022899031639099, 0.11571747809648514, 0.10116714239120483, 0.8345760703086853], [-0.0540039986371994, -0.9018935561180115, 0.1386953890323639, -0.8504322171211243, -0.04791492596268654, -0.7811101675033569, 0.8552014827728271, 0.8788042068481445, 0.7519503831863403, 0.08905573189258575, 0.00028490315889939666, 0.96744704246521], [-0.14964455366134644, -0.7534804940223694, -0.07253273576498032, -0.673483669757843, 0.045877862721681595, -0.5759922862052917, 0.6286765933036804, 0.6872969269752502, 0.7506676316261292, -0.059712912887334824, 0.20796535909175873, 0.7667807936668396], [0.23978275060653687, 0.41811078786849976, -0.15625742077827454, 0.5320491194725037, 0.2868633270263672, 0.37400275468826294, -0.3699073791503906, -0.5256029367446899, -0.5152669548988342, -0.07337439060211182, -0.15689198672771454, -0.4072304368019104], [-0.15690870583057404, -0.6213122010231018, -0.005800198297947645, -0.45379316806793213, -0.001428512274287641, -0.4834817051887512, 0.5038646459579468, 0.713604211807251, 0.4847334027290344, -0.014665705151855946, 0.2182890772819519, 0.531790554523468], [0.08983753621578217, -0.34094229340553284, 0.08101876825094223, -0.4189683198928833, 0.06217288225889206, -0.37729647755622864, 0.5203952789306641, 0.31036660075187683, 0.3387884497642517, -0.08936870098114014, 0.20317070186138153, 0.4480220377445221], [-0.10051235556602478, -0.5763772130012512, -0.0663861334323883, -0.48896026611328125, 0.050635140389204025, -0.49043789505958557, 0.37468552589416504, 0.4176439940929413, 0.4153599739074707, 0.04892120137810707, 0.08681519329547882, 0.6070080399513245], [0.02544274553656578, -0.09397301077842712, -0.22704042494297028, 0.14664076268672943, 0.013391317799687386, 0.10487262904644012, -0.002101720543578267, 0.054314471781253815, 0.07847215235233307, -0.16316162049770355, 0.0504450686275959, -0.13287457823753357], [-0.025074589997529984, 0.05943828076124191, -1.006371259689331, 0.023087093606591225, -0.04036753997206688, -0.039048321545124054, 0.11309120059013367, 0.03916264325380325, 0.015526333823800087, -0.13913169503211975, -0.0007735955878160894, 0.001303400844335556], [-0.1731126606464386, -1.3248196840286255, 0.09764708578586578, -1.375417947769165, -0.30595308542251587, -1.2886598110198975, 1.2686017751693726, 1.3210774660110474, 1.264989972114563, 0.3091582655906677, 0.2315407693386078, 1.3107070922851562], [-0.013265403918921947, -0.6100223660469055, 0.010764076374471188, -0.587888777256012, 0.06169583275914192, -0.49174559116363525, 0.48761066794395447, 0.7062481045722961, 0.5176454186439514, 