{"models": [{"sequence": "{\"class_name\": \"Sequential\", \"config\": {\"name\": \"sequential_40\", \"layers\": [{\"class_name\": \"Dense\", \"config\": {\"name\": \"dense_80\", \"trainable\": true, \"batch_input_shape\": [null, 100], \"dtype\": \"float32\", \"units\": 5, \"activation\": \"tanh\", \"use_bias\": true, \"kernel_initializer\": {\"class_name\": \"GlorotUniform\", \"config\": {\"seed\": null}}, \"bias_initializer\": {\"class_name\": \"Zeros\", \"config\": {}}, \"kernel_regularizer\": null, \"bias_regularizer\": null, \"activity_regularizer\": null, \"kernel_constraint\": null, \"bias_constraint\": null}}, {\"class_name\": \"Dense\", \"config\": {\"name\": \"dense_81\", \"trainable\": true, \"dtype\": \"float32\", \"units\": 1, \"activation\": \"linear\", \"use_bias\": true, \"kernel_initializer\": {\"class_name\": \"GlorotUniform\", \"config\": {\"seed\": null}}, \"bias_initializer\": {\"class_name\": \"Zeros\", \"config\": {}}, \"kernel_regularizer\": null, \"bias_regularizer\": null, \"activity_regularizer\": null, \"kernel_constraint\": null, \"bias_constraint\": null}}, {\"class_name\": \"Activation\", \"config\": {\"name\": \"activation_40\", \"trainable\": true, \"dtype\": \"float32\", \"activation\": \"tanh\"}}]}, \"keras_version\": \"2.2.4-tf\", \"backend\": \"tensorflow\"}", "weights": [[[3.0104122161865234, -0.7217203974723816, 3.2121834754943848, 2.9395408630371094, 21.058435440063477], [0.33716049790382385, -0.9673169255256653, 0.10607273131608963, 0.13832561671733856, 9.12915325164795], [-0.6918603777885437, 0.06229373812675476, -0.6179821491241455, -0.564487874507904, -0.25019577145576477], [-0.36650729179382324, 0.3094996511936188, -0.36072948575019836, -0.5071085095405579, -0.32718023657798767], [-0.6899896264076233, 0.5783401131629944, -0.6476112604141235, -1.5592316389083862, -0.13435697555541992], [0.4430517256259918, -0.38237664103507996, 0.3023219406604767, 0.4185751676559448, 0.24798369407653809], [-0.6841123104095459, 0.5983491539955139, -0.5528578758239746, -0.5541017651557922, 0.007742086425423622], [-0.033467914909124374, -0.1485704481601715, 0.037560656666755676, 0.0804615318775177, 0.1744593232870102], [1.730831265449524, -2.008176565170288, 1.9878206253051758, 1.7380670309066772, 2.1947598457336426], [3.1084628105163574, -3.4177675247192383, 3.3295130729675293, 3.1298227310180664, 4.382591724395752], [-0.47636309266090393, 2.0519659519195557, 0.19036130607128143, 0.15635636448860168, 0.19817961752414703], [-3.5764594078063965, 3.4366772174835205, -3.5238215923309326, -3.591261386871338, -14.266183853149414], [-6.254197120666504, 6.185133457183838, -6.40492582321167, -6.4358015060424805, -14.236342430114746], [-10.624968528747559, 8.25444221496582, -10.083856582641602, -10.735091209411621, -5.732553482055664], [-11.068583488464355, 6.4256720542907715, -9.790680885314941, -10.198407173156738, 30.525476455688477], [-25.362735748291016, 6.5173163414001465, -11.897777557373047, -24.517120361328125, 55.66305160522461], [-6.449751377105713, -0.7637931108474731, -11.309596061706543, -6.3657402992248535, 2.7460784912109375], [-7.022157669067383, 1.562807321548462, -8.16537857055664, -7.8438005447387695, -0.9372447729110718], [-4.590561866760254, 4.360255718231201, -4.585658550262451, -4.5508928298950195, -4.193747520446777], [-7.303133010864258, 4.418243408203125, -7.368370056152344, -7.143901824951172, -4.583090782165527], [-1.6697059869766235, 1.7192559242248535, -1.7431230545043945, -1.7702034711837769, -0.041570164263248444], [-5.107601642608643, 1.6434358358383179, -5.166879653930664, -5.148921012878418, 0.499439001083374], [-1.6860201358795166, 1.6664299964904785, -1.66887629032135, -1.8216018676757812, -0.8257566094398499], [-4.665144920349121, 2.4063775539398193, -4.584742546081543, -4.528764247894287, -2.054959774017334], [-2.327211856842041, 2.2053911685943604, -3.336078405380249, -2.376386880874634, -2.248997688293457], [-3.789498805999756, 2.2568867206573486, -6.059154510498047, -3.7688820362091064, -2.1881630420684814], [-1.8446691036224365, 1.711796522140503, -1.6525816917419434, -1.7383065223693848, -1.6864163875579834], [-2.1149957180023193, 2.139913558959961, -2.14245343208313, -2.1279988288879395, -2.203171730041504], [-2.4795403480529785, 2.4252068996429443, -4.092792510986328, -2.532334804534912, -2.4180378913879395], [-2.0756676197052, 1.8033676147460938, -2.0044467449188232, -1.8712098598480225, -1.9553823471069336], [-4.072450160980225, 1.7279512882232666, -4.221402645111084, -4.010451316833496, -2.194016933441162], [-1.607600450515747, 1.5197616815567017, -1.4996662139892578, -1.617948293685913, -1.5868390798568726], [-4.25227165222168, 1.582788109779358, -2.972101926803589, -3.825892210006714, -1.4754722118377686], [-2.8429853916168213, 1.6811914443969727, -1.9158331155776978, -2.908707857131958, -1.5462244749069214], [-1.540915846824646, 1.3529754877090454, -2.4203226566314697, -1.6663868427276611, -1.191624402999878], [-1.1948466300964355, 0.7527691125869751, -2.9057581424713135, -1.2733074426651, -0.910804808139801], [-1.3314839601516724, 0.41302475333213806, -4.483760833740234, -1.4150670766830444, -0.4427856206893921], [-1.2600440979003906, 1.3256173133850098, -1.281398057937622, -1.278174638748169, -1.4043998718261719], [-1.1157169342041016, 0.9507708549499512, -1.131919503211975, -1.073642611503601, -1.1056311130523682], [-0.8921983242034912, 0.9108638763427734, -0.9067531228065491, -0.9754862189292908, -0.5787000060081482], [-1.147460699081421, 1.1912190914154053, -1.0236477851867676, -1.1604262590408325, -1.0505337715148926], [-1.304847240447998, 1.1901438236236572, -1.257441520690918, -1.11674964427948, -12.395109176635742], [-1.436676263809204, 1.8660979270935059, -1.937111258506775, -1.2858500480651855, -1.106887936592102], [-0.18538561463356018, 0.3677856922149658, -0.21556560695171356, -0.13160493969917297, -0.3359536826610565], [0.6405125856399536, -0.5320388674736023, 0.709513247013092, 0.7079187631607056, 0.5638695359230042], [-2.860827922821045, 2.153707504272461, -3.0301427841186523, -2.8933658599853516, -1.04970383644104], [0.2269716113805771, -0.19673658907413483, 0.2656053602695465, 0.24327464401721954, 0.3423970341682434], [-1.1676502227783203, 1.1783156394958496, -1.0813615322113037, -1.0096101760864258, -1.0439348220825195], [-0.4828597903251648, 0.42888006567955017, -0.3780216574668884, -0.4499947428703308, -0.5383099913597107], [-0.26171448826789856, 0.29169729351997375, -0.20815321803092957, -0.2123025357723236, -0.3183959424495697], [0.2950541079044342, -0.42466095089912415, 0.42901286482810974, 0.3633473813533783, 0.3600114583969116], [-0.34384864568710327, 0.09009473025798798, -0.2392861545085907, -0.162286639213562, -0.18680769205093384], [-1.4255995750427246, 1.3948500156402588, -2.605818271636963, -1.4112114906311035, -1.060125708580017], [-1.0086662769317627, 0.6720010638237, -0.86431485414505, -1.0693395137786865, -0.6349836587905884], [-0.8365383148193359, 0.8526855111122131, -0.7243807315826416, -0.7675403356552124, 16.35931396484375], [-0.37980136275291443, 0.087816022336483, -0.3742513358592987, -0.31957727670669556, -0.11585278809070587], [-0.23097233474254608, 0.3434672951698303, -0.22884339094161987, -0.27664440870285034, -0.15916891396045685], [-0.026851283386349678, 0.16433802247047424, 0.025325078517198563, -0.09396519511938095, -0.05726008489727974], [0.7985484004020691, -0.7643856406211853, 0.7732704281806946, 0.8523868322372437, 0.8844321370124817], [-0.7422285079956055, 0.7186273336410522, -0.3985472321510315, -0.8349786996841431, -18.155141830444336], [0.30208659172058105, -0.3571009635925293, 0.16029061377048492, 0.18403346836566925, 0.32439282536506653], [1.9833194017410278, -1.8309638500213623, 1.8401808738708496, 1.8440912961959839, 1.7903741598129272], [-0.24380549788475037, 0.42539486289024353, -0.300541490316391, -0.35350823402404785, -3.329820156097412], [-0.44539281725883484, 0.4876108765602112, -0.47950634360313416, -0.5359216928482056, -0.45139265060424805], [0.7395967245101929, -0.7158036231994629, 0.7446222901344299, 0.7835922837257385, 0.7490172386169434], [-0.3832899034023285, 0.49800407886505127, -0.3247467279434204, -0.40162190794944763, -2.474151134490967], [0.25805309414863586, -0.18922294676303864, 0.3969283401966095, 0.33800390362739563, 0.31415724754333496], [-0.5461606383323669, 0.4988306164741516, -0.5363669395446777, -0.5791444182395935, -18.46172523498535], [0.0523955300450325, -0.060269732028245926, 0.09838587790727615, 0.022545333951711655, 0.06788526475429535], [0.38556036353111267, -0.47746676206588745, 0.25009846687316895, 0.2586481273174286, 0.4433909058570862], [1.3945204019546509, -1.3874552249908447, 1.387192726135254, 1.5271910429000854, 1.5188599824905396], [1.4798781871795654, -1.4369741678237915, 1.3507468700408936, 1.3897197246551514, 1.3348900079727173], [0.39619994163513184, -0.35041794180870056, 0.28283819556236267, 0.4511193633079529, 0.40647777915000916], [0.07445497810840607, -0.17787058651447296, 0.11735668033361435, 0.1104169711470604, 0.034642528742551804], [-0.9953435659408569, 0.8279309868812561, -0.833392858505249, -0.9838781356811523, -1.5371259450912476], [-1.9788360595703125, 0.965869128704071, -2.0014379024505615, -2.157365322113037, -0.19851063191890717], [-1.6968204975128174, 1.451266884803772, -2.919123888015747, -1.7037426233291626, -1.2684131860733032], [-1.3965789079666138, 0.774532675743103, -1.4755831956863403, -1.375399112701416, -2.540963649749756], [-1.0862582921981812, 0.8948243856430054, -0.949961245059967, -1.0486834049224854, -1.0701502561569214], [-0.8369073271751404, 0.6089109182357788, -0.7413705587387085, -0.8016714453697205, -0.7753573060035706], [-10.748941421508789, 4.532330513000488, -9.580817222595215, -11.121331214904785, -3.845635414123535], [-5.583034515380859, 2.4813692569732666, -10.612905502319336, -5.470461845397949, 14.788578987121582], [-2.855900764465332, 2.112624168395996, -5.750339508056641, -2.888141632080078, -2.112802267074585], [-1.3770126104354858, 1.2613558769226074, -1.381137490272522, -1.4748350381851196, -0.9182282090187073], [-2.4373059272766113, 1.305626392364502, -1.880005121231079, -2.392019271850586, -1.2395609617233276], [-1.3597148656845093, 1.2173666954040527, -1.2526817321777344, -1.3163450956344604, -1.3820443153381348], [-0.886629581451416, 1.055824637413025, -0.9165176749229431, -1.048919439315796, -1.048235535621643], [-0.12372172623872757, 0.1458195447921753, -0.3214545249938965, -0.1316092312335968, -0.32137513160705566], [-2.620683431625366, -8.777544975280762, -7.4235334396362305, -2.6575260162353516, -1.4147359132766724], [-2.572859764099121, -3.3303956985473633, -8.185215950012207, -2.368626832962036, 8.470860481262207], [-1.0929572582244873, 0.22165046632289886, -1.1611775159835815, -1.1869951486587524, 0.4240935742855072], [0.21334059536457062, -0.24194011092185974, 0.22365787625312805, 0.06508775055408478, 0.19208970665931702], [-2.155773878097534, -10.794304847717285, -6.677170753479004, -2.4916975498199463, 4.7737226486206055], [-2.496173620223999, 0.24839042127132416, -4.687042713165283, -2.450981378555298, 6.954910755157471], [-1.5309242010116577, 0.43038418889045715, -1.104333519935608, -1.5207723379135132, -0.4719589650630951], [0.6554529070854187, -0.5748007297515869, 0.5235454440116882, 0.5177884101867676, 0.7183969020843506], [-1.4070754051208496, 1.2133091688156128, -1.2530628442764282, -1.3736330270767212, -1.3202235698699951], [-0.5922932624816895, -0.7433232069015503, -0.7386404871940613, -0.7511304020881653, -0.5370994210243225], [-0.5046824812889099, 0.8734686374664307, -0.6773895621299744, -0.7303417921066284, -0.7489437460899353], [0.3669447600841522, -0.3130723834037781, 0.30902689695358276, 0.36395689845085144, -0.49337053298950195]], [0.0027719091158360243, -0.030745789408683777, -0.019994130358099937, -0.03405983746051788, 0.05469532310962677], [[0.19182538986206055], [-0.49395933747291565], [1.4365226030349731], [0.5646209120750427], [0.9925091862678528]], [0.053494904190301895]], "etBin": [0.0, 20.0], "etaBin": [0.0, 0.8]}, {"sequence": "{\"class_name\": \"Sequential\", \"config\": {\"name\": \"sequential_41\", \"layers\": [{\"class_name\": \"Dense\", \"config\": {\"name\": \"dense_82\", \"trainable\": true, \"batch_input_shape\": [null, 100], \"dtype\": \"float32\", \"units\": 5, \"activation\": \"tanh\", \"use_bias\": true, \"kernel_initializer\": {\"class_name\": \"GlorotUniform\", \"config\": {\"seed\": null}}, \"bias_initializer\": {\"class_name\": \"Zeros\", \"config\": {}}, \"kernel_regularizer\": null, \"bias_regularizer\": null, \"activity_regularizer\": null, \"kernel_constraint\": null, \"bias_constraint\": null}}, {\"class_name\": \"Dense\", \"config\": {\"name\": \"dense_83\", \"trainable\": true, \"dtype\": \"float32\", \"units\": 1, \"activation\": \"linear\", \"use_bias\": true, \"kernel_initializer\": {\"class_name\": \"GlorotUniform\", \"config\": {\"seed\": null}}, \"bias_initializer\": {\"class_name\": \"Zeros\", \"config\": {}}, \"kernel_regularizer\": null, \"bias_regularizer\": null, \"activity_regularizer\": null, \"kernel_constraint\": null, \"bias_constraint\": null}}, {\"class_name\": \"Activation\", \"config\": {\"name\": \"activation_41\", \"trainable\": true, \"dtype\": \"float32\", \"activation\": \"tanh\"}}]}, \"keras_version\": \"2.2.4-tf\", \"backend\": \"tensorflow\"}", "weights": [[[2.2169363498687744, 2.179924726486206, 2.255282163619995, -2.1751060485839844, -1.0589264631271362], [2.7532498836517334, 1.0082378387451172, 0.92508864402771, -1.035946249961853, -1.2777150869369507], [-0.8267584443092346, -0.8127292990684509, -0.32057368755340576, 0.673592746257782, -0.8202926516532898], [-0.7797825336456299, -0.8268682360649109, -0.5549095869064331, 0.7085232138633728, -1.2153453826904297], [-1.020559310913086, -0.9137819409370422, -0.3435039222240448, 0.5158143639564514, -7.900195598602295], [-0.0499534048140049, -0.47814273834228516, -0.49410825967788696, 0.19016025960445404, -0.3028285503387451], [-0.3282013237476349, -0.3614632785320282, 0.0898943766951561, 0.02306843362748623, -0.23521244525909424], [0.5312463045120239, 0.6130778789520264, 0.59955894947052, -0.5579238533973694, -0.5138748288154602], [2.659205913543701, 1.9895679950714111, 1.9818447828292847, -2.0862724781036377, -0.9081577062606812], [5.342463970184326, 5.251211166381836, 5.4488525390625, -5.3436126708984375, -4.760847091674805], [2.144444227218628, 2.003241539001465, 2.1250998973846436, -2.1633241176605225, -0.7580344080924988], [-0.0833103135228157, -0.2468765676021576, -0.22664912045001984, 0.10163290053606033, -0.5153947472572327], [-11.308581352233887, -10.565252304077148, -1.5746294260025024, 8.65424919128418, 3.17096209526062], [-4.076024055480957, -3.4158098697662354, -9.53662395477295, 15.908517837524414, 31.483720779418945], [-8.603513717651367, -8.538171768188477, -8.113788604736328, 8.520809173583984, 3.723647356033325], [-16.366212844848633, -15.665409088134766, -6.87240743637085, 7.398211479187012, 2.9741768836975098], [-5.259064674377441, -5.202942371368408, -4.332401752471924, 5.328628063201904, 1.8442035913467407], [-6.481001377105713, -5.901217937469482, -4.196752071380615, 5.485339164733887, 1.7252893447875977], [-12.627670288085938, -12.562687873840332, -4.3074445724487305, 9.160340309143066, 1.3106104135513306], [-4.692115306854248, -4.299706935882568, -3.384168863296509, 3.8076565265655518, 1.2294288873672485], [-5.565089225769043, -5.48009729385376, -4.739842891693115, 5.458552360534668, -3.3668296337127686], [-6.783063888549805, -6.96751070022583, -4.160134315490723, 6.797657489776611, 2.2755684852600098], [-4.543320178985596, -4.617422103881836, -5.109932899475098, 3.4759681224823, 0.8985055685043335], [-3.0383706092834473, -2.97694993019104, -2.2272047996520996, 3.0724897384643555, -1.0879207849502563], [-3.642913818359375, -4.4424920082092285, -3.0943310260772705, 3.1501755714416504, 0.2836175858974457], [-1.2224321365356445, -1.3203697204589844, -1.2474457025527954, 1.3562136888504028, 0.2901609539985657], [-7.077785968780518, -5.45392370223999, -5.051222324371338, 4.897558689117432, 0.23782014846801758], [-4.494020462036133, -4.5033111572265625, -4.322053909301758, 4.407222270965576, 1.200321912765503], [-3.2396719455718994, -3.3547441959381104, -3.3698785305023193, 3.3011069297790527, 0.4658257067203522], [-3.3516175746917725, -3.436358690261841, -3.335650682449341, 3.3482141494750977, -0.3615632951259613], [-3.506727457046509, -3.6645357608795166, -3.8726353645324707, 3.5584263801574707, -4.021435260772705], [-3.2087135314941406, -3.1198506355285645, -3.08906626701355, 3.0816965103149414, 0.726189136505127], [-2.667553186416626, -2.705101728439331, -2.587754487991333, 2.618988037109375, 0.5964933037757874], [-2.7103047370910645, -3.9648759365081787, -3.4864842891693115, 3.529326915740967, 0.8738551139831543], [-5.8007402420043945, -3.0624101161956787, -2.2807652950286865, 2.929184913635254, 0.6852433085441589], [-2.4100589752197266, -2.3369081020355225, -2.187812089920044, 2.425967216491699, 0.5820195078849792], [-1.2014609575271606, -1.2047312259674072, -1.2461556196212769, 1.2664817571640015, -4.477887153625488], [-2.7959556579589844, -3.1745526790618896, 0.5336964726448059, -0.22728584706783295, -1.5113470554351807], [-0.5541382431983948, -0.6369917392730713, -0.29373618960380554, 0.28546062111854553, -1.0317434072494507], [-4.078998565673828, -4.062929153442383, -0.92899489402771, 0.9497538805007935, 0.06051911786198616], [-1.0442224740982056, -1.128879189491272, -1.1141397953033447, 1.1099337339401245, -3.362048864364624], [-1.3879176378250122, -1.369496464729309, -1.3155173063278198, 1.2939321994781494, -7.459989070892334], [1.2014338970184326, 1.2078688144683838, 1.7685489654541016, -1.828993320465088, -1.3490523099899292], [-0.7012238502502441, -0.7363274693489075, -0.4097933769226074, 0.43414321541786194, -0.2520720362663269], [1.3713657855987549, 1.3929245471954346, 1.3541674613952637, -1.2278379201889038, -2.8832485675811768], [-0.5381091237068176, -0.38409000635147095, -0.2364848405122757, 0.29704153537750244, -1.016361117362976], [-0.17806638777256012, -0.3405444324016571, -0.17864270508289337, 0.29775917530059814, -0.2892061173915863], [0.9453555345535278, 0.8460223078727722, 1.048292636871338, -0.9372382164001465, -1.101325273513794], [1.366939663887024, 1.3779445886611938, 1.338594913482666, -1.3688970804214478, -4.395275115966797], [-5.294135570526123, -3.2692196369171143, -1.844401240348816, 3.1984920501708984, 0.6755730509757996], [-0.7591349482536316, -0.8582490682601929, -0.8443801403045654, 0.8992602229118347, 0.24080154299736023], [0.7920718789100647, 0.6502522826194763, 0.5884573459625244, -0.6575921177864075, -0.5123816132545471], [-0.462947279214859, -0.5448287725448608, -0.6398547887802124, 0.46973884105682373, -0.07995622605085373], [-4.339409828186035, -4.385491371154785, -6.024773597717285, 4.236397743225098, 0.22133974730968475], [-1.1262003183364868, -0.968392014503479, -1.0054324865341187, 1.0550086498260498, 0.33544281125068665], [-0.4685709774494171, -0.5234550833702087, -0.5032756924629211, 0.6718395948410034, 0.26873674988746643], [-1.0528900623321533, -1.2225149869918823, -1.0822479724884033, 1.0928590297698975, 0.3825101852416992], [0.8854106068611145, 0.5946704149246216, 0.6396970152854919, -0.5286487340927124, -0.35860052704811096], [-1.187703013420105, -0.9748676419258118, -0.9285800457000732, 0.9334386587142944, 0.04941486567258835], [-2.815504789352417, -2.8626723289489746, -2.7478291988372803, 2.9640419483184814, 0.46868517994880676], [-1.047894835472107, -1.0791670083999634, -0.9908654093742371, 1.0886595249176025, 0.04499971494078636], [-0.7617879509925842, -0.7076032161712646, -0.5518115758895874, 0.7026524543762207, 0.4071914553642273], [0.624564528465271, 0.6646453738212585, 0.7110306620597839, -0.5850628018379211, -0.39102670550346375], [0.06664310395717621, -0.0034364121966063976, 0.13611719012260437, -0.1319434493780136, -0.1014576330780983], [0.3762340843677521, 0.5190089344978333, 0.428081750869751, -0.5144090056419373, -0.10466546565294266], [-2.4422380924224854, -2.3634095191955566, -2.775491952896118, 1.7701421976089478, 5.0549116134643555], [0.1785350739955902, -0.05494547635316849, 0.17641127109527588, -0.17973458766937256, -0.17937366664409637], [0.6013210415840149, 1.6995137929916382, 1.5609934329986572, -1.62489914894104, -0.9165195226669312], [0.3860478103160858, 0.4713716506958008, 0.42926275730133057, -0.2760557234287262, -0.30500149726867676], [0.05054749175906181, -0.029251473024487495, 0.06777767091989517, -0.062471143901348114, -0.30383312702178955], [-0.9731127619743347, -0.8175522685050964, -1.0060672760009766, 0.8572553396224976, 0.3180762231349945], [-1.2421848773956299, -1.240248441696167, -1.0280340909957886, 1.1737757921218872, 0.4968600571155548], [0.3652139902114868, 0.5401641726493835, 0.20303383469581604, -0.22838062047958374, -0.8282189965248108], [0.11926782876253128, 0.12718243896961212, 0.14916649460792542, -0.2608878016471863, -0.272370308637619], [-0.8625178337097168, -0.6915145516395569, -0.6993547081947327, 0.8621696829795837, 0.20714102685451508], [-1.8412816524505615, -1.895331859588623, -0.7571804523468018, 0.7644885182380676, 0.3640463948249817], [-2.3486902713775635, -2.196659564971924, -1.5524744987487793, 1.9728444814682007, -32.001800537109375], [-1.7384939193725586, -1.630667805671692, -1.0487337112426758, 1.1150742769241333, -0.8529021143913269], [-1.1514246463775635, -1.1080918312072754, -0.6372774243354797, 0.8555498123168945, -8.93774127960205], [-0.6194364428520203, -0.7638545632362366, -0.3927784264087677, 0.5383461117744446, -4.88483190536499], [-9.820606231689453, -9.896124839782715, -3.1435720920562744, 4.460012912750244, 0.11148025840520859], [-5.94714879989624, -7.4101433753967285, 11.845252990722656, 5.82310152053833, 0.2184128314256668], [-3.4351768493652344, -3.4054222106933594, -3.3446078300476074, 3.237823009490967, -7.403574466705322], [-3.0902912616729736, -3.2316782474517822, -2.4433434009552, 2.5480830669403076, -0.2069324404001236], [-1.8717381954193115, -1.9031871557235718, -1.8015235662460327, 1.797529935836792, -1.176985502243042], [-1.3676413297653198, -1.4178217649459839, -1.3650074005126953, 1.4706848859786987, -0.8256001472473145], [-1.7327674627304077, -1.6775732040405273, -1.8337547779083252, 1.8601220846176147, 0.45193272829055786], [-1.9622999429702759, -1.9368301630020142, -1.977478265762329, 1.959677815437317, 0.3454861640930176], [-3.6860873699188232, -2.026869297027588, 1.5484129190444946, 1.2026774883270264, -2.566599130630493], [-0.7463592886924744, -0.690743625164032, -0.5749542713165283, 0.6463479399681091, 0.7642796635627747], [0.5572549700737, -0.5442407131195068, -0.5401884317398071, 0.42303016781806946, -1.0901622772216797], [0.30155766010284424, 0.2723405957221985, -0.15113025903701782, -0.3455183506011963, -0.16659995913505554], [-7.388822555541992, -7.502132415771484, 32.1970100402832, -1.5780541896820068, -5.848890781402588], [-8.848809242248535, -8.830202102661133, 25.611331939697266, 1.6332106590270996, -6.345538139343262], [-0.23705165088176727, -0.33507582545280457, -0.23964577913284302, 0.10772932320833206, 1.5991814136505127], [-0.1447933465242386, -0.12850044667720795, -0.03404242545366287, -0.07981161028146744, -0.17160169780254364], [0.3552716374397278, 1.2458628416061401, 1.310422420501709, -1.1880288124084473, 0.9480943083763123], [-1.1003679037094116, -1.1952428817749023, 0.1727093756198883, -6.858782768249512, -5.87355899810791], [-1.5010054111480713, -1.3449838161468506, -1.4330334663391113, 1.454778790473938, 0.05881625786423683], [-0.07164696604013443, -0.12557072937488556, -0.263566792011261, 0.17228664457798004, 0.13153761625289917]], [-0.2419523298740387, -0.1788606494665146, -0.11421695351600647, 0.14182445406913757, -0.07570439577102661], [[0.820921778678894], [1.0528318881988525], [0.5193421840667725], [-0.42662134766578674], [-0.3459281921386719]], [0.22020137310028076]], "etBin": [0.0, 20.0], "etaBin": [0.8, 1.37]}, {"sequence": "{\"class_name\": \"Sequential\", \"config\": {\"name\": \"sequential_42\", \"layers\": [{\"class_name\": \"Dense\", \"config\": {\"name\": \"dense_84\", \"trainable\": true, \"batch_input_shape\": [null, 100], \"dtype\": \"float32\", \"units\": 11, \"activation\": \"tanh\", \"use_bias\": true, \"kernel_initializer\": {\"class_name\": \"GlorotUniform\", \"config\": {\"seed\": null}}, \"bias_initializer\": {\"class_name\": \"Zeros\", \"config\": {}}, \"kernel_regularizer\": null, \"bias_regularizer\": null, \"activity_regularizer\": null, \"kernel_constraint\": null, \"bias_constraint\": null}}, {\"class_name\": \"Dense\", \"config\": {\"name\": \"dense_85\", \"trainable\": true, \"dtype\": \"float32\", \"units\": 1, \"activation\": \"linear\", \"use_bias\": true, \"kernel_initializer\": {\"class_name\": \"GlorotUniform\", \"config\": {\"seed\": null}}, \"bias_initializer\": {\"class_name\": \"Zeros\", \"config\": {}}, \"kernel_regularizer\": null, \"bias_regularizer\": null, \"activity_regularizer\": null, \"kernel_constraint\": null, \"bias_constraint\": null}}, {\"class_name\": \"Activation\", \"config\": {\"name\": \"activation_42\", \"trainable\": true, \"dtype\": \"float32\", \"activation\": \"tanh\"}}]}, \"keras_version\": \"2.2.4-tf\", \"backend\": \"tensorflow\"}", "weights": [[[-0.6012962460517883, -0.7486832737922668, 0.16360493004322052, -0.6657554507255554, -0.7486615777015686, 0.03629593178629875, -0.6114291548728943, -0.6189866662025452, -0.6806558966636658, 0.808562695980072, 0.7329786419868469], [-0.515474259853363, -0.40064024925231934, 0.13629187643527985, -0.29324549436569214, -0.5070973038673401, 0.09344280511140823, -0.44974833726882935, -0.33928382396698, -0.323028028011322, 0.48780739307403564, 0.46002715826034546], [0.6410263180732727, 0.6972870230674744, -0.0009392307256348431, 0.6064491271972656, 0.6169494986534119, -0.24408835172653198, 0.7094718813896179, 0.638294517993927, 0.5529494881629944, -0.7049097418785095, -0.5678725838661194], [0.22198334336280823, 0.3705172836780548, -0.0822794958949089, 0.3340001404285431, 0.14310282468795776, -0.014442704617977142, 0.3752742111682892, 0.1745305061340332, 0.19381529092788696, -0.17918509244918823, -0.16244256496429443], [0.16873663663864136, 0.11327479034662247, 0.07259517908096313, 0.10499707609415054, 0.07717246562242508, -0.11334912478923798, 0.0002701298799365759, -0.034086134284734726, 0.06566483527421951, 0.004265276715159416, -0.03822607174515724], [0.14123423397541046, 0.2061791568994522, 0.0861254632472992, 0.10145178437232971, 0.01791670359671116, 0.026652896776795387, 0.08511698246002197, 0.1379951387643814, 0.17642037570476532, -0.2007989138364792, -0.16698764264583588], [-0.26384812593460083, -0.19284619390964508, 0.07904370129108429, -0.17728103697299957, -0.14646877348423004, 0.059773143380880356, -0.11109377443790436, -0.10354389250278473, -0.26417624950408936, 0.1423201560974121, 0.2670992612838745], [-0.4128313362598419, -0.2725059688091278, 0.031013937667012215, -0.3580891191959381, -0.17234154045581818, 0.13921384513378143, -0.4100484549999237, -0.3990924656391144, -0.23017752170562744, 0.38470664620399475, 0.2861426770687103], [-0.7858021855354309, -0.6704578995704651, 0.013261090964078903, -0.8440296053886414, -0.5991833806037903, 0.2309180349111557, -0.7670052647590637, -0.7888091206550598, -0.7655405402183533, 0.7624182105064392, 0.7095171809196472], [-1.2762514352798462, -1.3794492483139038, 0.18250569701194763, -1.3057825565338135, -1.239085078239441, 0.19781826436519623, -1.4129019975662231, -1.4112839698791504, -1.378767967224121, 1.4540987014770508, 1.2554495334625244], [-1.0944167375564575, -1.144290804862976, 0.1331908255815506, -1.3030660152435303, -1.204492211341858, 0.30614548921585083, -1.3066771030426025, -1.2996411323547363, -1.136748194694519, 1.3008065223693848, 1.0759168863296509], [-0.26752132177352905, -0.38357648253440857, -0.0270472913980484, -0.3910416066646576, -0.2986575663089752, 0.18846538662910461, -0.2392445057630539, -0.2891269326210022, -0.3852103054523468, 0.21175909042358398, 0.37004199624061584], [-0.07244733721017838, -0.1559126377105713, 0.37852731347084045, -0.04459390789270401, -0.14178566634655, 0.15013888478279114, -0.07922841608524323, 0.05799810588359833, -0.16814592480659485, -0.060040801763534546, 0.17257310450077057], [-1.098020076751709, -1.0456323623657227, 0.06582789868116379, -0.9382451772689819, -0.8565929532051086, 0.12611280381679535, -1.0142180919647217, -1.0038583278656006, -1.035637617111206, 0.8589615225791931, 1.060411810874939], [-0.1679636687040329, -0.1429058015346527, -0.3091815710067749, -0.14769582450389862, -0.09687711298465729, -0.09783624112606049, -0.11231862753629684, -0.04010395705699921, -0.2088019698858261, 0.07336734235286713, 0.10146810114383698], [-0.03467050567269325, 0.1326570063829422, -0.39522913098335266, 0.1647653430700302, 0.08133048564195633, -0.4019962251186371, 0.12206292897462845, 0.070760577917099, -0.041697774082422256, 0.03604840114712715, -0.06409583240747452], [0.18814438581466675, 0.28398028016090393, -0.547881007194519, 0.19012662768363953, 0.20450159907341003, -0.4115981161594391, 0.17340606451034546, 0.2704784572124481, 0.277118057012558, -0.31383344531059265, -0.12822408974170685], [1.4243477582931519, 1.5588953495025635, -0.23307575285434723, 1.458162784576416, 1.4546858072280884, -0.2905438244342804, 1.6042851209640503, 1.5162415504455566, 1.5706733465194702, -1.36842679977417, -1.6046825647354126], [1.3785643577575684, 1.4132661819458008, -0.24984265863895416, 1.2407751083374023, 1.2627432346343994, -0.32930710911750793, 1.3326473236083984, 1.2744991779327393, 1.4473905563354492, -1.3157305717468262, -1.492802619934082], [1.4222326278686523, 1.2897707223892212, -0.8946879506111145, 4.8405656814575195, 1.3958253860473633, -0.21198271214962006, 5.053135395050049, 1.522430419921875, 1.4344615936279297, -1.3253180980682373, -1.3593180179595947], [2.210678815841675, 2.2689595222473145, -0.339969277381897, 2.170109987258911, 2.200268268585205, -0.48730167746543884, 2.2732114791870117, 2.1573662757873535, 2.2812559604644775, -2.06847882270813, -2.0583951473236084], [1.2088624238967896, 1.1988131999969482, -0.2091793715953827, 1.1948946714401245, 1.3008880615234375, -0.3983239531517029, 1.2541998624801636, 1.3768517971038818, 1.2152751684188843, -1.2881896495819092, -1.2796216011047363], [2.1604607105255127, 2.20831561088562, -0.3194552958011627, 2.0967867374420166, 2.2493185997009277, -0.49724605679512024, 2.1640117168426514, 2.0779216289520264, 2.2236907482147217, -2.303842544555664, -2.217879295349121], [1.6938624382019043, 1.7467806339263916, -1.2639738321304321, 6.513740539550781, 6.502068519592285, -0.4086994230747223, 6.606522560119629, 1.6260714530944824, 1.6914039850234985, -1.8420904874801636, -1.824615716934204], [2.061204433441162, 2.0533699989318848, -0.34922000765800476, 2.089045524597168, 1.9281091690063477, -0.4474262595176697, 2.0504257678985596, 2.0097033977508545, 2.119597911834717, -1.910046100616455, -1.930006742477417], [4.054113864898682, 1.2664859294891357, -0.8009436130523682, 4.257962226867676, 4.109318256378174, -0.3698787987232208, 4.113838195800781, 4.1268391609191895, 1.121793270111084, -1.1564141511917114, -1.2837707996368408], [0.9362846612930298, 0.9256280660629272, -0.12101585417985916, 1.037983775138855, 0.8518461585044861, -0.24802835285663605, 0.953359067440033, 0.9888853430747986, 0.9388957023620605, -0.8421218991279602, -0.8582313656806946], [1.5899971723556519, 1.4389100074768066, -0.16500365734100342, 1.5228779315948486, 1.4271156787872314, -0.2013140469789505, 1.3333020210266113, 1.4335999488830566, 1.556014895439148, -1.5334123373031616, -1.4508856534957886], [2.2333056926727295, 2.24040150642395, -0.3637889623641968, 2.0343494415283203, 2.163245439529419, -0.5643916130065918, 2.2248575687408447, 2.249460458755493, 2.1656172275543213, -2.244926691055298, -2.0403218269348145], [0.6337007880210876, 0.5127837061882019, -0.0007544888649135828, 0.9375093579292297, 1.014420747756958, -0.0503506176173687, 0.9173582196235657, 0.5063183307647705, 0.6047378182411194, -0.52538001537323, -0.48911404609680176], [0.9024962782859802, 1.0036872625350952, -0.11894232779741287, 0.9027856588363647, 0.9035666584968567, -0.2311774492263794, 0.9353653788566589, 0.9227513074874878, 0.9852738380432129, -0.9612365365028381, -0.9850443601608276], [0.6031623482704163, 0.474398136138916, -0.07190238684415817, 0.6006049513816833, 0.6345447897911072, -0.22354798018932343, 0.5864661931991577, 0.6108619570732117, 0.46500855684280396, -0.6543510556221008, -0.5325156450271606], [1.0710922479629517, 1.0534822940826416, -0.023385990411043167, 1.0014855861663818, 0.876595139503479, -0.25897616147994995, 1.0838046073913574, 1.110664963722229, 0.9866157174110413, -0.9804182052612305, -0.9791178703308105], [0.4968225657939911, 0.665800929069519, -0.13469012081623077, 0.4585305452346802, 0.4818621873855591, -0.15380822122097015, 0.6000221967697144, 0.5235810279846191, 0.5004175305366516, -0.62946617603302, -0.5090514421463013], [0.792211651802063, 0.823508083820343, -0.1161540150642395, 0.897666871547699, 0.9935216903686523, -0.12598906457424164, 0.9306912422180176, 1.000077247619629, 0.8738495111465454, -0.8106220960617065, -0.916043758392334], [0.02543293870985508, -0.03611201047897339, 0.06904826313257217, -0.11191762983798981, -0.01182037778198719, -0.01622006483376026, -0.1284364014863968, -0.12858189642429352, 0.0858442634344101, -0.008591173216700554, -0.0569676011800766], [1.8380956649780273, 1.8266916275024414, -0.21221449971199036, 1.7640252113342285, 1.6917715072631836, -0.4670713245868683, 1.8832929134368896, 1.852379560470581, 1.8679823875427246, -1.7834699153900146, -1.7141107320785522], [0.5108836889266968, 0.6016550660133362, 0.05078892782330513, 0.44204774498939514, 0.5807650089263916, -0.15458281338214874, 0.5471485257148743, 0.6314346790313721, 0.5832990407943726, -0.6408021450042725, -0.6286300420761108], [0.5444283485412598, 0.6116818189620972, -0.00817166268825531, 0.4658242464065552, 0.498856782913208, -0.16150622069835663, 0.39145714044570923, 0.39491724967956543, 0.5395336151123047, -0.5456912517547607, -0.44863227009773254], [-0.11964044719934464, -0.2610272467136383, 0.011958377435803413, -0.247934028506279, -0.3281536102294922, 0.1510246843099594, -0.3106151819229126, -0.1175987496972084, -0.31745171546936035, 0.16090212762355804, 0.26222726702690125], [-0.05809880048036575, 0.17480187118053436, 0.0028769781347364187, 0.10439243912696838, 0.05699503794312477, -0.010916064493358135, 0.09648451209068298, 0.17503826320171356, 0.15975968539714813, -0.14080636203289032, -0.08328399062156677], [0.5982874631881714, 0.6271936893463135, 0.06577231734991074, 0.5718919038772583, 0.6914480924606323, -0.2508736848831177, 0.4880247712135315, 0.49117034673690796, 0.5599554777145386, -0.6399943828582764, -0.5238257050514221], [0.5837718844413757, 0.5716570615768433, -0.011136861518025398, 0.5928161144256592, 0.5929303765296936, -0.08799222111701965, 0.6760429739952087, 0.5734432339668274, 0.5162312984466553, -0.608292281627655, -0.5926838517189026], [0.19126179814338684, 0.09536992013454437, 0.04378267005085945, 0.12074828147888184, 0.22897109389305115, -0.024946821853518486, 0.08409486711025238, 0.3072254955768585, 0.3045274317264557, -0.2758210003376007, -0.2296842634677887], [0.5014674067497253, 0.571234405040741, -0.10648255795240402, 0.3739887773990631, 0.5872474312782288, -0.18657755851745605, 0.4731215536594391, 0.4792764484882355, 0.5106459259986877, -0.5294209122657776, -0.45580148696899414], [0.6162590384483337, 0.6176751255989075, 0.02333206683397293, 0.32380959391593933, 0.4476960599422455, -0.025036202743649483, 0.4483027160167694, 0.4861714243888855, 0.4989858567714691, -0.48854169249534607, -0.4376470744609833], [0.4940129816532135, 0.5539218187332153, 0.08483291417360306, 0.5704261064529419, 0.3424018919467926, -0.00016824976773932576, 0.4851812422275543, 0.46778908371925354, 0.3522914946079254, -0.33036008477211, -0.3771822154521942], [-0.033044956624507904, -0.1127692461013794, 0.16968870162963867, -0.9423832893371582, -0.17971569299697876, 0.043850306421518326, -0.07801390439271927, -0.2205204963684082, -0.1828525811433792, 0.1262364536523819, 0.14146561920642853], [0.15519477427005768, 0.3026852607727051, -0.06709396839141846, 0.21832187473773956, 0.2657778561115265, -0.08690401911735535, 0.22996409237384796, 0.12623615562915802, 0.19314147531986237, -0.22347839176654816, -0.16483987867832184], [0.25128865242004395, 0.357426255941391, -0.06110198050737381, 0.1859082728624344, 0.2326645851135254, -0.13954125344753265, 0.19842477142810822, 0.36861833930015564, 0.42635342478752136, -0.2716360092163086, -0.2515307664871216], [0.5429126620292664, 0.5760535597801208, -0.04578356817364693, 0.5411064624786377, 0.6186425089836121, -0.13832508027553558, 0.5712262988090515, 0.46487048268318176, 0.653293788433075, -0.5996406674385071, -0.6255967020988464], [0.21541713178157806, 0.17586110532283783, 0.13736723363399506, 0.24197934567928314, 0.0667816624045372, 0.04419855400919914, 0.09774970263242722, 0.12391062825918198, 0.07598104327917099, -0.1263928860425949, -0.06485625356435776], [0.23157668113708496, 0.31613820791244507, 0.06784862279891968, 0.15623272955417633, 0.2969319820404053, -0.125761479139328, 0.2221652865409851, 0.26927706599235535, 0.16509439051151276, -0.3212311863899231, -0.2997433543205261], [0.4286337196826935, 0.26430243253707886, -0.07325141131877899, 0.3671574890613556, 0.3444133698940277, -0.08610820025205612, 0.205529123544693, 0.25881683826446533, 0.35428526997566223, -0.3819095194339752, -0.31471699476242065], [0.43317922949790955, 0.45806822180747986, -0.050771430134773254, 0.4262923300266266, 0.49223458766937256, -0.2045653760433197, 0.38073357939720154, 0.5215005278587341, 0.539244532585144, -0.5024030804634094, -0.4162062704563141], [0.46729224920272827, 0.5555461645126343, -0.13527344167232513, 0.6806470155715942, 0.648360013961792, -0.09082366526126862, 0.7020710706710815, 0.7011101245880127, 0.46848219633102417, -0.6526224613189697, -0.6586651802062988], [0.29149219393730164, 0.5067097544670105, 0.022990157827734947, 0.42985999584198, 0.5112841725349426, -0.08851607888936996, 0.38308095932006836, 0.44201940298080444, 0.4546325206756592, -0.5157520174980164, -0.33191654086112976], [0.2978519797325134, 0.3005574345588684, 0.13391391932964325, 0.13180573284626007, 0.2644224762916565, -0.0729188397526741, 0.26059573888778687, 0.1911550760269165, 0.15856829285621643, -0.2628929018974304, -0.36796697974205017], [0.007131543941795826, 0.028743574395775795, 0.20760157704353333, -0.011519111692905426, -0.12751814723014832, 0.03947478532791138, -0.17378199100494385, -0.06709462404251099, -0.03455469384789467, 0.11095690727233887, -0.056558553129434586], [-0.8763940334320068, -0.8994078636169434, 0.18392665684223175, -0.9329783916473389, -0.9754701256752014, 0.2080838829278946, -1.048222541809082, -0.9573307037353516, -1.0289020538330078, 0.8873472213745117, 1.0317881107330322], [-0.5432920455932617, -0.6499767303466797, 0.27598097920417786, -0.4794575870037079, -0.5227413177490234, 0.03640707954764366, -0.6297919750213623, -0.5297527313232422, -0.4635789394378662, 0.6765518188476562, 0.5317201614379883], [-0.31197139620780945, -0.17764173448085785, 0.10998661071062088, -0.2583868205547333, -0.19674275815486908, 0.16589093208312988, -0.20504675805568695, -0.3567074239253998, -0.2619858682155609, 0.3612997233867645, 0.1771617978811264], [0.4739213287830353, 0.5674699544906616, -0.011122843250632286, 0.4107753336429596, 0.41427358984947205, -0.06463749706745148, 0.5403653979301453, 0.409919410943985, 0.4312189519405365, -0.5241766571998596, -0.5018999576568604], [-0.6295801997184753, -0.5085474848747253, 0.26065394282341003, -0.6393564343452454, -0.5547184348106384, 0.12175599485635757, -0.7014827132225037, -0.5672325491905212, -0.6254491209983826, 0.6066797375679016, 0.7071478962898254], [-0.7340811491012573, -0.6761003732681274, 0.24945062398910522, -0.7907345294952393, -0.6418589353561401, 0.10997063666582108, -0.7789260149002075, -0.7612940073013306, -0.6893950700759888, 0.6607857942581177, 0.8410621881484985], [-0.765739917755127, -0.6524215936660767, 0.11453139781951904, -0.7194265127182007, -0.6321237087249756, 0.1372079998254776, -0.8157851696014404, -0.8694950342178345, -0.7356986999511719, 0.7070940732955933, 0.8679486513137817], [0.2596246898174286, 0.3306393325328827, -0.07983275502920151, 0.3733561336994171, 0.30527928471565247, 0.032267212867736816, 0.2888220250606537, 0.41557633876800537, 0.33306148648262024, -0.27570340037345886, -0.467611163854599], [-0.7832106351852417, -0.7251067161560059, 0.19608953595161438, -0.6530760526657104, -0.588504433631897, 0.13801881670951843, -0.7809730768203735, -0.7869040966033936, -0.6997432708740234, 0.7545210123062134, 0.6010245084762573], [0.30690085887908936, 0.2656633257865906, 0.1335517317056656, 0.2883824110031128, 0.2615903913974762, 0.02502269484102726, 0.29123544692993164, 0.31446146965026855, 0.1613975614309311, -0.248631089925766, -0.3196037709712982], [0.38775646686553955, 0.28069737553596497, 0.08230006694793701, 0.4268876314163208, 0.3797934055328369, -0.13520066440105438, 0.2620975077152252, 0.38496148586273193, 0.20833872258663177, -0.39507803320884705, -0.24592716991901398], [-0.6993342041969299, -0.5372899770736694, 0.19722221791744232, -0.7014974355697632, -0.7050951719284058, 0.10195165127515793, -0.6331023573875427, -0.6917507648468018, -0.5657185316085815, 0.7018864154815674, 0.6568063497543335], [0.2878972887992859, 0.23423311114311218, -0.04964893311262131, 0.472385436296463, 0.10887254029512405, -0.0861370787024498, 0.47321972250938416, 0.2809761166572571, 0.11229271441698074, -0.18169841170310974, -0.18796339631080627], [-0.4485463500022888, -0.5151720643043518, 0.06662917882204056, -0.43981480598449707, -0.355302631855011, 0.028748497366905212, -0.42949891090393066, -0.31083977222442627, -0.41833627223968506, 0.3894978165626526, 0.4108179211616516], [0.010965308174490929, -0.08443257957696915, -0.4028550386428833, 0.02185044251382351, 0.006316694896668196, -0.233786478638649, -0.08550091832876205, -0.0010151821188628674, 0.06814610213041306, -0.022913562133908272, -0.05947649106383324], [-0.05133484676480293, 0.04443639889359474, -0.3043431341648102, 0.022124310955405235, 0.056157756596803665, -0.08306536823511124, -0.01958386041224003, 0.06694310158491135, 0.1342860609292984, 0.06295452266931534, -0.14117328822612762], [1.3505699634552002, 1.342184066772461, -0.07689341902732849, 1.235827088356018, 1.2807856798171997, -0.2808954417705536, 1.3393868207931519, 1.2184669971466064, 1.1419987678527832, -1.1907379627227783, -1.3397979736328125], [1.2061940431594849, 1.1237391233444214, -0.08312331885099411, 1.2463912963867188, 1.2817903757095337, -0.14442315697669983, 1.2576439380645752, 1.0733611583709717, 1.1549959182739258, -1.1004449129104614, -1.0789278745651245], [0.6515414118766785, 0.5618941783905029, -0.008561910130083561, 0.5405554175376892, 0.5993768572807312, -0.04225902631878853, 0.6725756525993347, 0.4959767758846283, 0.447481244802475, -0.466249018907547, -0.4731994569301605], [0.4555860757827759, 0.37900280952453613, 0.03981095552444458, 0.4802091121673584, 0.2471771091222763, -0.20400311052799225, 0.4013187885284424, 0.3836262822151184, 0.3451670706272125, -0.44939669966697693, -0.3392278552055359], [0.33903470635414124, 0.15874335169792175, -0.1011582762002945, 0.18150100111961365, 0.27640634775161743, -0.09626804292201996, 0.21028487384319305, 0.16800811886787415, 0.31688910722732544, -0.28646165132522583, -0.2134914994239807], [11.16360092163086, 11.191617965698242, -2.158435583114624, 11.248092651367188, 11.341619491577148, -2.446838617324829, 11.133655548095703, 11.134600639343262, 11.143499374389648, -11.245489120483398, -11.239520072937012], [4.491523265838623, 4.45960807800293, -0.9587393403053284, 4.510336399078369, 4.60765266418457, -0.9588287472724915, 4.46745491027832, 4.58914041519165, 4.500380039215088, -4.552082061767578, -4.460683822631836], [2.354418992996216, 2.3798985481262207, -0.30446165800094604, 2.2194430828094482, 2.391963005065918, -0.5690063238143921, 2.3629708290100098, 2.3395044803619385, 2.2017314434051514, -2.222841501235962, -2.332334280014038], [0.5350824594497681, 0.6361343264579773, -0.02476627379655838, 0.5482344031333923, 0.5296490788459778, -0.1705128252506256, 0.49384135007858276, 0.5345478057861328, 0.4396045506000519, -0.4597918689250946, -0.4251491129398346], [0.5382837653160095, 0.5873643159866333, -0.09542175382375717, 0.49161621928215027, 0.5782386660575867, -0.03439422696828842, 0.5460796356201172, 0.47531893849372864, 0.48168596625328064, -0.5621383190155029, -0.6475470662117004], [0.6623706817626953, 0.4674120545387268, -0.09413576126098633, 0.5245120525360107, 0.5101618766784668, -0.17620810866355896, 0.6165918111801147, 0.48815852403640747, 0.6068542003631592, -0.5899970531463623, -0.6204785108566284], [0.5040922164916992, 0.4480707347393036, 0.02720586210489273, 0.46974074840545654, 0.4309186637401581, -0.00011717157030943781, 0.44266077876091003, 0.4897567629814148, 0.4009096920490265, -0.6041120290756226, -0.5826973915100098], [0.5172001719474792, 0.5361709594726562, 0.07644300907850266, 0.6153403520584106, 0.5281389951705933, -0.15030187368392944, 0.6146997809410095, 0.5955271124839783, 0.6148483157157898, -0.5184804201126099, -0.6640530228614807], [1.00388765335083, 1.0569618940353394, -0.2003130465745926, 0.9576129913330078, 0.8230676651000977, -0.15295201539993286, 0.9195095300674438, 0.9705974459648132, 1.0570473670959473, -0.9065749049186707, -0.8669690489768982], [0.5456808805465698, 0.5227985978126526, -0.003383274655789137, 0.48867475986480713, 0.5866658687591553, -0.11280680447816849, 0.5583053231239319, 0.7047380208969116, 0.648772120475769, -0.5376322269439697, -0.676547646522522], [0.1603870838880539, 0.16787074506282806, -0.07805142551660538, 0.19550283253192902, 0.32105758786201477, 0.05562708154320717, 0.3410271406173706, 0.16701261699199677, 0.35348689556121826, -0.16073404252529144, -0.15468041598796844], [-0.1735420972108841, -0.21562574803829193, 0.3375016152858734, -0.15675829350948334, -0.08177533745765686, 0.11967257410287857, -0.08622284233570099, -0.18405745923519135, -0.03177482262253761, 0.15728043019771576, 0.04486918821930885], [3.0575501918792725, 2.9236702919006348, -0.6548349857330322, 2.982182741165161, 2.9649558067321777, -0.622327983379364, 2.9221301078796387, 2.924252510070801, 2.9626669883728027, -2.9901530742645264, -3.069206953048706], [0.6800891757011414, 0.7695947289466858, -0.014342552982270718, 0.6560630202293396, 0.773065984249115, -0.1104448214173317, 0.6722044348716736, 0.6134774088859558, 0.5825269818305969, -0.7206714749336243, -0.6995266079902649], [0.14308083057403564, -0.02329743094742298, 0.1250690072774887, 0.33736929297447205, 0.06090135499835014, -0.04604172334074974, 0.16840225458145142, 0.1856776624917984, 0.04101932793855667, -0.17222283780574799, -0.19135142862796783], [0.4173075258731842, 0.5867355465888977, 0.01967155560851097, 0.5461446642875671, 0.4249815046787262, -0.013327744789421558, 0.49201181530952454, 0.5044156908988953, 0.6150701642036438, -0.4332258999347687, -0.5760002732276917], [-0.1237516775727272, 0.09059903025627136, 0.06589756906032562, -0.10546854138374329, 0.11088739335536957, -0.10379424691200256, 0.0732874721288681, -0.04649970307946205, 0.05668710544705391, 0.014503518119454384, -0.04749647527933121], [0.06871667504310608, -0.03817383199930191, 0.1251465082168579, -0.06739848852157593, 0.02414567582309246, -0.03013036400079727, 0.10956081002950668, 0.01964639313519001, 0.031197667121887207, -0.10391749441623688, -0.07095423340797424], [0.5208109617233276, 0.5030158162117004, -0.14544150233268738, 0.5189247131347656, 0.7151449918746948, -0.15048518776893616, 0.5958678126335144, 0.5949904918670654, 0.5540812611579895, -0.5553988814353943, -0.607672929763794], [0.9402629733085632, 0.8680489659309387, -0.06159060075879097, 0.9440510272979736, 0.8807834982872009, -0.08373770862817764, 0.8666869401931763, 0.7774567008018494, 0.9663042426109314, -0.9812212586402893, -0.8701944947242737]], [0.07284540683031082, 0.10422302037477493, -0.04519643262028694, -0.028142593801021576, 0.028357457369565964, -0.2577289044857025, -0.010084441863000393, 0.030215492472052574, 0.10386847704648972, -0.12538783252239227, -0.18727320432662964], [[-1.9212545156478882], [-1.9239856004714966], [0.014646788127720356], [-0.3485274910926819], [-0.7860251069068909], [0.07670595496892929], [-0.7416753768920898], [-1.873073697090149], [-1.2331411838531494], [1.6115803718566895], [0.9684056639671326]], [0.21361730992794037]], "etBin": [0.0, 20.0], "etaBin": [1.37, 1.54]}, {"sequence": "{\"class_name\": \"Sequential\", \"config\": {\"name\": \"sequential_43\", \"layers\": [{\"class_name\": \"Dense\", \"config\": {\"name\": \"dense_86\", \"trainable\": true, \"batch_input_shape\": [null, 100], \"dtype\": \"float32\", \"units\": 9, \"activation\": \"tanh\", \"use_bias\": true, \"kernel_initializer\": {\"class_name\": \"GlorotUniform\", \"config\": {\"seed\": null}}, \"bias_initializer\": {\"class_name\": \"Zeros\", \"config\": {}}, \"kernel_regularizer\": null, \"bias_regularizer\": null, \"activity_regularizer\": null, \"kernel_constraint\": null, \"bias_constraint\": null}}, {\"class_name\": \"Dense\", \"config\": {\"name\": \"dense_87\", \"trainable\": true, \"dtype\": \"float32\", \"units\": 1, \"activation\": \"linear\", \"use_bias\": true, \"kernel_initializer\": {\"class_name\": \"GlorotUniform\", \"config\": {\"seed\": null}}, \"bias_initializer\": {\"class_name\": \"Zeros\", \"config\": {}}, \"kernel_regularizer\": null, \"bias_regularizer\": null, \"activity_regularizer\": null, \"kernel_constraint\": null, \"bias_constraint\": null}}, {\"class_name\": \"Activation\", \"config\": {\"name\": \"activation_43\", \"trainable\": true, \"dtype\": \"float32\", \"activation\": \"tanh\"}}]}, \"keras_version\": \"2.2.4-tf\", \"backend\": \"tensorflow\"}", "weights": [[[-0.8132635354995728, 0.7592369318008423, -0.6139215230941772, 0.6227089166641235, -0.6659454107284546, 0.7904120683670044, -0.7553176879882812, -1.2226717472076416, 0.7907049059867859], [-0.7208519577980042, 0.7010093927383423, -0.675837516784668, 0.7692942023277283, -0.622691810131073, 0.7548847198486328, -0.5950412750244141, -2.2615997791290283, 0.6440308094024658], [0.11873473972082138, -0.07309114933013916, 0.01800144463777542, -0.08964084833860397, -0.051412079483270645, 0.10546236485242844, 0.061784058809280396, 0.11468613892793655, -0.12235572189092636], [0.33942773938179016, -0.321598619222641, 0.16583053767681122, -0.4267958104610443, 0.34174641966819763, -0.22652727365493774, 0.38738369941711426, -0.041502244770526886, -0.144143745303154], [1.0432066917419434, -1.2008109092712402, 1.2029106616973877, -1.0906569957733154, 1.2015018463134766, -1.203131914138794, 1.0232112407684326, -0.058404117822647095, -1.0617835521697998], [0.36767181754112244, -0.20066553354263306, 0.3534911572933197, -0.3703511655330658, 0.38680869340896606, -0.2964054048061371, 0.2314578890800476, -0.0006618080078624189, -0.3811827301979065], [0.27934151887893677, -0.3915606141090393, 0.3536852300167084, -0.4365720748901367, 0.2616593539714813, -0.4464738965034485, 0.27080437541007996, 0.06844418495893478, -0.38613244891166687], [0.0815957710146904, -0.09344636648893356, 0.11401058733463287, -0.06057586148381233, 0.07423434406518936, -0.09530619531869888, 0.12366103380918503, -0.04163588583469391, -0.06276097148656845], [-1.380362629890442, 1.399393916130066, -1.3429614305496216, 1.538360834121704, -1.4861937761306763, 1.3557573556900024, -1.4114328622817993, -2.885434865951538, 1.4026087522506714], [-1.6840870380401611, 1.789229154586792, -1.7399932146072388, 1.7810781002044678, -1.7715117931365967, 1.6277737617492676, -1.5494160652160645, -2.2815637588500977, 1.6855754852294922], [-1.7429289817810059, 1.7646849155426025, -1.7351245880126953, 1.7440450191497803, -1.8740382194519043, 1.6624302864074707, -1.7205865383148193, -5.823894500732422, 1.683066964149475], [-0.28187838196754456, 0.46421006321907043, -0.2631223797798157, 0.4286406338214874, -0.3130093812942505, 0.44902920722961426, -0.3128710091114044, 6.315771102905273, 0.2817555367946625], [1.5563263893127441, -1.5790103673934937, 1.6811394691467285, -1.7042056322097778, 1.6568242311477661, -1.7018150091171265, 1.6419261693954468, 13.926741600036621, -1.695611596107483], [0.4624183475971222, -0.39892324805259705, 0.3199397027492523, -0.3263782560825348, 0.4021936357021332, -0.35193052887916565, 0.4649029076099396, 0.3584934175014496, -0.48389801383018494], [5.093498229980469, -5.003358364105225, 4.912400245666504, -5.154655933380127, 4.996301651000977, -5.1142120361328125, 4.947268486022949, 7.180079936981201, -5.1422624588012695], [4.076866626739502, -3.9036083221435547, 4.087119102478027, -4.059049606323242, 4.259697437286377, -3.9311115741729736, 3.9843125343322754, 2.036898612976074, -3.9930789470672607], [1.8049594163894653, -1.822140097618103, 1.8122690916061401, -2.0356369018554688, 1.8955779075622559, -1.9852997064590454, 1.8459254503250122, 1.0683224201202393, -1.9463180303573608], [5.036686897277832, -4.984104633331299, 4.585328578948975, -5.170736312866211, 5.142794132232666, -4.830398082733154, 4.989476203918457, 1.9928253889083862, -4.6762003898620605], [0.5959597826004028, -0.934328556060791, 0.5006241798400879, -0.835893988609314, 0.9814954400062561, -0.565402626991272, 0.538245439529419, 0.4074763059616089, -0.6216059923171997], [5.1945366859436035, -5.151466369628906, 5.293233871459961, -5.329240798950195, 5.332903861999512, -5.132021903991699, 5.318441867828369, 2.3068251609802246, -5.318002700805664], [1.6616880893707275, -1.584260106086731, 1.540311574935913, -1.6158276796340942, 1.614749550819397, -1.760054349899292, 1.6196821928024292, 0.008570806123316288, -1.5334546566009521], [-1.4257605075836182, 1.5737708806991577, -1.5636931657791138, 1.4615364074707031, 2.6933858394622803, 1.3865091800689697, -1.613242506980896, -3.5014407634735107, 1.5967717170715332], [3.233429431915283, -3.1216108798980713, 2.9893717765808105, -3.17944598197937, 3.115966320037842, -3.0243148803710938, 3.2171969413757324, 0.1181761771440506, -3.089381694793701], [3.1460630893707275, -3.0638585090637207, 3.1181747913360596, -3.052053689956665, 3.0592973232269287, -3.162200450897217, 3.0326616764068604, 0.10338350385427475, -3.2239346504211426], [2.002929925918579, -1.789509892463684, 1.9691492319107056, -1.8381186723709106, 1.8946386575698853, -1.817534327507019, 1.862798810005188, -0.08359355479478836, -1.8783546686172485], [2.0998306274414062, -1.9562020301818848, 1.8847261667251587, -1.8850442171096802, 2.085125207901001, -2.113487720489502, 2.0538835525512695, 0.0745428279042244, -1.9791476726531982], [1.980833888053894, -1.874325156211853, 1.9459575414657593, -2.0912375450134277, 1.9024978876113892, -2.0752768516540527, 1.9819453954696655, 0.07168718427419662, -1.989551067352295], [2.803379774093628, -2.966566324234009, 2.723675012588501, -2.9795339107513428, 2.8605880737304688, -2.7552340030670166, 2.9155337810516357, 0.19474110007286072, -2.758859634399414], [0.3217647075653076, -0.4420681893825531, 0.2768232524394989, -0.3490269184112549, 0.4251677393913269, -0.4173230826854706, 0.49679017066955566, -0.18653930723667145, -0.3009742796421051], [0.7369864583015442, -0.929384171962738, 0.709211528301239, -1.4141292572021484, 1.232535481452942, -0.7053608298301697, 0.8369187712669373, -0.008703239262104034, -0.8281821608543396], [0.722167432308197, -0.7703667879104614, 0.7326670289039612, -0.8147439956665039, 0.8212841749191284, -0.8918169736862183, 0.7425017952919006, -0.16436587274074554, -0.880773663520813], [1.7329550981521606, -1.8981620073318481, 1.730704426765442, -1.6981388330459595, 1.7352460622787476, -1.6928094625473022, 1.7178410291671753, 0.008475163951516151, -1.8349069356918335], [1.6127166748046875, -1.5977709293365479, 1.6340304613113403, -1.6216113567352295, 1.6488492488861084, -1.5515276193618774, 1.5938711166381836, 0.05818643793463707, -1.526471734046936], [1.7412950992584229, -1.752970576286316, 1.9072352647781372, -1.8562984466552734, 1.918835997581482, -1.943318247795105, 1.9528785943984985, 0.1148080825805664, -1.9013646841049194], [-0.2182760089635849, 0.12634186446666718, -0.14522923529148102, 0.22728736698627472, -0.029908062890172005, 0.12203282862901688, -0.001915204105898738, -0.0146404430270195, 0.06110519543290138], [1.858873963356018, -1.7356882095336914, 1.7837166786193848, -1.8928875923156738, 1.8048712015151978, -1.7010403871536255, 1.8124868869781494, 0.14130903780460358, -1.793364405632019], [0.45404917001724243, -0.2895793318748474, 0.3496350049972534, -0.31895917654037476, 0.4021608233451843, -0.32823503017425537, 0.2811996340751648, -0.07004042714834213, -0.3698478937149048], [-0.461873859167099, 0.2668388783931732, -0.3285650312900543, 0.31665071845054626, -0.29827722907066345, 0.4477287828922272, -0.5021361708641052, -0.07259126007556915, 0.47032514214515686], [0.30324089527130127, -0.43842393159866333, 0.2599640488624573, 3.4235925674438477, 0.4903169870376587, -0.41569429636001587, 0.3064672350883484, -0.07193485647439957, -0.4766908288002014], [1.5901087522506714, -1.6531239748001099, 1.522546410560608, -1.557573914527893, 1.4395898580551147, -1.487956166267395, 1.6342695951461792, 0.1561882048845291, -1.481472134590149], [0.8437208533287048, -0.7248035073280334, -0.4116015136241913, -0.8990640044212341, -0.27691856026649475, 0.41814324259757996, 0.9581728577613831, -0.1037708967924118, 0.36378514766693115], [-1.1453101634979248, 1.0227733850479126, -1.0928959846496582, 1.1268880367279053, -1.0816011428833008, 1.1215918064117432, -1.1121954917907715, -0.08505424857139587, 1.0824525356292725], [1.052100419998169, -0.9419450759887695, 1.0027908086776733, -1.1254336833953857, 1.1188898086547852, -1.0393763780593872, 1.072817087173462, -0.11788424104452133, -0.9414381980895996], [1.3319687843322754, -1.1990209817886353, 1.1905454397201538, 0.4046348035335541, 1.1751198768615723, -1.2042914628982544, 1.256352424621582, -0.02076549455523491, -1.1176804304122925], [1.0879489183425903, 0.7308794856071472, 0.9984291791915894, 0.6647327542304993, 1.0842138528823853, -1.0021240711212158, 0.8042021989822388, -0.05390157550573349, -0.9144996404647827], [0.9551039338111877, -0.9434993863105774, 0.9808773994445801, -1.0347871780395508, 1.114804744720459, -0.9621548652648926, 1.0776768922805786, 0.01568114385008812, -0.8910530209541321], [1.2579126358032227, -1.1982247829437256, 1.19428551197052, -1.1936805248260498, 1.354832649230957, -1.305995225906372, 1.1127344369888306, 0.007832315750420094, -1.2857142686843872], [0.12899626791477203, 0.05041747912764549, 0.04732788726687431, 0.01357869990170002, -0.03124201111495495, 0.03306679055094719, -0.05006515979766846, -0.1522279530763626, -0.09906584769487381], [0.1943940967321396, -0.12107542902231216, 1.0897341966629028, -0.13351063430309296, 1.0991301536560059, -0.13276417553424835, 0.26220694184303284, -0.03455847501754761, -1.0923926830291748], [0.9106179475784302, -0.8440163731575012, 1.0191333293914795, -0.9845501780509949, 1.063336968421936, -0.941654622554779, 0.9411124587059021, -0.11080139875411987, -0.9732527136802673], [-0.08881685882806778, 0.09307906776666641, -0.07227389514446259, 0.1219787523150444, -0.13179071247577667, 0.0567602813243866, 0.07581096887588501, -0.049526382237672806, -0.002614302560687065], [1.0421924591064453, -1.1794803142547607, 1.151305913925171, -1.229602575302124, 1.0225187540054321, -1.0809261798858643, 1.0650126934051514, 0.10247504711151123, -1.148712396621704], [-0.10981596261262894, 0.0777030885219574, 0.03757204860448837, 0.06844998896121979, 0.0463390126824379, 0.11984408646821976, -0.01854572258889675, -0.1257350593805313, 0.03982345014810562], [-0.4122312366962433, 0.2817169725894928, -0.35156339406967163, 0.24674876034259796, -0.32412439584732056, 0.33333510160446167, -0.2562927305698395, 0.03314872458577156, 0.46762239933013916], [-0.10562685132026672, 0.060458697378635406, -0.02380802109837532, 0.016024844720959663, -0.1525048166513443, 0.04753946512937546, -0.2045576572418213, -0.17825110256671906, 0.17897582054138184], [0.026212286204099655, -0.016693897545337677, 0.14536979794502258, -0.06808590888977051, 0.09484929591417313, -0.09345943480730057, -0.015395746566355228, -0.033581092953681946, 0.023795591667294502], [1.1173734664916992, -1.1133806705474854, 1.219740629196167, -1.0710718631744385, 1.1942088603973389, -1.2096068859100342, 1.2349133491516113, 0.051709990948438644, -1.1997110843658447], [0.8650310039520264, -1.0501405000686646, 0.9114254117012024, -1.0635803937911987, 0.9197342991828918, -1.016615390777588, 1.0152405500411987, -0.0015021897852420807, -1.058182954788208], [-0.08201833814382553, 0.17486368119716644, -0.00130744487978518, 0.11627098172903061, 0.02821928635239601, 0.021261446177959442, -0.019656650722026825, -0.13709756731987, 0.1343129724264145], [0.07405491918325424, 0.1022058054804802, -0.03901457041501999, 0.2314356565475464, 0.005864947102963924, -0.08944723010063171, -0.16491565108299255, -0.04016176983714104, 0.038008205592632294], [-0.27372512221336365, 0.14273224771022797, -0.25455406308174133, 0.2823445498943329, -0.2811189293861389, 0.15282049775123596, -0.2716693580150604, -0.1597995162010193, 0.24716021120548248], [2.4792611598968506, -2.4254705905914307, 2.571018934249878, -2.534559965133667, 2.440190076828003, -2.4530937671661377, 2.5543885231018066, 0.19407711923122406, -2.3277885913848877], [-0.7124928832054138, 0.6866123080253601, -0.8134226202964783, 0.7723482251167297, -0.7855979800224304, 0.7224584221839905, -0.6906757950782776, -0.29533061385154724, 0.7066056132316589], [0.0992538183927536, 0.05049509555101395, 0.14029164612293243, -0.07724808156490326, 0.12086456269025803, 0.09759773313999176, 0.07496882975101471, -0.02836567349731922, -0.04173530265688896], [0.24293576180934906, -0.19168545305728912, 0.24446211755275726, -0.1604723483324051, 0.13282744586467743, -0.1622200757265091, 0.2814233899116516, -0.09202534705400467, -0.2536925673484802], [0.6265254616737366, 1.3615690469741821, 0.6065241098403931, 1.304740071296692, 0.49346262216567993, -0.4635638892650604, 0.6166151165962219, 0.05194428190588951, -0.5391313433647156], [-1.1141934394836426, 1.1406676769256592, -1.1495189666748047, 1.0992412567138672, -1.1400457620620728, 1.212966799736023, -1.1773701906204224, -0.17909935116767883, 0.9800989031791687], [-0.9671548008918762, 0.9363752007484436, -1.0705891847610474, 0.9320917725563049, -0.880723774433136, 0.9171085953712463, -0.8534405827522278, -0.0787263959646225, 1.0427545309066772], [-0.26049870252609253, 0.4406859278678894, -0.4038388133049011, 0.4397430121898651, -0.4784016013145447, 0.40835946798324585, -0.31821948289871216, -0.08789540827274323, 0.35465317964553833], [0.9531799554824829, -0.8153678774833679, 0.8757845163345337, -0.9811238646507263, 0.8666333556175232, -0.9684682488441467, 0.8856787085533142, -0.09972371906042099, -1.0036044120788574], [-2.1120102405548096, 1.9708521366119385, -2.127149820327759, 2.0688986778259277, -1.891428828239441, 2.007861852645874, -1.9354966878890991, -0.3702903389930725, 2.1387813091278076], [-1.0566222667694092, 1.1368048191070557, -1.122079610824585, 0.9843761324882507, -1.1882468461990356, 1.1340219974517822, -1.0199341773986816, -0.22444038093090057, 1.16023588180542], [-0.29698124527931213, 0.3213760554790497, -0.32063862681388855, 0.25361254811286926, -0.32701680064201355, 0.2570323050022125, -0.33891865611076355, -0.393245130777359, 0.44071075320243835], [-0.22588281333446503, 0.25849276781082153, -0.18409450352191925, 0.17018835246562958, -0.2394263744354248, 0.2853410243988037, -0.3040750026702881, -0.24160142242908478, 0.10145777463912964], [0.5247219800949097, -0.5581075549125671, 0.5740222930908203, -0.6069934368133545, 2.557929277420044, -0.5762231349945068, 0.49333348870277405, 0.4288545548915863, -0.48560264706611633], [1.7258588075637817, -1.7605060338974, 1.6113555431365967, -1.6504689455032349, 1.699292540550232, -1.67903470993042, 1.7195175886154175, 0.9095355868339539, -1.6656851768493652], [2.1028051376342773, -2.0657196044921875, 1.9088267087936401, -2.005711793899536, 2.016538143157959, -2.045976400375366, 1.9153486490249634, -1.3994536399841309, -2.005952835083008], [1.4754496812820435, -1.4582678079605103, 1.6182595491409302, -1.4964929819107056, 1.4745913743972778, -1.4782031774520874, 1.5315181016921997, 0.1041254997253418, -1.6018835306167603], [0.4460217356681824, -0.5693160891532898, 0.5058969259262085, -0.48185303807258606, 0.5076565742492676, -0.49357855319976807, 0.5302369594573975, -0.14515364170074463, -0.35362327098846436], [0.9740409851074219, -0.8994877934455872, 0.9988620281219482, -1.0954331159591675, 0.8669944405555725, -0.84811931848526, 0.8619439601898193, -0.13872568309307098, -0.8403108716011047], [5.81657075881958, -5.7229461669921875, 5.763286590576172, -5.6581926345825195, 5.636932373046875, -5.8028717041015625, 5.654287815093994, 0.32822009921073914, -5.6993818283081055], [5.043082237243652, -4.89405632019043, 5.048830986022949, -5.042731285095215, 5.054530143737793, -5.0524396896362305, 5.022297382354736, 0.40128985047340393, -4.973056793212891], [2.6552717685699463, -2.6821625232696533, 2.5395450592041016, -2.6847081184387207, 2.527874708175659, -2.577767848968506, 2.558448314666748, 0.23110079765319824, -2.6367321014404297], [1.1897108554840088, -1.3737807273864746, 1.2832765579223633, -1.3244023323059082, -0.07977724820375443, -1.1650478839874268, 1.365851879119873, 0.013566783629357815, 0.19910159707069397], [1.492576003074646, -1.4649416208267212, 1.3747955560684204, -1.1975760459899902, 1.3436614274978638, -1.3962191343307495, 1.3796416521072388, 0.09797225892543793, -1.4412904977798462], [1.3613582849502563, -1.4477856159210205, 1.3269175291061401, -1.4887137413024902, 1.3673244714736938, -1.341011643409729, 1.41362726688385, 0.14670036733150482, -1.5272680521011353], [0.21798363327980042, -0.14602454006671906, 0.17452827095985413, 5.016898155212402, 0.2537522614002228, -0.2615102231502533, 0.34433579444885254, -0.1992563158273697, -0.12015276402235031], [1.1362003087997437, -1.113690733909607, 1.1202446222305298, -1.3004270792007446, 1.3125509023666382, -1.1311367750167847, 1.1483513116836548, 0.023033827543258667, -1.165101408958435], [0.5873610377311707, -0.6070882678031921, 0.5959217548370361, -0.6558590531349182, 0.6408349275588989, -0.7195371389389038, 0.5417488813400269, -0.07138340920209885, -0.6846979856491089], [1.1977033615112305, -1.0237780809402466, 0.9587409496307373, -1.0847349166870117, 1.0952733755111694, -1.025370478630066, 1.1383308172225952, -0.11761593073606491, -1.0296903848648071], [0.2068304717540741, -0.2823850214481354, 0.09219545871019363, -0.3006038963794708, 0.06655373424291611, -0.23194703459739685, 0.25591689348220825, -0.12291847169399261, -0.13966700434684753], [0.007278257980942726, 0.08853570371866226, 0.03949817642569542, -0.06806442141532898, 0.046229083091020584, -0.003792643081396818, -0.04382206127047539, 0.24084576964378357, 0.12266261875629425], [2.1149260997772217, -2.1337239742279053, 1.9787968397140503, -2.0518479347229004, 1.980616807937622, -2.1930365562438965, 2.1382229328155518, 0.05392049252986908, -2.064850091934204], [0.9510822296142578, -1.0616344213485718, 0.991693377494812, -0.9880046844482422, 0.9861326813697815, -0.9652890563011169, 1.0295239686965942, -0.9788991212844849, -0.8876504302024841], [0.11564116925001144, -0.13125473260879517, 0.1883508414030075, -0.1700318306684494, 0.18340858817100525, -0.1718796193599701, 0.047772251069545746, -0.05892879143357277, -0.18596825003623962], [0.3190535008907318, -0.2957075536251068, 0.16261804103851318, -0.4345398545265198, 0.03663339093327522, -0.31551459431648254, 0.38837939500808716, 0.0387190505862236, 0.0004316970007494092], [0.30512645840644836, -0.2960958778858185, 0.3252050578594208, -0.5227755904197693, 0.4393174648284912, -0.41296103596687317, 0.38120678067207336, -0.128006711602211, -0.4121033251285553], [0.40963464975357056, -0.37493205070495605, 0.19150783121585846, -0.21367666125297546, 0.20378132164478302, -0.3687058091163635, 0.27101653814315796, -0.13337089121341705, -0.3569337725639343], [0.20987500250339508, -0.20818856358528137, 0.25308945775032043, -0.1561916023492813, 0.11638950556516647, -0.2573288083076477, 0.19322992861270905, -0.020160453394055367, -0.11948295682668686], [-0.10704275220632553, 0.04974399134516716, 0.026354173198342323, 0.06564300507307053, 0.07391009479761124, -0.10950438678264618, -0.08113179355859756, 0.17158415913581848, 0.0958978682756424]], [-0.1407214254140854, 0.06674350053071976, -0.18006108701229095, 0.05616862326860428, -0.18473659455776215, 0.16730372607707977, -0.09875761717557907, -0.018065694719552994, 0.14515070617198944], [[-0.24796636402606964], [0.3102058470249176], [-0.31246238946914673], [0.7109705209732056], [-1.364931344985962], [0.4993029832839966], [-0.27371105551719666], [-0.2719373106956482], [0.9909254312515259]], [-0.12949378788471222]], "etBin": [0.0, 20.0], "etaBin": [1.54, 2.5]}, {"sequence": "{\"class_name\": \"Sequential\", \"config\": {\"name\": \"sequential_44\", \"layers\": [{\"class_name\": \"Dense\", \"config\": {\"name\": \"dense_88\", \"trainable\": true, \"batch_input_shape\": [null, 100], \"dtype\": \"float32\", \"units\": 5, \"activation\": \"tanh\", \"use_bias\": true, \"kernel_initializer\": {\"class_name\": \"GlorotUniform\", \"config\": {\"seed\": null}}, \"bias_initializer\": {\"class_name\": \"Zeros\", \"config\": {}}, \"kernel_regularizer\": null, \"bias_regularizer\": null, \"activity_regularizer\": null, \"kernel_constraint\": null, \"bias_constraint\": null}}, {\"class_name\": \"Dense\", \"config\": {\"name\": \"dense_89\", \"trainable\": true, \"dtype\": \"float32\", \"units\": 1, \"activation\": \"linear\", \"use_bias\": true, \"kernel_initializer\": {\"class_name\": \"GlorotUniform\", \"config\": {\"seed\": null}}, \"bias_initializer\": {\"class_name\": \"Zeros\", \"config\": {}}, \"kernel_regularizer\": null, \"bias_regularizer\": null, \"activity_regularizer\": null, \"kernel_constraint\": null, \"bias_constraint\": null}}, {\"class_name\": \"Activation\", \"config\": {\"name\": \"activation_44\", \"trainable\": true, \"dtype\": \"float32\", \"activation\": \"tanh\"}}]}, \"keras_version\": \"2.2.4-tf\", \"backend\": \"tensorflow\"}", "weights": [[[-2.5806844234466553, -0.2052263468503952, -2.383897066116333, 2.5845961570739746, 2.523078203201294], [-1.0012047290802002, 20.07004737854004, -1.3760507106781006, 1.212166428565979, 1.2397465705871582], [-0.2730771601200104, -0.05454494431614876, -0.3348962664604187, 0.20074820518493652, 0.3222271502017975], [0.04640960693359375, -0.18717095255851746, 1.179531455039978, 0.030683953315019608, 0.12637624144554138], [-0.23492079973220825, -0.022892674431204796, -0.15976905822753906, 0.2545512318611145, 0.19881415367126465], [-0.25099289417266846, 6.42439079284668, -0.24633640050888062, 0.17029887437820435, 0.1611686795949936], [-0.18854427337646484, 0.021967625245451927, -0.027256470173597336, 0.16634932160377502, 0.015605319291353226], [-0.6312430500984192, -0.2698066532611847, -0.5228423476219177, 0.4982535243034363, 0.5323315262794495], [-1.5728650093078613, 0.9815628528594971, -1.5888421535491943, 1.6890970468521118, 1.6160365343093872], [-2.0988950729370117, 2.539395570755005, -2.6769280433654785, 1.9754447937011719, 2.0284018516540527], [1.0723426342010498, -0.041126005351543427, 0.8242276310920715, -1.2980303764343262, -1.044151782989502], [5.214395046234131, -188.51095581054688, 2.4047093391418457, -5.312727451324463, -3.7301273345947266], [7.634226322174072, 1.2481532096862793, 1.4194800853729248, -7.698091983795166, -1.5994799137115479], [3.932420492172241, 4.584614276885986, 3.582404375076294, -3.7385916709899902, -3.6477060317993164], [3.1731977462768555, 31.096965789794922, 3.1895318031311035, -3.286646604537964, -3.2697880268096924], [2.7362208366394043, 7.407281875610352, 2.3722589015960693, -2.704873561859131, -2.807410955429077], [2.520021915435791, 6.4813032150268555, 2.534457206726074, -2.4968903064727783, -2.474952459335327], [1.7802473306655884, 0.44959187507629395, 1.7707122564315796, -1.7537165880203247, -1.6306145191192627], [1.7117398977279663, 6.5897698402404785, 1.8028674125671387, -1.8216450214385986, -1.6776785850524902], [2.775007963180542, 3.112337350845337, 2.6878201961517334, -2.681057929992676, -2.6056666374206543], [1.8490713834762573, 0.552180290222168, 1.6965737342834473, -1.8271340131759644, -1.7122881412506104], [4.080935001373291, 0.7381755709648132, 2.156740427017212, -1.9379202127456665, -1.9532740116119385], [1.5807067155838013, 0.34178149700164795, 1.542108178138733, -1.5291752815246582, -1.5319031476974487], [1.3705689907073975, 0.10214046388864517, 1.4480589628219604, -1.463510274887085, -1.4019474983215332], [1.4523284435272217, 0.28746888041496277, 1.8843015432357788, -1.3950189352035522, -1.90078866481781], [1.282424807548523, 0.11707084625959396, 1.1578338146209717, -1.0537468194961548, -1.3484795093536377], [1.9052059650421143, 0.2851114869117737, 1.8208820819854736, -1.7698345184326172, -1.8125066757202148], [1.3268152475357056, 0.29011955857276917, 1.3979628086090088, -1.4257134199142456, -1.1925442218780518], [1.2147687673568726, 0.2782539427280426, 1.1670628786087036, -1.1033873558044434, -1.1334221363067627], [1.1448230743408203, 0.1969985067844391, 1.1282018423080444, -1.2061586380004883, -1.092852234840393], [1.0762319564819336, 0.2606906592845917, 1.2297827005386353, -1.0880452394485474, -1.013049840927124], [1.149719476699829, 0.1943608522415161, 1.0489581823349, -1.0287353992462158, -1.129899501800537], [0.9828029274940491, 0.2012009471654892, 1.0769861936569214, -1.074491024017334, -0.9238896369934082], [0.7869490385055542, 0.12583144009113312, 0.6272847056388855, -0.8654044270515442, -0.6770639419555664], [1.0506229400634766, 0.1824081391096115, 0.8593021035194397, -1.09386146068573, -1.1074323654174805], [0.7081304788589478, 0.13188831508159637, 0.6260786056518555, -0.7744948267936707, -0.6877516508102417], [0.7478598356246948, 0.13675498962402344, 0.5971726775169373, -0.6656947135925293, -0.7302060127258301], [0.8586633205413818, 0.13455922901630402, 0.8229843974113464, -0.6827832460403442, -0.8390008807182312], [0.8232532739639282, 0.1803206503391266, 0.8540348410606384, -0.7813001871109009, -0.9042571187019348], [1.6884773969650269, 0.03803775832056999, 1.5200797319412231, -1.495880365371704, -1.6276228427886963], [0.5400390028953552, -0.0544644296169281, 0.6819210648536682, -0.7289212346076965, -0.5894379615783691], [0.44420546293258667, -0.08126848191022873, 0.5246379971504211, -0.38663405179977417, -0.46856778860092163], [0.6171509623527527, 0.17514316737651825, 0.6939978003501892, -0.7631081938743591, -0.6491129994392395], [0.6396961212158203, 0.15767283737659454, 0.5826196670532227, -0.651140570640564, -0.5125652551651001], [0.40406715869903564, -0.02302093245089054, 0.2613293528556824, -0.39397621154785156, -0.2724980115890503], [0.4276370704174042, 0.0002129851491190493, 0.5254384279251099, -0.4455743730068207, -0.30689680576324463], [0.4723331928253174, 9.541810035705566, 0.5967040657997131, -0.4467396140098572, -0.41970714926719666], [0.10639713704586029, -0.11653793603181839, -0.01746673323214054, -0.04283224418759346, -0.1430593878030777], [0.4063652455806732, -0.02170524187386036, 0.5041105151176453, -0.40346524119377136, -0.39922475814819336], [-0.04959668591618538, -0.0030093672685325146, -0.12722176313400269, 0.20658908784389496, 0.13472452759742737], [0.2616499960422516, 0.11309917271137238, 0.30193957686424255, -0.34545084834098816, -0.3783359229564667], [-0.03402677923440933, -0.15355350077152252, 0.1491677314043045, 0.04809919744729996, -0.057618461549282074], [0.059273116290569305, -0.11288440972566605, -0.1304699331521988, 0.0783865675330162, -0.016896555200219154], [0.3306509256362915, -2.4306955337524414, 0.3279569149017334, -0.3686244487762451, -0.4073556363582611], [0.5020179152488708, -73.22344970703125, 0.5113049745559692, -0.5752061605453491, -0.6274473071098328], [0.6612769365310669, -0.020048722624778748, 0.6325740814208984, -0.7076175212860107, -0.5425912141799927], [-0.03246231749653816, -0.17453287541866302, -0.14406374096870422, 0.121605284512043, 0.13909856975078583], [-0.3431079685688019, -0.7349122762680054, 0.02065088227391243, 0.1639905422925949, 0.12539851665496826], [0.112039715051651, -0.1362602561712265, 0.15422871708869934, -0.26296666264533997, -0.11267583072185516], [0.20476339757442474, -0.11913035064935684, 0.2860473394393921, -0.23427186906337738, -0.25544434785842896], [-0.2729301452636719, -0.24777555465698242, -0.3209764361381531, 0.2737751007080078, 0.2485422044992447], [-0.652006208896637, -0.09940226376056671, -0.7076837420463562, 0.7305718064308167, 0.7121180891990662], [0.3640297055244446, 0.08428455889225006, 0.3395984470844269, -0.5138651132583618, -0.3919336199760437], [0.6954027414321899, -0.187347412109375, 0.7022368907928467, -0.5449318289756775, -0.7181009650230408], [0.1482647806406021, 0.01218602154403925, 0.1842680275440216, -0.15384043753147125, -0.22763942182064056], [0.5909504890441895, 0.08000417053699493, 0.6265614032745361, -0.7897053956985474, -0.6732332706451416], [-0.28839030861854553, -0.04203977808356285, -0.3680141568183899, 0.3668023347854614, 0.37915194034576416], [0.31749823689460754, 0.013009489513933659, 0.45416259765625, -0.4822190999984741, -0.3767874538898468], [-0.47111091017723083, -0.1961224377155304, -0.46680304408073425, 0.4539201259613037, 0.6579141616821289], [0.2065715789794922, 0.05147147923707962, 0.40902554988861084, -0.32751092314720154, -0.1865592747926712], [-0.7505382895469666, -0.17532473802566528, -0.49815353751182556, 0.5043238401412964, 0.7217347621917725], [0.2084415853023529, -0.11450307816267014, 0.09244372695684433, -0.419588178396225, -0.06282942742109299], [-0.42441025376319885, 0.1367666870355606, -0.39312347769737244, 0.6023481488227844, 0.4178060293197632], [-0.2964019775390625, 0.10501325130462646, -0.48561719059944153, 0.17831134796142578, 0.5003261566162109], [0.2804376482963562, 1.171893835067749, 0.43097352981567383, -0.24144744873046875, -0.3291083574295044], [0.582612931728363, 4.778346538543701, 0.7226723432540894, -0.6358891129493713, -0.7071840167045593], [1.00559663772583, 0.24694855511188507, 0.897112250328064, -0.9003252387046814, -0.9176375269889832], [0.5798299312591553, 0.031231198459863663, 0.6425195336341858, -0.5418298244476318, -0.7618668675422668], [0.4391465187072754, 0.059682074934244156, 0.45138198137283325, -0.43454253673553467, -0.5984167456626892], [0.03747107461094856, -0.07460985332727432, 0.00849300716072321, -0.1705821305513382, -0.17798370122909546], [5.822595596313477, 0.560391902923584, 5.954187870025635, -5.86890983581543, -5.918032169342041], [1.6330883502960205, 8.475451469421387, 1.6895170211791992, -1.708831787109375, -1.6591318845748901], [1.7257215976715088, 16.56343650817871, 1.6343204975128174, -1.6034786701202393, -1.4021949768066406], [1.1487311124801636, 0.22844885289669037, 1.0949205160140991, -1.0516904592514038, -0.9522659778594971], [0.8518974184989929, 0.005401573609560728, 0.9260191321372986, -0.7220751643180847, -0.9617892503738403], [0.7851455211639404, 0.09367279708385468, 0.6236910820007324, -0.7304001450538635, -0.5658779144287109], [0.9534518718719482, 0.021713171154260635, 0.8671881556510925, -0.9084433317184448, -0.8876404762268066], [1.4868475198745728, 0.1966490000486374, 1.417702078819275, -1.4979172945022583, -1.4604300260543823], [1.8831793069839478, -1.247552514076233, 1.9717001914978027, -2.0133533477783203, -2.021662712097168], [1.4306070804595947, 0.024344611912965775, 1.473469614982605, -1.2951805591583252, -1.3704696893692017], [0.39715254306793213, -0.0208007600158453, 0.4402773082256317, -0.19642029702663422, -0.4504642188549042], [0.24408017098903656, -0.26645153760910034, 0.24526472389698029, -0.1319875419139862, 0.9031230807304382], [1.7380021810531616, 0.12142878770828247, 2.007535457611084, -1.6450563669204712, -2.0044949054718018], [1.0294674634933472, 0.10227616131305695, 1.0167276859283447, -0.9842507243156433, -1.0812060832977295], [-0.11819819360971451, -0.09873196482658386, 0.41198447346687317, 0.104102723300457, -0.45180824398994446], [-0.24534854292869568, -0.07469190657138824, -0.30539608001708984, 0.21811139583587646, 0.2888007164001465], [2.358104705810547, 0.4973446726799011, 2.3852570056915283, -2.505967378616333, -3.373633623123169], [1.0681188106536865, 2.5086257457733154, 0.996436595916748, -0.9627663493156433, -1.0152852535247803], [0.2522551417350769, -0.07525625079870224, 0.3332338035106659, -0.20291189849376678, -0.27049174904823303], [-8.108581823762506e-05, -0.16092340648174286, -0.17675654590129852, -0.17066088318824768, 0.2571607232093811]], [0.08850277215242386, 0.29802069067955017, 0.21457459032535553, -0.10977515578269958, -0.2650356590747833], [[-1.17954421043396], [-0.2844941020011902], [-1.0495645999908447], [2.2307827472686768], [2.5593717098236084]], [-0.06368418782949448]], "etBin": [20.0, 30.0], "etaBin": [0.0, 0.8]}, {"sequence": "{\"class_name\": \"Sequential\", \"config\": {\"name\": \"sequential_45\", \"layers\": [{\"class_name\": \"Dense\", \"config\": {\"name\": \"dense_90\", \"trainable\": true, \"batch_input_shape\": [null, 100], \"dtype\": \"float32\", \"units\": 6, \"activation\": \"tanh\", \"use_bias\": true, \"kernel_initializer\": {\"class_name\": \"GlorotUniform\", \"config\": {\"seed\": null}}, \"bias_initializer\": {\"class_name\": \"Zeros\", \"config\": {}}, \"kernel_regularizer\": null, \"bias_regularizer\": null, \"activity_regularizer\": null, \"kernel_constraint\": null, \"bias_constraint\": null}}, {\"class_name\": \"Dense\", \"config\": {\"name\": \"dense_91\", \"trainable\": true, \"dtype\": \"float32\", \"units\": 1, \"activation\": \"linear\", \"use_bias\": true, \"kernel_initializer\": {\"class_name\": \"GlorotUniform\", \"config\": {\"seed\": null}}, \"bias_initializer\": {\"class_name\": \"Zeros\", \"config\": {}}, \"kernel_regularizer\": null, \"bias_regularizer\": null, \"activity_regularizer\": null, \"kernel_constraint\": null, \"bias_constraint\": null}}, {\"class_name\": \"Activation\", \"config\": {\"name\": \"activation_45\", \"trainable\": true, \"dtype\": \"float32\", \"activation\": \"tanh\"}}]}, \"keras_version\": \"2.2.4-tf\", \"backend\": \"tensorflow\"}", "weights": [[[-1.68311607837677, 26.117496490478516, 1.6926958560943604, 0.3207312822341919, -1.690132737159729, 1.6814533472061157], [-1.4569848775863647, 47.860939025878906, 1.1739120483398438, 1.2268915176391602, -1.3687201738357544, 1.172446846961975], [0.5335415005683899, -0.0185922272503376, -0.3778495490550995, -0.11252876371145248, 0.4556020200252533, -0.2586249113082886], [0.8660264611244202, -0.08952942490577698, -0.748168408870697, -0.22917109727859497, 0.8527954816818237, -0.8439111709594727], [0.7174923419952393, -0.07323047518730164, -0.60002601146698, -0.0613178052008152, 0.5999191999435425, -0.7179451584815979], [0.730705976486206, -0.076230987906456, -0.688393235206604, -0.03746052458882332, 0.6221451163291931, -0.6600342988967896], [0.09598191827535629, -0.0784786194562912, -0.10886187851428986, 0.08305753022432327, 0.10438346862792969, -0.2213069051504135], [0.7200860977172852, -0.21038077771663666, 0.7823707461357117, 0.2504933476448059, 0.687874436378479, 0.9859451651573181], [-2.1343369483947754, 0.31702524423599243, 1.954888939857483, 0.47544988989830017, -2.0101394653320312, 1.7618019580841064], [-4.757304668426514, 0.8066724538803101, 4.082591533660889, 1.0961859226226807, -4.8871259689331055, 4.235414028167725], [-1.4119659662246704, -3.1502938270568848, 1.3562995195388794, 0.2796965539455414, -1.5930103063583374, 1.3822236061096191], [2.976902723312378, -120.3679428100586, -3.1061081886291504, -3.2554128170013428, 3.1762843132019043, -3.1086835861206055], [2.519176721572876, -9.880788803100586, -14.4478759765625, -1.2093565464019775, 1.0754178762435913, -14.562711715698242], [1.5647720098495483, -4.596731185913086, -1.1340501308441162, -1.4485738277435303, 1.441694736480713, -1.059888243675232], [0.10974285751581192, 29.22450828552246, -7.89017391204834, -0.9744834899902344, -1.0820975303649902, -16.777902603149414], [0.10809197276830673, 0.017462890595197678, -1.355668067932129, 0.019727423787117004, 0.05032562091946602, -4.529929161071777], [4.8538737297058105, -1.1553833484649658, -5.379847526550293, -0.9282875657081604, 4.939760208129883, -5.258783340454102], [5.077908515930176, -1.1195496320724487, -5.210483074188232, -0.994166910648346, 4.9943318367004395, -5.110031604766846], [5.329061031341553, -1.2243932485580444, -5.527088165283203, -1.0240962505340576, 5.317627906799316, -5.5335259437561035], [5.2591681480407715, -0.9548608064651489, -6.067376613616943, -1.201321005821228, 5.311254978179932, -5.930649280548096], [4.971745014190674, -1.0794403553009033, -5.566293716430664, -0.9554650783538818, 4.989718437194824, -5.649166584014893], [4.666284561157227, -0.9172614812850952, -4.522905349731445, -1.0570991039276123, 4.524256706237793, -4.602900505065918], [4.310705184936523, -0.9452863931655884, -4.378673553466797, -0.8853266835212708, 4.336480140686035, -4.279512882232666], [4.793591499328613, -0.9285127520561218, -4.849443435668945, -0.8295027017593384, 4.7966389656066895, -4.896762847900391], [4.540436267852783, -1.0340548753738403, -4.719850063323975, -0.8679211735725403, 4.745635509490967, -4.582980632781982], [3.747809410095215, -0.8179218769073486, -3.6691508293151855, -0.6739240884780884, 3.6857500076293945, -3.5727100372314453], [2.1948869228363037, -0.3497898578643799, -2.1491057872772217, -0.43453657627105713, 2.247640371322632, -2.3015153408050537], [3.136486291885376, -0.6662282347679138, -3.109639883041382, -0.5977059602737427, 3.0365402698516846, -3.0661983489990234], [2.200423240661621, -0.5086925625801086, -2.2511565685272217, -0.4133867621421814, 2.369861364364624, -2.2142016887664795], [3.60239315032959, -0.46222612261772156, -4.536490440368652, -0.5869407057762146, 3.847121477127075, -2.8304226398468018], [2.740330457687378, -0.5275274515151978, -2.9407622814178467, -0.4897671639919281, 2.9389500617980957, -2.9345176219940186], [2.204880952835083, -0.42630690336227417, -2.4051313400268555, -0.5638994574546814, 2.3582558631896973, -2.371076822280884], [2.1703991889953613, -0.3595050573348999, -2.1256041526794434, -0.3849004805088043, 2.085233211517334, -2.1943888664245605], [2.2458949089050293, -0.3644062876701355, -2.2372162342071533, -0.5227524638175964, 2.124588966369629, -2.119457960128784], [2.954357624053955, -0.47783172130584717, -2.789137125015259, -0.6460722088813782, 2.852431297302246, -2.8591575622558594], [1.4308279752731323, -0.24926239252090454, -1.5142287015914917, -0.28870177268981934, 1.4701558351516724, -1.4466975927352905], [1.314427137374878, -0.24036729335784912, -1.2492684125900269, -0.3622654378414154, 1.326816439628601, -1.35748291015625], [1.5256716012954712, -0.2418835312128067, -1.6211843490600586, -0.3931449055671692, 1.6742054224014282, -1.5501443147659302], [1.705006718635559, -0.2943932116031647, -1.7839574813842773, -0.2667752504348755, 1.7030094861984253, -1.767087697982788], [1.4887328147888184, -0.2044386863708496, -1.4934532642364502, -0.24373890459537506, 1.5289603471755981, -1.5341343879699707], [1.6929272413253784, -0.39601412415504456, -1.7011547088623047, -0.4419442415237427, 1.7025913000106812, -1.7305326461791992], [1.626034140586853, -0.19684003293514252, -1.5181875228881836, -0.27533140778541565, 1.4520392417907715, -1.4832645654678345], [2.609642744064331, -0.174738809466362, -1.4232414960861206, -0.6664111614227295, 2.6067025661468506, -1.4578478336334229], [0.47312799096107483, -0.22927667200565338, -0.5656542181968689, -0.13489198684692383, 0.4762183725833893, -0.45584186911582947], [0.5724508166313171, -0.10544516146183014, -0.4539507329463959, -0.17816193401813507, 0.5174486041069031, -0.48572540283203125], [0.8067747950553894, -0.26784849166870117, -0.7779789566993713, -0.22605203092098236, 0.884993314743042, -0.9220519065856934], [3.231626272201538, -0.35845011472702026, -1.1279048919677734, -0.32236671447753906, 3.8454627990722656, -1.0070197582244873], [0.8580575585365295, -0.09223094582557678, -1.0179001092910767, -0.07040201872587204, 0.8798968195915222, -0.9191168546676636], [4.727327823638916, -0.22095224261283875, -1.0559519529342651, -0.12137936800718307, 4.731002330780029, -0.8233225345611572], [0.9930837154388428, -0.22769610583782196, -0.9773439168930054, -0.31337106227874756, 0.9449880123138428, -0.8701371550559998], [1.065865397453308, -0.10604245960712433, -1.0534878969192505, -0.07943723350763321, 0.897678017616272, -1.072057843208313], [0.7019524574279785, -0.12347967177629471, -0.73095703125, -0.13811169564723969, 0.7145578265190125, -0.814674973487854], [0.8121689558029175, -0.2589598596096039, -0.8986287117004395, -0.27617186307907104, 0.864109218120575, -0.862621545791626], [-0.8102405071258545, 0.18820318579673767, 0.770297646522522, 0.16876719892024994, -0.7105767726898193, 0.702472984790802], [0.781336784362793, -0.27018824219703674, -0.8808987140655518, -0.19158783555030823, 0.8060390949249268, -0.7575227618217468], [0.588182806968689, 41.964115142822266, -0.6339964270591736, -0.012025796808302402, 0.6032533049583435, -0.7151869535446167], [0.6844849586486816, -0.28381603956222534, -0.8934319019317627, -0.18275116384029388, 0.7130441069602966, -0.7163618206977844], [0.6846994757652283, -0.06393256038427353, -0.7237647175788879, -0.07416193932294846, 0.7531229853630066, -0.7611345648765564], [0.8524537086486816, -0.1931096762418747, -0.8160689473152161, -0.1231045052409172, 0.8018993735313416, -0.845486581325531], [0.23930908739566803, -0.09659484773874283, -0.25114724040031433, -0.14463919401168823, 0.19523273408412933, -0.29114389419555664], [0.5554389953613281, -0.10530337691307068, -0.4401104748249054, -0.21086907386779785, 0.5336224436759949, -0.623615562915802], [0.6583843231201172, -0.11529818922281265, -0.8078599572181702, -0.14971907436847687, 0.7721254825592041, -0.8391228914260864], [-0.5964277982711792, 0.17910997569561005, -0.1128823459148407, 0.04209398478269577, 0.26588529348373413, -0.12719140946865082], [0.8768768906593323, -0.17627088725566864, -0.7314887046813965, -0.07392524927854538, 0.778928279876709, -0.729718804359436], [-0.05953080207109451, -0.015767188742756844, -0.052875861525535583, 0.03368920460343361, -0.058028846979141235, -0.2207925021648407], [-1.6624952554702759, 1.252566933631897, 1.539644479751587, 0.31920942664146423, -1.6551185846328735, 1.4636245965957642], [0.580730140209198, -0.20815938711166382, -0.5039902925491333, -0.14851324260234833, 0.5130794048309326, -0.7394801378250122], [-1.6758124828338623, 0.2603822350502014, 1.6002612113952637, 0.41493648290634155, -1.6709634065628052, 1.5782012939453125], [-0.643416702747345, 0.13631519675254822, 0.4862348139286041, 0.17232975363731384, -0.7295700907707214, 0.49014732241630554], [0.3210599720478058, -0.13949330151081085, -0.3433493971824646, -0.10359667986631393, 0.2604445517063141, -0.2573527991771698], [0.20139828324317932, -0.1467839479446411, -0.4274101257324219, -0.034418314695358276, 0.38593539595603943, -0.481814444065094], [0.5071247220039368, -0.014168902300298214, 1.9341918230056763, 0.4594833254814148, 0.43960869312286377, 1.9003393650054932], [-0.5896103978157043, 0.1513163447380066, 0.3974999785423279, 0.1365262120962143, -0.5822135806083679, 0.5471203327178955], [-0.19933345913887024, 0.6338702440261841, 0.28377246856689453, -0.05514472350478172, -0.13916073739528656, 0.18622633814811707], [0.7465687394142151, -0.23853857815265656, -0.7782816290855408, -0.21112124621868134, 0.691264808177948, -0.6945018768310547], [1.0144462585449219, -0.27293604612350464, -1.0435620546340942, -0.14040443301200867, 1.2089803218841553, -1.2002664804458618], [1.5076524019241333, -0.38623708486557007, -1.4090238809585571, -0.34301382303237915, 1.4040387868881226, -1.3966060876846313], [1.3741308450698853, -0.2877321243286133, -1.42666494846344, -0.33753329515457153, 1.5151915550231934, -1.4773098230361938], [0.7607359290122986, -0.22093838453292847, -0.7047394514083862, -0.075286366045475, 0.7375446557998657, -0.7708931565284729], [0.2931405305862427, 0.03441372886300087, -0.5438223481178284, -0.16005758941173553, 0.43524718284606934, -0.5748347640037537], [10.498966217041016, -2.4927520751953125, -11.117718696594238, -2.067650079727173, 10.349853515625, -10.810044288635254], [5.260972499847412, -0.8883300423622131, -4.498582363128662, -0.62843918800354, 5.309102535247803, -3.4294321537017822], [3.5426642894744873, -0.7975724339485168, -3.575146198272705, -0.5556692481040955, 3.455317974090576, -3.435889959335327], [2.233567714691162, -0.6235693693161011, -2.35101580619812, -0.4679825007915497, 2.3784525394439697, -2.132974147796631], [2.319105863571167, -0.4278264045715332, -2.2881040573120117, -0.48359760642051697, 2.2248263359069824, -2.300492525100708], [2.194509267807007, -0.37991246581077576, -1.5803592205047607, -0.4274426996707916, 2.373924970626831, -1.5717380046844482], [1.6586837768554688, -0.3968816101551056, -1.5527069568634033, -0.37278300523757935, 1.5765775442123413, -1.7953721284866333], [2.3370673656463623, -0.2537919878959656, -1.7492262125015259, -0.4013608992099762, 2.960482120513916, -1.7138242721557617], [1.5669591426849365, -0.4183489978313446, -1.7389928102493286, -0.24077413976192474, 1.5727297067642212, -1.759426236152649], [0.8519150018692017, -0.1392844021320343, -0.9570375084877014, -0.29583656787872314, 0.9360575079917908, -0.9750609993934631], [0.6782934665679932, -0.16861552000045776, -0.1886393427848816, 0.027360446751117706, 0.586595356464386, -0.06394440680742264], [-0.22657379508018494, 0.11789364367723465, 0.15874634683132172, -0.05881731957197189, -0.23358409106731415, 0.20894065499305725], [2.875805139541626, -0.6407777667045593, -3.0056302547454834, -0.586703360080719, 2.832442283630371, -3.0633206367492676], [1.7324320077896118, -0.4173126816749573, -2.182521104812622, -0.19924455881118774, 1.750033974647522, -2.071727752685547], [0.2371082603931427, -0.1015007272362709, -0.5244185924530029, 0.0040486338548362255, 0.12322598695755005, -0.7266013026237488], [-0.10835153609514236, 0.1118307113647461, 0.21831248700618744, -0.04747982323169708, 0.09100231528282166, 0.24678899347782135], [2.2406046390533447, -0.34941568970680237, -2.208988904953003, -0.4401179850101471, 2.2746238708496094, -2.1746394634246826], [1.7271203994750977, -0.3567374050617218, -1.576480746269226, -0.389442503452301, 1.5544936656951904, -1.7095069885253906], [0.5645100474357605, -0.20485980808734894, -0.5401718616485596, -0.2114265114068985, 0.5266433954238892, -0.5420822501182556], [0.6243765950202942, -0.08960124105215073, -0.5023214817047119, -0.16198934614658356, 0.581261932849884, -0.472383052110672]], [-0.009262134321033955, 0.11403325945138931, -0.05697072297334671, 0.02670249342918396, -0.0004424861108418554, -0.09567686170339584], [[-0.5386008024215698], [0.3790470063686371], [0.9293994307518005], [0.49629369378089905], [-0.606113851070404], [3.118548631668091]], [-0.06761693209409714]], "etBin": [20.0, 30.0], "etaBin": [0.8, 1.37]}, {"sequence": "{\"class_name\": \"Sequential\", \"config\": {\"name\": \"sequential_46\", \"layers\": [{\"class_name\": \"Dense\", \"config\": {\"name\": \"dense_92\", \"trainable\": true, \"batch_input_shape\": [null, 100], \"dtype\": \"float32\", \"units\": 17, \"activation\": \"tanh\", \"use_bias\": true, \"kernel_initializer\": {\"class_name\": \"GlorotUniform\", \"config\": {\"seed\": null}}, \"bias_initializer\": {\"class_name\": \"Zeros\", \"config\": {}}, \"kernel_regularizer\": null, \"bias_regularizer\": null, \"activity_regularizer\": null, \"kernel_constraint\": null, \"bias_constraint\": null}}, {\"class_name\": \"Dense\", \"config\": {\"name\": \"dense_93\", \"trainable\": true, \"dtype\": \"float32\", \"units\": 1, \"activation\": \"linear\", \"use_bias\": true, \"kernel_initializer\": {\"class_name\": \"GlorotUniform\", \"config\": {\"seed\": null}}, \"bias_initializer\": {\"class_name\": \"Zeros\", \"config\": {}}, \"kernel_regularizer\": null, \"bias_regularizer\": null, \"activity_regularizer\": null, \"kernel_constraint\": null, \"bias_constraint\": null}}, {\"class_name\": \"Activation\", \"config\": {\"name\": \"activation_46\", \"trainable\": true, \"dtype\": \"float32\", \"activation\": \"tanh\"}}]}, \"keras_version\": \"2.2.4-tf\", \"backend\": \"tensorflow\"}", "weights": [[[0.45492225885391235, 0.4871561527252197, 0.34258463978767395, -0.006130809895694256, 0.5834996700286865, 0.5300500392913818, 0.5199347138404846, 0.5580185651779175, -2.1232032775878906, 1.2859104871749878, 0.49174565076828003, 20.467777252197266, 0.4980361759662628, 0.5054186582565308, -0.4763670563697815, -0.5432159900665283, -0.4190213084220886], [0.176041379570961, 0.25580474734306335, 0.275915265083313, 0.043728042393922806, 0.23488789796829224, 0.1467965990304947, 0.2805711030960083, 0.2565608024597168, 0.11640118807554245, 0.21525155007839203, 0.16138812899589539, 50.1583366394043, 0.24962909519672394, 0.16560406982898712, -0.23459340631961823, -0.17948687076568604, -0.27620869874954224], [-0.9507349729537964, -0.9615606069564819, -0.801543653011322, -0.2869570553302765, -0.8198587894439697, -0.9219824075698853, -0.8145144581794739, -0.8092879056930542, 4.7926764488220215, -3.535778522491455, -0.7990299463272095, 34.22079086303711, -0.7564110159873962, -0.785721480846405, 0.7382960915565491, 0.9199763536453247, 0.8995600938796997], [-0.5749979615211487, -0.7407982349395752, -0.5939427018165588, -0.17148883640766144, -0.6217252016067505, -0.7151473164558411, -0.5450755953788757, -0.7302365303039551, 4.096933841705322, -0.10532694309949875, -0.7474930286407471, 0.4159245491027832, -0.6140444278717041, -0.7469882965087891, 0.7542057633399963, 0.7198498249053955, 0.7020130157470703], [-0.25559237599372864, -0.2599858343601227, -0.0399533174932003, -0.11887714266777039, -0.0984223410487175, -0.07922377437353134, -0.158103808760643, -0.04023624584078789, 0.0024074518587440252, -2.993614912033081, -0.17685294151306152, -0.14545956254005432, -0.2594485878944397, -0.252848356962204, 0.1636442393064499, 0.15872202813625336, 0.1736421436071396], [-0.1695100963115692, -0.4705522656440735, -0.5794121026992798, -0.03183423727750778, -0.6918100118637085, -0.5829374194145203, -0.4652131199836731, -0.4897448420524597, 0.6051170825958252, -1.0760754346847534, -0.6235676407814026, -0.38171494007110596, -0.5670896768569946, -0.6915524005889893, -1.104907751083374, 0.4901805818080902, -1.0534327030181885], [0.3204802870750427, -0.5098943710327148, -0.31309375166893005, -0.08173537999391556, -0.5459108352661133, -0.2866838276386261, -0.32338836789131165, -0.5029162764549255, -0.0718926265835762, -0.15130624175071716, -0.4869489073753357, 2.265577793121338, -0.5558117628097534, -0.48828786611557007, -0.29922041296958923, 0.4675648510456085, -0.2782229483127594], [-0.12675930559635162, -0.01423573773354292, -0.09103181958198547, -0.0690426155924797, -0.15491880476474762, 0.06502009928226471, 0.06564447283744812, -0.06726045906543732, 4.003248691558838, -0.5749737024307251, 0.0013516392791643739, 