{"models": [{"sequence": "{\"class_name\": \"Sequential\", \"config\": {\"name\": \"sequential_75\", \"layers\": [{\"class_name\": \"Dense\", \"config\": {\"name\": \"dense_150\", \"trainable\": true, \"batch_input_shape\": [null, 100], \"dtype\": \"float32\", \"units\": 5, \"activation\": \"tanh\", \"use_bias\": true, \"kernel_initializer\": {\"class_name\": \"GlorotUniform\", \"config\": {\"seed\": null}}, \"bias_initializer\": {\"class_name\": \"Zeros\", \"config\": {}}, \"kernel_regularizer\": null, \"bias_regularizer\": null, \"activity_regularizer\": null, \"kernel_constraint\": null, \"bias_constraint\": null}}, {\"class_name\": \"Dense\", \"config\": {\"name\": \"dense_151\", \"trainable\": true, \"dtype\": \"float32\", \"units\": 1, \"activation\": \"linear\", \"use_bias\": true, \"kernel_initializer\": {\"class_name\": \"GlorotUniform\", \"config\": {\"seed\": null}}, \"bias_initializer\": {\"class_name\": \"Zeros\", \"config\": {}}, \"kernel_regularizer\": null, \"bias_regularizer\": null, \"activity_regularizer\": null, \"kernel_constraint\": null, \"bias_constraint\": null}}, {\"class_name\": \"Activation\", \"config\": {\"name\": \"activation_75\", \"trainable\": true, \"dtype\": \"float32\", \"activation\": \"tanh\"}}]}, \"keras_version\": \"2.2.4-tf\", \"backend\": \"tensorflow\"}", "weights": [[[-2.519747257232666, 2.5518910884857178, -31.348407745361328, -2.9206809997558594, -2.4446732997894287], [-1.365066647529602, 1.8875560760498047, 5.085378170013428, -1.4867724180221558, -1.6777822971343994], [-0.30492639541625977, 0.12845556437969208, -0.6678009033203125, -0.368197500705719, -0.24030201137065887], [-0.25400668382644653, -0.5042282938957214, -0.34738069772720337, -0.26719164848327637, 0.29689791798591614], [-0.13316483795642853, 0.17949314415454865, -0.8936799168586731, -0.011968678794801235, -0.25928035378456116], [-0.1447850614786148, 0.4164385199546814, -0.25677764415740967, 0.004449239932000637, -0.29552245140075684], [-0.0535346157848835, -0.5638179183006287, -1.791059136390686, 0.007132986094802618, 0.5474918484687805], [0.09914256632328033, -0.02531500719487667, -0.09855767339468002, 0.027146434411406517, -0.1620507687330246], [-3.31355619430542, 3.136742353439331, -3.3332624435424805, -3.2523820400238037, -3.2714836597442627], [-5.483107089996338, 1.418959379196167, -6.95365047454834, -5.587129592895508, -1.204714059829712], [-0.521232008934021, -1.328866720199585, -0.4972711205482483, -0.6296828389167786, 1.3939495086669922], [5.8772783279418945, -0.7729420065879822, 3.319516658782959, 7.719212055206299, 0.8116295337677002], [6.858461856842041, -8.147007942199707, -84.04497528076172, 6.322380065917969, 8.130390167236328], [8.395090103149414, -8.322443008422852, -44.00669860839844, 8.277446746826172, 8.397966384887695], [8.191452026367188, -7.504179000854492, -1.1928772926330566, 3.771014451980591, 7.62133264541626], [6.057356834411621, -6.3007025718688965, 0.12546275556087494, 5.467130184173584, 6.389055252075195], [5.259141445159912, -5.400967597961426, 5.024491786956787, 5.037729263305664, 5.377685070037842], [4.240787506103516, -6.0620036125183105, 4.240841865539551, 4.388160228729248, 6.114297389984131], [4.608610153198242, -4.912265777587891, 4.902653694152832, 4.605145454406738, 5.024783134460449], [4.0117340087890625, -4.333564758300781, 3.5867223739624023, 3.8945178985595703, 4.276074409484863], [3.825965642929077, -3.6549148559570312, -3.437128782272339, 3.8104143142700195, 3.624844551086426], [3.2414557933807373, -3.156893014907837, 3.2442736625671387, 4.227563858032227, 2.9602386951446533], [3.6646831035614014, -3.0956318378448486, -9.979211807250977, 3.295018434524536, 3.1890013217926025], [1.6961710453033447, -3.4520606994628906, 2.214603900909424, 2.2218406200408936, 3.3894875049591064], [0.9774823188781738, -2.1842763423919678, 0.9253064393997192, 1.0664249658584595, 2.2619810104370117], [1.489693522453308, -2.590219736099243, 1.4997336864471436, 1.443001389503479, 2.5523688793182373], [1.7704404592514038, -2.5196237564086914, 1.480648398399353, 1.4587010145187378, 2.6388776302337646], [0.6803320646286011, -1.4897935390472412, 0.874358057975769, 0.8466801047325134, 2.0598301887512207], [1.8687137365341187, -2.0041260719299316, 1.9693636894226074, 1.9607337713241577, 1.9581480026245117], [1.003707766532898, -0.9241800308227539, 0.6646167635917664, 0.9392880797386169, 1.090396523475647], [1.2016525268554688, -1.376221776008606, 1.3850904703140259, 1.254983901977539, 1.4711976051330566], [0.8856750726699829, -0.9650735259056091, -0.1966697722673416, 0.9170234799385071, 0.7880575060844421], [1.0442516803741455, -1.0752146244049072, 1.144223928451538, 1.125051498413086, 1.2110629081726074], [1.14376962184906, -1.1222842931747437, -2.9367735385894775, 1.211957335472107, 1.1020578145980835], [1.1001263856887817, -1.161207675933838, -6.738208293914795, 1.0171984434127808, 1.0152158737182617], [0.9129325151443481, -0.7829018831253052, 0.7325966954231262, 0.8487024903297424, 0.8359774351119995], [1.0404014587402344, -1.4592868089675903, -7.255312442779541, 1.1042097806930542, 1.109015703201294], [1.6290266513824463, -1.5923980474472046, 0.6022932529449463, 1.5212948322296143, 1.6687939167022705], [0.29648593068122864, -0.7904377579689026, 0.21767204999923706, 0.3300536572933197, 0.2830851972103119], [0.48281294107437134, -0.5806501507759094, 0.5013012290000916, 0.6280898451805115, 0.5472705960273743], [2.2033772468566895, -0.5454274415969849, 2.1164443492889404, 2.2595908641815186, 0.6008062958717346], [0.37138402462005615, -0.2706184685230255, 0.13209286332130432, 0.2937800884246826, 0.20209833979606628], [-0.017343757674098015, -0.21436873078346252, -3.316772937774658, -0.19154506921768188, 0.2231796830892563], [-0.046223562210798264, -0.519824743270874, -16.25379753112793, -0.11400523781776428, 0.5529528856277466], [0.6828072667121887, -0.7554846405982971, 0.06998711824417114, 0.18275777995586395, 0.7362306118011475], [-0.0515676811337471, -0.07048151642084122, 0.05978979170322418, 0.11246522516012192, -0.04183448106050491], [1.0329442024230957, -1.165191411972046, 0.32725790143013, 0.4863204061985016, 0.6518723964691162], [0.05856131762266159, -0.22782769799232483, 0.16202694177627563, 0.20843642950057983, 0.218459814786911], [0.15938997268676758, -0.9420896172523499, 0.16603806614875793, 0.19416522979736328, 0.8842599987983704], [-0.03644082695245743, 0.08937441557645798, 0.0004222362767904997, 0.0327339805662632, -0.0971132293343544], [0.2121010720729828, -0.13205508887767792, 0.11384448409080505, 0.004818707704544067, 0.06177355721592903], [0.010558431036770344, 0.06737996637821198, -0.06927763670682907, 0.044974155724048615, -0.15197934210300446], [-0.7575858235359192, 0.14526693522930145, -0.8297033309936523, -0.6755385994911194, -0.343883752822876], [-0.12337534874677658, 0.1043437197804451, -0.015857979655265808, -0.031025368720293045, -0.26729917526245117], [0.4918353259563446, -0.13483288884162903, 0.20514610409736633, 0.6603171229362488, 0.2260868400335312], [-0.40408119559288025, 0.2817845046520233, -0.4647063612937927, -0.5000114440917969, -0.3950995206832886], [1.2768315076828003, -1.1144660711288452, 0.4980292320251465, 1.4191348552703857, 1.1514731645584106], [-0.03483621031045914, -0.3150814175605774, -1.06343674659729, 0.24650268256664276, 0.2873474359512329], [0.18493026494979858, -0.8405975103378296, -0.3356015682220459, 0.22733937203884125, 2.7409586906433105], [0.22672906517982483, -0.03585259988903999, 0.20536842942237854, 0.028074000030755997, 0.023802978917956352], [-0.025921963155269623, -0.1583254039287567, 0.1293106973171234, 0.14615611732006073, 0.058869048953056335], [-1.232149362564087, -0.5332441329956055, -1.290919303894043, -1.4293683767318726, 0.4529140591621399], [-0.2291322946548462, 0.31989267468452454, -3.3873589038848877, -0.12648867070674896, -0.27069997787475586], [-0.14222043752670288, 0.18318989872932434, -0.15707702934741974, -0.1562536209821701, -0.15027987957000732], [1.507472038269043, -1.5007905960083008, 0.47571006417274475, 1.3472119569778442, 1.6384475231170654], [-0.9353458881378174, 1.1425303220748901, -7.2404961585998535, -0.5153887867927551, -1.2358027696609497], [0.14350540935993195, 0.10336121916770935, -28.699462890625, 0.06189828738570213, -0.013908001594245434], [3.167914390563965, -1.7532951831817627, 1.0073661804199219, 3.1386895179748535, 1.7504973411560059], [-0.20123246312141418, 0.0008368424605578184, 0.15036219358444214, -0.18214446306228638, -0.014218651689589024], [-1.0474354028701782, 0.7211434245109558, -0.9573068618774414, -1.0928484201431274, -0.7582322955131531], [-0.33594009280204773, 0.23654982447624207, -6.289233207702637, -0.5957207083702087, -0.26911473274230957], [0.07887110114097595, -1.160639762878418, -0.29010871052742004, 0.1514522135257721, 1.1961661577224731], [-0.5544431209564209, 0.485493928194046, -0.259524941444397, -0.4104161262512207, -0.5986950397491455], [-0.1418788582086563, 0.28230544924736023, 1.021121859550476, -0.20001061260700226, -0.3097544312477112], [1.1663345098495483, -1.3258737325668335, 1.2418928146362305, 1.1838172674179077, 1.3980728387832642], [2.073201894760132, -1.9848661422729492, 2.4015703201293945, 2.2431745529174805, 2.698241710662842], [1.604010820388794, -1.654941201210022, -0.3823203146457672, 0.9217668771743774, 1.5189265012741089], [0.5999688506126404, -0.4467678964138031, -2.765597343444824, 0.512477695941925, 1.1763625144958496], [0.3081493079662323, -0.33099180459976196, -0.9055348634719849, 0.13235022127628326, 0.36896830797195435], [0.13496412336826324, -0.13297593593597412, -2.640678882598877, 0.24340811371803284, 0.08576012402772903], [19.700336456298828, -17.33108901977539, 46.17431640625, 20.0877628326416, 17.167695999145508], [4.409531593322754, -4.886136054992676, 5.99741268157959, 4.407093048095703, 3.7730026245117188], [1.3736594915390015, -1.24844229221344, 12.814245223999023, 2.674321174621582, 1.2119200229644775], [0.9470357894897461, -0.8881064057350159, 5.953559398651123, 0.9372093677520752, 0.8795157074928284], [0.869460940361023, -0.991084098815918, 0.8335601091384888, 0.7841459512710571, 1.126434326171875], [0.40668147802352905, -0.723040759563446, -3.9393162727355957, 0.39599841833114624, 0.7742905616760254], [0.644227921962738, -0.7459942102432251, -0.27864351868629456, 0.532548189163208, 0.7590734362602234], [0.07903622090816498, -0.15244095027446747, -0.04867338016629219, -0.02840033918619156, 0.0870010107755661], [4.537973880767822, -4.243439197540283, 4.428185939788818, 4.493870735168457, 4.269863605499268], [2.570394515991211, -2.6661343574523926, 1.9317349195480347, 2.528724193572998, 2.6063554286956787], [0.5585930347442627, -0.09260637313127518, -0.3722797632217407, 0.519877552986145, 0.014416785910725594], [-0.16436448693275452, 0.2329433411359787, 0.42429718375205994, -0.27950212359428406, -0.10256712883710861], [1.7430799007415771, -1.7852797508239746, 1.8928512334823608, 1.807125210762024, 1.8841025829315186], [1.3359248638153076, -1.4689139127731323, 1.0290508270263672, 1.1233958005905151, 1.4476412534713745], [0.1612052619457245, -0.12497074902057648, 0.12957660853862762, -0.020356014370918274, 0.08549083769321442], [-0.12517400085926056, 0.1906263828277588, 0.2922575771808624, -0.12479452043771744, -0.1923874169588089], [1.977138876914978, -2.185882329940796, 2.017606258392334, 2.165937662124634, 2.0678367614746094], [1.4587559700012207, -0.8488494753837585, 6.952971935272217, 1.4886258840560913, 0.9023714065551758], [-0.2738712430000305, 0.09398523718118668, 2.772498607635498, -0.0651547983288765, -0.09494712948799133], [-0.5778898596763611, 0.40841275453567505, 1.5578128099441528, -0.3725934326648712, -0.5433779358863831]], [0.14886635541915894, 0.03607640042901039, 0.12214765697717667, 0.13067562878131866, -0.023162728175520897], [[-1.7171661853790283], [1.4167977571487427], [-0.8981298804283142], [-1.1454297304153442], [-1.440672755241394]], [-0.6201421022415161]], "etBin": [15.0, 20.0], "etaBin": [0.0, 0.8]}, {"sequence": "{\"class_name\": \"Sequential\", \"config\": {\"name\": \"sequential_76\", \"layers\": [{\"class_name\": \"Dense\", \"config\": {\"name\": \"dense_152\", \"trainable\": true, \"batch_input_shape\": [null, 100], \"dtype\": \"float32\", \"units\": 5, \"activation\": \"tanh\", \"use_bias\": true, \"kernel_initializer\": {\"class_name\": \"GlorotUniform\", \"config\": {\"seed\": null}}, \"bias_initializer\": {\"class_name\": \"Zeros\", \"config\": {}}, \"kernel_regularizer\": null, \"bias_regularizer\": null, \"activity_regularizer\": null, \"kernel_constraint\": null, \"bias_constraint\": null}}, {\"class_name\": \"Dense\", \"config\": {\"name\": \"dense_153\", \"trainable\": true, \"dtype\": \"float32\", \"units\": 1, \"activation\": \"linear\", \"use_bias\": true, \"kernel_initializer\": {\"class_name\": \"GlorotUniform\", \"config\": {\"seed\": null}}, \"bias_initializer\": {\"class_name\": \"Zeros\", \"config\": {}}, \"kernel_regularizer\": null, \"bias_regularizer\": null, \"activity_regularizer\": null, \"kernel_constraint\": null, \"bias_constraint\": null}}, {\"class_name\": \"Activation\", \"config\": {\"name\": \"activation_76\", \"trainable\": true, \"dtype\": \"float32\", \"activation\": \"tanh\"}}]}, \"keras_version\": \"2.2.4-tf\", \"backend\": \"tensorflow\"}", "weights": [[[-3.0852737426757812, 1.889798879623413, 2.2993390560150146, 2.0608713626861572, 30.730119705200195], [1.345770239830017, 1.3421075344085693, 1.3425086736679077, 1.4586642980575562, 44.25859832763672], [-2.57700777053833, -0.1755756437778473, -0.12439307570457458, -0.14603039622306824, 19.116439819335938], [-10.230562210083008, -1.039476990699768, 0.2059757113456726, -0.15968583524227142, 12.785385131835938], [-1.2645727396011353, -0.3657279908657074, -0.3581365644931793, -0.4303848445415497, -0.28045305609703064], [-0.545479953289032, -0.426823228597641, -0.4446398913860321, -0.31545010209083557, -0.5197066068649292], [3.297640323638916, -0.15406955778598785, -0.17363578081130981, -0.1440432220697403, -5.923852443695068], [0.3235122263431549, -0.05738934129476547, 0.13374975323677063, -0.08784247934818268, -0.5395039319992065], [12.368339538574219, 4.182979583740234, 4.336843490600586, 4.073559761047363, 1.9071623086929321], [5.135829448699951, 7.322864532470703, 7.3106184005737305, 7.409523963928223, 2.8183469772338867], [-11.149091720581055, 1.874131441116333, 1.959007978439331, -3.3131890296936035, -0.3257821798324585], [-1.6729810237884521, -3.4134507179260254, -3.3626625537872314, -3.622677803039551, -37.08942794799805], [181.32598876953125, -17.355472564697266, -17.175100326538086, -17.21375274658203, -28.569517135620117], [8.864855766296387, -4.8731207847595215, -4.317375183105469, -2.3226053714752197, -56.21392822265625], [0.8069186210632324, -10.438968658447266, -10.570334434509277, -10.37008285522461, -63.17543029785156], [-8.111708641052246, -9.48889446258545, -9.575398445129395, -14.403705596923828, -3.4374804496765137], [-7.287144184112549, -10.312259674072266, -10.31863021850586, -10.256138801574707, 1.5062156915664673], [-42.07527160644531, -7.340286731719971, -7.209817886352539, -7.282373905181885, -20.624130249023438], [-8.089576721191406, -11.500537872314453, -11.417251586914062, -12.552781105041504, -1.2779465913772583], [-23.40863037109375, -6.561298847198486, -6.309417247772217, -6.4234514236450195, -0.10043354332447052], [-4.711898326873779, -4.602097034454346, -4.598179340362549, -4.709968566894531, -6.262596130371094], [-4.15893030166626, -5.121848106384277, -5.190266132354736, -5.14109468460083, -0.09731103479862213], [-6.185364723205566, -5.342895030975342, -5.280867099761963, -5.336821556091309, -0.23824520409107208], [-25.855792999267578, -4.507500648498535, -4.507228851318359, -4.859354496002197, 93.44486236572266], [-28.849899291992188, -5.463686943054199, -5.483585357666016, -5.4921555519104, 74.00469207763672], [-19.954803466796875, -4.2126569747924805, -4.176548957824707, -4.255091667175293, 42.590065002441406], [-22.029882431030273, -3.266460657119751, -3.350541591644287, -3.4255542755126953, -10.004502296447754], [-3.3282952308654785, -3.530121326446533, -2.823878288269043, -3.455591917037964, -2.843007802963257], [-8.387451171875, -3.993467330932617, -3.8606746196746826, -4.060025215148926, -4.197451114654541], [-7.146962642669678, -3.345595359802246, -3.193270683288574, -3.2791101932525635, 51.07045364379883], [-9.282353401184082, -3.657076835632324, -3.8024673461914062, -3.755387544631958, 48.12968063354492], [-3.2340893745422363, -2.999112129211426, -2.971998691558838, -2.915393114089966, -42.46505355834961], [-23.037023544311523, -3.3444290161132812, -3.2833757400512695, -3.401812791824341, 30.43248748779297], [11.095966339111328, -2.0623626708984375, -2.158412218093872, -2.123209238052368, 35.71372985839844], [-10.958547592163086, -4.180160999298096, -4.093159198760986, -5.756600856781006, 50.3667106628418], [-2.28275728225708, -2.112961769104004, -2.0420420169830322, -2.2277326583862305, 37.17689895629883], [-14.328868865966797, -0.9974989891052246, -1.1260372400283813, -1.107507586479187, 15.543594360351562], [-8.76838207244873, -2.463423728942871, -2.3974812030792236, -4.031343460083008, 29.188074111938477], [-4.047404766082764, -0.5152031779289246, -0.5038172006607056, -0.6491929292678833, 0.040120162069797516], [0.7950247526168823, -0.604570209980011, -0.8097636103630066, -0.7804140448570251, -0.26328128576278687], [-15.214902877807617, -2.7743985652923584, -2.4117207527160645, -2.724452495574951, 37.243202209472656], [-48.18729782104492, -1.262147068977356, -1.218865990638733, -1.1779510974884033, 107.8061752319336], [-2.1716413497924805, -0.5452978610992432, -0.4527106285095215, -0.348337858915329, 12.359842300415039], [-1.2943066358566284, -1.3361049890518188, -1.3467168807983398, -1.3209172487258911, -29.184778213500977], [-0.10482354462146759, -0.22599434852600098, -0.15318997204303741, -0.2567189931869507, 27.508377075195312], [-1.1681591272354126, -0.757373034954071, -0.7933083772659302, -0.47426214814186096, -0.11586326360702515], [-0.4412429928779602, -0.3678341805934906, -0.46886464953422546, -0.39470022916793823, 13.338668823242188], [-1.2637397050857544, -1.359500527381897, -1.296913743019104, -1.2413114309310913, -24.88514518737793], [-0.21127118170261383, -0.12424870580434799, -0.2767472565174103, -0.2837790846824646, 9.160632133483887], [0.9345692992210388, 0.9050174951553345, 0.8916106224060059, 1.0556765794754028, 4.917972087860107], [-1.2545596361160278, -1.507334589958191, -2.664884328842163, -1.458279013633728, -0.3294712007045746], [0.8177046179771423, 0.744091272354126, 0.5801148414611816, 0.45621180534362793, 1.906750202178955], [10.117172241210938, -1.2011675834655762, -1.701323390007019, -1.3115946054458618, 20.149477005004883], [6.802859783172607, 0.2580143213272095, 0.16501319408416748, 0.40884751081466675, 0.8124606013298035], [-0.22952160239219666, -0.303499311208725, 0.13600307703018188, 0.10683292895555496, -2.1831419467926025], [-0.4778899848461151, -1.1641420125961304, -1.0691028833389282, -1.0612047910690308, 1.070225477218628], [-0.028709249570965767, 0.16756728291511536, 0.0198542270809412, 0.0417877621948719, -0.6228491067886353], [-0.32215142250061035, -0.6018224954605103, -0.06682118028402328, 0.107760950922966, -23.954862594604492], [-1.0191854238510132, -1.905106544494629, -1.91903817653656, -1.1691210269927979, 0.2391444742679596], [-0.5869583487510681, -0.17308400571346283, -0.18580885231494904, -0.13668814301490784, 22.818744659423828], [8.320704460144043, -1.93373703956604, -2.0137674808502197, -1.9571382999420166, 4.112806797027588], [0.023993514478206635, -0.03845002129673958, 0.049190256744623184, 0.04216943681240082, 0.34430527687072754], [0.21103651821613312, 0.3419002592563629, 0.35406985878944397, 0.2187197059392929, -37.91049575805664], [0.05235674977302551, -0.08351222425699234, -0.10026872158050537, -0.15972758829593658, 38.771854400634766], [-0.13826344907283783, -0.05308536812663078, -0.0606827437877655, -0.04098445549607277, 0.15084969997406006], [0.3860672116279602, 0.5625187158584595, 0.72652268409729, 0.6962902545928955, 0.7630720138549805], [-2.1631481647491455, -0.8240045309066772, -1.0337612628936768, -1.0384392738342285, -0.6118049621582031], [1.2581671476364136, 1.1176745891571045, 1.5578742027282715, 1.3391352891921997, 20.097881317138672], [0.7449002861976624, 0.8162976503372192, 1.0484488010406494, 1.146990418434143, 0.4986982047557831], [-2.360481023788452, -2.202526569366455, -1.825154185295105, -1.981544852256775, -33.89825439453125], [0.6997928023338318, 0.3951095938682556, 0.6323243379592896, 0.989993155002594, 30.435436248779297], [1.12776517868042, 1.2415809631347656, 1.527471899986267, 1.3804991245269775, 12.514703750610352], [0.7074965834617615, 0.5344685316085815, 0.693040132522583, 0.5345678329467773, 1.211477518081665], [0.15061701834201813, 0.07019577920436859, 0.27832233905792236, 0.1875673234462738, -2.0336031913757324], [-1.1828835010528564, -1.206050157546997, -1.244728446006775, -1.3728766441345215, -0.29481539130210876], [-7.942430019378662, -2.5351858139038086, -2.554943323135376, -2.5844497680664062, 0.3531811535358429], [-3.786275863647461, -1.8260549306869507, -1.840815782546997, -1.8644975423812866, 10.84493350982666], [-1.0624637603759766, -0.9788951277732849, -1.1282204389572144, -0.7076053619384766, 3.6308400630950928], [-0.30298930406570435, -0.13000452518463135, -0.3249785006046295, -0.15055827796459198, 2.525775671005249], [0.03750307112932205, -0.5074080228805542, -0.4307502508163452, -0.46242982149124146, -0.627878725528717], [-43.67402648925781, -21.503171920776367, -21.405227661132812, -21.296335220336914, -10.746463775634766], [-20.257259368896484, -6.4623122215271, -5.300405025482178, -5.370156764984131, -49.568031311035156], [-8.267790794372559, -3.8605329990386963, -3.932426691055298, -3.850083827972412, -7.9383864402771], [-4.087555885314941, -2.275002956390381, -2.2668049335479736, -2.3805651664733887, -1.220637321472168], [-1.7397218942642212, -1.6504383087158203, -1.779018759727478, -1.5874736309051514, -0.29616791009902954], [-7.7059221267700195, -1.8278460502624512, -1.8053325414657593, -1.9770585298538208, -0.5817287564277649], [-1.5543502569198608, -1.473668098449707, -1.318361759185791, -1.508148193359375, -6.304494857788086], [-1.1947392225265503, -1.3732619285583496, -1.3923791646957397, -0.9727596044540405, 0.7795548439025879], [-1.9805643558502197, -1.516855001449585, -1.4775310754776, -1.5245332717895508, -7.540281295776367], [-2.3924190998077393, -0.8670752644538879, -0.9711385369300842, -0.975692629814148, -1.3634933233261108], [-0.4388996660709381, -0.18153442442417145, 0.15679748356342316, 0.19251418113708496, -1.8058420419692993], [0.14937566220760345, 0.2880043685436249, 0.24510027468204498, 0.2470916211605072, 0.3459903299808502], [-4.665825366973877, -3.9253926277160645, -4.520938396453857, -4.300870895385742, -18.132970809936523], [-3.485222339630127, -2.8484208583831787, -2.838021993637085, -2.5388762950897217, -0.23226110637187958], [-1.1168696880340576, -1.4142147302627563, -0.3010721206665039, -0.13485446572303772, 0.010639245621860027], [-0.5763330459594727, -0.10611870139837265, 0.38814759254455566, 0.3984963595867157, -0.869904637336731], [-4.342741012573242, -4.214276313781738, -4.144759178161621, -4.310750961303711, 6.335120677947998], [-1.8177831172943115, -1.9620108604431152, -1.9652341604232788, -1.7942242622375488, -0.6028541326522827], [2.240232467651367, -0.6072484254837036, -0.26654669642448425, -0.23523201048374176, -0.08801162987947464], [0.2786741554737091, -0.08522957563400269, -0.33790767192840576, -0.16522595286369324, -1.8613872528076172]], [-0.09636561572551727, -0.0756412148475647, -0.1826610416173935, -0.16283825039863586, -0.10006456822156906], [[0.6036455035209656], [0.9838132858276367], [2.570892810821533], [1.2894741296768188], [0.6030120253562927]], [0.10447441786527634]], "etBin": [15.0, 20.0], "etaBin": [0.8, 1.37]}, {"sequence": "{\"class_name\": \"Sequential\", \"config\": {\"name\": \"sequential_77\", \"layers\": [{\"class_name\": \"Dense\", \"config\": {\"name\": \"dense_154\", \"trainable\": true, \"batch_input_shape\": [null, 100], \"dtype\": \"float32\", \"units\": 5, \"activation\": \"tanh\", \"use_bias\": true, \"kernel_initializer\": {\"class_name\": \"GlorotUniform\", \"config\": {\"seed\": null}}, \"bias_initializer\": {\"class_name\": \"Zeros\", \"config\": {}}, \"kernel_regularizer\": null, \"bias_regularizer\": null, \"activity_regularizer\": null, \"kernel_constraint\": null, \"bias_constraint\": null}}, {\"class_name\": \"Dense\", \"config\": {\"name\": \"dense_155\", \"trainable\": true, \"dtype\": \"float32\", \"units\": 1, \"activation\": \"linear\", \"use_bias\": true, \"kernel_initializer\": {\"class_name\": \"GlorotUniform\", \"config\": {\"seed\": null}}, \"bias_initializer\": {\"class_name\": \"Zeros\", \"config\": {}}, \"kernel_regularizer\": null, \"bias_regularizer\": null, \"activity_regularizer\": null, \"kernel_constraint\": null, \"bias_constraint\": null}}, {\"class_name\": \"Activation\", \"config\": {\"name\": \"activation_77\", \"trainable\": true, \"dtype\": \"float32\", \"activation\": \"tanh\"}}]}, \"keras_version\": \"2.2.4-tf\", \"backend\": \"tensorflow\"}", "weights": [[[0.09603467583656311, 2.1050350666046143, -1.4631376266479492, 1.9418023824691772, 2.017578601837158], [0.9117727875709534, 1.269978642463684, 0.05149839073419571, 1.3768608570098877, 1.1659051179885864], [-1.921378493309021, -1.5254043340682983, -0.41883495450019836, -1.3272076845169067, -1.402213454246521], [0.14603164792060852, -0.8303410410881042, -0.3416491448879242, -0.8016679883003235, -0.8587358593940735], [-0.08866164088249207, -0.35142049193382263, -1.7328343391418457, -0.43514689803123474, -0.5199818015098572], [-0.14807379245758057, 0.16039665043354034, -6.4626383781433105, 0.0026679825969040394, 0.13538073003292084], [-1.4489644765853882, 0.39885053038597107, 0.18436194956302643, 0.37113165855407715, 0.31383323669433594], [-0.9976088404655457, -0.05362150818109512, 0.0826699361205101, -0.1921020746231079, -0.08262364566326141], [-0.02870224043726921, 1.4509035348892212, 0.3889625072479248, 1.3939756155014038, 1.4264260530471802], [0.17227298021316528, 2.6021289825439453, 0.4497626721858978, 2.753350019454956, 2.7418081760406494], [-3.2564797401428223, 1.6039669513702393, -3.632977247238159, 1.7200592756271362, 1.7117655277252197], [11.590605735778809, -0.2078021764755249, -29.29693031311035, -0.38110846281051636, -0.20807063579559326], [0.4105282425880432, 0.2208126336336136, -1.3612823486328125, 0.1285758763551712, 0.33514687418937683], [0.17757855355739594, 3.026291847229004, 0.6729499101638794, 2.7229185104370117, 2.9410221576690674], [9.492087364196777, 2.1709442138671875, 0.20914116501808167, 1.999232292175293, 2.356825113296509], [14.584136009216309, -0.40983131527900696, -0.7813277840614319, 0.015463588759303093, -0.05946332588791847], [11.549692153930664, -1.6502796411514282, -21.359865188598633, -1.5681053400039673, -1.6203988790512085], [11.132596969604492, -1.0297962427139282, -0.14890244603157043, -0.9586646556854248, -1.1080448627471924], [0.2904290556907654, -1.3642661571502686, -0.2254381626844406, -0.5768437385559082, -1.4364006519317627], [22.943572998046875, -5.879562854766846, -0.5988277792930603, -3.102086067199707, -3.161083698272705], [35.410057067871094, -3.947422742843628, -0.7956438660621643, -6.276493072509766, -4.03882360458374], [34.58537292480469, -5.271425247192383, -2.487597703933716, -5.194997310638428, -5.329014301300049], [4.842475891113281, -3.159015655517578, -2.4339473247528076, -3.0749456882476807, -3.2649552822113037], [-0.08341657370328903, -2.699699878692627, -0.4373818337917328, -2.702392578125, -2.564121961593628], [13.050066947937012, -4.589234828948975, -1.089357852935791, -4.577098846435547, -4.646678447723389], [-0.046896785497665405, -2.977661609649658, -34.88386917114258, -3.190833568572998, -3.0401418209075928], [11.586671829223633, -4.738920211791992, -0.7377369999885559, -2.8762154579162598, -4.7665886878967285], [15.178170204162598, -2.3035764694213867, 32.23395919799805, -2.1960904598236084, -2.2336642742156982], [-0.03684769570827484, -5.896477222442627, 120.45357513427734, -5.821002960205078, -5.729161262512207], [-0.06294473260641098, -2.8130719661712646, -0.48141351342201233, -2.666757106781006, -2.830094814300537], [-0.25065910816192627, -1.7365078926086426, -13.973706245422363, -1.5879085063934326, -1.6730806827545166], [-25.131980895996094, -1.9833385944366455, -23.195043563842773, -2.069317579269409, -1.9706305265426636], [-0.3071584403514862, -1.863857388496399, -0.41995981335639954, -1.7117888927459717, -1.7354620695114136], [-0.10215350240468979, -1.529590368270874, -0.3663978576660156, -1.4369587898254395, -1.6089437007904053], [-0.05157105624675751, -0.9270142316818237, -14.445566177368164, -0.9860197305679321, -0.9523605704307556], [-0.13262024521827698, -1.5184528827667236, -0.21661873161792755, -1.691704273223877, -1.5490410327911377], [2.800175666809082, -1.005329966545105, 138.0476531982422, -1.0710422992706299, -0.8601995706558228], [2.839285135269165, -0.7803561687469482, -21.680278778076172, -0.6254869699478149, -0.6412450075149536], [-0.10664057731628418, -1.9721671342849731, -23.583463668823242, -2.0422744750976562, -2.041402578353882], [-0.09567441046237946, -1.7152628898620605, -3.142397880554199, -1.8366281986236572, -1.844105839729309], [-0.04800991341471672, -1.24502432346344, -0.13734686374664307, -1.1805535554885864, -1.2157291173934937], [-0.14737656712532043, -1.0650014877319336, -0.46329936385154724, -1.2100820541381836, -1.225378394126892], [-0.16665033996105194, -1.1615025997161865, -0.17766517400741577, -1.2140724658966064, -1.3002806901931763], [-0.09626626968383789, 0.93002849817276, 0.10900507122278214, 0.9103784561157227, 0.8240495920181274], [23.907655715942383, -1.0174472332000732, -0.13182194530963898, -1.0350086688995361, -1.0151948928833008], [-0.13767465949058533, -1.9364789724349976, -0.3413833677768707, -1.9192698001861572, -1.9427257776260376], [-0.05170760303735733, -0.05432291701436043, 0.027739200741052628, -0.02528778836131096, 0.056888874620199203], [28.433792114257812, 0.34827131032943726, -15.658063888549805, 0.1712578535079956, 0.3582780361175537], [-0.13774563372135162, 0.17668390274047852, -0.0934142917394638, 0.02336726523935795, 0.10180006921291351], [0.13143061101436615, 1.0528843402862549, -0.07601583749055862, 0.9455189108848572, 1.1006780862808228], [-0.22450482845306396, -1.5990899801254272, -0.7422405481338501, -1.7771577835083008, -1.6570268869400024], [-0.16849781572818756, -0.7551299929618835, -0.17949239909648895, -0.8105043768882751, -0.6719025373458862], [-0.019596459344029427, -0.07050061970949173, -0.10754157602787018, -0.09880904108285904, -0.07098694145679474], [-0.07067757099866867, -1.1431999206542969, -0.3219040632247925, -1.2400578260421753, -1.0586929321289062], [-3.272616386413574, 0.644828200340271, 0.07542503625154495, 0.5885393619537354, 0.6140595078468323], [-0.15281780064105988, -0.7899121642112732, -0.1351703554391861, -0.7863702178001404, -0.8238615393638611], [-0.11097804456949234, -0.9562308192253113, -0.223618283867836, -1.0200574398040771, -0.9438520669937134], [-0.6979039311408997, -0.5124855041503906, 0.02705155685544014, -0.22979511320590973, -0.586416482925415], [-44.60335922241211, 2.931232452392578, 2.6734321117401123, 2.787996768951416, 2.9432008266448975], [-0.5643541216850281, 0.6932693719863892, 0.5007202625274658, 0.7092211246490479, 0.6236188411712646], [-2.881418228149414, 0.8025799989700317, 0.051701322197914124, 0.9290152192115784, 0.7271633744239807], [0.007022899575531483, -1.2210791110992432, -0.2566310167312622, -1.4396212100982666, -1.3951880931854248], [-0.11639861017465591, -2.7553224563598633, -0.598249077796936, -2.583730459213257, -2.562920331954956], [-0.08865376561880112, -2.0535614490509033, -0.38588494062423706, -2.0165841579437256, -1.9909335374832153], [-15.645177841186523, -0.7323126792907715, -0.05201932042837143, -0.615439772605896, -0.7362722158432007], [0.0779757872223854, 0.9393183588981628, 0.07375670969486237, 1.0491654872894287, 0.853412926197052], [-0.1733797788619995, -0.6656277775764465, -0.10763317346572876, -0.560285747051239, -0.6432400345802307], [0.16656847298145294, 1.700119972229004, 0.30034956336021423, 0.9617339968681335, 1.5917900800704956], [0.1036410704255104, 0.6894926428794861, 0.07259639352560043, 0.7170841693878174, 0.7558143734931946], [2.1742770671844482, 0.34818950295448303, -0.006738395430147648, 0.14180506765842438, 0.3109866678714752], [-0.026883482933044434, -0.18921907246112823, 0.43338268995285034, -0.015540479682385921, -0.17690008878707886], [54.49800109863281, -0.4203125536441803, -0.13434983789920807, -0.5698832869529724, -0.5741926431655884], [-2.470829963684082, 0.45658349990844727, 20.362394332885742, 0.3467446565628052, 0.2493521124124527], [-0.39470863342285156, -0.13263554871082306, 0.6624676585197449, -0.2531234920024872, -0.24621066451072693], [-57.92523956298828, 0.008690090849995613, -8.265568733215332, 0.03460225462913513, 0.2528333365917206], [-6.864059925079346, -3.4544296264648438, -0.9689822196960449, -3.583603620529175, -3.4099090099334717], [-5.087032794952393, -1.9981333017349243, -0.6965609788894653, -2.4531424045562744, -1.8716681003570557], [-0.18197846412658691, -1.6509579420089722, -4.465575218200684, -1.5474954843521118, -1.5402295589447021], [0.0122225945815444, -0.8782723546028137, -0.21904757618904114, -1.200486660003662, -0.8334147334098816], [-1.1314107179641724, -0.16069063544273376, -0.1553398221731186, -1.0201865434646606, -0.11851100623607635], [159.41134643554688, -30.029212951660156, -4.088397026062012, -30.03098487854004, -30.120197296142578], [-0.18149559199810028, -9.49215316772461, -2.8158416748046875, -9.493145942687988, -9.496234893798828], [11.754522323608398, -2.696835994720459, -0.5947790145874023, -2.7671587467193604, -2.821187734603882], [-0.005708178039640188, -1.2537957429885864, -0.26391512155532837, -1.2859790325164795, -1.0346641540527344], [-0.19136734306812286, -0.6465340852737427, -0.278209388256073, -0.7426260113716125, -0.834261953830719], [-0.12075222283601761, -0.17641901969909668, -0.9641100168228149, -0.06141231581568718, -0.08199892938137054], [33.34440231323242, -0.7748257517814636, -3.2838363647460938, -0.8048520684242249, -0.6939459443092346], [0.018458664417266846, 2.0794098377227783, 0.35496342182159424, 2.1636083126068115, 2.1535303592681885], [5.516876220703125, -0.562424898147583, 4.519092559814453, 0.07197399437427521, 0.012810684740543365], [4.201689720153809, -0.9431921243667603, -0.21244965493679047, -0.8852633237838745, -0.860071063041687], [-0.18113580346107483, -0.5268892645835876, -0.18819202482700348, 0.42228806018829346, -0.5128744840621948], [0.7829508781433105, 0.15080507099628448, 0.010499177500605583, 0.12988324463367462, 0.12115763872861862], [2.7607014179229736, -6.896697998046875, 3.844121217727661, -6.792655944824219, -6.738202095031738], [-0.014434224925935268, -1.691698431968689, -0.37584879994392395, -1.6598703861236572, -1.7349176406860352], [-0.109535813331604, -0.8114877343177795, -0.2588825225830078, -0.796229898929596, -0.788268506526947], [-0.10040546208620071, -0.14828290045261383, 0.47289615869522095, -0.16903118789196014, -0.2432483434677124], [-0.027499327436089516, -0.0882822796702385, 0.01124095730483532, 0.05625428259372711, 0.035695888102054596], [-0.010870290920138359, -0.0034887921065092087, 0.06643103063106537, 0.11890121549367905, 0.051782362163066864], [-0.16141127049922943, -1.0825031995773315, 26.628740310668945, -1.0520612001419067, -1.0362859964370728], [-0.14609932899475098, -1.494875192642212, -0.240326926112175, -1.5643551349639893, -1.554075002670288]], [-0.15778766572475433, -0.016182076185941696, 0.10047096759080887, -0.06122336909174919, 0.0362367257475853], [[0.6477857828140259], [1.5649912357330322], [0.45107099413871765], [2.885432720184326], [1.0145986080169678]], [0.06864893436431885]], "etBin": [15.0, 20.0], "etaBin": [1.37, 1.54]}, {"sequence": "{\"class_name\": \"Sequential\", \"config\": {\"name\": \"sequential_78\", \"layers\": [{\"class_name\": \"Dense\", \"config\": {\"name\": \"dense_156\", \"trainable\": true, \"batch_input_shape\": [null, 100], \"dtype\": \"float32\", \"units\": 5, \"activation\": \"tanh\", \"use_bias\": true, \"kernel_initializer\": {\"class_name\": \"GlorotUniform\", \"config\": {\"seed\": null}}, \"bias_initializer\": {\"class_name\": \"Zeros\", \"config\": {}}, \"kernel_regularizer\": null, \"bias_regularizer\": null, \"activity_regularizer\": null, \"kernel_constraint\": null, \"bias_constraint\": null}}, {\"class_name\": \"Dense\", \"config\": {\"name\": \"dense_157\", \"trainable\": true, \"dtype\": \"float32\", \"units\": 1, \"activation\": \"linear\", \"use_bias\": true, \"kernel_initializer\": {\"class_name\": \"GlorotUniform\", \"config\": {\"seed\": null}}, \"bias_initializer\": {\"class_name\": \"Zeros\", \"config\": {}}, \"kernel_regularizer\": null, \"bias_regularizer\": null, \"activity_regularizer\": null, \"kernel_constraint\": null, \"bias_constraint\": null}}, {\"class_name\": \"Activation\", \"config\": {\"name\": \"activation_78\", \"trainable\": true, \"dtype\": \"float32\", \"activation\": \"tanh\"}}]}, \"keras_version\": \"2.2.4-tf\", \"backend\": \"tensorflow\"}", "weights": [[[-2.209080934524536, -28.134437561035156, -5.121657371520996, 1.5245460271835327, -0.9271659255027771], [-1.8661125898361206, -9.257946968078613, -0.8899295926094055, 1.9062784910202026, 1.5977271795272827], [0.10575898736715317, -5.73159122467041, -2.741060495376587, -0.12223872542381287, -3.311906576156616], [-0.36293360590934753, 1.7544634342193604, 1.1064718961715698, -0.19821196794509888, -0.9195055365562439], [-0.11099456995725632, -0.9968482255935669, 0.3276994228363037, 0.22178557515144348, -6.860672473907471], [0.06501621752977371, -4.98309850692749, 0.34863147139549255, 0.11496741324663162, -0.10004226118326187], [-0.18436066806316376, -0.041414692997932434, -0.17501342296600342, 0.19643203914165497, 0.18518461287021637], [0.3744768798351288, 2.3974719047546387, -0.2745341956615448, -0.23862013220787048, -0.20047761499881744], [-1.4987974166870117, 1.5415973663330078, 0.22652387619018555, 2.124589443206787, 2.3799917697906494], [-2.180152416229248, 0.4917646050453186, 0.9917749166488647, 2.742457628250122, 5.714585781097412], [-1.249889850616455, 2.583256244659424, 4.401042461395264, 1.0605727434158325, 1.0489557981491089], [1.693506121635437, -7.836716175079346, 1.6326522827148438, -0.7691463828086853, -9.370028495788574], [3.2304816246032715, -0.8760271072387695, -118.54838562011719, -3.0290324687957764, -53.14518356323242], [7.048654556274414, -19.776517868041992, -49.05478286743164, -7.022294998168945, -11.699185371398926], [6.0918192863464355, -3.1279454231262207, -12.124628067016602, -6.487656593322754, 3.06992506980896], [5.137998104095459, -2.4051525592803955, 38.73607635498047, -1.8272706270217896, 68.33219909667969], [5.194883346557617, -2.7601592540740967, 72.0157470703125, -4.6143717765808105, 246.347412109375], [5.662766456604004, -8.07910442352295, 6.114870548248291, -2.112306594848633, 72.81779479980469], [5.302285194396973, -3.8410849571228027, 14.010862350463867, -5.150583744049072, 49.104068756103516], [1.4886366128921509, -3.2205090522766113, 14.534001350402832, -1.6636496782302856, -0.7225890159606934], [0.8204998970031738, -0.6091618537902832, 12.710015296936035, -1.8659950494766235, -7.992269992828369], [3.7297918796539307, -3.7437872886657715, 4.495746612548828, -2.3153727054595947, -3.402164936065674], [2.808640956878662, -2.486168384552002, -5.535948753356934, -2.883474588394165, 1.4006366729736328], [3.129420518875122, 1.2481483221054077, 2.9546101093292236, -3.1667063236236572, -3.1007890701293945], [0.06084631010890007, 0.13889098167419434, -0.05252061039209366, -1.1165764331817627, -0.9818919897079468], [1.2135320901870728, -2.5352463722229004, -0.5447415709495544, -2.863600492477417, -7.7134108543396], [1.2462975978851318, -0.99354487657547, 4.51295280456543, -1.969030499458313, -0.875562310218811], [1.2654286623001099, 6.33691930770874, 2.1152091026306152, -1.2016047239303589, -8.368751525878906], [0.6942781805992126, -0.5433313250541687, 7.24507474899292, -0.8015823364257812, -1.6469539403915405], [1.9801043272018433, 3.3620445728302, 2.6846296787261963, -0.9514583945274353, -1.9562017917633057], [0.26724955439567566, 2.377578020095825, 14.463717460632324, -0.8346018195152283, 0.04736236855387688], [2.2488160133361816, -2.5736799240112305, 1.5430256128311157, -2.2869954109191895, -2.3436546325683594], [0.8625696897506714, -0.6818370223045349, -8.82414722442627, -1.496320128440857, -0.9608692526817322], [2.0787320137023926, 2.7812929153442383, -11.463759422302246, -1.964686393737793, -1.9085978269577026], [0.8820441961288452, 0.1586267352104187, 5.030544757843018, -1.5150104761123657, -1.1749122142791748], [1.1320408582687378, 2.3792941570281982, 1.3481957912445068, -0.8855571150779724, -1.364667534828186], [-0.05087408050894737, 0.3315555155277252, -0.1050158441066742, -0.29541659355163574, -1.1891281604766846], [1.0046567916870117, 6.5109357833862305, 4.087276458740234, -0.9585825800895691, -1.0482418537139893], [1.6331425905227661, -0.06231367588043213, 0.6435476541519165, -1.595827341079712, -1.6362742185592651], [-0.06052011251449585, 0.15155987441539764, -5.718383312225342, 0.01055142842233181, -0.0023245110642164946], [0.9431859850883484, -0.7851009368896484, -0.3157762885093689, -0.9081408977508545, -0.9563456177711487], [1.1652873754501343, 12.21729850769043, 5.8913798332214355, -0.9565140604972839, -0.604326069355011], [0.6860543489456177, 0.6962207555770874, 0.5496976375579834, -0.5719553828239441, -1.506347894668579], [0.3814624547958374, 0.3746323883533478, -0.013185922987759113, -0.36779072880744934, -0.06472132354974747], [0.342293381690979, 0.23787523806095123, -10.151481628417969, -0.5202644467353821, -2.8655478954315186], [0.7882453799247742, -0.34393492341041565, 1.0475103855133057, -0.6618263721466064, 16.766616821289062], [0.7461629509925842, 0.5765438079833984, -0.2332603484392166, -0.67442387342453, 3.0023162364959717], [1.2379121780395508, -1.1931681632995605, -6.254002571105957, -1.0427730083465576, 8.604589462280273], [0.43274176120758057, -0.20267127454280853, 0.17054805159568787, -0.9801384210586548, -0.9005728960037231], [0.40266677737236023, -0.3084867596626282, -1.6813424825668335, -0.8020215630531311, -0.5344355702400208], [0.76747727394104, -0.5484524369239807, -7.4319891929626465, -0.6012969613075256, -0.7094848155975342], [0.14350368082523346, 6.920414447784424, 11.20029067993164, -0.10199371725320816, -0.0033106193877756596], [0.07453332096338272, -0.7845299243927002, -0.1517540067434311, -0.11330050230026245, -0.24269799888134003], [0.5202195644378662, 0.6834250092506409, 0.4977557063102722, -0.6263175010681152, -0.6094167828559875], [0.30047085881233215, -0.36020827293395996, 0.2264215052127838, -0.2912636399269104, -0.44524502754211426], [0.44579511880874634, -4.233626365661621, 0.43372663855552673, -0.5468139052391052, 0.3409937918186188], [0.08165334165096283, -0.3189924955368042, 0.14734414219856262, -0.21818700432777405, -0.16787278652191162], [0.3591732978820801, -1.4994391202926636, 2.541943073272705, -0.5171229839324951, 31.510860443115234], [0.7860697507858276, -0.7355421781539917, 1.7463165521621704, -0.8221158385276794, -5.4732794761657715], [-0.01367576140910387, 0.652431070804596, 0.09605714678764343, -0.1783951222896576, 2.7305986881256104], [0.02520272508263588, 0.7927398085594177, -0.013783011585474014, 0.04199692979454994, 4.30090856552124], [0.6314786672592163, 0.4887996315956116, -0.2315727174282074, -0.5527418255805969, -0.559542715549469], [0.6521521806716919, -0.5919811725616455, -10.563352584838867, -0.7578698992729187, -0.15769043564796448], [0.7790639400482178, -2.1349990367889404, -13.322047233581543, -0.7699552774429321, -0.7449015974998474], [-0.18258847296237946, 0.16631008684635162, 0.5809938907623291, 0.13706937432289124, 0.23674701154232025], [0.5211437344551086, -0.3541226387023926, -1.7829560041427612, -0.43487241864204407, 12.495309829711914], [0.5708897709846497, -0.3342849612236023, -9.238387107849121, -0.6168016195297241, -0.368134081363678], [-0.007677513174712658, 4.127095699310303, 0.9235545992851257, 0.9753245115280151, 1.059889316558838], [0.5432956218719482, -0.559066891670227, 0.7773298025131226, -0.6875438094139099, -0.18134978413581848], [0.6626169085502625, -1.5515674352645874, 0.8951448202133179, -0.6777927279472351, -0.45411959290504456], [-0.3601938486099243, 0.4052119851112366, -1.3326467275619507, 0.22828015685081482, -4.187824726104736], [-0.2510404884815216, -4.673802852630615, -1.2682541608810425, 0.39745113253593445, 24.455846786499023], [-0.29813894629478455, 0.7851148247718811, 0.1464267373085022, 0.38474491238594055, 0.8439496755599976], [-0.18746961653232574, 0.5189892053604126, -0.5702816247940063, 0.19376598298549652, 0.16059595346450806], [1.7438455820083618, -2.973048448562622, -1.409159779548645, -1.3275543451309204, 0.4941968619823456], [2.1421051025390625, -3.6325032711029053, 1.9129012823104858, -1.9419735670089722, 3.6191039085388184], [1.2110438346862793, -1.0691224336624146, 0.7593849301338196, -1.0902478694915771, -0.7798877358436584], [0.643251895904541, -0.483033150434494, -0.9590998888015747, -0.5677292943000793, -0.6391243934631348], [0.3684905767440796, -0.27100521326065063, -1.2674015760421753, -0.34462976455688477, -0.299110472202301], [0.23511046171188354, -0.13297294080257416, -5.0165114402771, -0.4003167152404785, -1.0236655473709106], [8.860637664794922, 6.6772565841674805, 30.668376922607422, -8.670975685119629, -14.09826374053955], [1.977159023284912, 6.6350321769714355, 31.173643112182617, -3.8721184730529785, -6.164892196655273], [2.669574022293091, 1.9462882280349731, 12.066558837890625, -2.6926143169403076, -2.636169195175171], [1.3663376569747925, -0.5132873058319092, 1.6830826997756958, -1.3146064281463623, -1.2651489973068237], [0.6755032539367676, -0.5662651658058167, -4.0431342124938965, -0.7835116386413574, -0.7319995164871216], [0.6101281642913818, 0.1485559344291687, 5.273824214935303, -0.7121103405952454, -0.08397466689348221], [0.07156453281641006, 2.079627513885498, -5.95578670501709, -0.2909857928752899, 0.043129146099090576], [0.5237073302268982, 2.366132974624634, 0.04416043311357498, -0.6788145899772644, 0.5025159120559692], [0.201612189412117, -13.884077072143555, 3.45845103263855, -0.13602988421916962, -3.0818846225738525], [0.5197508335113525, -4.131192684173584, 2.1357219219207764, -0.5837810635566711, -1.5498298406600952], [0.08978354930877686, -1.6257883310317993, -0.5604598522186279, -0.11492042243480682, 0.8621265888214111], [-0.12263114005327225, -13.560592651367188, -2.94928240776062, 0.17145422101020813, -0.12993040680885315], [0.9946503043174744, 1.0772625207901, 12.507678031921387, -0.6053507328033447, -6.92503023147583], [0.5342898964881897, -0.30596181750297546, 2.400113582611084, -0.4792015552520752, -0.784637987613678], [-0.12950105965137482, 0.026860442012548447, -0.6723882555961609, -0.3056982755661011, 0.7463541030883789], [-0.016285007819533348, -49.539878845214844, 0.1308591663837433, -0.026457427069544792, -0.2826869785785675], [0.4928443729877472, -1.3694320917129517, -8.50953197479248, -0.4630275070667267, -0.3559126555919647], [0.06076747551560402, -0.39779093861579895, -1.970526099205017, -0.04350385442376137, -1.2825862169265747], [-0.018010107800364494, -0.05027429014444351, -0.4859488606452942, -0.11992058902978897, 1.2513316869735718], [-2.0115349292755127, 2.6642162799835205, -2.495204448699951, 0.8512769341468811, 1.5366326570510864]], [0.04022616147994995, -0.16984473168849945, 0.1999996453523636, -0.037826087325811386, -0.11793554574251175], [[-1.716603398323059], [1.5990142822265625], [-1.4091649055480957], [5.895449161529541], [0.8505294322967529]], [0.2842407524585724]], "etBin": [15.0, 20.0], "etaBin": [1.54, 2.37]}, {"sequence": "{\"class_name\": \"Sequential\", \"config\": {\"name\": \"sequential_79\", \"layers\": [{\"class_name\": \"Dense\", \"config\": {\"name\": \"dense_158\", \"trainable\": true, \"batch_input_shape\": [null, 100], \"dtype\": \"float32\", \"units\": 5, \"activation\": \"tanh\", \"use_bias\": true, \"kernel_initializer\": {\"class_name\": \"GlorotUniform\", \"config\": {\"seed\": null}}, \"bias_initializer\": {\"class_name\": \"Zeros\", \"config\": {}}, \"kernel_regularizer\": null, \"bias_regularizer\": null, \"activity_regularizer\": null, \"kernel_constraint\": null, \"bias_constraint\": null}}, {\"class_name\": \"Dense\", \"config\": {\"name\": \"dense_159\", \"trainable\": true, \"dtype\": \"float32\", \"units\": 1, \"activation\": \"linear\", \"use_bias\": true, \"kernel_initializer\": {\"class_name\": \"GlorotUniform\", \"config\": {\"seed\": null}}, \"bias_initializer\": {\"class_name\": \"Zeros\", \"config\": {}}, \"kernel_regularizer\": null, \"bias_regularizer\": null, \"activity_regularizer\": null, \"kernel_constraint\": null, \"bias_constraint\": null}}, {\"class_name\": \"Activation\", \"config\": {\"name\": \"activation_79\", \"trainable\": true, \"dtype\": \"float32\", \"activation\": \"tanh\"}}]}, \"keras_version\": \"2.2.4-tf\", \"backend\": \"tensorflow\"}", "weights": [[[-0.0785766988992691, -0.004809669218957424, 0.09566149860620499, 0.09123396873474121, -0.049676962196826935], [0.043763574212789536, 0.05539682134985924, 0.11963824182748795, -0.08241856098175049, -0.01807956025004387], [0.0924677848815918, -0.006493657827377319, -0.006096376106142998, -0.10028889030218124, 0.09830080717802048], [0.05328816547989845, 0.10790461301803589, 0.04246651753783226, 0.06762367486953735, -0.06978567689657211], [0.008849695324897766, -0.07232394069433212, -0.08578331768512726, -0.10125412046909332, 0.10413283109664917], [0.08213102072477341, 0.08978309482336044, 0.03427228331565857, 0.0031684250570833683, 0.04801014065742493], [-0.0255954060703516, 0.003960226196795702, 0.02471091039478779, 0.05015190318226814, 0.07177703082561493], [0.006115092895925045, 0.012964336201548576, -0.07578685134649277, 0.06985007971525192, 0.018977949395775795], [2.8952436447143555, 3.050455093383789, 0.8283653855323792, -3.009359121322632, 2.8777334690093994], [2.208988666534424, 1.9935145378112793, 2.017003297805786, -2.124530792236328, 2.0153939723968506], [2.6848649978637695, 2.5097270011901855, 2.8811135292053223, -2.620966672897339, 2.6658382415771484], [-41.086814880371094, -41.1319465637207, -193.0391082763672, 41.211021423339844, -41.094058990478516], [-0.18216685950756073, 0.01194156426936388, -0.06829661875963211, -0.011011731810867786, -0.028366312384605408], [1.2678390741348267, 1.2854517698287964, 1.985849380493164, -1.3391119241714478, 1.37140953540802], [-6.592262268066406, -6.700520038604736, -10.592021942138672, 6.713378429412842, -6.766102313995361], [-2.2260642051696777, -2.099698543548584, -6.389087677001953, 2.0674519538879395, -2.2230396270751953], [-0.1928124725818634, -0.04563320055603981, -0.3707441985607147, 0.22407777607440948, -0.18754343688488007], [-6.858237266540527, -6.860706329345703, -0.517113447189331, 6.92943000793457, -6.991912841796875], [-5.598523139953613, -5.46837043762207, -0.8356689810752869, 5.490788459777832, -5.49852180480957], [-1.8569817543029785, -1.855654239654541, 1.582535743713379, 1.9597663879394531, -1.8012871742248535], [-5.438999652862549, -5.245129108428955, 0.1709747165441513, 5.231349468231201, -5.433554649353027], [-5.943510055541992, -5.960970878601074, -0.8531785011291504, 5.774145603179932, -5.9447526931762695], [-3.831850290298462, -3.974212884902954, 0.06233850494027138, 3.805044412612915, -3.9601356983184814], [-5.640620231628418, -5.508179187774658, -0.29878202080726624, 5.488937854766846, -5.522504806518555], [-3.6958444118499756, -4.681430816650391, -0.590346097946167, 3.6203739643096924, -3.75830340385437], [-3.944852352142334, -3.846374273300171, -0.39017152786254883, 3.8910272121429443, -3.8759310245513916], [-1.249031901359558, -1.3871275186538696, -0.25736886262893677, 1.2461353540420532, -1.3018962144851685], [-2.3188371658325195, -2.165093183517456, -0.34005045890808105, 2.298139810562134, -2.141132354736328], [-3.908449649810791, -3.94712495803833, -0.664192795753479, 3.801929235458374, -3.7485551834106445], [-1.786807656288147, -1.6591774225234985, -0.12904423475265503, 1.819743275642395, -1.7280088663101196], [-0.13113190233707428, -0.2804671823978424, 0.09945576637983322, 0.09239233285188675, -0.1186901405453682], [0.00010539314826019108, 0.0161996241658926, 2.1907453536987305, -0.08624786883592606, -0.07093608379364014], [-1.5203055143356323, -1.4850889444351196, 3.851452589035034, 1.5157819986343384, -1.5302220582962036], [-1.3659777641296387, -1.3713899850845337, -0.1023033931851387, 1.3206154108047485, -1.3545751571655273], [2.1325936317443848, 2.222301959991455, 0.3546416461467743, -2.1055455207824707, 2.1983144283294678], [-0.09192569553852081, -0.03383566811680794, -0.1012759730219841, 0.2491598278284073, 0.0003132352139800787], [-0.49108922481536865, -0.4787696599960327, 0.06188920512795448, 0.5322198271751404, -0.5206796526908875], [3.7606899738311768, 3.6370675563812256, 0.8342963457107544, -3.7102839946746826, 3.6639468669891357], [-0.30023497343063354, -0.22521838545799255, 0.20957092940807343, 0.27927225828170776, -0.20200546085834503], [-0.134469673037529, -0.20982523262500763, -0.04525835067033768, 0.06028875708580017, -0.17469830811023712], [-0.0553702637553215, -0.15157999098300934, 0.1030210629105568, -0.06392090767621994, -0.08587171137332916], [-2.176297664642334, -2.0335328578948975, -0.42594820261001587, 1.9648032188415527, -2.1039671897888184], [-1.000083327293396, -0.877682089805603, 0.2350032925605774, 1.0513055324554443, -1.054429054260254], [2.9201629161834717, 3.007955312728882, 0.5012807846069336, -2.978421688079834, 2.783595323562622], [-1.9683104753494263, -1.818006992340088, 0.10975699871778488, 2.0813283920288086, -1.9271498918533325], [-0.7391017079353333, -0.7148800492286682, 0.5837786197662354, 0.6572802662849426, -0.7074509263038635], [-0.8540616035461426, -0.8827898502349854, -0.6930053234100342, 0.8881666660308838, -0.9775742292404175], [-1.0769468545913696, -1.0223535299301147, 0.3178417980670929, 1.078412652015686, -1.1487401723861694], [3.211992025375366, 3.243821859359741, 1.0081032514572144, -3.221421241760254, 3.3698036670684814], [-2.1144416332244873, -2.002937078475952, -0.3229838013648987, 2.042005777359009, -2.144822835922241], [0.8275430202484131, 0.8935410976409912, 0.18676625192165375, -0.9774526357650757, 0.804572343826294], [-0.08348914235830307, -0.100675068795681, -0.07903336733579636, 0.12056583911180496, 0.08663942664861679], [0.9943838119506836, 1.0783473253250122, 0.34872254729270935, -0.982021689414978, 0.969629168510437], [-0.9056926965713501, -0.9921342134475708, -0.11602015048265457, 0.9830290675163269, -1.0500764846801758], [-0.4638540744781494, -0.35867661237716675, 0.6030535697937012, 0.3480219542980194, -0.4354432225227356], [0.20623518526554108, 0.22110559046268463, -0.0899771973490715, -0.27053970098495483, 0.12589383125305176], [4.350561141967773, 4.371703147888184, 0.9653779864311218, -4.5801286697387695, 4.533961296081543], [-0.7893310189247131, -0.8323222994804382, -0.13619868457317352, 0.9247887134552002, -0.8069146275520325], [-2.82922101020813, -2.9038851261138916, -0.5678412318229675, 2.9983723163604736, -2.9916932582855225], [0.490897536277771, 0.46328628063201904, -0.04362878575921059, -0.5728288292884827, 0.5743556618690491], [-0.5774237513542175, -0.4827108383178711, 0.48201748728752136, 0.49166107177734375, -0.543080747127533], [-2.927700996398926, -2.908813953399658, -0.6181414723396301, 3.0593090057373047, -3.084604263305664], [0.3952481746673584, 0.38257384300231934, -0.4052826762199402, -0.3180829882621765, 0.41453760862350464], [-2.2383196353912354, -2.2371528148651123, -0.443322092294693, 2.146838426589966, -2.2070209980010986], [-0.9116067886352539, -0.8880520462989807, -0.05765867605805397, 0.7436901330947876, -0.7972711324691772], [0.46833616495132446, 0.3024834990501404, 0.12461452186107635, -0.3653218150138855, 0.293510377407074], [1.4917042255401611, 1.5610384941101074, 0.42931291460990906, -1.6801133155822754, 1.6083693504333496], [0.1711670160293579, 0.19696366786956787, 0.18038347363471985, -0.043793193995952606, 0.26278412342071533], [-2.9527194499969482, -2.9993083477020264, -0.1696668416261673, 2.851980209350586, -2.9644525051116943], [2.2434451580047607, 2.3777191638946533, 0.5281736254692078, -2.198657751083374, 2.1985042095184326], [-0.7182897329330444, -0.5249624252319336, -0.01187275443226099, 0.5173234939575195, -0.6737731695175171], [-0.10801798105239868, -0.26111626625061035, 0.04955994710326195, 0.14214248955249786, -0.1436048299074173], [1.1758049726486206, 1.209957480430603, 0.42360594868659973, -1.5784064531326294, 1.2100669145584106], [0.35906779766082764, 0.4319106936454773, 1.3743427991867065, -0.2546524703502655, 0.35611075162887573], [-1.3151323795318604, -1.3701363801956177, -2.699416160583496, 1.292169213294983, -1.2272268533706665], [-2.466257095336914, -2.5246903896331787, -0.5320014357566833, 2.5239145755767822, -2.5090575218200684], [-1.7226083278656006, -1.6356208324432373, -0.19208098948001862, 1.7440061569213867, -1.687042236328125], [-0.9644555449485779, -1.0381101369857788, -0.10620339959859848, 0.9767929911613464, -1.0069345235824585], [-0.6472228169441223, -0.6611402630805969, -0.03608275577425957, 0.7051506638526917, -0.7549446225166321], [-0.651450514793396, -0.7755194902420044, -0.09659171849489212, 0.6622196435928345, -0.7179087400436401], [-2.1647603511810303, -2.136991024017334, -0.32734063267707825, 2.103463649749756, -2.2307510375976562], [-2.0867319107055664, -2.2775373458862305, -0.5303093194961548, 2.2489068508148193, -2.210552453994751], [-2.1181325912475586, -2.2694649696350098, -0.3062449097633362, 2.164785146713257, -2.2742981910705566], [-2.185805559158325, -2.0645406246185303, -0.4763295650482178, 2.1386168003082275, -2.0167150497436523], [-1.3773142099380493, -1.4120069742202759, -0.16522088646888733, 1.3627763986587524, -1.3860150575637817], [-0.8366667032241821, -0.6399351358413696, -0.04760091006755829, 0.7687135934829712, -0.7045880556106567], [-0.5403996706008911, -0.6466052532196045, -0.1969248503446579, 0.682520866394043, -0.7114861011505127], [0.8129271268844604, 0.7896252274513245, 0.3073159158229828, -0.8028727769851685, 0.7281172871589661], [-2.8580262660980225, -2.9471757411956787, -0.48288780450820923, 2.9243361949920654, -3.0033671855926514], [-1.8170441389083862, -1.9878365993499756, -0.16506370902061462, 1.8741573095321655, -1.8907674551010132], [0.036872513592243195, -0.02411278709769249, 0.03783383220434189, 0.14540918171405792, 0.04239881783723831], [1.8462437391281128, 1.8618838787078857, 0.46603426337242126, -1.8645000457763672, 1.9950817823410034], [-1.6147173643112183, -1.5237363576889038, -0.16218839585781097, 1.5494391918182373, -1.5855077505111694], [-0.7111228108406067, -0.7747052311897278, -0.1812884360551834, 0.716410219669342, -0.693179190158844], [-0.24495099484920502, -0.23822468519210815, -0.09014788269996643, 0.38936275243759155, -0.32465386390686035], [4.2693657875061035, 4.141015529632568, 0.7967244982719421, -4.248561382293701, 4.153075218200684], [0.06441555172204971, 0.07786290347576141, 0.13197512924671173, 0.045092497020959854, 0.16736535727977753], [-0.08781037479639053, -0.2546323537826538, -0.17592768371105194, 0.2980043292045593, -0.31068024039268494], [0.2284417450428009, 0.36877477169036865, 0.14788718521595, -0.33440184593200684, 0.19689622521400452], [-0.5318887233734131, -0.575103759765625, -0.11700571328401566, 0.539451003074646, -0.7005040645599365]], [-0.13315312564373016, -0.15562422573566437, -0.3352842628955841, 0.133950337767601, -0.14112836122512817], [[1.1022528409957886], [1.4977521896362305], [2.4483160972595215], [-0.7152019143104553], [1.157167911529541]], [0.26528897881507874]], "etBin": [15.0, 20.0], "etaBin": [2.37, 2.5]}, {"sequence": "{\"class_name\": \"Sequential\", \"config\": {\"name\": \"sequential_80\", \"layers\": [{\"class_name\": \"Dense\", \"config\": {\"name\": \"dense_160\", \"trainable\": true, \"batch_input_shape\": [null, 100], \"dtype\": \"float32\", \"units\": 5, \"activation\": \"tanh\", \"use_bias\": true, \"kernel_initializer\": {\"class_name\": \"GlorotUniform\", \"config\": {\"seed\": null}}, \"bias_initializer\": {\"class_name\": \"Zeros\", \"config\": {}}, \"kernel_regularizer\": null, \"bias_regularizer\": null, \"activity_regularizer\": null, \"kernel_constraint\": null, \"bias_constraint\": null}}, {\"class_name\": \"Dense\", \"config\": {\"name\": \"dense_161\", \"trainable\": true, \"dtype\": \"float32\", \"units\": 1, \"activation\": \"linear\", \"use_bias\": true, \"kernel_initializer\": {\"class_name\": \"GlorotUniform\", \"config\": {\"seed\": null}}, \"bias_initializer\": {\"class_name\": \"Zeros\", \"config\": {}}, \"kernel_regularizer\": null, \"bias_regularizer\": null, \"activity_regularizer\": null, \"kernel_constraint\": null, \"bias_constraint\": null}}, {\"class_name\": \"Activation\", \"config\": {\"name\": \"activation_80\", \"trainable\": true, \"dtype\": \"float32\", \"activation\": \"tanh\"}}]}, \"keras_version\": \"2.2.4-tf\", \"backend\": \"tensorflow\"}", "weights": [[[-2.6810998916625977, 3.83884596824646, 0.9700629711151123, 2.732391119003296, 6.123457431793213], [-3.759620428085327, 0.058433402329683304, 0.6926745772361755, 3.6982362270355225, 3.60296368598938], [-0.4665718078613281, 2.684377908706665, 0.2113749086856842, 0.3946668207645416, -1.1092907190322876], [-1.4563441276550293, -0.11712386459112167, -0.015212981030344963, 1.3931139707565308, -1.372094988822937], [0.0032400970812886953, 0.056724973022937775, 0.05413496121764183, -0.00282519543543458, 0.11024033278226852], [-0.35287559032440186, 0.04640313237905502, -0.41438111662864685, 0.46597105264663696, 0.4376688003540039], [-0.8687775135040283, 0.20581844449043274, 0.10625994205474854, 0.8262643218040466, 0.5473286509513855], [-0.38179588317871094, 0.08474200963973999, 0.22306419909000397, 0.843903660774231, 0.7628776431083679], [-6.198892593383789, 1.197587013244629, -0.2628731429576874, 6.1596174240112305, 4.54252290725708], [-4.186633586883545, 1.9899235963821411, 0.7119426727294922, 4.344562530517578, 5.319762706756592], [-0.01546089444309473, 0.1154552698135376, -41.75416564941406, -0.4576064348220825, 0.10485588759183884], [16.569189071655273, -1.218409776687622, -7.960958957672119, -17.10218620300293, -2.540287494659424], [9.854466438293457, -0.38615134358406067, -9.258373260498047, -9.773083686828613, -9.676362991333008], [10.078991889953613, -2.125824451446533, -30.974599838256836, -10.033539772033691, -10.005562782287598], [7.25676965713501, -8.722594261169434, -0.6970475912094116, -7.096549034118652, -7.295090198516846], [7.805699348449707, -6.56821346282959, -0.8061886429786682, -6.397389888763428, -7.812101364135742], [6.387679100036621, -6.276533126831055, -3.3041625022888184, -6.362325191497803, -6.25675630569458], [5.44160795211792, -5.1946845054626465, -8.1360445022583, -5.313947677612305, -5.524198532104492], [5.953212261199951, -5.733544826507568, -31.97745704650879, -5.803720951080322, -5.84614896774292], [7.733526706695557, -2.7281839847564697, -0.6652199625968933, -7.95702600479126, -7.738892555236816], [5.106626033782959, -1.1957522630691528, -0.9953391551971436, -5.116299152374268, -10.662850379943848], [4.903628826141357, -0.9777224659919739, -0.37730199098587036, -4.995955944061279, -5.03408145904541], [4.959409713745117, -1.2205350399017334, -1.7331260442733765, -5.024541854858398, -8.264769554138184], [4.515092372894287, -0.8945803642272949, -0.27184274792671204, -4.432568550109863, -4.4591569900512695], [3.4171183109283447, -0.7475310564041138, -0.1275598108768463, -3.503218412399292, -3.3932247161865234], [4.294427394866943, -0.9814080595970154, -0.2898721396923065, -3.442265033721924, -4.334630966186523], [2.1772329807281494, -0.7200188040733337, -0.13297240436077118, -2.2716212272644043, -2.305992841720581], [3.3936359882354736, -0.3091832101345062, -0.3195542097091675, -3.4985740184783936, -3.417682409286499], [2.2076146602630615, -0.37239471077919006, -0.24793918430805206, -2.2087461948394775, -3.799405574798584], [2.395164966583252, -0.4831450879573822, -0.2372153252363205, -2.3391244411468506, -2.4029524326324463], [1.971272349357605, -0.5294018983840942, -18.72309684753418, -2.075726270675659, -3.2908875942230225], [2.721165418624878, -0.5465625524520874, -0.16640450060367584, -2.67799711227417, -2.659390449523926], [1.7867438793182373, -0.360043466091156, 0.04732320457696915, -1.802069067955017, -1.7647159099578857], [2.1541733741760254, -0.5985329151153564, -0.06992693990468979, -2.0841939449310303, -2.2001373767852783], [1.1565390825271606, -0.46220237016677856, -0.10119921714067459, -1.1662431955337524, -2.283918619155884], [1.7138774394989014, -0.3874230980873108, -0.11547216027975082, -1.5335807800292969, -1.58802330493927], [1.932718276977539, 0.22122125327587128, 0.18480202555656433, -1.9942033290863037, -2.205867052078247], [2.4689509868621826, -0.24894362688064575, -0.10569756478071213, -2.274707317352295, -0.780232846736908], [1.8886500597000122, -0.38367050886154175, 0.029057420790195465, -1.8371649980545044, -1.715002179145813], [0.51335209608078, 0.011265707202255726, 0.00320071610622108, -0.5390079021453857, -0.3873922526836395], [0.9989417791366577, -0.09799936413764954, 0.1827051043510437, -0.8946862816810608, -0.4624946415424347], [1.7267117500305176, -0.2188357263803482, -0.1127176582813263, -1.8490718603134155, -1.4736493825912476], [2.330887794494629, -0.43541470170021057, -0.5946441888809204, -2.3490943908691406, -1.6462931632995605], [-0.17027439177036285, 0.0963992029428482, 0.0393357090651989, 0.11319288611412048, -1.344751238822937], [0.5664651393890381, -0.18839561939239502, -0.17181749641895294, 1.5841763019561768, -1.3345950841903687], [-1.7111785411834717, -0.38521942496299744, -0.14175596833229065, 1.7016767263412476, -1.6783640384674072], [0.6405784487724304, -0.08726877719163895, 0.05960280820727348, -0.6234130859375, -0.4169539511203766], [0.6121187806129456, -0.022591056302189827, 0.09292425215244293, -0.54499751329422, -0.6098784804344177], [0.6163545846939087, -0.22647173702716827, 0.1585519164800644, -0.4417405128479004, -0.4481619596481323], [0.7824484705924988, -0.22050625085830688, 0.033796750009059906, -0.856616199016571, -0.7410199046134949], [0.6768758296966553, -0.028904596343636513, -0.016880741342902184, -0.6063371896743774, -0.8935805559158325], [0.623208224773407, -0.15916807949543, 0.05583348497748375, -0.7030301094055176, -0.5987392067909241], [0.7172941565513611, -0.033692654222249985, -0.061120692640542984, -0.6571395993232727, -0.6833915114402771], [0.7586991190910339, -0.19693434238433838, 0.11287107318639755, -0.551567792892456, -1.0780969858169556], [1.0383981466293335, -0.3482755124568939, -0.06673906743526459, -1.046008825302124, -1.2131532430648804], [1.4148527383804321, 0.13338668644428253, -0.09223271161317825, -1.1950798034667969, 1.314595103263855], [1.2472795248031616, 0.1791093796491623, 0.17901276051998138, -1.2556347846984863, 1.035504937171936], [1.8619825839996338, -0.3894694447517395, -0.5590177178382874, -1.8859857320785522, -1.5120644569396973], [-0.6316264271736145, 0.06372859328985214, 0.10999864339828491, 0.5002366900444031, 0.958035945892334], [-0.6522424817085266, 0.040494855493307114, 0.1775333434343338, 0.6695157289505005, 0.8011301755905151], [1.2935528755187988, 0.05324524641036987, 0.21933116018772125, 0.5503108501434326, 0.891928493976593], [0.0005000148667022586, -0.10101687163114548, 0.21524837613105774, 0.009124849922955036, 0.14717617630958557], [0.7685648202896118, -0.03940030559897423, -0.3768799602985382, -0.7347736358642578, -0.35033148527145386], [0.4885207414627075, -0.07099752128124237, 0.09192050248384476, -0.5375640392303467, -0.47571972012519836], [-0.25371137261390686, -0.07957055419683456, 0.05401337891817093, 0.08846893906593323, 0.1728677898645401], [0.07829643040895462, -0.11252536624670029, 0.18653953075408936, -0.06435010582208633, -0.06215076893568039], [-0.10970547050237656, 0.12196379154920578, 0.15022523701190948, -0.00640979316085577, 0.0031814146786928177], [-0.7022321820259094, 0.12500318884849548, 0.144708052277565, 0.7203946709632874, 0.8202233910560608], [-0.19619935750961304, -0.23323075473308563, -1.461748480796814, 0.15818554162979126, 0.14638268947601318], [1.196649432182312, 0.24867978692054749, 0.28805863857269287, 0.9274877309799194, 1.1965811252593994], [1.1905838251113892, 0.11246626079082489, 0.14896753430366516, -1.1974867582321167, 1.3069530725479126], [1.5175788402557373, 0.2937346398830414, -0.5200209021568298, -1.2515385150909424, 1.8005945682525635], [-0.19035732746124268, 0.21486730873584747, 1.029194712638855, 1.0934574604034424, 1.5367929935455322], [-0.7008321285247803, 0.09877409040927887, 5.589573383331299, 1.1411055326461792, 0.5411233305931091], [1.593040943145752, -1.6256457567214966, 4.082302093505859, -1.5745213031768799, -1.668554663658142], [3.656353235244751, -2.1777327060699463, -1.5158783197402954, -3.249908208847046, -3.7247183322906494], [2.676906108856201, -0.47695857286453247, -0.23419295251369476, -2.2839629650115967, -2.7089381217956543], [1.2624465227127075, 0.9654470086097717, -0.018629131838679314, -1.2376435995101929, -1.3222638368606567], [-0.15552160143852234, -0.06726665049791336, 0.13956207036972046, 0.6921548247337341, -1.3477728366851807], [0.16817514598369598, -0.050516556948423386, -0.04397370293736458, 0.3100205063819885, -0.5026915669441223], [22.32248306274414, -31.7161922454834, 30.93157196044922, -15.276411056518555, -16.881006240844727], [10.241409301757812, -10.301358222961426, 214.19349670410156, -8.432198524475098, -10.818169593811035], [5.211933135986328, -1.2117705345153809, -0.11517979949712753, -4.731130123138428, -6.6695685386657715], [1.3681164979934692, -0.2601107358932495, -0.1056680977344513, -1.1595996618270874, -3.417778968811035], [1.7696658372879028, -0.38060086965560913, -0.115108922123909, -1.8536168336868286, -2.5825560092926025], [1.1510411500930786, 0.6241500377655029, 0.5261071920394897, -1.0945079326629639, -1.088316798210144], [0.6219227313995361, -0.020513858646154404, -0.03784460946917534, -0.4369465112686157, -0.5034139752388], [1.217210292816162, -0.3113928437232971, 0.011481613852083683, -1.1590909957885742, -1.3402185440063477], [8.165558815002441, -1.6467080116271973, -0.5691214799880981, -7.948322296142578, -8.125731468200684], [5.0130696296691895, -0.9138060212135315, -0.4191495180130005, -4.943012714385986, -4.934447765350342], [0.3188709020614624, -0.8843842148780823, -0.20676229894161224, -0.26994332671165466, -0.352206289768219], [-0.040065277367830276, 0.15352651476860046, 4.0450029373168945, -0.04284124821424484, 0.284614622592926], [4.272246360778809, -0.7543800473213196, -0.3657170832157135, -4.210742950439453, -4.138981342315674], [2.456670045852661, -0.6203760504722595, -0.10891487449407578, -2.384413719177246, -2.4492626190185547], [0.19383244216442108, -0.029840828850865364, -0.3911358118057251, -0.08039943128824234, -0.15548408031463623], [-0.13204419612884521, -0.03169817849993706, 0.11754801124334335, 0.2729119062423706, 0.3028180003166199], [3.6690213680267334, -0.6394694447517395, -0.21849144995212555, -3.573615074157715, -3.6449737548828125], [1.7674216032028198, -0.45308512449264526, 0.04269123822450638, -1.780646800994873, -1.8366631269454956], [-0.8076792359352112, 1.1249691247940063, -0.018369952216744423, -0.16646014153957367, 1.2019596099853516], [-0.728421151638031, 0.2926357686519623, 85.67181396484375, 0.2576216459274292, 1.0011396408081055]], [0.08720481395721436, 0.11038558185100555, 0.38990387320518494, -0.16435137391090393, -0.35232383012771606], [[-0.9982771873474121], [1.699432134628296], [0.2587730288505554], [0.9237991571426392], [2.0659990310668945]], [-0.4403512179851532]], "etBin": [20.0, 30.0], "etaBin": [0.0, 0.8]}, {"sequence": "{\"class_name\": \"Sequential\", \"config\": {\"name\": \"sequential_81\", \"layers\": [{\"class_name\": \"Dense\", \"config\": {\"name\": \"dense_162\", \"trainable\": true, \"batch_input_shape\": [null, 100], \"dtype\": \"float32\", \"units\": 5, \"activation\": \"tanh\", \"use_bias\": true, \"kernel_initializer\": {\"class_name\": \"GlorotUniform\", \"config\": {\"seed\": null}}, \"bias_initializer\": {\"class_name\": \"Zeros\", \"config\": {}}, \"kernel_regularizer\": null, \"bias_regularizer\": null, \"activity_regularizer\": null, \"kernel_constraint\": null, \"bias_constraint\": null}}, {\"class_name\": \"Dense\", \"config\": {\"name\": \"dense_163\", \"trainable\": true, \"dtype\": \"float32\", \"units\": 1, \"activation\": \"linear\", \"use_bias\": true, \"kernel_initializer\": {\"class_name\": \"GlorotUniform\", \"config\": {\"seed\": null}}, \"bias_initializer\": {\"class_name\": \"Zeros\", \"config\": {}}, \"kernel_regularizer\": null, \"bias_regularizer\": null, \"activity_regularizer\": null, \"kernel_constraint\": null, \"bias_constraint\": null}}, {\"class_name\": \"Activation\", \"config\": {\"name\": \"activation_81\", \"trainable\": true, \"dtype\": \"float32\", \"activation\": \"tanh\"}}]}, \"keras_version\": \"2.2.4-tf\", \"backend\": \"tensorflow\"}", "weights": [[[3.7345216274261475, -4.034578800201416, 5.159346103668213, -3.6717209815979004, 3.5467753410339355], [1.2467881441116333, -2.8648948669433594, 35.1541633605957, -3.2519774436950684, 1.10757577419281], [0.09516164660453796, 1.2369319200515747, 4.936991214752197, -0.10705411434173584, -0.22724685072898865], [-1.2880386114120483, 0.7766651511192322, -1.0335171222686768, 1.2264235019683838, -1.191080927848816], [0.1233675628900528, -0.2527725100517273, 4.454946041107178, 0.9950499534606934, -0.9860861301422119], [-0.09215376526117325, 0.16450302302837372, -0.06617751717567444, 0.17935232818126678, -0.15794923901557922], [-0.38387030363082886, 0.20560528337955475, 0.1676843762397766, 0.46538209915161133, 0.24487611651420593], [0.22136704623699188, -0.4825640916824341, 0.31472015380859375, -0.2349759042263031, 0.2696934938430786], [5.649007797241211, -5.645038604736328, 13.502420425415039, -5.674368858337402, 5.504836559295654], [8.320937156677246, -8.67527961730957, 8.59152889251709, -8.298639297485352, 8.333216667175293], [3.3210411071777344, -3.5382251739501953, 3.320260524749756, -3.341482162475586, 3.287963390350342], [-8.005674362182617, 1.1094062328338623, -69.70767211914062, 7.954043865203857, -7.508296966552734], [-22.016414642333984, -8.551180839538574, -14.206705093383789, 23.62803077697754, -22.004199981689453], [-2.7227635383605957, 2.159207820892334, -1.8787988424301147, 14.016582489013672, -14.244305610656738], [-4.512477874755859, 5.793978214263916, -4.504057884216309, 14.795228004455566, -7.483197212219238], [-12.170010566711426, 12.567521095275879, -10.43358039855957, 12.211714744567871, -12.363419532775879], [-13.110560417175293, 21.34518051147461, 5.151658058166504, 12.991756439208984, -12.418686866760254], [-13.394890785217285, 17.997461318969727, -12.908498764038086, 13.639830589294434, -13.269771575927734], [-11.860081672668457, 12.490934371948242, 0.042642150074243546, 15.74837875366211, -15.728285789489746], [-11.882612228393555, 20.61888885498047, 46.485084533691406, 15.252342224121094, -14.022972106933594], [-11.241618156433105, 11.604819297790527, -3.305981159210205, 11.193018913269043, -11.298264503479004], [-15.19281005859375, 7.749853610992432, -2.6783058643341064, 6.4999799728393555, -6.545042991638184], [-8.283674240112305, 7.535410404205322, 50.543846130371094, 13.405572891235352, -13.23757553100586], [-7.671475887298584, 7.62381649017334, -5.555281162261963, 7.684718132019043, -7.788437366485596], [-9.483206748962402, 9.419026374816895, 5.51885986328125, 9.488222122192383, -9.487085342407227], [-5.608973503112793, 7.449090480804443, -1.7451122999191284, 5.740323066711426, -5.301957130432129], [-9.609082221984863, 10.559170722961426, 51.19200897216797, 9.648273468017578, -9.547178268432617], [-7.225240707397461, 8.198874473571777, 6.820946216583252, 7.097104072570801, -7.214625835418701], [-4.512391090393066, 3.9923112392425537, -2.049197196960449, 4.514808654785156, -4.445979595184326], [-6.162830352783203, 6.714790344238281, -3.6452345848083496, 6.2566938400268555, -6.269667625427246], [-5.375390529632568, 4.49396276473999, 4.14949369430542, 5.263082981109619, -5.385995388031006], [-4.853470802307129, 4.836552619934082, -4.155259609222412, 4.880562782287598, -4.928155899047852], [-5.250823497772217, 5.358882427215576, 6.29568338394165, 5.3959808349609375, -8.366435050964355], [-8.694772720336914, 5.571419715881348, 75.26842498779297, 8.564786911010742, -9.435698509216309], [-2.613232374191284, 2.4460723400115967, -2.391713857650757, 2.580639600753784, -2.6406397819519043], [-1.9070454835891724, 1.8298667669296265, -1.6707439422607422, 1.844024419784546, -1.9565582275390625], [-1.408619999885559, 1.6095446348190308, -1.5732613801956177, 1.6049057245254517, -1.4728854894638062], [-2.9952809810638428, 1.7634888887405396, -1.7830743789672852, 7.322265625, -3.1754839420318604], [-1.6681389808654785, 1.5732319355010986, -1.6105899810791016, 1.5775401592254639, -1.6499872207641602], [-2.5984385013580322, 2.0229103565216064, -2.111509084701538, 5.028614521026611, -5.021514892578125], [-1.7866485118865967, 1.6873892545700073, 0.6226954460144043, 1.61825430393219, -1.7197437286376953], [-1.6334408521652222, 1.6036595106124878, 8.237963676452637, 1.7612730264663696, -1.6453436613082886], [-1.7296733856201172, 1.5947036743164062, -1.8454229831695557, 1.8475608825683594, -1.7466418743133545], [-1.512731671333313, 1.5394291877746582, 9.425597190856934, 1.6347745656967163, -1.6742371320724487], [-1.658565878868103, 1.5859692096710205, 9.761530876159668, 1.635501742362976, -1.5258384943008423], [0.395233154296875, -0.35905829071998596, 4.473199367523193, 1.44393789768219, -1.502768874168396], [-1.0071337223052979, -0.024126147851347923, 6.205679416656494, 0.9317613840103149, -1.110982894897461], [-0.8356487154960632, 0.8896342515945435, 0.050056926906108856, 0.7082760334014893, -0.6903749704360962], [-3.1647448539733887, 3.176344156265259, 5.593226909637451, 3.1045005321502686, -3.084965944290161], [-1.090499997138977, 1.156661868095398, -1.220834493637085, 1.1364439725875854, -1.2213988304138184], [0.1685715764760971, -0.08060583472251892, 0.10881397873163223, -0.16820409893989563, 0.03804711252450943], [-1.4753692150115967, 0.8065109252929688, -0.7714135646820068, 1.5977834463119507, -1.441607117652893], [-4.4555583000183105, 1.3973900079727173, -1.588884711265564, 4.411040782928467, -4.298354625701904], [-0.3509597182273865, -0.510861873626709, 0.3194650411605835, 0.4189985990524292, -0.2517338991165161], [-0.2994554042816162, 0.4359302818775177, -0.4348684549331665, 0.4183887839317322, -0.3865932822227478], [-0.3233237564563751, 0.39762067794799805, -0.41996169090270996, 0.28641483187675476, -0.2315531224012375], [-0.7761951684951782, 0.32665348052978516, -0.2748253047466278, 2.987426280975342, -1.0907469987869263], [-0.25506120920181274, 0.33036330342292786, -0.4224288761615753, 0.4150161147117615, -0.28378650546073914], [-0.6985504627227783, 0.400936096906662, -0.4670168459415436, 2.2330315113067627, -2.122481346130371], [-0.37359291315078735, 0.45440298318862915, 0.13668370246887207, 0.3192986845970154, -0.3661901354789734], [0.04825058579444885, -0.04080144688487053, -0.428951621055603, -0.03347160667181015, -0.0838744044303894], [1.2588118314743042, -1.3200544118881226, -0.7407737970352173, 0.7418901920318604, -0.7492140531539917], [-0.273417592048645, 0.4303045868873596, -0.30973246693611145, 0.24803586304187775, -0.3510437309741974], [0.4295600354671478, -0.5241780877113342, 0.4648626148700714, -0.27405503392219543, -0.38756421208381653], [-1.0572137832641602, 1.1126881837844849, -1.1722266674041748, 1.1282726526260376, -1.233230710029602], [-1.079765796661377, 1.1640795469284058, -0.995309591293335, 1.019964575767517, -1.1876130104064941], [-0.9370406866073608, 0.9593360424041748, -1.0094197988510132, 1.0307855606079102, -1.1387912034988403], [-0.38687044382095337, 0.6892945170402527, -0.7248361706733704, 0.4151195287704468, -0.38342905044555664], [0.13785070180892944, 0.05304785817861557, 0.10064411163330078, -0.14847250282764435, 0.09332995861768723], [-0.8939490914344788, 0.8206282258033752, -0.9480289220809937, 0.918668270111084, -0.8572157621383667], [0.42236727476119995, -0.5697295069694519, 0.813783586025238, -0.47186610102653503, 0.4659813344478607], [-0.47377902269363403, -1.2474268674850464, 1.4018617868423462, 0.2900722026824951, -0.45112183690071106], [1.2997108697891235, -1.7587417364120483, 1.1888518333435059, -1.1564518213272095, 1.0920403003692627], [0.564346194267273, -0.5401027202606201, 0.17037229239940643, -0.5001397132873535, 0.799277126789093], [-1.767938494682312, 1.752397060394287, -1.8368264436721802, 1.945541501045227, -1.9039771556854248], [-4.147715091705322, 4.288619518280029, -4.126121520996094, 4.257438659667969, -4.207663536071777], [-3.426795721054077, 1.4355027675628662, -1.7753556966781616, 3.4646811485290527, -3.464249610900879], [-1.524548053741455, 1.2926464080810547, -0.3433460295200348, 1.388458251953125, -1.5307502746582031], [-1.0866738557815552, 0.5113835334777832, 3.899223804473877, 1.1417797803878784, -1.0927616357803345], [0.3978878855705261, -0.44304582476615906, 0.4702896177768707, 0.025959646329283714, -0.010694418102502823], [-21.521791458129883, 23.589109420776367, -74.45849609375, 22.14792251586914, -21.62323760986328], [-12.572954177856445, 13.096202850341797, -15.54556655883789, 12.53096866607666, -12.601175308227539], [-6.006068229675293, 6.0328826904296875, -19.392580032348633, 6.098323345184326, -6.168701171875], [-3.3448381423950195, 3.355271100997925, -3.2060630321502686, 3.1753039360046387, -3.291900157928467], [-3.541775703430176, 3.4399945735931396, -3.568687677383423, 3.574265956878662, -3.487379550933838], [-2.3619384765625, 2.343161106109619, -2.3053228855133057, 2.334019422531128, -2.3680007457733154], [-2.049915075302124, 2.138115167617798, -2.0667121410369873, 2.0809545516967773, -2.1473426818847656], [-1.522778034210205, 1.4191045761108398, -1.4938088655471802, 2.0212433338165283, -1.6605064868927002], [-2.741197347640991, 3.8108363151550293, -5.052616596221924, 2.6341378688812256, -2.7716217041015625], [-1.5836986303329468, 1.517073631286621, -2.436340570449829, 1.4480985403060913, -1.5928905010223389], [0.055561669170856476, 0.09335937350988388, -0.7182067036628723, 0.10813896358013153, 0.1240907609462738], [0.5444148778915405, -1.0598481893539429, 0.782609760761261, -0.5956907272338867, 0.5824739336967468], [-8.754820823669434, 3.058053493499756, -4.917199611663818, 8.579354286193848, -8.788630485534668], [-4.693933010101318, 4.646342754364014, -4.6994853019714355, 4.830427169799805, -5.0478901863098145], [-0.796134352684021, 0.9279175400733948, -0.7260462045669556, 0.8287444710731506, -0.8387547731399536], [-0.21492716670036316, -0.40519410371780396, 0.32231563329696655, 0.10932881385087967, -0.18167361617088318], [-6.842883110046387, 6.8969926834106445, -6.184365272521973, 6.6804914474487305, -7.005234718322754], [-3.913209915161133, 3.9218029975891113, -3.8447208404541016, 4.0672760009765625, -3.944498062133789], [-0.607592761516571, -0.9118056893348694, -0.5122970938682556, 0.7686864733695984, -0.5674495100975037], [0.4479124844074249, -0.19735725224018097, 0.2773215174674988, -0.3649734854698181, 0.4793573319911957]], [-0.06118937209248543, 0.12588943541049957, 0.08314336836338043, -0.02149604819715023, -0.035071633756160736], [[1.076388955116272], [-0.8144214749336243], [0.8954793810844421], [-1.641765832901001], [0.8461654186248779]], [-1.1259604692459106]], "etBin": [20.0, 30.0], "etaBin": [0.8, 1.37]}, {"sequence": "{\"class_name\": \"Sequential\", \"config\": {\"name\": \"sequential_82\", \"layers\": [{\"class_name\": \"Dense\", \"config\": {\"name\": \"dense_164\", \"trainable\": true, \"batch_input_shape\": [null, 100], \"dtype\": \"float32\", \"units\": 5, \"activation\": \"tanh\", \"use_bias\": true, \"kernel_initializer\": {\"class_name\": \"GlorotUniform\", \"config\": {\"seed\": null}}, \"bias_initializer\": {\"class_name\": \"Zeros\", \"config\": {}}, \"kernel_regularizer\": null, \"bias_regularizer\": null, \"activity_regularizer\": null, \"kernel_constraint\": null, \"bias_constraint\": null}}, {\"class_name\": \"Dense\", \"config\": {\"name\": \"dense_165\", \"trainable\": true, \"dtype\": \"float32\", \"units\": 1, \"activation\": \"linear\", \"use_bias\": true, \"kernel_initializer\": {\"class_name\": \"GlorotUniform\", \"config\": {\"seed\": null}}, \"bias_initializer\": {\"class_name\": \"Zeros\", \"config\": {}}, \"kernel_regularizer\": null, \"bias_regularizer\": null, \"activity_regularizer\": null, \"kernel_constraint\": null, \"bias_constraint\": null}}, {\"class_name\": \"Activation\", \"config\": {\"name\": \"activation_82\", \"trainable\": true, \"dtype\": \"float32\", \"activation\": \"tanh\"}}]}, \"keras_version\": \"2.2.4-tf\", \"backend\": \"tensorflow\"}", "weights": [[[2.225496292114258, -2.296416759490967, 2.314589500427246, -0.7330808043479919, -2.225700616836548], [1.4464415311813354, -1.235972285270691, 1.3341548442840576, -1.5131425857543945, -1.2666699886322021], [-2.3262434005737305, 2.377908945083618, -2.209552764892578, 0.2637515664100647, 2.201568126678467], [-1.3296303749084473, 1.3456274271011353, -1.3531756401062012, 0.31630954146385193, 1.4878525733947754], [-0.7534385323524475, 0.6281629204750061, -0.664620041847229, 0.14324206113815308, 0.6681432723999023], [0.059820130467414856, -0.030486002564430237, 0.07377037405967712, -0.14195960760116577, -0.02113114856183529], [-0.1976146548986435, 0.15428897738456726, -0.11063943803310394, 0.41352999210357666, 0.02241961844265461], [0.3800308406352997, -0.3706742227077484, 0.4353030323982239, -0.16376367211341858, -0.5810199975967407], [1.9095659255981445, -1.920568585395813, 1.8106138706207275, -0.6686090230941772, -1.7608102560043335], [3.656614303588867, -2.127819061279297, 4.425589084625244, -0.6925369501113892, -3.471071720123291], [0.5539833307266235, -0.5140483379364014, 0.5831653475761414, 5.168055057525635, -0.641315221786499], [0.14730553328990936, -0.052018191665410995, 0.1818295419216156, -2.743942975997925, -0.19728288054466248], [0.6882738471031189, -0.7564346194267273, 0.7305791974067688, -4.791127681732178, -0.8117497563362122], [4.114924907684326, -4.170011043548584, 5.559594631195068, 1.6264808177947998, -3.997365713119507], [2.6481070518493652, -2.1654763221740723, 2.6994059085845947, -11.118599891662598, -2.3053526878356934], [1.1251647472381592, 1.42152738571167, 4.130260944366455, -18.580780029296875, -1.1440461874008179], [-0.9423491954803467, 5.008667469024658, -0.050255101174116135, -5.437840461730957, 1.0261797904968262], [-1.1725926399230957, 1.114104986190796, -1.1032661199569702, 2.385260581970215, 1.2094292640686035], [-2.7254555225372314, 2.8884365558624268, -2.0453310012817383, -6.4881815910339355, 2.8274788856506348], [-3.2745823860168457, 4.741449356079102, -3.164464235305786, -9.238787651062012, 3.3121845722198486], [-6.035985946655273, 12.385457038879395, -6.123425006866455, -20.292524337768555, 6.252546787261963], [-5.990476131439209, 8.692180633544922, -2.268044948577881, -1.489895224571228, 6.178717613220215], [-2.724931478500366, 2.7181484699249268, -2.675964593887329, -11.20083999633789, 2.721831798553467], [-3.354842185974121, 3.190453290939331, -2.9559149742126465, 0.2276960164308548, 2.9296302795410156], [-5.435983180999756, 5.471796035766602, -5.545501232147217, -4.476740837097168, 5.544490814208984], [-4.575803279876709, 5.158653259277344, -4.6383771896362305, -5.052154541015625, 5.061173915863037], [-4.521372318267822, 4.835082530975342, -4.474018096923828, -21.070323944091797, 4.510725498199463], [-4.203002452850342, 4.116026401519775, -4.203065395355225, -13.436394691467285, 4.125000953674316], [-4.052404403686523, 4.208341598510742, -4.191549777984619, 0.58349609375, 3.976132869720459], [-4.313134670257568, 4.361530303955078, -4.393747806549072, -11.983412742614746, 4.450052738189697], [-1.62024986743927, 2.4060146808624268, -1.6420838832855225, 0.36190906167030334, 1.6309813261032104], [-2.188978672027588, 2.275747776031494, -2.24353289604187, 16.58208656311035, 2.343489646911621], [-0.9532515406608582, 4.409945487976074, -0.37877947092056274, -11.485162734985352, 1.0174040794372559], [-1.5793733596801758, 1.6562546491622925, -1.4754714965820312, 0.37913793325424194, 1.472717523574829], [-2.728888511657715, 2.5849435329437256, -2.6983237266540527, 0.363253116607666, 2.545694589614868], [-2.0507426261901855, 2.1675264835357666, -1.6497613191604614, 0.09367647022008896, 2.0364785194396973], [1.4114097356796265, 4.494185924530029, 1.2668617963790894, -35.14000701904297, -1.2251476049423218], [-1.4210829734802246, 1.4795786142349243, -0.8028600811958313, -7.695277690887451, 1.3160042762756348], [-1.972481608390808, 2.115126371383667, -2.019408941268921, 0.19269602000713348, 2.011552095413208], [-2.155564308166504, 2.019740581512451, -2.122938632965088, 10.801156044006348, 2.22183895111084], [-0.4731464087963104, 0.6731802821159363, -1.2067019939422607, 0.5775631666183472, 0.6676942706108093], [0.01141367293894291, -0.07572882622480392, 0.256041020154953, -0.8053419589996338, -0.06872517615556717], [-0.6747884154319763, 0.6185071468353271, -0.6205580830574036, -0.35688284039497375, 0.6964340806007385], [-0.8383945226669312, 0.9029337167739868, -0.7208980321884155, -0.1610305905342102, 0.9003951549530029], [-1.1909657716751099, 1.2928794622421265, -1.1105711460113525, -11.325031280517578, 1.2576611042022705], [-0.9525322318077087, 0.7574639320373535, -0.7431604862213135, 0.21456199884414673, 0.8658999800682068], [-2.9180970191955566, 2.9408223628997803, -3.1378421783447266, 0.6299387812614441, 3.010373592376709], [-1.3475713729858398, 1.2899155616760254, -1.2558883428573608, 0.27234330773353577, 1.2465999126434326], [-1.8819397687911987, 2.0288403034210205, -1.8655272722244263, 28.9542179107666, 1.9354621171951294], [-0.4842184782028198, 1.8965932130813599, -0.32007214426994324, 29.980850219726562, 0.3146063983440399], [-0.9853329062461853, 1.1652618646621704, -1.1204584836959839, 0.14863646030426025, 1.175117015838623], [-1.174295425415039, 1.0998867750167847, -1.2605581283569336, 0.3367244005203247, 1.0977325439453125], [0.7173207402229309, -0.7934836745262146, 0.6893033981323242, 0.0729030966758728, -0.6689037084579468], [-1.4858920574188232, 1.6115632057189941, -1.571062684059143, 50.53473663330078, 1.417531967163086], [-0.599877655506134, 0.6191734671592712, 0.19909046590328217, -0.3411015272140503, 0.6256734728813171], [-1.0938286781311035, 1.0017980337142944, -0.9696604013442993, 0.33233070373535156, 0.9930431246757507], [1.0043621063232422, -1.063504934310913, 1.6782684326171875, 0.12483010441064835, -1.116599202156067], [0.2616485357284546, -0.2050151377916336, 0.08459819108247757, 0.1672981083393097, -0.2374981790781021], [-0.8109815120697021, 0.8783551454544067, -0.9492011070251465, 0.20737303793430328, 0.8972897529602051], [-1.095717430114746, 1.2209665775299072, -1.1122591495513916, 0.13743706047534943, 1.1605373620986938], [-0.633709192276001, 0.7055139541625977, -0.629037618637085, 0.11883638799190521, 0.7851126790046692], [-0.5121079087257385, 0.6339237093925476, -0.6731982231140137, -0.30552953481674194, 0.6181539297103882], [-0.5521763563156128, 0.5171458125114441, -0.6312859654426575, 0.09028647840023041, 0.5196746587753296], [-0.9604963660240173, 0.7818698883056641, -0.8830199837684631, 0.28761932253837585, 0.9202674031257629], [-0.5924913883209229, 0.5444609522819519, -0.6487038731575012, 0.06192561611533165, 0.5828946232795715], [-0.004337713122367859, 0.07218334823846817, -0.05397804453969002, -0.0696621760725975, 0.04295143485069275], [0.7723311185836792, -0.47516363859176636, 0.721815288066864, -1.778632640838623, -0.8008854389190674], [-0.13463237881660461, -0.03733324259519577, -0.07314638793468475, -0.11156909912824631, 0.0570414699614048], [0.5066469311714172, 0.2976531684398651, 6.292914867401123, -1.2605105638504028, -0.5821267366409302], [-0.9503017067909241, 0.8003123998641968, -0.6780449748039246, -0.38622385263442993, 0.9348658919334412], [3.8656208515167236, -3.848914861679077, 3.9448232650756836, 15.600303649902344, -3.8535854816436768], [-1.3345142602920532, 1.361646294593811, -1.191524624824524, 37.624656677246094, 1.1991782188415527], [1.0498989820480347, -1.017401933670044, 1.189677119255066, 1.287431001663208, -1.1136579513549805], [0.3446812331676483, -0.2159884124994278, 0.34880712628364563, 0.4609817564487457, -0.30198249220848083], [-0.02100737765431404, 0.11920875310897827, -0.02209312841296196, 44.393218994140625, -0.04328591004014015], [-5.391969203948975, 5.54302453994751, -3.6833696365356445, 5.155862808227539, 5.404237270355225], [-3.850393772125244, 3.4754154682159424, -3.716628313064575, 1.0184509754180908, 3.490281581878662], [-1.8853020668029785, 1.811496376991272, -1.6768488883972168, 0.6473156213760376, 2.3639824390411377], [-1.1604084968566895, 1.2686806917190552, 0.027357755228877068, 0.1300085484981537, 1.0941519737243652], [-1.0223872661590576, 1.0083520412445068, -0.925512969493866, 0.19635049998760223, 0.9376515746116638], [-25.81985855102539, 25.837806701660156, -25.835668563842773, 1.96364164352417, 26.048828125], [-18.47953224182129, 18.500778198242188, -20.91413688659668, 4.015514373779297, 18.477800369262695], [-2.9229748249053955, 2.8121204376220703, -2.9410884380340576, 0.6406468749046326, 3.043612480163574], [-3.1791937351226807, 3.101365804672241, -3.222025156021118, 0.6776477098464966, 3.199031114578247], [-0.049406975507736206, 0.18027226626873016, -0.18421012163162231, -1.8282580375671387, 0.070933997631073], [-0.695344090461731, 0.8380023837089539, -0.910198450088501, 0.20343895256519318, 0.8231533169746399], [1.7074275016784668, -1.6306450366973877, 1.7884737253189087, -0.34213489294052124, -1.7759456634521484], [0.6179503202438354, -0.7983099818229675, 0.5987118482589722, -0.18062055110931396, -0.7176514863967896], [0.06883230805397034, 1.1151491403579712, -0.048498641699552536, -8.086760520935059, 0.0660063847899437], [-0.9986752271652222, 1.306452989578247, -1.0577030181884766, -2.2110846042633057, 1.036063551902771], [-0.1273515671491623, 0.3227345049381256, 0.11010924726724625, -0.390298455953598, 0.10739318281412125], [0.19285407662391663, -0.16390277445316315, 0.38317108154296875, -0.8960623741149902, -0.15189248323440552], [-10.605339050292969, 10.641011238098145, -10.824515342712402, 2.206416130065918, 10.72570514678955], [-3.4428532123565674, 3.5828824043273926, -3.5669469833374023, 0.6817992925643921, 3.378037452697754], [-1.2942577600479126, 1.3703248500823975, -1.3425482511520386, 0.22034117579460144, 1.3037586212158203], [-0.8098390102386475, 0.7811148166656494, -0.6528661847114563, 0.22946813702583313, 0.6662461757659912], [0.010941626504063606, -0.049803052097558975, 0.09953877329826355, 0.10972653329372406, -0.04618802294135094], [-0.0693679228425026, 0.08314916491508484, 0.1197739690542221, 0.09145064651966095, 0.024353349581360817], [-2.5650265216827393, 2.609264612197876, -2.5190482139587402, 0.6491366624832153, 2.5994365215301514], [-0.8389295935630798, 0.9264075756072998, -0.9450883865356445, 0.21940045058727264, 0.9825119972229004]], [-0.05897640064358711, -0.06329333037137985, -0.12284792214632034, 0.2819027006626129, 0.007599356584250927], [[1.754089593887329], [-1.303932547569275], [1.0163216590881348], [-1.167357325553894], [-1.4359934329986572]], [0.0400284044444561]], "etBin": [20.0, 30.0], "etaBin": [1.37, 1.54]}, {"sequence": "{\"class_name\": \"Sequential\", \"config\": {\"name\": \"sequential_83\", \"layers\": [{\"class_name\": \"Dense\", \"config\": {\"name\": \"dense_166\", \"trainable\": true, \"batch_input_shape\": [null, 100], \"dtype\": \"float32\", \"units\": 5, \"activation\": \"tanh\", \"use_bias\": true, \"kernel_initializer\": {\"class_name\": \"GlorotUniform\", \"config\": {\"seed\": null}}, \"bias_initializer\": {\"class_name\": \"Zeros\", \"config\": {}}, \"kernel_regularizer\": null, \"bias_regularizer\": null, \"activity_regularizer\": null, \"kernel_constraint\": null, \"bias_constraint\": null}}, {\"class_name\": \"Dense\", \"config\": {\"name\": \"dense_167\", \"trainable\": true, \"dtype\": \"float32\", \"units\": 1, \"activation\": \"linear\", \"use_bias\": true, \"kernel_initializer\": {\"class_name\": \"GlorotUniform\", \"config\": {\"seed\": null}}, \"bias_initializer\": {\"class_name\": \"Zeros\", \"config\": {}}, \"kernel_regularizer\": null, \"bias_regularizer\": null, \"activity_regularizer\": null, \"kernel_constraint\": null, \"bias_constraint\": null}}, {\"class_name\": \"Activation\", \"config\": {\"name\": \"activation_83\", \"trainable\": true, \"dtype\": \"float32\", \"activation\": \"tanh\"}}]}, \"keras_version\": \"2.2.4-tf\", \"backend\": \"tensorflow\"}", "weights": [[[-1.5961039066314697, 0.7834444642066956, -106.37429809570312, 1.6082167625427246, 2.0940072536468506], [-2.231325387954712, -3.693831443786621, -14.579448699951172, 26.619953155517578, 2.1044869422912598], [0.025350039824843407, 0.4821039140224457, -0.7371843457221985, -0.9872865676879883, 0.052545398473739624], [0.27158427238464355, 1.2698758840560913, -5.334171772003174, -1.2844356298446655, -0.1872147172689438], [-0.06431165337562561, 0.6429105997085571, -2.523324489593506, -3.3006746768951416, -0.06381645798683167], [0.350448340177536, 0.7220978140830994, 0.5143980979919434, -0.6518499851226807, -0.23613642156124115], [-0.13059428334236145, 0.30604955554008484, -3.389338970184326, -0.36344361305236816, -0.2879236042499542], [0.004059840925037861, 0.05218670144677162, -0.04261920228600502, -0.24683189392089844, 0.02448049932718277], [-2.3600707054138184, -3.792445659637451, 0.7631617784500122, 6.5405426025390625, 2.322394371032715], [-2.631167411804199, -2.5328805446624756, 1.9865739345550537, 2.725327968597412, 2.6778621673583984], [-0.8927633762359619, 0.11042992025613785, 1.5354595184326172, 35.57645034790039, 0.8696848750114441], [1.025201678276062, 9.402338027954102, -9.322998046875, -0.5926283597946167, -1.1126880645751953], [4.477347373962402, 33.87744140625, -4.988816261291504, 43.761165618896484, -2.0337777137756348], [4.2418212890625, 4.605798244476318, -10.746530532836914, 38.62895965576172, -4.143416881561279], [1.916250467300415, 1.7695268392562866, -0.9151049256324768, -1.4725985527038574, -7.828464508056641], [2.3694140911102295, -9.067068099975586, -21.574657440185547, 267.95294189453125, -6.558362007141113], [1.6594396829605103, -221.27919006347656, -2.3586387634277344, -280.86572265625, -1.7109793424606323], [5.27008581161499, -92.59929656982422, -11.840102195739746, -136.97732543945312, -5.289517879486084], [7.193140029907227, 3.5038342475891113, -0.6354895234107971, 36.707557678222656, -7.153397083282471], [3.777956008911133, -39.50116729736328, -30.58831214904785, -3.5673272609710693, -3.8018887042999268], [2.475083827972412, 0.2161550372838974, -0.3720073699951172,